digraph Tree {
node [shape=box] ;
0 [label="ratio <= 0.9993\ngini = 0.3987\nsamples = 236664\nvalue = [171603, 65061]\nclass = cloudy"] ;
1 [label="gini = 0.0\nsamples = 159340\nvalue = [159340, 0]\nclass = cloudy"] ;
0 -> 1 [labeldistance=2.5, labelangle=45, headlabel="True"] ;
2 [label="Clearsky GHI <= 203.5\ngini = 0.2669\nsamples = 77324\nvalue = [12263, 65061]\nclass = clear"] ;
0 -> 2 [labeldistance=2.5, labelangle=-45, headlabel="False"] ;
3 [label="GHI <= 110.5\ngini = 0.4562\nsamples = 12937\nvalue = [4554, 8383]\nclass = clear"] ;
2 -> 3 ;
4 [label="Clearsky GHI <= 35.5\ngini = 0.4848\nsamples = 7556\nvalue = [3119, 4437]\nclass = clear"] ;
3 -> 4 ;
5 [label="Clearsky GHI <= 20.5\ngini = 0.5\nsamples = 2320\nvalue = [1156, 1164]\nclass = clear"] ;
4 -> 5 ;
6 [label="Clearsky GHI <= 11.5\ngini = 0.494\nsamples = 746\nvalue = [332, 414]\nclass = clear"] ;
5 -> 6 ;
7 [label="Clearsky GHI <= 10.5\ngini = 0.4444\nsamples = 33\nvalue = [22, 11]\nclass = cloudy"] ;
6 -> 7 ;
8 [label="gini = 0.5\nsamples = 4\nvalue = [2, 2]\nclass = cloudy"] ;
7 -> 8 ;
9 [label="gini = 0.4281\nsamples = 29\nvalue = [20, 9]\nclass = cloudy"] ;
7 -> 9 ;
10 [label="Clearsky GHI <= 14.5\ngini = 0.4915\nsamples = 713\nvalue = [310, 403]\nclass = clear"] ;
6 -> 10 ;
11 [label="Clearsky GHI <= 12.5\ngini = 0.4973\nsamples = 205\nvalue = [95, 110]\nclass = clear"] ;
10 -> 11 ;
12 [label="gini = 0.4888\nsamples = 40\nvalue = [17, 23]\nclass = clear"] ;
11 -> 12 ;
13 [label="Clearsky GHI <= 13.5\ngini = 0.4985\nsamples = 165\nvalue = [78, 87]\nclass = clear"] ;
11 -> 13 ;
14 [label="gini = 0.5\nsamples = 68\nvalue = [34, 34]\nclass = cloudy"] ;
13 -> 14 ;
15 [label="gini = 0.4957\nsamples = 97\nvalue = [44, 53]\nclass = clear"] ;
13 -> 15 ;
16 [label="Clearsky GHI <= 15.5\ngini = 0.4882\nsamples = 508\nvalue = [215, 293]\nclass = clear"] ;
10 -> 16 ;
17 [label="gini = 0.4694\nsamples = 93\nvalue = [35, 58]\nclass = clear"] ;
16 -> 17 ;
18 [label="GHI <= 18.5\ngini = 0.4912\nsamples = 415\nvalue = [180, 235]\nclass = clear"] ;
16 -> 18 ;
19 [label="GHI <= 16.5\ngini = 0.4944\nsamples = 275\nvalue = [123, 152]\nclass = clear"] ;
18 -> 19 ;
20 [label="gini = 0.4855\nsamples = 94\nvalue = [39, 55]\nclass = clear"] ;
19 -> 20 ;
21 [label="GHI <= 17.5\ngini = 0.4974\nsamples = 181\nvalue = [84, 97]\nclass = clear"] ;
19 -> 21 ;
22 [label="gini = 0.4997\nsamples = 84\nvalue = [41, 43]\nclass = clear"] ;
21 -> 22 ;
23 [label="gini = 0.4936\nsamples = 97\nvalue = [43, 54]\nclass = clear"] ;
21 -> 23 ;
24 [label="GHI <= 19.5\ngini = 0.4828\nsamples = 140\nvalue = [57, 83]\nclass = clear"] ;
18 -> 24 ;
25 [label="gini = 0.4747\nsamples = 80\nvalue = [31, 49]\nclass = clear"] ;
24 -> 25 ;
26 [label="gini = 0.4911\nsamples = 60\nvalue = [26, 34]\nclass = clear"] ;
24 -> 26 ;
27 [label="Clearsky GHI <= 28.5\ngini = 0.4989\nsamples = 1574\nvalue = [824, 750]\nclass = cloudy"] ;
5 -> 27 ;
28 [label="GHI <= 22.5\ngini = 0.4951\nsamples = 886\nvalue = [487, 399]\nclass = cloudy"] ;
27 -> 28 ;
29 [label="Clearsky GHI <= 21.5\ngini = 0.4999\nsamples = 193\nvalue = [95, 98]\nclass = clear"] ;
28 -> 29 ;
30 [label="gini = 0.4997\nsamples = 86\nvalue = [42, 44]\nclass = clear"] ;
29 -> 30 ;
31 [label="gini = 0.5\nsamples = 107\nvalue = [53, 54]\nclass = clear"] ;
29 -> 31 ;
32 [label="Clearsky GHI <= 26.5\ngini = 0.4914\nsamples = 693\nvalue = [392, 301]\nclass = cloudy"] ;
28 -> 32 ;
33 [label="GHI <= 24.5\ngini = 0.4863\nsamples = 489\nvalue = [285, 204]\nclass = cloudy"] ;
32 -> 33 ;
34 [label="Clearsky GHI <= 23.5\ngini = 0.4806\nsamples = 269\nvalue = [161, 108]\nclass = cloudy"] ;
33 -> 34 ;
35 [label="gini = 0.4775\nsamples = 132\nvalue = [80, 52]\nclass = cloudy"] ;
34 -> 35 ;
36 [label="gini = 0.4834\nsamples = 137\nvalue = [81, 56]\nclass = cloudy"] ;
34 -> 36 ;
37 [label="Clearsky GHI <= 25.5\ngini = 0.4919\nsamples = 220\nvalue = [124, 96]\nclass = cloudy"] ;
33 -> 37 ;
38 [label="gini = 0.4929\nsamples = 109\nvalue = [61, 48]\nclass = cloudy"] ;
37 -> 38 ;
39 [label="gini = 0.4909\nsamples = 111\nvalue = [63, 48]\nclass = cloudy"] ;
37 -> 39 ;
40 [label="Clearsky GHI <= 27.5\ngini = 0.4988\nsamples = 204\nvalue = [107, 97]\nclass = cloudy"] ;
32 -> 40 ;
41 [label="gini = 0.4998\nsamples = 96\nvalue = [49, 47]\nclass = cloudy"] ;
40 -> 41 ;
42 [label="gini = 0.4973\nsamples = 108\nvalue = [58, 50]\nclass = cloudy"] ;
40 -> 42 ;
43 [label="Clearsky GHI <= 30.5\ngini = 0.4998\nsamples = 688\nvalue = [337, 351]\nclass = clear"] ;
27 -> 43 ;
44 [label="Clearsky GHI <= 29.5\ngini = 0.4995\nsamples = 190\nvalue = [98, 92]\nclass = cloudy"] ;
43 -> 44 ;
45 [label="gini = 0.5\nsamples = 101\nvalue = [50, 51]\nclass = clear"] ;
44 -> 45 ;
46 [label="gini = 0.4969\nsamples = 89\nvalue = [48, 41]\nclass = cloudy"] ;
44 -> 46 ;
47 [label="Clearsky GHI <= 34.5\ngini = 0.4992\nsamples = 498\nvalue = [239, 259]\nclass = clear"] ;
43 -> 47 ;
48 [label="GHI <= 31.5\ngini = 0.4987\nsamples = 386\nvalue = [183, 203]\nclass = clear"] ;
47 -> 48 ;
49 [label="gini = 0.4998\nsamples = 92\nvalue = [45, 47]\nclass = clear"] ;
48 -> 49 ;
50 [label="GHI <= 32.5\ngini = 0.4981\nsamples = 294\nvalue = [138, 156]\nclass = clear"] ;
48 -> 50 ;
51 [label="gini = 0.4955\nsamples = 95\nvalue = [43, 52]\nclass = clear"] ;
50 -> 51 ;
52 [label="Clearsky GHI <= 33.5\ngini = 0.499\nsamples = 199\nvalue = [95, 104]\nclass = clear"] ;
50 -> 52 ;
53 [label="gini = 0.4987\nsamples = 116\nvalue = [55, 61]\nclass = clear"] ;
52 -> 53 ;
54 [label="gini = 0.4993\nsamples = 83\nvalue = [40, 43]\nclass = clear"] ;
52 -> 54 ;
55 [label="gini = 0.5\nsamples = 112\nvalue = [56, 56]\nclass = cloudy"] ;
47 -> 55 ;
56 [label="Clearsky GHI <= 109.5\ngini = 0.4687\nsamples = 5236\nvalue = [1963, 3273]\nclass = clear"] ;
4 -> 56 ;
57 [label="GHI <= 46.5\ngini = 0.468\nsamples = 5164\nvalue = [1929, 3235]\nclass = clear"] ;
56 -> 57 ;
58 [label="GHI <= 39.5\ngini = 0.4795\nsamples = 835\nvalue = [333, 502]\nclass = clear"] ;
57 -> 58 ;
59 [label="Clearsky GHI <= 37.5\ngini = 0.4635\nsamples = 285\nvalue = [104, 181]\nclass = clear"] ;
58 -> 59 ;
60 [label="Clearsky GHI <= 36.5\ngini = 0.4805\nsamples = 157\nvalue = [63, 94]\nclass = clear"] ;
59 -> 60 ;
61 [label="gini = 0.475\nsamples = 85\nvalue = [33, 52]\nclass = clear"] ;
60 -> 61 ;
62 [label="gini = 0.4861\nsamples = 72\nvalue = [30, 42]\nclass = clear"] ;
60 -> 62 ;
63 [label="Clearsky GHI <= 38.5\ngini = 0.4354\nsamples = 128\nvalue = [41, 87]\nclass = clear"] ;
59 -> 63 ;
64 [label="gini = 0.4504\nsamples = 73\nvalue = [25, 48]\nclass = clear"] ;
63 -> 64 ;
65 [label="gini = 0.4126\nsamples = 55\nvalue = [16, 39]\nclass = clear"] ;
63 -> 65 ;
66 [label="GHI <= 42.5\ngini = 0.486\nsamples = 550\nvalue = [229, 321]\nclass = clear"] ;
58 -> 66 ;
67 [label="GHI <= 41.5\ngini = 0.4915\nsamples = 207\nvalue = [90, 117]\nclass = clear"] ;
66 -> 67 ;
68 [label="Clearsky GHI <= 40.5\ngini = 0.4855\nsamples = 147\nvalue = [61, 86]\nclass = clear"] ;
67 -> 68 ;
69 [label="gini = 0.4915\nsamples = 69\nvalue = [30, 39]\nclass = clear"] ;
68 -> 69 ;
70 [label="gini = 0.479\nsamples = 78\nvalue = [31, 47]\nclass = clear"] ;
68 -> 70 ;
71 [label="gini = 0.4994\nsamples = 60\nvalue = [29, 31]\nclass = clear"] ;
67 -> 71 ;
72 [label="GHI <= 45.5\ngini = 0.482\nsamples = 343\nvalue = [139, 204]\nclass = clear"] ;
66 -> 72 ;
73 [label="Clearsky GHI <= 44.5\ngini = 0.4756\nsamples = 249\nvalue = [97, 152]\nclass = clear"] ;
72 -> 73 ;
74 [label="GHI <= 43.5\ngini = 0.4717\nsamples = 168\nvalue = [64, 104]\nclass = clear"] ;
73 -> 74 ;
75 [label="gini = 0.4734\nsamples = 78\nvalue = [30, 48]\nclass = clear"] ;
74 -> 75 ;
76 [label="gini = 0.4701\nsamples = 90\nvalue = [34, 56]\nclass = clear"] ;
74 -> 76 ;
77 [label="gini = 0.4829\nsamples = 81\nvalue = [33, 48]\nclass = clear"] ;
73 -> 77 ;
78 [label="gini = 0.4943\nsamples = 94\nvalue = [42, 52]\nclass = clear"] ;
72 -> 78 ;
79 [label="Clearsky GHI <= 91.5\ngini = 0.4655\nsamples = 4329\nvalue = [1596, 2733]\nclass = clear"] ;
57 -> 79 ;
80 [label="Clearsky GHI <= 68.5\ngini = 0.4616\nsamples = 3168\nvalue = [1145, 2023]\nclass = clear"] ;
79 -> 80 ;
81 [label="GHI <= 63.5\ngini = 0.4693\nsamples = 1773\nvalue = [667, 1106]\nclass = clear"] ;
80 -> 81 ;
82 [label="GHI <= 62.5\ngini = 0.4657\nsamples = 1363\nvalue = [503, 860]\nclass = clear"] ;
81 -> 82 ;
83 [label="Clearsky GHI <= 60.5\ngini = 0.4676\nsamples = 1280\nvalue = [477, 803]\nclass = clear"] ;
82 -> 83 ;
84 [label="GHI <= 59.5\ngini = 0.4652\nsamples = 1114\nvalue = [410, 704]\nclass = clear"] ;
83 -> 84 ;
85 [label="GHI <= 58.5\ngini = 0.4691\nsamples = 1033\nvalue = [388, 645]\nclass = clear"] ;
84 -> 85 ;
86 [label="Clearsky GHI <= 57.5\ngini = 0.4661\nsamples = 952\nvalue = [352, 600]\nclass = clear"] ;
85 -> 86 ;
87 [label="GHI <= 53.5\ngini = 0.4689\nsamples = 882\nvalue = [331, 551]\nclass = clear"] ;
86 -> 87 ;
88 [label="GHI <= 52.5\ngini = 0.4635\nsamples = 570\nvalue = [208, 362]\nclass = clear"] ;
87 -> 88 ;
89 [label="GHI <= 51.5\ngini = 0.4665\nsamples = 491\nvalue = [182, 309]\nclass = clear"] ;
88 -> 89 ;
90 [label="Clearsky GHI <= 47.5\ngini = 0.4615\nsamples = 418\nvalue = [151, 267]\nclass = clear"] ;
89 -> 90 ;
91 [label="gini = 0.4694\nsamples = 101\nvalue = [38, 63]\nclass = clear"] ;
90 -> 91 ;
92 [label="Clearsky GHI <= 48.5\ngini = 0.4588\nsamples = 317\nvalue = [113, 204]\nclass = clear"] ;
90 -> 92 ;
93 [label="gini = 0.4444\nsamples = 84\nvalue = [28, 56]\nclass = clear"] ;
92 -> 93 ;
94 [label="GHI <= 50.5\ngini = 0.4634\nsamples = 233\nvalue = [85, 148]\nclass = clear"] ;
92 -> 94 ;
95 [label="Clearsky GHI <= 49.5\ngini = 0.4647\nsamples = 158\nvalue = [58, 100]\nclass = clear"] ;
94 -> 95 ;
96 [label="gini = 0.4614\nsamples = 72\nvalue = [26, 46]\nclass = clear"] ;
95 -> 96 ;
97 [label="gini = 0.4673\nsamples = 86\nvalue = [32, 54]\nclass = clear"] ;
95 -> 97 ;
98 [label="gini = 0.4608\nsamples = 75\nvalue = [27, 48]\nclass = clear"] ;
94 -> 98 ;
99 [label="gini = 0.4886\nsamples = 73\nvalue = [31, 42]\nclass = clear"] ;
89 -> 99 ;
100 [label="gini = 0.4416\nsamples = 79\nvalue = [26, 53]\nclass = clear"] ;
88 -> 100 ;
101 [label="GHI <= 54.5\ngini = 0.4776\nsamples = 312\nvalue = [123, 189]\nclass = clear"] ;
87 -> 101 ;
102 [label="gini = 0.4861\nsamples = 84\nvalue = [35, 49]\nclass = clear"] ;
101 -> 102 ;
103 [label="Clearsky GHI <= 55.5\ngini = 0.474\nsamples = 228\nvalue = [88, 140]\nclass = clear"] ;
101 -> 103 ;
104 [label="gini = 0.4696\nsamples = 77\nvalue = [29, 48]\nclass = clear"] ;
103 -> 104 ;
105 [label="GHI <= 56.5\ngini = 0.4761\nsamples = 151\nvalue = [59, 92]\nclass = clear"] ;
103 -> 105 ;
106 [label="gini = 0.481\nsamples = 82\nvalue = [33, 49]\nclass = clear"] ;
105 -> 106 ;
107 [label="gini = 0.4696\nsamples = 69\nvalue = [26, 43]\nclass = clear"] ;
105 -> 107 ;
108 [label="gini = 0.42\nsamples = 70\nvalue = [21, 49]\nclass = clear"] ;
86 -> 108 ;
109 [label="gini = 0.4938\nsamples = 81\nvalue = [36, 45]\nclass = clear"] ;
85 -> 109 ;
110 [label="gini = 0.3957\nsamples = 81\nvalue = [22, 59]\nclass = clear"] ;
84 -> 110 ;
111 [label="Clearsky GHI <= 61.5\ngini = 0.4814\nsamples = 166\nvalue = [67, 99]\nclass = clear"] ;
83 -> 111 ;
112 [label="gini = 0.4972\nsamples = 80\nvalue = [37, 43]\nclass = clear"] ;
111 -> 112 ;
113 [label="gini = 0.4543\nsamples = 86\nvalue = [30, 56]\nclass = clear"] ;
111 -> 113 ;
114 [label="gini = 0.4303\nsamples = 83\nvalue = [26, 57]\nclass = clear"] ;
82 -> 114 ;
115 [label="GHI <= 64.5\ngini = 0.48\nsamples = 410\nvalue = [164, 246]\nclass = clear"] ;
81 -> 115 ;
116 [label="gini = 0.4903\nsamples = 86\nvalue = [37, 49]\nclass = clear"] ;
115 -> 116 ;
117 [label="Clearsky GHI <= 66.5\ngini = 0.4767\nsamples = 324\nvalue = [127, 197]\nclass = clear"] ;
115 -> 117 ;
118 [label="Clearsky GHI <= 65.5\ngini = 0.475\nsamples = 152\nvalue = [59, 93]\nclass = clear"] ;
117 -> 118 ;
119 [label="gini = 0.4743\nsamples = 75\nvalue = [29, 46]\nclass = clear"] ;
118 -> 119 ;
120 [label="gini = 0.4756\nsamples = 77\nvalue = [30, 47]\nclass = clear"] ;
118 -> 120 ;
121 [label="GHI <= 67.5\ngini = 0.4781\nsamples = 172\nvalue = [68, 104]\nclass = clear"] ;
117 -> 121 ;
122 [label="gini = 0.48\nsamples = 75\nvalue = [30, 45]\nclass = clear"] ;
121 -> 122 ;
123 [label="gini = 0.4766\nsamples = 97\nvalue = [38, 59]\nclass = clear"] ;
121 -> 123 ;
124 [label="GHI <= 75.5\ngini = 0.4505\nsamples = 1395\nvalue = [478, 917]\nclass = clear"] ;
80 -> 124 ;
125 [label="GHI <= 71.5\ngini = 0.4221\nsamples = 532\nvalue = [161, 371]\nclass = clear"] ;
124 -> 125 ;
126 [label="GHI <= 69.5\ngini = 0.4418\nsamples = 252\nvalue = [83, 169]\nclass = clear"] ;
125 -> 126 ;
127 [label="gini = 0.4032\nsamples = 75\nvalue = [21, 54]\nclass = clear"] ;
126 -> 127 ;
128 [label="GHI <= 70.5\ngini = 0.4552\nsamples = 177\nvalue = [62, 115]\nclass = clear"] ;
126 -> 128 ;
129 [label="gini = 0.4418\nsamples = 85\nvalue = [28, 57]\nclass = clear"] ;
128 -> 129 ;
130 [label="gini = 0.466\nsamples = 92\nvalue = [34, 58]\nclass = clear"] ;
128 -> 130 ;
131 [label="GHI <= 74.5\ngini = 0.4019\nsamples = 280\nvalue = [78, 202]\nclass = clear"] ;
125 -> 131 ;
132 [label="Clearsky GHI <= 73.5\ngini = 0.4099\nsamples = 212\nvalue = [61, 151]\nclass = clear"] ;
131 -> 132 ;
133 [label="Clearsky GHI <= 72.5\ngini = 0.4082\nsamples = 147\nvalue = [42, 105]\nclass = clear"] ;
132 -> 133 ;
134 [label="gini = 0.4098\nsamples = 73\nvalue = [21, 52]\nclass = clear"] ;
133 -> 134 ;
135 [label="gini = 0.4065\nsamples = 74\nvalue = [21, 53]\nclass = clear"] ;
133 -> 135 ;
136 [label="gini = 0.4137\nsamples = 65\nvalue = [19, 46]\nclass = clear"] ;
132 -> 136 ;
137 [label="gini = 0.375\nsamples = 68\nvalue = [17, 51]\nclass = clear"] ;
131 -> 137 ;
138 [label="Clearsky GHI <= 84.5\ngini = 0.4648\nsamples = 863\nvalue = [317, 546]\nclass = clear"] ;
124 -> 138 ;
139 [label="GHI <= 77.5\ngini = 0.4757\nsamples = 490\nvalue = [191, 299]\nclass = clear"] ;
138 -> 139 ;
140 [label="GHI <= 76.5\ngini = 0.4574\nsamples = 113\nvalue = [40, 73]\nclass = clear"] ;
139 -> 140 ;
141 [label="gini = 0.48\nsamples = 60\nvalue = [24, 36]\nclass = clear"] ;
140 -> 141 ;
142 [label="gini = 0.4215\nsamples = 53\nvalue = [16, 37]\nclass = clear"] ;
140 -> 142 ;
143 [label="GHI <= 78.5\ngini = 0.4802\nsamples = 377\nvalue = [151, 226]\nclass = clear"] ;
139 -> 143 ;
144 [label="gini = 0.4976\nsamples = 58\nvalue = [31, 27]\nclass = cloudy"] ;
143 -> 144 ;
145 [label="Clearsky GHI <= 83.5\ngini = 0.4693\nsamples = 319\nvalue = [120, 199]\nclass = clear"] ;
143 -> 145 ;
146 [label="Clearsky GHI <= 82.5\ngini = 0.4635\nsamples = 274\nvalue = [100, 174]\nclass = clear"] ;
145 -> 146 ;
147 [label="GHI <= 81.5\ngini = 0.4693\nsamples = 218\nvalue = [82, 136]\nclass = clear"] ;
146 -> 147 ;
148 [label="Clearsky GHI <= 79.5\ngini = 0.4612\nsamples = 158\nvalue = [57, 101]\nclass = clear"] ;
147 -> 148 ;
149 [label="gini = 0.4561\nsamples = 54\nvalue = [19, 35]\nclass = clear"] ;
148 -> 149 ;
150 [label="GHI <= 80.5\ngini = 0.4638\nsamples = 104\nvalue = [38, 66]\nclass = clear"] ;
148 -> 150 ;
151 [label="gini = 0.4675\nsamples = 51\nvalue = [19, 32]\nclass = clear"] ;
150 -> 151 ;
152 [label="gini = 0.46\nsamples = 53\nvalue = [19, 34]\nclass = clear"] ;
150 -> 152 ;
153 [label="gini = 0.4861\nsamples = 60\nvalue = [25, 35]\nclass = clear"] ;
147 -> 153 ;
154 [label="gini = 0.4362\nsamples = 56\nvalue = [18, 38]\nclass = clear"] ;
146 -> 154 ;
155 [label="gini = 0.4938\nsamples = 45\nvalue = [20, 25]\nclass = clear"] ;
145 -> 155 ;
156 [label="GHI <= 85.5\ngini = 0.4474\nsamples = 373\nvalue = [126, 247]\nclass = clear"] ;
138 -> 156 ;
157 [label="gini = 0.362\nsamples = 59\nvalue = [14, 45]\nclass = clear"] ;
156 -> 157 ;
158 [label="GHI <= 90.5\ngini = 0.4589\nsamples = 314\nvalue = [112, 202]\nclass = clear"] ;
156 -> 158 ;
159 [label="GHI <= 89.5\ngini = 0.4661\nsamples = 265\nvalue = [98, 167]\nclass = clear"] ;
158 -> 159 ;
160 [label="GHI <= 87.5\ngini = 0.4572\nsamples = 212\nvalue = [75, 137]\nclass = clear"] ;
159 -> 160 ;
161 [label="GHI <= 86.5\ngini = 0.4565\nsamples = 122\nvalue = [43, 79]\nclass = clear"] ;
160 -> 161 ;
162 [label="gini = 0.4573\nsamples = 65\nvalue = [23, 42]\nclass = clear"] ;
161 -> 162 ;
163 [label="gini = 0.4555\nsamples = 57\nvalue = [20, 37]\nclass = clear"] ;
161 -> 163 ;
164 [label="GHI <= 88.5\ngini = 0.4583\nsamples = 90\nvalue = [32, 58]\nclass = clear"] ;
160 -> 164 ;
165 [label="gini = 0.46\nsamples = 53\nvalue = [19, 34]\nclass = clear"] ;
164 -> 165 ;
166 [label="gini = 0.4558\nsamples = 37\nvalue = [13, 24]\nclass = clear"] ;
164 -> 166 ;
167 [label="gini = 0.4913\nsamples = 53\nvalue = [23, 30]\nclass = clear"] ;
159 -> 167 ;
168 [label="gini = 0.4082\nsamples = 49\nvalue = [14, 35]\nclass = clear"] ;
158 -> 168 ;
169 [label="Clearsky GHI <= 97.5\ngini = 0.4751\nsamples = 1161\nvalue = [451, 710]\nclass = clear"] ;
79 -> 169 ;
170 [label="Clearsky GHI <= 95.5\ngini = 0.4914\nsamples = 336\nvalue = [146, 190]\nclass = clear"] ;
169 -> 170 ;
171 [label="GHI <= 94.5\ngini = 0.4821\nsamples = 227\nvalue = [92, 135]\nclass = clear"] ;
170 -> 171 ;
172 [label="Clearsky GHI <= 93.5\ngini = 0.4934\nsamples = 165\nvalue = [73, 92]\nclass = clear"] ;
171 -> 172 ;
173 [label="GHI <= 92.5\ngini = 0.4964\nsamples = 118\nvalue = [54, 64]\nclass = clear"] ;
172 -> 173 ;
174 [label="gini = 0.4943\nsamples = 56\nvalue = [25, 31]\nclass = clear"] ;
173 -> 174 ;
175 [label="gini = 0.4979\nsamples = 62\nvalue = [29, 33]\nclass = clear"] ;
173 -> 175 ;
176 [label="gini = 0.4817\nsamples = 47\nvalue = [19, 28]\nclass = clear"] ;
172 -> 176 ;
177 [label="gini = 0.4251\nsamples = 62\nvalue = [19, 43]\nclass = clear"] ;
171 -> 177 ;
178 [label="GHI <= 96.5\ngini = 0.5\nsamples = 109\nvalue = [54, 55]\nclass = clear"] ;
170 -> 178 ;
179 [label="gini = 0.497\nsamples = 52\nvalue = [28, 24]\nclass = cloudy"] ;
178 -> 179 ;
180 [label="gini = 0.4962\nsamples = 57\nvalue = [26, 31]\nclass = clear"] ;
178 -> 180 ;
181 [label="GHI <= 108.5\ngini = 0.466\nsamples = 825\nvalue = [305, 520]\nclass = clear"] ;
169 -> 181 ;
182 [label="GHI <= 99.5\ngini = 0.4692\nsamples = 761\nvalue = [286, 475]\nclass = clear"] ;
181 -> 182 ;
183 [label="GHI <= 98.5\ngini = 0.4481\nsamples = 121\nvalue = [41, 80]\nclass = clear"] ;
182 -> 183 ;
184 [label="gini = 0.4555\nsamples = 57\nvalue = [20, 37]\nclass = clear"] ;
183 -> 184 ;
185 [label="gini = 0.4409\nsamples = 64\nvalue = [21, 43]\nclass = clear"] ;
183 -> 185 ;
186 [label="Clearsky GHI <= 100.5\ngini = 0.4725\nsamples = 640\nvalue = [245, 395]\nclass = clear"] ;
182 -> 186 ;
187 [label="gini = 0.4999\nsamples = 59\nvalue = [30, 29]\nclass = cloudy"] ;
186 -> 187 ;
188 [label="Clearsky GHI <= 102.5\ngini = 0.4662\nsamples = 581\nvalue = [215, 366]\nclass = clear"] ;
186 -> 188 ;
189 [label="GHI <= 101.5\ngini = 0.4518\nsamples = 145\nvalue = [50, 95]\nclass = clear"] ;
188 -> 189 ;
190 [label="gini = 0.4475\nsamples = 71\nvalue = [24, 47]\nclass = clear"] ;
189 -> 190 ;
191 [label="gini = 0.4558\nsamples = 74\nvalue = [26, 48]\nclass = clear"] ;
189 -> 191 ;
192 [label="GHI <= 106.5\ngini = 0.4704\nsamples = 436\nvalue = [165, 271]\nclass = clear"] ;
188 -> 192 ;
193 [label="Clearsky GHI <= 105.5\ngini = 0.4746\nsamples = 297\nvalue = [115, 182]\nclass = clear"] ;
192 -> 193 ;
194 [label="GHI <= 104.5\ngini = 0.4726\nsamples = 222\nvalue = [85, 137]\nclass = clear"] ;
193 -> 194 ;
195 [label="Clearsky GHI <= 103.5\ngini = 0.4713\nsamples = 142\nvalue = [54, 88]\nclass = clear"] ;
194 -> 195 ;
196 [label="gini = 0.4739\nsamples = 70\nvalue = [27, 43]\nclass = clear"] ;
195 -> 196 ;
197 [label="gini = 0.4688\nsamples = 72\nvalue = [27, 45]\nclass = clear"] ;
195 -> 197 ;
198 [label="gini = 0.4747\nsamples = 80\nvalue = [31, 49]\nclass = clear"] ;
194 -> 198 ;
199 [label="gini = 0.48\nsamples = 75\nvalue = [30, 45]\nclass = clear"] ;
193 -> 199 ;
200 [label="GHI <= 107.5\ngini = 0.4606\nsamples = 139\nvalue = [50, 89]\nclass = clear"] ;
192 -> 200 ;
201 [label="gini = 0.4567\nsamples = 68\nvalue = [24, 44]\nclass = clear"] ;
200 -> 201 ;
202 [label="gini = 0.4642\nsamples = 71\nvalue = [26, 45]\nclass = clear"] ;
200 -> 202 ;
203 [label="gini = 0.4175\nsamples = 64\nvalue = [19, 45]\nclass = clear"] ;
181 -> 203 ;
204 [label="gini = 0.4985\nsamples = 72\nvalue = [34, 38]\nclass = clear"] ;
56 -> 204 ;
205 [label="Clearsky GHI <= 134.5\ngini = 0.3911\nsamples = 5381\nvalue = [1435, 3946]\nclass = clear"] ;
3 -> 205 ;
206 [label="GHI <= 128.5\ngini = 0.4305\nsamples = 1422\nvalue = [446, 976]\nclass = clear"] ;
205 -> 206 ;
207 [label="GHI <= 123.5\ngini = 0.4351\nsamples = 1069\nvalue = [342, 727]\nclass = clear"] ;
206 -> 207 ;
208 [label="GHI <= 122.5\ngini = 0.424\nsamples = 780\nvalue = [238, 542]\nclass = clear"] ;
207 -> 208 ;
209 [label="GHI <= 121.5\ngini = 0.4281\nsamples = 741\nvalue = [230, 511]\nclass = clear"] ;
208 -> 209 ;
210 [label="GHI <= 119.5\ngini = 0.4253\nsamples = 688\nvalue = [211, 477]\nclass = clear"] ;
209 -> 210 ;
211 [label="GHI <= 114.5\ngini = 0.4307\nsamples = 583\nvalue = [183, 400]\nclass = clear"] ;
210 -> 211 ;
212 [label="Clearsky GHI <= 112.5\ngini = 0.4365\nsamples = 289\nvalue = [93, 196]\nclass = clear"] ;
211 -> 212 ;
213 [label="GHI <= 111.5\ngini = 0.4216\nsamples = 149\nvalue = [45, 104]\nclass = clear"] ;
212 -> 213 ;
214 [label="gini = 0.4412\nsamples = 70\nvalue = [23, 47]\nclass = clear"] ;
213 -> 214 ;
215 [label="gini = 0.4019\nsamples = 79\nvalue = [22, 57]\nclass = clear"] ;
213 -> 215 ;
216 [label="Clearsky GHI <= 113.5\ngini = 0.4506\nsamples = 140\nvalue = [48, 92]\nclass = clear"] ;
212 -> 216 ;
217 [label="gini = 0.4444\nsamples = 69\nvalue = [23, 46]\nclass = clear"] ;
216 -> 217 ;
218 [label="gini = 0.4563\nsamples = 71\nvalue = [25, 46]\nclass = clear"] ;
216 -> 218 ;
219 [label="Clearsky GHI <= 116.5\ngini = 0.4248\nsamples = 294\nvalue = [90, 204]\nclass = clear"] ;
211 -> 219 ;
220 [label="Clearsky GHI <= 115.5\ngini = 0.4132\nsamples = 120\nvalue = [35, 85]\nclass = clear"] ;
219 -> 220 ;
221 [label="gini = 0.4137\nsamples = 65\nvalue = [19, 46]\nclass = clear"] ;
220 -> 221 ;
222 [label="gini = 0.4126\nsamples = 55\nvalue = [16, 39]\nclass = clear"] ;
220 -> 222 ;
223 [label="GHI <= 117.5\ngini = 0.4324\nsamples = 174\nvalue = [55, 119]\nclass = clear"] ;
219 -> 223 ;
224 [label="gini = 0.4403\nsamples = 55\nvalue = [18, 37]\nclass = clear"] ;
223 -> 224 ;
225 [label="GHI <= 118.5\ngini = 0.4285\nsamples = 119\nvalue = [37, 82]\nclass = clear"] ;
223 -> 225 ;
226 [label="gini = 0.4297\nsamples = 64\nvalue = [20, 44]\nclass = clear"] ;
225 -> 226 ;
227 [label="gini = 0.4271\nsamples = 55\nvalue = [17, 38]\nclass = clear"] ;
225 -> 227 ;
228 [label="Clearsky GHI <= 120.5\ngini = 0.3911\nsamples = 105\nvalue = [28, 77]\nclass = clear"] ;
210 -> 228 ;
229 [label="gini = 0.3799\nsamples = 51\nvalue = [13, 38]\nclass = clear"] ;
228 -> 229 ;
230 [label="gini = 0.4012\nsamples = 54\nvalue = [15, 39]\nclass = clear"] ;
228 -> 230 ;
231 [label="gini = 0.46\nsamples = 53\nvalue = [19, 34]\nclass = clear"] ;
209 -> 231 ;
232 [label="gini = 0.3261\nsamples = 39\nvalue = [8, 31]\nclass = clear"] ;
208 -> 232 ;
233 [label="Clearsky GHI <= 125.5\ngini = 0.4607\nsamples = 289\nvalue = [104, 185]\nclass = clear"] ;
207 -> 233 ;
234 [label="GHI <= 124.5\ngini = 0.489\nsamples = 108\nvalue = [46, 62]\nclass = clear"] ;
233 -> 234 ;
235 [label="gini = 0.4483\nsamples = 56\nvalue = [19, 37]\nclass = clear"] ;
234 -> 235 ;
236 [label="gini = 0.4993\nsamples = 52\nvalue = [27, 25]\nclass = cloudy"] ;
234 -> 236 ;
237 [label="Clearsky GHI <= 126.5\ngini = 0.4355\nsamples = 181\nvalue = [58, 123]\nclass = clear"] ;
233 -> 237 ;
238 [label="gini = 0.3888\nsamples = 53\nvalue = [14, 39]\nclass = clear"] ;
237 -> 238 ;
239 [label="Clearsky GHI <= 127.5\ngini = 0.4512\nsamples = 128\nvalue = [44, 84]\nclass = clear"] ;
237 -> 239 ;
240 [label="gini = 0.4667\nsamples = 62\nvalue = [23, 39]\nclass = clear"] ;
239 -> 240 ;
241 [label="gini = 0.4339\nsamples = 66\nvalue = [21, 45]\nclass = clear"] ;
239 -> 241 ;
242 [label="GHI <= 130.5\ngini = 0.4156\nsamples = 353\nvalue = [104, 249]\nclass = clear"] ;
206 -> 242 ;
243 [label="GHI <= 129.5\ngini = 0.4052\nsamples = 124\nvalue = [35, 89]\nclass = clear"] ;
242 -> 243 ;
244 [label="gini = 0.41\nsamples = 66\nvalue = [19, 47]\nclass = clear"] ;
243 -> 244 ;
245 [label="gini = 0.3995\nsamples = 58\nvalue = [16, 42]\nclass = clear"] ;
243 -> 245 ;
246 [label="Clearsky GHI <= 131.5\ngini = 0.421\nsamples = 229\nvalue = [69, 160]\nclass = clear"] ;
242 -> 246 ;
247 [label="gini = 0.4297\nsamples = 64\nvalue = [20, 44]\nclass = clear"] ;
246 -> 247 ;
248 [label="GHI <= 132.5\ngini = 0.4176\nsamples = 165\nvalue = [49, 116]\nclass = clear"] ;
246 -> 248 ;
249 [label="gini = 0.4186\nsamples = 57\nvalue = [17, 40]\nclass = clear"] ;
248 -> 249 ;
250 [label="GHI <= 133.5\ngini = 0.417\nsamples = 108\nvalue = [32, 76]\nclass = clear"] ;
248 -> 250 ;
251 [label="gini = 0.4152\nsamples = 51\nvalue = [15, 36]\nclass = clear"] ;
250 -> 251 ;
252 [label="gini = 0.4186\nsamples = 57\nvalue = [17, 40]\nclass = clear"] ;
250 -> 252 ;
253 [label="Clearsky GHI <= 197.5\ngini = 0.3748\nsamples = 3959\nvalue = [989, 2970]\nclass = clear"] ;
205 -> 253 ;
254 [label="Clearsky GHI <= 193.5\ngini = 0.3716\nsamples = 3576\nvalue = [882, 2694]\nclass = clear"] ;
253 -> 254 ;
255 [label="Clearsky GHI <= 184.5\ngini = 0.3764\nsamples = 3345\nvalue = [841, 2504]\nclass = clear"] ;
254 -> 255 ;
256 [label="Clearsky GHI <= 165.5\ngini = 0.369\nsamples = 2880\nvalue = [703, 2177]\nclass = clear"] ;
255 -> 256 ;
257 [label="Clearsky GHI <= 164.5\ngini = 0.38\nsamples = 1964\nvalue = [501, 1463]\nclass = clear"] ;
256 -> 257 ;
258 [label="Clearsky GHI <= 161.5\ngini = 0.3782\nsamples = 1915\nvalue = [485, 1430]\nclass = clear"] ;
257 -> 258 ;
259 [label="Clearsky GHI <= 154.5\ngini = 0.382\nsamples = 1735\nvalue = [446, 1289]\nclass = clear"] ;
258 -> 259 ;
260 [label="Clearsky GHI <= 150.5\ngini = 0.3746\nsamples = 1250\nvalue = [312, 938]\nclass = clear"] ;
259 -> 260 ;
261 [label="GHI <= 141.5\ngini = 0.3866\nsamples = 970\nvalue = [254, 716]\nclass = clear"] ;
260 -> 261 ;
262 [label="Clearsky GHI <= 139.5\ngini = 0.3677\nsamples = 449\nvalue = [109, 340]\nclass = clear"] ;
261 -> 262 ;
263 [label="GHI <= 136.5\ngini = 0.3954\nsamples = 317\nvalue = [86, 231]\nclass = clear"] ;
262 -> 263 ;
264 [label="GHI <= 135.5\ngini = 0.3673\nsamples = 132\nvalue = [32, 100]\nclass = clear"] ;
263 -> 264 ;
265 [label="gini = 0.3615\nsamples = 76\nvalue = [18, 58]\nclass = clear"] ;
264 -> 265 ;
266 [label="gini = 0.375\nsamples = 56\nvalue = [14, 42]\nclass = clear"] ;
264 -> 266 ;
267 [label="GHI <= 138.5\ngini = 0.4134\nsamples = 185\nvalue = [54, 131]\nclass = clear"] ;
263 -> 267 ;
268 [label="GHI <= 137.5\ngini = 0.4293\nsamples = 125\nvalue = [39, 86]\nclass = clear"] ;
267 -> 268 ;
269 [label="gini = 0.4121\nsamples = 62\nvalue = [18, 44]\nclass = clear"] ;
268 -> 269 ;
270 [label="gini = 0.4444\nsamples = 63\nvalue = [21, 42]\nclass = clear"] ;
268 -> 270 ;
271 [label="gini = 0.375\nsamples = 60\nvalue = [15, 45]\nclass = clear"] ;
267 -> 271 ;
272 [label="GHI <= 140.5\ngini = 0.2878\nsamples = 132\nvalue = [23, 109]\nclass = clear"] ;
262 -> 272 ;
273 [label="gini = 0.3282\nsamples = 58\nvalue = [12, 46]\nclass = clear"] ;
272 -> 273 ;
274 [label="gini = 0.2531\nsamples = 74\nvalue = [11, 63]\nclass = clear"] ;
272 -> 274 ;
275 [label="Clearsky GHI <= 145.5\ngini = 0.4017\nsamples = 521\nvalue = [145, 376]\nclass = clear"] ;
261 -> 275 ;
276 [label="GHI <= 142.5\ngini = 0.4348\nsamples = 216\nvalue = [69, 147]\nclass = clear"] ;
275 -> 276 ;
277 [label="gini = 0.4058\nsamples = 53\nvalue = [15, 38]\nclass = clear"] ;
276 -> 277 ;
278 [label="GHI <= 143.5\ngini = 0.4431\nsamples = 163\nvalue = [54, 109]\nclass = clear"] ;
276 -> 278 ;
279 [label="gini = 0.4608\nsamples = 50\nvalue = [18, 32]\nclass = clear"] ;
278 -> 279 ;
280 [label="Clearsky GHI <= 144.5\ngini = 0.4342\nsamples = 113\nvalue = [36, 77]\nclass = clear"] ;
278 -> 280 ;
281 [label="gini = 0.4357\nsamples = 53\nvalue = [17, 36]\nclass = clear"] ;
280 -> 281 ;
282 [label="gini = 0.4328\nsamples = 60\nvalue = [19, 41]\nclass = clear"] ;
280 -> 282 ;
283 [label="GHI <= 148.5\ngini = 0.3742\nsamples = 305\nvalue = [76, 229]\nclass = clear"] ;
275 -> 283 ;
284 [label="Clearsky GHI <= 146.5\ngini = 0.342\nsamples = 169\nvalue = [37, 132]\nclass = clear"] ;
283 -> 284 ;
285 [label="gini = 0.3324\nsamples = 57\nvalue = [12, 45]\nclass = clear"] ;
284 -> 285 ;
286 [label="GHI <= 147.5\ngini = 0.3468\nsamples = 112\nvalue = [25, 87]\nclass = clear"] ;
284 -> 286 ;
287 [label="gini = 0.3478\nsamples = 58\nvalue = [13, 45]\nclass = clear"] ;
286 -> 287 ;
288 [label="gini = 0.3457\nsamples = 54\nvalue = [12, 42]\nclass = clear"] ;
286 -> 288 ;
289 [label="GHI <= 149.5\ngini = 0.4091\nsamples = 136\nvalue = [39, 97]\nclass = clear"] ;
283 -> 289 ;
290 [label="gini = 0.4144\nsamples = 58\nvalue = [17, 41]\nclass = clear"] ;
289 -> 290 ;
291 [label="gini = 0.405\nsamples = 78\nvalue = [22, 56]\nclass = clear"] ;
289 -> 291 ;
292 [label="Clearsky GHI <= 153.5\ngini = 0.3285\nsamples = 280\nvalue = [58, 222]\nclass = clear"] ;
260 -> 292 ;
293 [label="GHI <= 152.5\ngini = 0.3258\nsamples = 205\nvalue = [42, 163]\nclass = clear"] ;
292 -> 293 ;
294 [label="Clearsky GHI <= 151.5\ngini = 0.3302\nsamples = 139\nvalue = [29, 110]\nclass = clear"] ;
293 -> 294 ;
295 [label="gini = 0.3343\nsamples = 66\nvalue = [14, 52]\nclass = clear"] ;
294 -> 295 ;
296 [label="gini = 0.3265\nsamples = 73\nvalue = [15, 58]\nclass = clear"] ;
294 -> 296 ;
297 [label="gini = 0.3163\nsamples = 66\nvalue = [13, 53]\nclass = clear"] ;
293 -> 297 ;
298 [label="gini = 0.3356\nsamples = 75\nvalue = [16, 59]\nclass = clear"] ;
292 -> 298 ;
299 [label="GHI <= 160.5\ngini = 0.3999\nsamples = 485\nvalue = [134, 351]\nclass = clear"] ;
259 -> 299 ;
300 [label="GHI <= 159.5\ngini = 0.3947\nsamples = 425\nvalue = [115, 310]\nclass = clear"] ;
299 -> 300 ;
301 [label="Clearsky GHI <= 157.5\ngini = 0.4072\nsamples = 369\nvalue = [105, 264]\nclass = clear"] ;
300 -> 301 ;
302 [label="GHI <= 155.5\ngini = 0.3899\nsamples = 211\nvalue = [56, 155]\nclass = clear"] ;
301 -> 302 ;
303 [label="gini = 0.41\nsamples = 66\nvalue = [19, 47]\nclass = clear"] ;
302 -> 303 ;
304 [label="Clearsky GHI <= 156.5\ngini = 0.3801\nsamples = 145\nvalue = [37, 108]\nclass = clear"] ;
302 -> 304 ;
305 [label="gini = 0.375\nsamples = 72\nvalue = [18, 54]\nclass = clear"] ;
304 -> 305 ;
306 [label="gini = 0.3851\nsamples = 73\nvalue = [19, 54]\nclass = clear"] ;
304 -> 306 ;
307 [label="Clearsky GHI <= 158.5\ngini = 0.4279\nsamples = 158\nvalue = [49, 109]\nclass = clear"] ;
301 -> 307 ;
308 [label="gini = 0.4342\nsamples = 91\nvalue = [29, 62]\nclass = clear"] ;
307 -> 308 ;
309 [label="gini = 0.4188\nsamples = 67\nvalue = [20, 47]\nclass = clear"] ;
307 -> 309 ;
310 [label="gini = 0.2934\nsamples = 56\nvalue = [10, 46]\nclass = clear"] ;
300 -> 310 ;
311 [label="gini = 0.4328\nsamples = 60\nvalue = [19, 41]\nclass = clear"] ;
299 -> 311 ;
312 [label="Clearsky GHI <= 163.5\ngini = 0.3394\nsamples = 180\nvalue = [39, 141]\nclass = clear"] ;
258 -> 312 ;
313 [label="Clearsky GHI <= 162.5\ngini = 0.3488\nsamples = 120\nvalue = [27, 93]\nclass = clear"] ;
312 -> 313 ;
314 [label="gini = 0.32\nsamples = 55\nvalue = [11, 44]\nclass = clear"] ;
313 -> 314 ;
315 [label="gini = 0.3711\nsamples = 65\nvalue = [16, 49]\nclass = clear"] ;
313 -> 315 ;
316 [label="gini = 0.32\nsamples = 60\nvalue = [12, 48]\nclass = clear"] ;
312 -> 316 ;
317 [label="gini = 0.4398\nsamples = 49\nvalue = [16, 33]\nclass = clear"] ;
257 -> 317 ;
318 [label="GHI <= 168.5\ngini = 0.3438\nsamples = 916\nvalue = [202, 714]\nclass = clear"] ;
256 -> 318 ;
319 [label="Clearsky GHI <= 166.5\ngini = 0.2681\nsamples = 163\nvalue = [26, 137]\nclass = clear"] ;
318 -> 319 ;
320 [label="gini = 0.2449\nsamples = 56\nvalue = [8, 48]\nclass = clear"] ;
319 -> 320 ;
321 [label="GHI <= 167.5\ngini = 0.2798\nsamples = 107\nvalue = [18, 89]\nclass = clear"] ;
319 -> 321 ;
322 [label="gini = 0.2825\nsamples = 47\nvalue = [8, 39]\nclass = clear"] ;
321 -> 322 ;
323 [label="gini = 0.2778\nsamples = 60\nvalue = [10, 50]\nclass = clear"] ;
321 -> 323 ;
324 [label="GHI <= 169.5\ngini = 0.3582\nsamples = 753\nvalue = [176, 577]\nclass = clear"] ;
318 -> 324 ;
325 [label="gini = 0.4183\nsamples = 47\nvalue = [14, 33]\nclass = clear"] ;
324 -> 325 ;
326 [label="GHI <= 176.5\ngini = 0.3536\nsamples = 706\nvalue = [162, 544]\nclass = clear"] ;
324 -> 326 ;
327 [label="GHI <= 175.5\ngini = 0.3333\nsamples = 336\nvalue = [71, 265]\nclass = clear"] ;
326 -> 327 ;
328 [label="GHI <= 171.5\ngini = 0.3504\nsamples = 287\nvalue = [65, 222]\nclass = clear"] ;
327 -> 328 ;
329 [label="Clearsky GHI <= 170.5\ngini = 0.3223\nsamples = 104\nvalue = [21, 83]\nclass = clear"] ;
328 -> 329 ;
330 [label="gini = 0.3394\nsamples = 60\nvalue = [13, 47]\nclass = clear"] ;
329 -> 330 ;
331 [label="gini = 0.2975\nsamples = 44\nvalue = [8, 36]\nclass = clear"] ;
329 -> 331 ;
332 [label="Clearsky GHI <= 172.5\ngini = 0.3653\nsamples = 183\nvalue = [44, 139]\nclass = clear"] ;
328 -> 332 ;
333 [label="gini = 0.3995\nsamples = 58\nvalue = [16, 42]\nclass = clear"] ;
332 -> 333 ;
334 [label="Clearsky GHI <= 174.5\ngini = 0.3476\nsamples = 125\nvalue = [28, 97]\nclass = clear"] ;
332 -> 334 ;
335 [label="GHI <= 173.5\ngini = 0.3533\nsamples = 96\nvalue = [22, 74]\nclass = clear"] ;
334 -> 335 ;
336 [label="gini = 0.355\nsamples = 52\nvalue = [12, 40]\nclass = clear"] ;
335 -> 336 ;
337 [label="gini = 0.3512\nsamples = 44\nvalue = [10, 34]\nclass = clear"] ;
335 -> 337 ;
338 [label="gini = 0.3282\nsamples = 29\nvalue = [6, 23]\nclass = clear"] ;
334 -> 338 ;
339 [label="gini = 0.2149\nsamples = 49\nvalue = [6, 43]\nclass = clear"] ;
327 -> 339 ;
340 [label="GHI <= 177.5\ngini = 0.3709\nsamples = 370\nvalue = [91, 279]\nclass = clear"] ;
326 -> 340 ;
341 [label="gini = 0.4537\nsamples = 46\nvalue = [16, 30]\nclass = clear"] ;
340 -> 341 ;
342 [label="GHI <= 179.5\ngini = 0.3558\nsamples = 324\nvalue = [75, 249]\nclass = clear"] ;
340 -> 342 ;
343 [label="GHI <= 178.5\ngini = 0.317\nsamples = 81\nvalue = [16, 65]\nclass = clear"] ;
342 -> 343 ;
344 [label="gini = 0.3628\nsamples = 42\nvalue = [10, 32]\nclass = clear"] ;
343 -> 344 ;
345 [label="gini = 0.2604\nsamples = 39\nvalue = [6, 33]\nclass = clear"] ;
343 -> 345 ;
346 [label="Clearsky GHI <= 180.5\ngini = 0.3677\nsamples = 243\nvalue = [59, 184]\nclass = clear"] ;
342 -> 346 ;
347 [label="gini = 0.4218\nsamples = 43\nvalue = [13, 30]\nclass = clear"] ;
346 -> 347 ;
348 [label="Clearsky GHI <= 181.5\ngini = 0.3542\nsamples = 200\nvalue = [46, 154]\nclass = clear"] ;
346 -> 348 ;
349 [label="gini = 0.3107\nsamples = 52\nvalue = [10, 42]\nclass = clear"] ;
348 -> 349 ;
350 [label="GHI <= 183.5\ngini = 0.3682\nsamples = 148\nvalue = [36, 112]\nclass = clear"] ;
348 -> 350 ;
351 [label="Clearsky GHI <= 182.5\ngini = 0.38\nsamples = 98\nvalue = [25, 73]\nclass = clear"] ;
350 -> 351 ;
352 [label="gini = 0.3807\nsamples = 43\nvalue = [11, 32]\nclass = clear"] ;
351 -> 352 ;
353 [label="gini = 0.3795\nsamples = 55\nvalue = [14, 41]\nclass = clear"] ;
351 -> 353 ;
354 [label="gini = 0.3432\nsamples = 50\nvalue = [11, 39]\nclass = clear"] ;
350 -> 354 ;
355 [label="Clearsky GHI <= 192.5\ngini = 0.4174\nsamples = 465\nvalue = [138, 327]\nclass = clear"] ;
255 -> 355 ;
356 [label="GHI <= 186.5\ngini = 0.406\nsamples = 392\nvalue = [111, 281]\nclass = clear"] ;
355 -> 356 ;
357 [label="GHI <= 185.5\ngini = 0.4422\nsamples = 100\nvalue = [33, 67]\nclass = clear"] ;
356 -> 357 ;
358 [label="gini = 0.4583\nsamples = 45\nvalue = [16, 29]\nclass = clear"] ;
357 -> 358 ;
359 [label="gini = 0.4271\nsamples = 55\nvalue = [17, 38]\nclass = clear"] ;
357 -> 359 ;
360 [label="Clearsky GHI <= 187.5\ngini = 0.3915\nsamples = 292\nvalue = [78, 214]\nclass = clear"] ;
356 -> 360 ;
361 [label="gini = 0.3153\nsamples = 51\nvalue = [10, 41]\nclass = clear"] ;
360 -> 361 ;
362 [label="GHI <= 190.5\ngini = 0.4051\nsamples = 241\nvalue = [68, 173]\nclass = clear"] ;
360 -> 362 ;
363 [label="Clearsky GHI <= 188.5\ngini = 0.4248\nsamples = 147\nvalue = [45, 102]\nclass = clear"] ;
362 -> 363 ;
364 [label="gini = 0.4314\nsamples = 54\nvalue = [17, 37]\nclass = clear"] ;
363 -> 364 ;
365 [label="Clearsky GHI <= 189.5\ngini = 0.4209\nsamples = 93\nvalue = [28, 65]\nclass = clear"] ;
363 -> 365 ;
366 [label="gini = 0.4114\nsamples = 38\nvalue = [11, 27]\nclass = clear"] ;
365 -> 366 ;
367 [label="gini = 0.4271\nsamples = 55\nvalue = [17, 38]\nclass = clear"] ;
365 -> 367 ;
368 [label="Clearsky GHI <= 191.5\ngini = 0.3696\nsamples = 94\nvalue = [23, 71]\nclass = clear"] ;
362 -> 368 ;
369 [label="gini = 0.3569\nsamples = 43\nvalue = [10, 33]\nclass = clear"] ;
368 -> 369 ;
370 [label="gini = 0.3799\nsamples = 51\nvalue = [13, 38]\nclass = clear"] ;
368 -> 370 ;
371 [label="gini = 0.4661\nsamples = 73\nvalue = [27, 46]\nclass = clear"] ;
355 -> 371 ;
372 [label="GHI <= 194.5\ngini = 0.292\nsamples = 231\nvalue = [41, 190]\nclass = clear"] ;
254 -> 372 ;
373 [label="gini = 0.2293\nsamples = 53\nvalue = [7, 46]\nclass = clear"] ;
372 -> 373 ;
374 [label="Clearsky GHI <= 196.5\ngini = 0.3091\nsamples = 178\nvalue = [34, 144]\nclass = clear"] ;
372 -> 374 ;
375 [label="Clearsky GHI <= 195.5\ngini = 0.334\nsamples = 118\nvalue = [25, 93]\nclass = clear"] ;
374 -> 375 ;
376 [label="gini = 0.32\nsamples = 50\nvalue = [10, 40]\nclass = clear"] ;
375 -> 376 ;
377 [label="gini = 0.3439\nsamples = 68\nvalue = [15, 53]\nclass = clear"] ;
375 -> 377 ;
378 [label="gini = 0.255\nsamples = 60\nvalue = [9, 51]\nclass = clear"] ;
374 -> 378 ;
379 [label="Clearsky GHI <= 200.5\ngini = 0.4026\nsamples = 383\nvalue = [107, 276]\nclass = clear"] ;
253 -> 379 ;
380 [label="GHI <= 198.5\ngini = 0.4309\nsamples = 191\nvalue = [60, 131]\nclass = clear"] ;
379 -> 380 ;
381 [label="gini = 0.4585\nsamples = 59\nvalue = [21, 38]\nclass = clear"] ;
380 -> 381 ;
382 [label="GHI <= 199.5\ngini = 0.4163\nsamples = 132\nvalue = [39, 93]\nclass = clear"] ;
380 -> 382 ;
383 [label="gini = 0.4063\nsamples = 67\nvalue = [19, 48]\nclass = clear"] ;
382 -> 383 ;
384 [label="gini = 0.426\nsamples = 65\nvalue = [20, 45]\nclass = clear"] ;
382 -> 384 ;
385 [label="GHI <= 202.5\ngini = 0.3697\nsamples = 192\nvalue = [47, 145]\nclass = clear"] ;
379 -> 385 ;
386 [label="Clearsky GHI <= 201.5\ngini = 0.3537\nsamples = 122\nvalue = [28, 94]\nclass = clear"] ;
385 -> 386 ;
387 [label="gini = 0.3533\nsamples = 48\nvalue = [11, 37]\nclass = clear"] ;
386 -> 387 ;
388 [label="gini = 0.3539\nsamples = 74\nvalue = [17, 57]\nclass = clear"] ;
386 -> 388 ;
389 [label="gini = 0.3955\nsamples = 70\nvalue = [19, 51]\nclass = clear"] ;
385 -> 389 ;
390 [label="GHI <= 454.5\ngini = 0.2108\nsamples = 64387\nvalue = [7709, 56678]\nclass = clear"] ;
2 -> 390 ;
391 [label="Clearsky GHI <= 315.5\ngini = 0.2805\nsamples = 15153\nvalue = [2557, 12596]\nclass = clear"] ;
390 -> 391 ;
392 [label="GHI <= 294.5\ngini = 0.3128\nsamples = 6560\nvalue = [1273, 5287]\nclass = clear"] ;
391 -> 392 ;
393 [label="GHI <= 259.5\ngini = 0.3075\nsamples = 5260\nvalue = [998, 4262]\nclass = clear"] ;
392 -> 393 ;
394 [label="GHI <= 212.5\ngini = 0.3229\nsamples = 3285\nvalue = [665, 2620]\nclass = clear"] ;
393 -> 394 ;
395 [label="Clearsky GHI <= 211.5\ngini = 0.3462\nsamples = 521\nvalue = [116, 405]\nclass = clear"] ;
394 -> 395 ;
396 [label="GHI <= 207.5\ngini = 0.3355\nsamples = 469\nvalue = [100, 369]\nclass = clear"] ;
395 -> 396 ;
397 [label="Clearsky GHI <= 206.5\ngini = 0.3547\nsamples = 243\nvalue = [56, 187]\nclass = clear"] ;
396 -> 397 ;
398 [label="GHI <= 205.5\ngini = 0.3489\nsamples = 191\nvalue = [43, 148]\nclass = clear"] ;
397 -> 398 ;
399 [label="Clearsky GHI <= 204.5\ngini = 0.3474\nsamples = 143\nvalue = [32, 111]\nclass = clear"] ;
398 -> 399 ;
400 [label="gini = 0.3457\nsamples = 72\nvalue = [16, 56]\nclass = clear"] ;
399 -> 400 ;
401 [label="gini = 0.3491\nsamples = 71\nvalue = [16, 55]\nclass = clear"] ;
399 -> 401 ;
402 [label="gini = 0.3533\nsamples = 48\nvalue = [11, 37]\nclass = clear"] ;
398 -> 402 ;
403 [label="gini = 0.375\nsamples = 52\nvalue = [13, 39]\nclass = clear"] ;
397 -> 403 ;
404 [label="Clearsky GHI <= 210.5\ngini = 0.3136\nsamples = 226\nvalue = [44, 182]\nclass = clear"] ;
396 -> 404 ;
405 [label="Clearsky GHI <= 209.5\ngini = 0.2996\nsamples = 169\nvalue = [31, 138]\nclass = clear"] ;
404 -> 405 ;
406 [label="GHI <= 208.5\ngini = 0.3157\nsamples = 112\nvalue = [22, 90]\nclass = clear"] ;
405 -> 406 ;
407 [label="gini = 0.2815\nsamples = 59\nvalue = [10, 49]\nclass = clear"] ;
406 -> 407 ;
408 [label="gini = 0.3503\nsamples = 53\nvalue = [12, 41]\nclass = clear"] ;
406 -> 408 ;
409 [label="gini = 0.2659\nsamples = 57\nvalue = [9, 48]\nclass = clear"] ;
405 -> 409 ;
410 [label="gini = 0.3521\nsamples = 57\nvalue = [13, 44]\nclass = clear"] ;
404 -> 410 ;
411 [label="gini = 0.426\nsamples = 52\nvalue = [16, 36]\nclass = clear"] ;
395 -> 411 ;
412 [label="GHI <= 223.5\ngini = 0.3183\nsamples = 2764\nvalue = [549, 2215]\nclass = clear"] ;
394 -> 412 ;
413 [label="GHI <= 219.5\ngini = 0.294\nsamples = 659\nvalue = [118, 541]\nclass = clear"] ;
412 -> 413 ;
414 [label="GHI <= 215.5\ngini = 0.312\nsamples = 424\nvalue = [82, 342]\nclass = clear"] ;
413 -> 414 ;
415 [label="GHI <= 213.5\ngini = 0.2731\nsamples = 190\nvalue = [31, 159]\nclass = clear"] ;
414 -> 415 ;
416 [label="gini = 0.3157\nsamples = 56\nvalue = [11, 45]\nclass = clear"] ;
415 -> 416 ;
417 [label="Clearsky GHI <= 214.5\ngini = 0.254\nsamples = 134\nvalue = [20, 114]\nclass = clear"] ;
415 -> 417 ;
418 [label="gini = 0.256\nsamples = 73\nvalue = [11, 62]\nclass = clear"] ;
417 -> 418 ;
419 [label="gini = 0.2515\nsamples = 61\nvalue = [9, 52]\nclass = clear"] ;
417 -> 419 ;
420 [label="Clearsky GHI <= 217.5\ngini = 0.3409\nsamples = 234\nvalue = [51, 183]\nclass = clear"] ;
414 -> 420 ;
421 [label="GHI <= 216.5\ngini = 0.3641\nsamples = 117\nvalue = [28, 89]\nclass = clear"] ;
420 -> 421 ;
422 [label="gini = 0.3244\nsamples = 54\nvalue = [11, 43]\nclass = clear"] ;
421 -> 422 ;
423 [label="gini = 0.3941\nsamples = 63\nvalue = [17, 46]\nclass = clear"] ;
421 -> 423 ;
424 [label="Clearsky GHI <= 218.5\ngini = 0.3159\nsamples = 117\nvalue = [23, 94]\nclass = clear"] ;
420 -> 424 ;
425 [label="gini = 0.2778\nsamples = 60\nvalue = [10, 50]\nclass = clear"] ;
424 -> 425 ;
426 [label="gini = 0.3521\nsamples = 57\nvalue = [13, 44]\nclass = clear"] ;
424 -> 426 ;
427 [label="GHI <= 222.5\ngini = 0.2594\nsamples = 235\nvalue = [36, 199]\nclass = clear"] ;
413 -> 427 ;
428 [label="Clearsky GHI <= 220.5\ngini = 0.2726\nsamples = 172\nvalue = [28, 144]\nclass = clear"] ;
427 -> 428 ;
429 [label="gini = 0.2604\nsamples = 52\nvalue = [8, 44]\nclass = clear"] ;
428 -> 429 ;
430 [label="Clearsky GHI <= 221.5\ngini = 0.2778\nsamples = 120\nvalue = [20, 100]\nclass = clear"] ;
428 -> 430 ;
431 [label="gini = 0.2854\nsamples = 58\nvalue = [10, 48]\nclass = clear"] ;
430 -> 431 ;
432 [label="gini = 0.2706\nsamples = 62\nvalue = [10, 52]\nclass = clear"] ;
430 -> 432 ;
433 [label="gini = 0.2217\nsamples = 63\nvalue = [8, 55]\nclass = clear"] ;
427 -> 433 ;
434 [label="Clearsky GHI <= 256.5\ngini = 0.3257\nsamples = 2105\nvalue = [431, 1674]\nclass = clear"] ;
412 -> 434 ;
435 [label="GHI <= 253.5\ngini = 0.3235\nsamples = 1917\nvalue = [389, 1528]\nclass = clear"] ;
434 -> 435 ;
436 [label="Clearsky GHI <= 241.5\ngini = 0.3274\nsamples = 1741\nvalue = [359, 1382]\nclass = clear"] ;
435 -> 436 ;
437 [label="GHI <= 234.5\ngini = 0.3214\nsamples = 1044\nvalue = [210, 834]\nclass = clear"] ;
436 -> 437 ;
438 [label="GHI <= 232.5\ngini = 0.3307\nsamples = 641\nvalue = [134, 507]\nclass = clear"] ;
437 -> 438 ;
439 [label="GHI <= 229.5\ngini = 0.3191\nsamples = 517\nvalue = [103, 414]\nclass = clear"] ;
438 -> 439 ;
440 [label="Clearsky GHI <= 228.5\ngini = 0.3322\nsamples = 347\nvalue = [73, 274]\nclass = clear"] ;
439 -> 440 ;
441 [label="Clearsky GHI <= 227.5\ngini = 0.3233\nsamples = 291\nvalue = [59, 232]\nclass = clear"] ;
440 -> 441 ;
442 [label="Clearsky GHI <= 224.5\ngini = 0.3309\nsamples = 239\nvalue = [50, 189]\nclass = clear"] ;
441 -> 442 ;
443 [label="gini = 0.3128\nsamples = 67\nvalue = [13, 54]\nclass = clear"] ;
442 -> 443 ;
444 [label="Clearsky GHI <= 225.5\ngini = 0.3377\nsamples = 172\nvalue = [37, 135]\nclass = clear"] ;
442 -> 444 ;
445 [label="gini = 0.375\nsamples = 52\nvalue = [13, 39]\nclass = clear"] ;
444 -> 445 ;
446 [label="Clearsky GHI <= 226.5\ngini = 0.32\nsamples = 120\nvalue = [24, 96]\nclass = clear"] ;
444 -> 446 ;
447 [label="gini = 0.324\nsamples = 59\nvalue = [12, 47]\nclass = clear"] ;
446 -> 447 ;
448 [label="gini = 0.316\nsamples = 61\nvalue = [12, 49]\nclass = clear"] ;
446 -> 448 ;
449 [label="gini = 0.2862\nsamples = 52\nvalue = [9, 43]\nclass = clear"] ;
441 -> 449 ;
450 [label="gini = 0.375\nsamples = 56\nvalue = [14, 42]\nclass = clear"] ;
440 -> 450 ;
451 [label="GHI <= 231.5\ngini = 0.2907\nsamples = 170\nvalue = [30, 140]\nclass = clear"] ;
439 -> 451 ;
452 [label="Clearsky GHI <= 230.5\ngini = 0.2653\nsamples = 108\nvalue = [17, 91]\nclass = clear"] ;
451 -> 452 ;
453 [label="gini = 0.2645\nsamples = 51\nvalue = [8, 43]\nclass = clear"] ;
452 -> 453 ;
454 [label="gini = 0.2659\nsamples = 57\nvalue = [9, 48]\nclass = clear"] ;
452 -> 454 ;
455 [label="gini = 0.3314\nsamples = 62\nvalue = [13, 49]\nclass = clear"] ;
451 -> 455 ;
456 [label="GHI <= 233.5\ngini = 0.375\nsamples = 124\nvalue = [31, 93]\nclass = clear"] ;
438 -> 456 ;
457 [label="gini = 0.375\nsamples = 68\nvalue = [17, 51]\nclass = clear"] ;
456 -> 457 ;
458 [label="gini = 0.375\nsamples = 56\nvalue = [14, 42]\nclass = clear"] ;
456 -> 458 ;
459 [label="Clearsky GHI <= 235.5\ngini = 0.306\nsamples = 403\nvalue = [76, 327]\nclass = clear"] ;
437 -> 459 ;
460 [label="gini = 0.2524\nsamples = 54\nvalue = [8, 46]\nclass = clear"] ;
459 -> 460 ;
461 [label="GHI <= 240.5\ngini = 0.3138\nsamples = 349\nvalue = [68, 281]\nclass = clear"] ;
459 -> 461 ;
462 [label="Clearsky GHI <= 239.5\ngini = 0.3192\nsamples = 296\nvalue = [59, 237]\nclass = clear"] ;
461 -> 462 ;
463 [label="GHI <= 238.5\ngini = 0.313\nsamples = 242\nvalue = [47, 195]\nclass = clear"] ;
462 -> 463 ;
464 [label="GHI <= 237.5\ngini = 0.3225\nsamples = 193\nvalue = [39, 154]\nclass = clear"] ;
463 -> 464 ;
465 [label="Clearsky GHI <= 236.5\ngini = 0.3295\nsamples = 125\nvalue = [26, 99]\nclass = clear"] ;
464 -> 465 ;
466 [label="gini = 0.3122\nsamples = 62\nvalue = [12, 50]\nclass = clear"] ;
465 -> 466 ;
467 [label="gini = 0.3457\nsamples = 63\nvalue = [14, 49]\nclass = clear"] ;
465 -> 467 ;
468 [label="gini = 0.3093\nsamples = 68\nvalue = [13, 55]\nclass = clear"] ;
464 -> 468 ;
469 [label="gini = 0.2732\nsamples = 49\nvalue = [8, 41]\nclass = clear"] ;
463 -> 469 ;
470 [label="gini = 0.3457\nsamples = 54\nvalue = [12, 42]\nclass = clear"] ;
462 -> 470 ;
471 [label="gini = 0.282\nsamples = 53\nvalue = [9, 44]\nclass = clear"] ;
461 -> 471 ;
472 [label="Clearsky GHI <= 248.5\ngini = 0.3361\nsamples = 697\nvalue = [149, 548]\nclass = clear"] ;
436 -> 472 ;
473 [label="Clearsky GHI <= 247.5\ngini = 0.3524\nsamples = 381\nvalue = [87, 294]\nclass = clear"] ;
472 -> 473 ;
474 [label="GHI <= 245.5\ngini = 0.343\nsamples = 323\nvalue = [71, 252]\nclass = clear"] ;
473 -> 474 ;
475 [label="Clearsky GHI <= 242.5\ngini = 0.3535\nsamples = 218\nvalue = [50, 168]\nclass = clear"] ;
474 -> 475 ;
476 [label="gini = 0.375\nsamples = 48\nvalue = [12, 36]\nclass = clear"] ;
475 -> 476 ;
477 [label="Clearsky GHI <= 243.5\ngini = 0.3471\nsamples = 170\nvalue = [38, 132]\nclass = clear"] ;
475 -> 477 ;
478 [label="gini = 0.3133\nsamples = 36\nvalue = [7, 29]\nclass = clear"] ;
477 -> 478 ;
479 [label="GHI <= 244.5\ngini = 0.3556\nsamples = 134\nvalue = [31, 103]\nclass = clear"] ;
477 -> 479 ;
480 [label="gini = 0.3628\nsamples = 63\nvalue = [15, 48]\nclass = clear"] ;
479 -> 480 ;
481 [label="gini = 0.3491\nsamples = 71\nvalue = [16, 55]\nclass = clear"] ;
479 -> 481 ;
482 [label="Clearsky GHI <= 246.5\ngini = 0.32\nsamples = 105\nvalue = [21, 84]\nclass = clear"] ;
474 -> 482 ;
483 [label="gini = 0.3324\nsamples = 57\nvalue = [12, 45]\nclass = clear"] ;
482 -> 483 ;
484 [label="gini = 0.3047\nsamples = 48\nvalue = [9, 39]\nclass = clear"] ;
482 -> 484 ;
485 [label="gini = 0.3995\nsamples = 58\nvalue = [16, 42]\nclass = clear"] ;
473 -> 485 ;
486 [label="Clearsky GHI <= 251.5\ngini = 0.3154\nsamples = 316\nvalue = [62, 254]\nclass = clear"] ;
472 -> 486 ;
487 [label="Clearsky GHI <= 250.5\ngini = 0.2987\nsamples = 197\nvalue = [36, 161]\nclass = clear"] ;
486 -> 487 ;
488 [label="Clearsky GHI <= 249.5\ngini = 0.3181\nsamples = 126\nvalue = [25, 101]\nclass = clear"] ;
487 -> 488 ;
489 [label="gini = 0.3122\nsamples = 62\nvalue = [12, 50]\nclass = clear"] ;
488 -> 489 ;
490 [label="gini = 0.3237\nsamples = 64\nvalue = [13, 51]\nclass = clear"] ;
488 -> 490 ;
491 [label="gini = 0.2619\nsamples = 71\nvalue = [11, 60]\nclass = clear"] ;
487 -> 491 ;
492 [label="GHI <= 252.5\ngini = 0.3415\nsamples = 119\nvalue = [26, 93]\nclass = clear"] ;
486 -> 492 ;
493 [label="gini = 0.3314\nsamples = 62\nvalue = [13, 49]\nclass = clear"] ;
492 -> 493 ;
494 [label="gini = 0.3521\nsamples = 57\nvalue = [13, 44]\nclass = clear"] ;
492 -> 494 ;
495 [label="Clearsky GHI <= 255.5\ngini = 0.2828\nsamples = 176\nvalue = [30, 146]\nclass = clear"] ;
435 -> 495 ;
496 [label="Clearsky GHI <= 254.5\ngini = 0.2759\nsamples = 121\nvalue = [20, 101]\nclass = clear"] ;
495 -> 496 ;
497 [label="gini = 0.2815\nsamples = 59\nvalue = [10, 49]\nclass = clear"] ;
496 -> 497 ;
498 [label="gini = 0.2706\nsamples = 62\nvalue = [10, 52]\nclass = clear"] ;
496 -> 498 ;
499 [label="gini = 0.2975\nsamples = 55\nvalue = [10, 45]\nclass = clear"] ;
495 -> 499 ;
500 [label="Clearsky GHI <= 257.5\ngini = 0.347\nsamples = 188\nvalue = [42, 146]\nclass = clear"] ;
434 -> 500 ;
501 [label="gini = 0.4102\nsamples = 59\nvalue = [17, 42]\nclass = clear"] ;
500 -> 501 ;
502 [label="Clearsky GHI <= 258.5\ngini = 0.3125\nsamples = 129\nvalue = [25, 104]\nclass = clear"] ;
500 -> 502 ;
503 [label="gini = 0.3047\nsamples = 64\nvalue = [12, 52]\nclass = clear"] ;
502 -> 503 ;
504 [label="gini = 0.32\nsamples = 65\nvalue = [13, 52]\nclass = clear"] ;
502 -> 504 ;
505 [label="GHI <= 288.5\ngini = 0.2804\nsamples = 1975\nvalue = [333, 1642]\nclass = clear"] ;
393 -> 505 ;
506 [label="Clearsky GHI <= 282.5\ngini = 0.2723\nsamples = 1618\nvalue = [263, 1355]\nclass = clear"] ;
505 -> 506 ;
507 [label="Clearsky GHI <= 280.5\ngini = 0.2788\nsamples = 1266\nvalue = [212, 1054]\nclass = clear"] ;
506 -> 507 ;
508 [label="Clearsky GHI <= 275.5\ngini = 0.2695\nsamples = 1165\nvalue = [187, 978]\nclass = clear"] ;
507 -> 508 ;
509 [label="GHI <= 261.5\ngini = 0.2763\nsamples = 924\nvalue = [153, 771]\nclass = clear"] ;
508 -> 509 ;
510 [label="GHI <= 260.5\ngini = 0.2243\nsamples = 101\nvalue = [13, 88]\nclass = clear"] ;
509 -> 510 ;
511 [label="gini = 0.2449\nsamples = 49\nvalue = [7, 42]\nclass = clear"] ;
510 -> 511 ;
512 [label="gini = 0.2041\nsamples = 52\nvalue = [6, 46]\nclass = clear"] ;
510 -> 512 ;
513 [label="GHI <= 272.5\ngini = 0.2823\nsamples = 823\nvalue = [140, 683]\nclass = clear"] ;
509 -> 513 ;
514 [label="GHI <= 270.5\ngini = 0.2758\nsamples = 660\nvalue = [109, 551]\nclass = clear"] ;
513 -> 514 ;
515 [label="GHI <= 269.5\ngini = 0.2894\nsamples = 547\nvalue = [96, 451]\nclass = clear"] ;
514 -> 515 ;
516 [label="GHI <= 263.5\ngini = 0.2818\nsamples = 495\nvalue = [84, 411]\nclass = clear"] ;
515 -> 516 ;
517 [label="GHI <= 262.5\ngini = 0.2612\nsamples = 123\nvalue = [19, 104]\nclass = clear"] ;
516 -> 517 ;
518 [label="gini = 0.2585\nsamples = 59\nvalue = [9, 50]\nclass = clear"] ;
517 -> 518 ;
519 [label="gini = 0.2637\nsamples = 64\nvalue = [10, 54]\nclass = clear"] ;
517 -> 519 ;
520 [label="Clearsky GHI <= 264.5\ngini = 0.2884\nsamples = 372\nvalue = [65, 307]\nclass = clear"] ;
516 -> 520 ;
521 [label="gini = 0.3324\nsamples = 76\nvalue = [16, 60]\nclass = clear"] ;
520 -> 521 ;
522 [label="GHI <= 266.5\ngini = 0.2763\nsamples = 296\nvalue = [49, 247]\nclass = clear"] ;
520 -> 522 ;
523 [label="Clearsky GHI <= 265.5\ngini = 0.2841\nsamples = 140\nvalue = [24, 116]\nclass = clear"] ;
522 -> 523 ;
524 [label="gini = 0.2659\nsamples = 57\nvalue = [9, 48]\nclass = clear"] ;
523 -> 524 ;
525 [label="gini = 0.2961\nsamples = 83\nvalue = [15, 68]\nclass = clear"] ;
523 -> 525 ;
526 [label="Clearsky GHI <= 268.5\ngini = 0.2691\nsamples = 156\nvalue = [25, 131]\nclass = clear"] ;
522 -> 526 ;
527 [label="Clearsky GHI <= 267.5\ngini = 0.2624\nsamples = 103\nvalue = [16, 87]\nclass = clear"] ;
526 -> 527 ;
528 [label="gini = 0.2585\nsamples = 59\nvalue = [9, 50]\nclass = clear"] ;
527 -> 528 ;
529 [label="gini = 0.2676\nsamples = 44\nvalue = [7, 37]\nclass = clear"] ;
527 -> 529 ;
530 [label="gini = 0.282\nsamples = 53\nvalue = [9, 44]\nclass = clear"] ;
526 -> 530 ;
531 [label="gini = 0.355\nsamples = 52\nvalue = [12, 40]\nclass = clear"] ;
515 -> 531 ;
532 [label="Clearsky GHI <= 271.5\ngini = 0.2036\nsamples = 113\nvalue = [13, 100]\nclass = clear"] ;
514 -> 532 ;
533 [label="gini = 0.1975\nsamples = 54\nvalue = [6, 48]\nclass = clear"] ;
532 -> 533 ;
534 [label="gini = 0.2091\nsamples = 59\nvalue = [7, 52]\nclass = clear"] ;
532 -> 534 ;
535 [label="GHI <= 273.5\ngini = 0.308\nsamples = 163\nvalue = [31, 132]\nclass = clear"] ;
513 -> 535 ;
536 [label="gini = 0.3856\nsamples = 46\nvalue = [12, 34]\nclass = clear"] ;
535 -> 536 ;
537 [label="Clearsky GHI <= 274.5\ngini = 0.272\nsamples = 117\nvalue = [19, 98]\nclass = clear"] ;
535 -> 537 ;
538 [label="gini = 0.2449\nsamples = 63\nvalue = [9, 54]\nclass = clear"] ;
537 -> 538 ;
539 [label="gini = 0.3018\nsamples = 54\nvalue = [10, 44]\nclass = clear"] ;
537 -> 539 ;
540 [label="Clearsky GHI <= 277.5\ngini = 0.2424\nsamples = 241\nvalue = [34, 207]\nclass = clear"] ;
508 -> 540 ;
541 [label="GHI <= 276.5\ngini = 0.2188\nsamples = 88\nvalue = [11, 77]\nclass = clear"] ;
540 -> 541 ;
542 [label="gini = 0.2055\nsamples = 43\nvalue = [5, 38]\nclass = clear"] ;
541 -> 542 ;
543 [label="gini = 0.2311\nsamples = 45\nvalue = [6, 39]\nclass = clear"] ;
541 -> 543 ;
544 [label="Clearsky GHI <= 279.5\ngini = 0.2555\nsamples = 153\nvalue = [23, 130]\nclass = clear"] ;
540 -> 544 ;
545 [label="GHI <= 278.5\ngini = 0.2488\nsamples = 103\nvalue = [15, 88]\nclass = clear"] ;
544 -> 545 ;
546 [label="gini = 0.2535\nsamples = 47\nvalue = [7, 40]\nclass = clear"] ;
545 -> 546 ;
547 [label="gini = 0.2449\nsamples = 56\nvalue = [8, 48]\nclass = clear"] ;
545 -> 547 ;
548 [label="gini = 0.2688\nsamples = 50\nvalue = [8, 42]\nclass = clear"] ;
544 -> 548 ;
549 [label="Clearsky GHI <= 281.5\ngini = 0.3725\nsamples = 101\nvalue = [25, 76]\nclass = clear"] ;
507 -> 549 ;
550 [label="gini = 0.4012\nsamples = 54\nvalue = [15, 39]\nclass = clear"] ;
549 -> 550 ;
551 [label="gini = 0.335\nsamples = 47\nvalue = [10, 37]\nclass = clear"] ;
549 -> 551 ;
552 [label="GHI <= 284.5\ngini = 0.2478\nsamples = 352\nvalue = [51, 301]\nclass = clear"] ;
506 -> 552 ;
553 [label="GHI <= 283.5\ngini = 0.2171\nsamples = 113\nvalue = [14, 99]\nclass = clear"] ;
552 -> 553 ;
554 [label="gini = 0.2413\nsamples = 57\nvalue = [8, 49]\nclass = clear"] ;
553 -> 554 ;
555 [label="gini = 0.1913\nsamples = 56\nvalue = [6, 50]\nclass = clear"] ;
553 -> 555 ;
556 [label="Clearsky GHI <= 285.5\ngini = 0.2617\nsamples = 239\nvalue = [37, 202]\nclass = clear"] ;
552 -> 556 ;
557 [label="gini = 0.3133\nsamples = 72\nvalue = [14, 58]\nclass = clear"] ;
556 -> 557 ;
558 [label="GHI <= 287.5\ngini = 0.2375\nsamples = 167\nvalue = [23, 144]\nclass = clear"] ;
556 -> 558 ;
559 [label="GHI <= 286.5\ngini = 0.2188\nsamples = 120\nvalue = [15, 105]\nclass = clear"] ;
558 -> 559 ;
560 [label="gini = 0.2279\nsamples = 61\nvalue = [8, 53]\nclass = clear"] ;
559 -> 560 ;
561 [label="gini = 0.2091\nsamples = 59\nvalue = [7, 52]\nclass = clear"] ;
559 -> 561 ;
562 [label="gini = 0.2825\nsamples = 47\nvalue = [8, 39]\nclass = clear"] ;
558 -> 562 ;
563 [label="Clearsky GHI <= 293.5\ngini = 0.3153\nsamples = 357\nvalue = [70, 287]\nclass = clear"] ;
505 -> 563 ;
564 [label="GHI <= 289.5\ngini = 0.3384\nsamples = 292\nvalue = [63, 229]\nclass = clear"] ;
563 -> 564 ;
565 [label="gini = 0.3935\nsamples = 52\nvalue = [14, 38]\nclass = clear"] ;
564 -> 565 ;
566 [label="Clearsky GHI <= 290.5\ngini = 0.325\nsamples = 240\nvalue = [49, 191]\nclass = clear"] ;
564 -> 566 ;
567 [label="gini = 0.2449\nsamples = 49\nvalue = [7, 42]\nclass = clear"] ;
566 -> 567 ;
568 [label="GHI <= 291.5\ngini = 0.3431\nsamples = 191\nvalue = [42, 149]\nclass = clear"] ;
566 -> 568 ;
569 [label="gini = 0.32\nsamples = 70\nvalue = [14, 56]\nclass = clear"] ;
568 -> 569 ;
570 [label="GHI <= 292.5\ngini = 0.3557\nsamples = 121\nvalue = [28, 93]\nclass = clear"] ;
568 -> 570 ;
571 [label="gini = 0.375\nsamples = 56\nvalue = [14, 42]\nclass = clear"] ;
570 -> 571 ;
572 [label="gini = 0.338\nsamples = 65\nvalue = [14, 51]\nclass = clear"] ;
570 -> 572 ;
573 [label="gini = 0.1922\nsamples = 65\nvalue = [7, 58]\nclass = clear"] ;
563 -> 573 ;
574 [label="Clearsky GHI <= 295.5\ngini = 0.3336\nsamples = 1300\nvalue = [275, 1025]\nclass = clear"] ;
392 -> 574 ;
575 [label="gini = 0.416\nsamples = 61\nvalue = [18, 43]\nclass = clear"] ;
574 -> 575 ;
576 [label="GHI <= 302.5\ngini = 0.3288\nsamples = 1239\nvalue = [257, 982]\nclass = clear"] ;
574 -> 576 ;
577 [label="Clearsky GHI <= 301.5\ngini = 0.3506\nsamples = 397\nvalue = [90, 307]\nclass = clear"] ;
576 -> 577 ;
578 [label="GHI <= 299.5\ngini = 0.3282\nsamples = 348\nvalue = [72, 276]\nclass = clear"] ;
577 -> 578 ;
579 [label="Clearsky GHI <= 298.5\ngini = 0.305\nsamples = 229\nvalue = [43, 186]\nclass = clear"] ;
578 -> 579 ;
580 [label="GHI <= 296.5\ngini = 0.3338\nsamples = 170\nvalue = [36, 134]\nclass = clear"] ;
579 -> 580 ;
581 [label="gini = 0.2778\nsamples = 48\nvalue = [8, 40]\nclass = clear"] ;
580 -> 581 ;
582 [label="GHI <= 297.5\ngini = 0.3537\nsamples = 122\nvalue = [28, 94]\nclass = clear"] ;
580 -> 582 ;
583 [label="gini = 0.3436\nsamples = 59\nvalue = [13, 46]\nclass = clear"] ;
582 -> 583 ;
584 [label="gini = 0.3628\nsamples = 63\nvalue = [15, 48]\nclass = clear"] ;
582 -> 584 ;
585 [label="gini = 0.2091\nsamples = 59\nvalue = [7, 52]\nclass = clear"] ;
579 -> 585 ;
586 [label="Clearsky GHI <= 300.5\ngini = 0.3686\nsamples = 119\nvalue = [29, 90]\nclass = clear"] ;
578 -> 586 ;
587 [label="gini = 0.402\nsamples = 61\nvalue = [17, 44]\nclass = clear"] ;
586 -> 587 ;
588 [label="gini = 0.3282\nsamples = 58\nvalue = [12, 46]\nclass = clear"] ;
586 -> 588 ;
589 [label="gini = 0.4648\nsamples = 49\nvalue = [18, 31]\nclass = clear"] ;
577 -> 589 ;
590 [label="Clearsky GHI <= 307.5\ngini = 0.318\nsamples = 842\nvalue = [167, 675]\nclass = clear"] ;
576 -> 590 ;
591 [label="GHI <= 305.5\ngini = 0.2748\nsamples = 304\nvalue = [50, 254]\nclass = clear"] ;
590 -> 591 ;
592 [label="GHI <= 304.5\ngini = 0.3138\nsamples = 195\nvalue = [38, 157]\nclass = clear"] ;
591 -> 592 ;
593 [label="Clearsky GHI <= 303.5\ngini = 0.3329\nsamples = 128\nvalue = [27, 101]\nclass = clear"] ;
592 -> 593 ;
594 [label="gini = 0.2991\nsamples = 71\nvalue = [13, 58]\nclass = clear"] ;
593 -> 594 ;
595 [label="gini = 0.3706\nsamples = 57\nvalue = [14, 43]\nclass = clear"] ;
593 -> 595 ;
596 [label="gini = 0.2744\nsamples = 67\nvalue = [11, 56]\nclass = clear"] ;
592 -> 596 ;
597 [label="GHI <= 306.5\ngini = 0.1959\nsamples = 109\nvalue = [12, 97]\nclass = clear"] ;
591 -> 597 ;
598 [label="gini = 0.1944\nsamples = 55\nvalue = [6, 49]\nclass = clear"] ;
597 -> 598 ;
599 [label="gini = 0.1975\nsamples = 54\nvalue = [6, 48]\nclass = clear"] ;
597 -> 599 ;
600 [label="GHI <= 310.5\ngini = 0.3404\nsamples = 538\nvalue = [117, 421]\nclass = clear"] ;
590 -> 600 ;
601 [label="Clearsky GHI <= 309.5\ngini = 0.3775\nsamples = 202\nvalue = [51, 151]\nclass = clear"] ;
600 -> 601 ;
602 [label="GHI <= 308.5\ngini = 0.3355\nsamples = 136\nvalue = [29, 107]\nclass = clear"] ;
601 -> 602 ;
603 [label="gini = 0.3648\nsamples = 75\nvalue = [18, 57]\nclass = clear"] ;
602 -> 603 ;
604 [label="gini = 0.2956\nsamples = 61\nvalue = [11, 50]\nclass = clear"] ;
602 -> 604 ;
605 [label="gini = 0.4444\nsamples = 66\nvalue = [22, 44]\nclass = clear"] ;
601 -> 605 ;
606 [label="Clearsky GHI <= 314.5\ngini = 0.3157\nsamples = 336\nvalue = [66, 270]\nclass = clear"] ;
600 -> 606 ;
607 [label="GHI <= 311.5\ngini = 0.3018\nsamples = 270\nvalue = [50, 220]\nclass = clear"] ;
606 -> 607 ;
608 [label="gini = 0.3299\nsamples = 72\nvalue = [15, 57]\nclass = clear"] ;
607 -> 608 ;
609 [label="Clearsky GHI <= 313.5\ngini = 0.291\nsamples = 198\nvalue = [35, 163]\nclass = clear"] ;
607 -> 609 ;
610 [label="GHI <= 312.5\ngini = 0.2744\nsamples = 134\nvalue = [22, 112]\nclass = clear"] ;
609 -> 610 ;
611 [label="gini = 0.3047\nsamples = 64\nvalue = [12, 52]\nclass = clear"] ;
610 -> 611 ;
612 [label="gini = 0.2449\nsamples = 70\nvalue = [10, 60]\nclass = clear"] ;
610 -> 612 ;
613 [label="gini = 0.3237\nsamples = 64\nvalue = [13, 51]\nclass = clear"] ;
609 -> 613 ;
614 [label="gini = 0.3673\nsamples = 66\nvalue = [16, 50]\nclass = clear"] ;
606 -> 614 ;
615 [label="GHI <= 447.5\ngini = 0.2542\nsamples = 8593\nvalue = [1284, 7309]\nclass = clear"] ;
391 -> 615 ;
616 [label="Clearsky GHI <= 422.5\ngini = 0.252\nsamples = 8128\nvalue = [1202, 6926]\nclass = clear"] ;
615 -> 616 ;
617 [label="Clearsky GHI <= 416.5\ngini = 0.2566\nsamples = 6550\nvalue = [990, 5560]\nclass = clear"] ;
616 -> 617 ;
618 [label="GHI <= 408.5\ngini = 0.2524\nsamples = 6211\nvalue = [920, 5291]\nclass = clear"] ;
617 -> 618 ;
619 [label="Clearsky GHI <= 352.5\ngini = 0.2576\nsamples = 5702\nvalue = [866, 4836]\nclass = clear"] ;
618 -> 619 ;
620 [label="GHI <= 329.5\ngini = 0.2484\nsamples = 2078\nvalue = [302, 1776]\nclass = clear"] ;
619 -> 620 ;
621 [label="GHI <= 327.5\ngini = 0.2673\nsamples = 862\nvalue = [137, 725]\nclass = clear"] ;
620 -> 621 ;
622 [label="Clearsky GHI <= 319.5\ngini = 0.2606\nsamples = 727\nvalue = [112, 615]\nclass = clear"] ;
621 -> 622 ;
623 [label="Clearsky GHI <= 317.5\ngini = 0.2819\nsamples = 271\nvalue = [46, 225]\nclass = clear"] ;
622 -> 623 ;
624 [label="GHI <= 316.5\ngini = 0.2728\nsamples = 135\nvalue = [22, 113]\nclass = clear"] ;
623 -> 624 ;
625 [label="gini = 0.2741\nsamples = 61\nvalue = [10, 51]\nclass = clear"] ;
624 -> 625 ;
626 [label="gini = 0.2717\nsamples = 74\nvalue = [12, 62]\nclass = clear"] ;
624 -> 626 ;
627 [label="GHI <= 318.5\ngini = 0.2907\nsamples = 136\nvalue = [24, 112]\nclass = clear"] ;
623 -> 627 ;
628 [label="gini = 0.3024\nsamples = 70\nvalue = [13, 57]\nclass = clear"] ;
627 -> 628 ;
629 [label="gini = 0.2778\nsamples = 66\nvalue = [11, 55]\nclass = clear"] ;
627 -> 629 ;
630 [label="Clearsky GHI <= 324.5\ngini = 0.2476\nsamples = 456\nvalue = [66, 390]\nclass = clear"] ;
622 -> 630 ;
631 [label="Clearsky GHI <= 322.5\ngini = 0.2348\nsamples = 287\nvalue = [39, 248]\nclass = clear"] ;
630 -> 631 ;
632 [label="Clearsky GHI <= 321.5\ngini = 0.2591\nsamples = 170\nvalue = [26, 144]\nclass = clear"] ;
631 -> 632 ;
633 [label="Clearsky GHI <= 320.5\ngini = 0.2361\nsamples = 117\nvalue = [16, 101]\nclass = clear"] ;
632 -> 633 ;
634 [label="gini = 0.2413\nsamples = 57\nvalue = [8, 49]\nclass = clear"] ;
633 -> 634 ;
635 [label="gini = 0.2311\nsamples = 60\nvalue = [8, 52]\nclass = clear"] ;
633 -> 635 ;
636 [label="gini = 0.3062\nsamples = 53\nvalue = [10, 43]\nclass = clear"] ;
632 -> 636 ;
637 [label="GHI <= 323.5\ngini = 0.1975\nsamples = 117\nvalue = [13, 104]\nclass = clear"] ;
631 -> 637 ;
638 [label="gini = 0.1748\nsamples = 62\nvalue = [6, 56]\nclass = clear"] ;
637 -> 638 ;
639 [label="gini = 0.2221\nsamples = 55\nvalue = [7, 48]\nclass = clear"] ;
637 -> 639 ;
640 [label="GHI <= 326.5\ngini = 0.2685\nsamples = 169\nvalue = [27, 142]\nclass = clear"] ;
630 -> 640 ;
641 [label="GHI <= 325.5\ngini = 0.2919\nsamples = 124\nvalue = [22, 102]\nclass = clear"] ;
640 -> 641 ;
642 [label="gini = 0.2688\nsamples = 75\nvalue = [12, 63]\nclass = clear"] ;
641 -> 642 ;
643 [label="gini = 0.3249\nsamples = 49\nvalue = [10, 39]\nclass = clear"] ;
641 -> 643 ;
644 [label="gini = 0.1975\nsamples = 45\nvalue = [5, 40]\nclass = clear"] ;
640 -> 644 ;
645 [label="Clearsky GHI <= 328.5\ngini = 0.3018\nsamples = 135\nvalue = [25, 110]\nclass = clear"] ;
621 -> 645 ;
646 [label="gini = 0.2873\nsamples = 69\nvalue = [12, 57]\nclass = clear"] ;
645 -> 646 ;
647 [label="gini = 0.3163\nsamples = 66\nvalue = [13, 53]\nclass = clear"] ;
645 -> 647 ;
648 [label="Clearsky GHI <= 348.5\ngini = 0.2346\nsamples = 1216\nvalue = [165, 1051]\nclass = clear"] ;
620 -> 648 ;
649 [label="GHI <= 340.5\ngini = 0.2396\nsamples = 977\nvalue = [136, 841]\nclass = clear"] ;
648 -> 649 ;
650 [label="GHI <= 338.5\ngini = 0.2304\nsamples = 557\nvalue = [74, 483]\nclass = clear"] ;
649 -> 650 ;
651 [label="Clearsky GHI <= 337.5\ngini = 0.2436\nsamples = 479\nvalue = [68, 411]\nclass = clear"] ;
650 -> 651 ;
652 [label="Clearsky GHI <= 334.5\ngini = 0.2313\nsamples = 427\nvalue = [57, 370]\nclass = clear"] ;
651 -> 652 ;
653 [label="GHI <= 332.5\ngini = 0.2478\nsamples = 276\nvalue = [40, 236]\nclass = clear"] ;
652 -> 653 ;
654 [label="GHI <= 331.5\ngini = 0.2253\nsamples = 170\nvalue = [22, 148]\nclass = clear"] ;
653 -> 654 ;
655 [label="GHI <= 330.5\ngini = 0.2449\nsamples = 126\nvalue = [18, 108]\nclass = clear"] ;
654 -> 655 ;
656 [label="gini = 0.2188\nsamples = 56\nvalue = [7, 49]\nclass = clear"] ;
655 -> 656 ;
657 [label="gini = 0.2649\nsamples = 70\nvalue = [11, 59]\nclass = clear"] ;
655 -> 657 ;
658 [label="gini = 0.1653\nsamples = 44\nvalue = [4, 40]\nclass = clear"] ;
654 -> 658 ;
659 [label="GHI <= 333.5\ngini = 0.282\nsamples = 106\nvalue = [18, 88]\nclass = clear"] ;
653 -> 659 ;
660 [label="gini = 0.2907\nsamples = 51\nvalue = [9, 42]\nclass = clear"] ;
659 -> 660 ;
661 [label="gini = 0.2737\nsamples = 55\nvalue = [9, 46]\nclass = clear"] ;
659 -> 661 ;
662 [label="Clearsky GHI <= 336.5\ngini = 0.1998\nsamples = 151\nvalue = [17, 134]\nclass = clear"] ;
652 -> 662 ;
663 [label="Clearsky GHI <= 335.5\ngini = 0.1901\nsamples = 94\nvalue = [10, 84]\nclass = clear"] ;
662 -> 663 ;
664 [label="gini = 0.1866\nsamples = 48\nvalue = [5, 43]\nclass = clear"] ;
663 -> 664 ;
665 [label="gini = 0.1938\nsamples = 46\nvalue = [5, 41]\nclass = clear"] ;
663 -> 665 ;
666 [label="gini = 0.2155\nsamples = 57\nvalue = [7, 50]\nclass = clear"] ;
662 -> 666 ;
667 [label="gini = 0.3336\nsamples = 52\nvalue = [11, 41]\nclass = clear"] ;
651 -> 667 ;
668 [label="Clearsky GHI <= 339.5\ngini = 0.142\nsamples = 78\nvalue = [6, 72]\nclass = clear"] ;
650 -> 668 ;
669 [label="gini = 0.0928\nsamples = 41\nvalue = [2, 39]\nclass = clear"] ;
668 -> 669 ;
670 [label="gini = 0.1928\nsamples = 37\nvalue = [4, 33]\nclass = clear"] ;
668 -> 670 ;
671 [label="GHI <= 341.5\ngini = 0.2517\nsamples = 420\nvalue = [62, 358]\nclass = clear"] ;
649 -> 671 ;
672 [label="gini = 0.2934\nsamples = 56\nvalue = [10, 46]\nclass = clear"] ;
671 -> 672 ;
673 [label="Clearsky GHI <= 342.5\ngini = 0.2449\nsamples = 364\nvalue = [52, 312]\nclass = clear"] ;
671 -> 673 ;
674 [label="gini = 0.1833\nsamples = 49\nvalue = [5, 44]\nclass = clear"] ;
673 -> 674 ;
675 [label="Clearsky GHI <= 343.5\ngini = 0.2539\nsamples = 315\nvalue = [47, 268]\nclass = clear"] ;
673 -> 675 ;
676 [label="gini = 0.2923\nsamples = 45\nvalue = [8, 37]\nclass = clear"] ;
675 -> 676 ;
677 [label="GHI <= 346.5\ngini = 0.2472\nsamples = 270\nvalue = [39, 231]\nclass = clear"] ;
675 -> 677 ;
678 [label="Clearsky GHI <= 345.5\ngini = 0.2344\nsamples = 177\nvalue = [24, 153]\nclass = clear"] ;
677 -> 678 ;
679 [label="GHI <= 344.5\ngini = 0.2449\nsamples = 112\nvalue = [16, 96]\nclass = clear"] ;
678 -> 679 ;
680 [label="gini = 0.2449\nsamples = 56\nvalue = [8, 48]\nclass = clear"] ;
679 -> 680 ;
681 [label="gini = 0.2449\nsamples = 56\nvalue = [8, 48]\nclass = clear"] ;
679 -> 681 ;
682 [label="gini = 0.2159\nsamples = 65\nvalue = [8, 57]\nclass = clear"] ;
678 -> 682 ;
683 [label="GHI <= 347.5\ngini = 0.2706\nsamples = 93\nvalue = [15, 78]\nclass = clear"] ;
677 -> 683 ;
684 [label="gini = 0.3047\nsamples = 48\nvalue = [9, 39]\nclass = clear"] ;
683 -> 684 ;
685 [label="gini = 0.2311\nsamples = 45\nvalue = [6, 39]\nclass = clear"] ;
683 -> 685 ;
686 [label="Clearsky GHI <= 349.5\ngini = 0.2132\nsamples = 239\nvalue = [29, 210]\nclass = clear"] ;
648 -> 686 ;
687 [label="gini = 0.1738\nsamples = 52\nvalue = [5, 47]\nclass = clear"] ;
686 -> 687 ;
688 [label="GHI <= 351.5\ngini = 0.2237\nsamples = 187\nvalue = [24, 163]\nclass = clear"] ;
686 -> 688 ;
689 [label="GHI <= 350.5\ngini = 0.2144\nsamples = 131\nvalue = [16, 115]\nclass = clear"] ;
688 -> 689 ;
690 [label="gini = 0.2103\nsamples = 67\nvalue = [8, 59]\nclass = clear"] ;
689 -> 690 ;
691 [label="gini = 0.2188\nsamples = 64\nvalue = [8, 56]\nclass = clear"] ;
689 -> 691 ;
692 [label="gini = 0.2449\nsamples = 56\nvalue = [8, 48]\nclass = clear"] ;
688 -> 692 ;
693 [label="GHI <= 353.5\ngini = 0.2628\nsamples = 3624\nvalue = [564, 3060]\nclass = clear"] ;
619 -> 693 ;
694 [label="gini = 0.4032\nsamples = 50\nvalue = [14, 36]\nclass = clear"] ;
693 -> 694 ;
695 [label="Clearsky GHI <= 361.5\ngini = 0.2604\nsamples = 3574\nvalue = [550, 3024]\nclass = clear"] ;
693 -> 695 ;
696 [label="Clearsky GHI <= 359.5\ngini = 0.2986\nsamples = 427\nvalue = [78, 349]\nclass = clear"] ;
695 -> 696 ;
697 [label="GHI <= 357.5\ngini = 0.2812\nsamples = 319\nvalue = [54, 265]\nclass = clear"] ;
696 -> 697 ;
698 [label="GHI <= 354.5\ngini = 0.2975\nsamples = 198\nvalue = [36, 162]\nclass = clear"] ;
697 -> 698 ;
699 [label="gini = 0.3147\nsamples = 46\nvalue = [9, 37]\nclass = clear"] ;
698 -> 699 ;
700 [label="Clearsky GHI <= 355.5\ngini = 0.2922\nsamples = 152\nvalue = [27, 125]\nclass = clear"] ;
698 -> 700 ;
701 [label="gini = 0.2732\nsamples = 49\nvalue = [8, 41]\nclass = clear"] ;
700 -> 701 ;
702 [label="GHI <= 356.5\ngini = 0.3009\nsamples = 103\nvalue = [19, 84]\nclass = clear"] ;
700 -> 702 ;
703 [label="gini = 0.2975\nsamples = 44\nvalue = [8, 36]\nclass = clear"] ;
702 -> 703 ;
704 [label="gini = 0.3034\nsamples = 59\nvalue = [11, 48]\nclass = clear"] ;
702 -> 704 ;
705 [label="Clearsky GHI <= 358.5\ngini = 0.2533\nsamples = 121\nvalue = [18, 103]\nclass = clear"] ;
697 -> 705 ;
706 [label="gini = 0.2491\nsamples = 48\nvalue = [7, 41]\nclass = clear"] ;
705 -> 706 ;
707 [label="gini = 0.256\nsamples = 73\nvalue = [11, 62]\nclass = clear"] ;
705 -> 707 ;
708 [label="Clearsky GHI <= 360.5\ngini = 0.3457\nsamples = 108\nvalue = [24, 84]\nclass = clear"] ;
696 -> 708 ;
709 [label="gini = 0.4032\nsamples = 50\nvalue = [14, 36]\nclass = clear"] ;
708 -> 709 ;
710 [label="gini = 0.2854\nsamples = 58\nvalue = [10, 48]\nclass = clear"] ;
708 -> 710 ;
711 [label="GHI <= 383.5\ngini = 0.255\nsamples = 3147\nvalue = [472, 2675]\nclass = clear"] ;
695 -> 711 ;
712 [label="Clearsky GHI <= 377.5\ngini = 0.245\nsamples = 1511\nvalue = [216, 1295]\nclass = clear"] ;
711 -> 712 ;
713 [label="Clearsky GHI <= 375.5\ngini = 0.2532\nsamples = 1116\nvalue = [166, 950]\nclass = clear"] ;
712 -> 713 ;
714 [label="Clearsky GHI <= 372.5\ngini = 0.2447\nsamples = 974\nvalue = [139, 835]\nclass = clear"] ;
713 -> 714 ;
715 [label="GHI <= 368.5\ngini = 0.239\nsamples = 764\nvalue = [106, 658]\nclass = clear"] ;
714 -> 715 ;
716 [label="Clearsky GHI <= 365.5\ngini = 0.2516\nsamples = 481\nvalue = [71, 410]\nclass = clear"] ;
715 -> 716 ;
717 [label="Clearsky GHI <= 362.5\ngini = 0.2345\nsamples = 258\nvalue = [35, 223]\nclass = clear"] ;
716 -> 717 ;
718 [label="gini = 0.2509\nsamples = 68\nvalue = [10, 58]\nclass = clear"] ;
717 -> 718 ;
719 [label="Clearsky GHI <= 363.5\ngini = 0.2285\nsamples = 190\nvalue = [25, 165]\nclass = clear"] ;
717 -> 719 ;
720 [label="gini = 0.2076\nsamples = 68\nvalue = [8, 60]\nclass = clear"] ;
719 -> 720 ;
721 [label="GHI <= 364.5\ngini = 0.2399\nsamples = 122\nvalue = [17, 105]\nclass = clear"] ;
719 -> 721 ;
722 [label="gini = 0.2585\nsamples = 59\nvalue = [9, 50]\nclass = clear"] ;
721 -> 722 ;
723 [label="gini = 0.2217\nsamples = 63\nvalue = [8, 55]\nclass = clear"] ;
721 -> 723 ;
724 [label="GHI <= 367.5\ngini = 0.2707\nsamples = 223\nvalue = [36, 187]\nclass = clear"] ;
716 -> 724 ;
725 [label="Clearsky GHI <= 366.5\ngini = 0.2841\nsamples = 140\nvalue = [24, 116]\nclass = clear"] ;
724 -> 725 ;
726 [label="gini = 0.2571\nsamples = 66\nvalue = [10, 56]\nclass = clear"] ;
725 -> 726 ;
727 [label="gini = 0.3068\nsamples = 74\nvalue = [14, 60]\nclass = clear"] ;
725 -> 727 ;
728 [label="gini = 0.2474\nsamples = 83\nvalue = [12, 71]\nclass = clear"] ;
724 -> 728 ;
729 [label="Clearsky GHI <= 369.5\ngini = 0.2168\nsamples = 283\nvalue = [35, 248]\nclass = clear"] ;
715 -> 729 ;
730 [label="gini = 0.1755\nsamples = 72\nvalue = [7, 65]\nclass = clear"] ;
729 -> 730 ;
731 [label="GHI <= 371.5\ngini = 0.2302\nsamples = 211\nvalue = [28, 183]\nclass = clear"] ;
729 -> 731 ;
732 [label="GHI <= 370.5\ngini = 0.2251\nsamples = 147\nvalue = [19, 128]\nclass = clear"] ;
731 -> 732 ;
733 [label="gini = 0.226\nsamples = 77\nvalue = [10, 67]\nclass = clear"] ;
732 -> 733 ;
734 [label="gini = 0.2241\nsamples = 70\nvalue = [9, 61]\nclass = clear"] ;
732 -> 734 ;
735 [label="gini = 0.2417\nsamples = 64\nvalue = [9, 55]\nclass = clear"] ;
731 -> 735 ;
736 [label="Clearsky GHI <= 374.5\ngini = 0.2649\nsamples = 210\nvalue = [33, 177]\nclass = clear"] ;
714 -> 736 ;
737 [label="Clearsky GHI <= 373.5\ngini = 0.2809\nsamples = 142\nvalue = [24, 118]\nclass = clear"] ;
736 -> 737 ;
738 [label="gini = 0.2975\nsamples = 66\nvalue = [12, 54]\nclass = clear"] ;
737 -> 738 ;
739 [label="gini = 0.2659\nsamples = 76\nvalue = [12, 64]\nclass = clear"] ;
737 -> 739 ;
740 [label="gini = 0.2297\nsamples = 68\nvalue = [9, 59]\nclass = clear"] ;
736 -> 740 ;
741 [label="GHI <= 376.5\ngini = 0.308\nsamples = 142\nvalue = [27, 115]\nclass = clear"] ;
713 -> 741 ;
742 [label="gini = 0.3047\nsamples = 80\nvalue = [15, 65]\nclass = clear"] ;
741 -> 742 ;
743 [label="gini = 0.3122\nsamples = 62\nvalue = [12, 50]\nclass = clear"] ;
741 -> 743 ;
744 [label="Clearsky GHI <= 382.5\ngini = 0.2211\nsamples = 395\nvalue = [50, 345]\nclass = clear"] ;
712 -> 744 ;
745 [label="GHI <= 381.5\ngini = 0.2159\nsamples = 333\nvalue = [41, 292]\nclass = clear"] ;
744 -> 745 ;
746 [label="Clearsky GHI <= 378.5\ngini = 0.2261\nsamples = 254\nvalue = [33, 221]\nclass = clear"] ;
745 -> 746 ;
747 [label="gini = 0.2103\nsamples = 67\nvalue = [8, 59]\nclass = clear"] ;
746 -> 747 ;
748 [label="GHI <= 380.5\ngini = 0.2316\nsamples = 187\nvalue = [25, 162]\nclass = clear"] ;
746 -> 748 ;
749 [label="Clearsky GHI <= 379.5\ngini = 0.2395\nsamples = 115\nvalue = [16, 99]\nclass = clear"] ;
748 -> 749 ;
750 [label="gini = 0.2449\nsamples = 49\nvalue = [7, 42]\nclass = clear"] ;
749 -> 750 ;
751 [label="gini = 0.2355\nsamples = 66\nvalue = [9, 57]\nclass = clear"] ;
749 -> 751 ;
752 [label="gini = 0.2188\nsamples = 72\nvalue = [9, 63]\nclass = clear"] ;
748 -> 752 ;
753 [label="gini = 0.182\nsamples = 79\nvalue = [8, 71]\nclass = clear"] ;
745 -> 753 ;
754 [label="gini = 0.2482\nsamples = 62\nvalue = [9, 53]\nclass = clear"] ;
744 -> 754 ;
755 [label="Clearsky GHI <= 407.5\ngini = 0.264\nsamples = 1636\nvalue = [256, 1380]\nclass = clear"] ;
711 -> 755 ;
756 [label="Clearsky GHI <= 386.5\ngini = 0.262\nsamples = 1580\nvalue = [245, 1335]\nclass = clear"] ;
755 -> 756 ;
757 [label="Clearsky GHI <= 384.5\ngini = 0.2914\nsamples = 192\nvalue = [34, 158]\nclass = clear"] ;
756 -> 757 ;
758 [label="gini = 0.2778\nsamples = 60\nvalue = [10, 50]\nclass = clear"] ;
757 -> 758 ;
759 [label="GHI <= 385.5\ngini = 0.2975\nsamples = 132\nvalue = [24, 108]\nclass = clear"] ;
757 -> 759 ;
760 [label="gini = 0.3036\nsamples = 75\nvalue = [14, 61]\nclass = clear"] ;
759 -> 760 ;
761 [label="gini = 0.2893\nsamples = 57\nvalue = [10, 47]\nclass = clear"] ;
759 -> 761 ;
762 [label="Clearsky GHI <= 390.5\ngini = 0.2578\nsamples = 1388\nvalue = [211, 1177]\nclass = clear"] ;
756 -> 762 ;
763 [label="Clearsky GHI <= 388.5\ngini = 0.2303\nsamples = 256\nvalue = [34, 222]\nclass = clear"] ;
762 -> 763 ;
764 [label="Clearsky GHI <= 387.5\ngini = 0.2465\nsamples = 125\nvalue = [18, 107]\nclass = clear"] ;
763 -> 764 ;
765 [label="gini = 0.2293\nsamples = 53\nvalue = [7, 46]\nclass = clear"] ;
764 -> 765 ;
766 [label="gini = 0.2589\nsamples = 72\nvalue = [11, 61]\nclass = clear"] ;
764 -> 766 ;
767 [label="GHI <= 389.5\ngini = 0.2144\nsamples = 131\nvalue = [16, 115]\nclass = clear"] ;
763 -> 767 ;
768 [label="gini = 0.1774\nsamples = 61\nvalue = [6, 55]\nclass = clear"] ;
767 -> 768 ;
769 [label="gini = 0.2449\nsamples = 70\nvalue = [10, 60]\nclass = clear"] ;
767 -> 769 ;
770 [label="GHI <= 393.5\ngini = 0.2638\nsamples = 1132\nvalue = [177, 955]\nclass = clear"] ;
762 -> 770 ;
771 [label="GHI <= 391.5\ngini = 0.3063\nsamples = 196\nvalue = [37, 159]\nclass = clear"] ;
770 -> 771 ;
772 [label="gini = 0.2717\nsamples = 74\nvalue = [12, 62]\nclass = clear"] ;
771 -> 772 ;
773 [label="GHI <= 392.5\ngini = 0.3259\nsamples = 122\nvalue = [25, 97]\nclass = clear"] ;
771 -> 773 ;
774 [label="gini = 0.32\nsamples = 60\nvalue = [12, 48]\nclass = clear"] ;
773 -> 774 ;
775 [label="gini = 0.3314\nsamples = 62\nvalue = [13, 49]\nclass = clear"] ;
773 -> 775 ;
776 [label="GHI <= 394.5\ngini = 0.2544\nsamples = 936\nvalue = [140, 796]\nclass = clear"] ;
770 -> 776 ;
777 [label="gini = 0.1207\nsamples = 62\nvalue = [4, 58]\nclass = clear"] ;
776 -> 777 ;
778 [label="Clearsky GHI <= 401.5\ngini = 0.2628\nsamples = 874\nvalue = [136, 738]\nclass = clear"] ;
776 -> 778 ;
779 [label="GHI <= 399.5\ngini = 0.2782\nsamples = 485\nvalue = [81, 404]\nclass = clear"] ;
778 -> 779 ;
780 [label="GHI <= 395.5\ngini = 0.2653\nsamples = 343\nvalue = [54, 289]\nclass = clear"] ;
779 -> 780 ;
781 [label="gini = 0.3128\nsamples = 67\nvalue = [13, 54]\nclass = clear"] ;
780 -> 781 ;
782 [label="GHI <= 396.5\ngini = 0.253\nsamples = 276\nvalue = [41, 235]\nclass = clear"] ;
780 -> 782 ;
783 [label="gini = 0.2003\nsamples = 62\nvalue = [7, 55]\nclass = clear"] ;
782 -> 783 ;
784 [label="Clearsky GHI <= 397.5\ngini = 0.2673\nsamples = 214\nvalue = [34, 180]\nclass = clear"] ;
782 -> 784 ;
785 [label="gini = 0.2722\nsamples = 80\nvalue = [13, 67]\nclass = clear"] ;
784 -> 785 ;
786 [label="Clearsky GHI <= 398.5\ngini = 0.2643\nsamples = 134\nvalue = [21, 113]\nclass = clear"] ;
784 -> 786 ;
787 [label="gini = 0.2619\nsamples = 71\nvalue = [11, 60]\nclass = clear"] ;
786 -> 787 ;
788 [label="gini = 0.2671\nsamples = 63\nvalue = [10, 53]\nclass = clear"] ;
786 -> 788 ;
789 [label="Clearsky GHI <= 400.5\ngini = 0.308\nsamples = 142\nvalue = [27, 115]\nclass = clear"] ;
779 -> 789 ;
790 [label="gini = 0.3093\nsamples = 68\nvalue = [13, 55]\nclass = clear"] ;
789 -> 790 ;
791 [label="gini = 0.3068\nsamples = 74\nvalue = [14, 60]\nclass = clear"] ;
789 -> 791 ;
792 [label="GHI <= 403.5\ngini = 0.2428\nsamples = 389\nvalue = [55, 334]\nclass = clear"] ;
778 -> 792 ;
793 [label="GHI <= 402.5\ngini = 0.1717\nsamples = 116\nvalue = [11, 105]\nclass = clear"] ;
792 -> 793 ;
794 [label="gini = 0.144\nsamples = 64\nvalue = [5, 59]\nclass = clear"] ;
793 -> 794 ;
795 [label="gini = 0.2041\nsamples = 52\nvalue = [6, 46]\nclass = clear"] ;
793 -> 795 ;
796 [label="GHI <= 405.5\ngini = 0.2704\nsamples = 273\nvalue = [44, 229]\nclass = clear"] ;
792 -> 796 ;
797 [label="Clearsky GHI <= 404.5\ngini = 0.2838\nsamples = 146\nvalue = [25, 121]\nclass = clear"] ;
796 -> 797 ;
798 [label="gini = 0.2688\nsamples = 75\nvalue = [12, 63]\nclass = clear"] ;
797 -> 798 ;
799 [label="gini = 0.2991\nsamples = 71\nvalue = [13, 58]\nclass = clear"] ;
797 -> 799 ;
800 [label="Clearsky GHI <= 406.5\ngini = 0.2544\nsamples = 127\nvalue = [19, 108]\nclass = clear"] ;
796 -> 800 ;
801 [label="gini = 0.2386\nsamples = 65\nvalue = [9, 56]\nclass = clear"] ;
800 -> 801 ;
802 [label="gini = 0.2706\nsamples = 62\nvalue = [10, 52]\nclass = clear"] ;
800 -> 802 ;
803 [label="gini = 0.3157\nsamples = 56\nvalue = [11, 45]\nclass = clear"] ;
755 -> 803 ;
804 [label="GHI <= 410.5\ngini = 0.1897\nsamples = 509\nvalue = [54, 455]\nclass = clear"] ;
618 -> 804 ;
805 [label="Clearsky GHI <= 409.5\ngini = 0.1289\nsamples = 130\nvalue = [9, 121]\nclass = clear"] ;
804 -> 805 ;
806 [label="gini = 0.2024\nsamples = 70\nvalue = [8, 62]\nclass = clear"] ;
805 -> 806 ;
807 [label="gini = 0.0328\nsamples = 60\nvalue = [1, 59]\nclass = clear"] ;
805 -> 807 ;
808 [label="GHI <= 412.5\ngini = 0.2093\nsamples = 379\nvalue = [45, 334]\nclass = clear"] ;
804 -> 808 ;
809 [label="Clearsky GHI <= 411.5\ngini = 0.1838\nsamples = 127\nvalue = [13, 114]\nclass = clear"] ;
808 -> 809 ;
810 [label="gini = 0.1896\nsamples = 66\nvalue = [7, 59]\nclass = clear"] ;
809 -> 810 ;
811 [label="gini = 0.1774\nsamples = 61\nvalue = [6, 55]\nclass = clear"] ;
809 -> 811 ;
812 [label="Clearsky GHI <= 413.5\ngini = 0.2217\nsamples = 252\nvalue = [32, 220]\nclass = clear"] ;
808 -> 812 ;
813 [label="gini = 0.268\nsamples = 69\nvalue = [11, 58]\nclass = clear"] ;
812 -> 813 ;
814 [label="GHI <= 415.5\ngini = 0.2032\nsamples = 183\nvalue = [21, 162]\nclass = clear"] ;
812 -> 814 ;
815 [label="Clearsky GHI <= 414.5\ngini = 0.199\nsamples = 116\nvalue = [13, 103]\nclass = clear"] ;
814 -> 815 ;
816 [label="gini = 0.2041\nsamples = 52\nvalue = [6, 46]\nclass = clear"] ;
815 -> 816 ;
817 [label="gini = 0.1948\nsamples = 64\nvalue = [7, 57]\nclass = clear"] ;
815 -> 817 ;
818 [label="gini = 0.2103\nsamples = 67\nvalue = [8, 59]\nclass = clear"] ;
814 -> 818 ;
819 [label="GHI <= 417.5\ngini = 0.3277\nsamples = 339\nvalue = [70, 269]\nclass = clear"] ;
617 -> 819 ;
820 [label="gini = 0.3898\nsamples = 49\nvalue = [13, 36]\nclass = clear"] ;
819 -> 820 ;
821 [label="Clearsky GHI <= 421.5\ngini = 0.3158\nsamples = 290\nvalue = [57, 233]\nclass = clear"] ;
819 -> 821 ;
822 [label="Clearsky GHI <= 419.5\ngini = 0.321\nsamples = 239\nvalue = [48, 191]\nclass = clear"] ;
821 -> 822 ;
823 [label="GHI <= 418.5\ngini = 0.306\nsamples = 122\nvalue = [23, 99]\nclass = clear"] ;
822 -> 823 ;
824 [label="gini = 0.2934\nsamples = 56\nvalue = [10, 46]\nclass = clear"] ;
823 -> 824 ;
825 [label="gini = 0.3163\nsamples = 66\nvalue = [13, 53]\nclass = clear"] ;
823 -> 825 ;
826 [label="Clearsky GHI <= 420.5\ngini = 0.336\nsamples = 117\nvalue = [25, 92]\nclass = clear"] ;
822 -> 826 ;
827 [label="gini = 0.3289\nsamples = 53\nvalue = [11, 42]\nclass = clear"] ;
826 -> 827 ;
828 [label="gini = 0.3418\nsamples = 64\nvalue = [14, 50]\nclass = clear"] ;
826 -> 828 ;
829 [label="gini = 0.2907\nsamples = 51\nvalue = [9, 42]\nclass = clear"] ;
821 -> 829 ;
830 [label="GHI <= 424.5\ngini = 0.2326\nsamples = 1578\nvalue = [212, 1366]\nclass = clear"] ;
616 -> 830 ;
831 [label="GHI <= 423.5\ngini = 0.1918\nsamples = 121\nvalue = [13, 108]\nclass = clear"] ;
830 -> 831 ;
832 [label="gini = 0.1948\nsamples = 64\nvalue = [7, 57]\nclass = clear"] ;
831 -> 832 ;
833 [label="gini = 0.1884\nsamples = 57\nvalue = [6, 51]\nclass = clear"] ;
831 -> 833 ;
834 [label="GHI <= 426.5\ngini = 0.2359\nsamples = 1457\nvalue = [199, 1258]\nclass = clear"] ;
830 -> 834 ;
835 [label="GHI <= 425.5\ngini = 0.285\nsamples = 122\nvalue = [21, 101]\nclass = clear"] ;
834 -> 835 ;
836 [label="gini = 0.2604\nsamples = 65\nvalue = [10, 55]\nclass = clear"] ;
835 -> 836 ;
837 [label="gini = 0.3115\nsamples = 57\nvalue = [11, 46]\nclass = clear"] ;
835 -> 837 ;
838 [label="Clearsky GHI <= 428.5\ngini = 0.2311\nsamples = 1335\nvalue = [178, 1157]\nclass = clear"] ;
834 -> 838 ;
839 [label="Clearsky GHI <= 427.5\ngini = 0.1605\nsamples = 125\nvalue = [11, 114]\nclass = clear"] ;
838 -> 839 ;
840 [label="gini = 0.14\nsamples = 66\nvalue = [5, 61]\nclass = clear"] ;
839 -> 840 ;
841 [label="gini = 0.1827\nsamples = 59\nvalue = [6, 53]\nclass = clear"] ;
839 -> 841 ;
842 [label="Clearsky GHI <= 435.5\ngini = 0.2379\nsamples = 1210\nvalue = [167, 1043]\nclass = clear"] ;
838 -> 842 ;
843 [label="Clearsky GHI <= 434.5\ngini = 0.2601\nsamples = 449\nvalue = [69, 380]\nclass = clear"] ;
842 -> 843 ;
844 [label="GHI <= 429.5\ngini = 0.2539\nsamples = 382\nvalue = [57, 325]\nclass = clear"] ;
843 -> 844 ;
845 [label="gini = 0.2907\nsamples = 51\nvalue = [9, 42]\nclass = clear"] ;
844 -> 845 ;
846 [label="GHI <= 431.5\ngini = 0.248\nsamples = 331\nvalue = [48, 283]\nclass = clear"] ;
844 -> 846 ;
847 [label="Clearsky GHI <= 430.5\ngini = 0.2217\nsamples = 126\nvalue = [16, 110]\nclass = clear"] ;
846 -> 847 ;
848 [label="gini = 0.2155\nsamples = 57\nvalue = [7, 50]\nclass = clear"] ;
847 -> 848 ;
849 [label="gini = 0.2268\nsamples = 69\nvalue = [9, 60]\nclass = clear"] ;
847 -> 849 ;
850 [label="GHI <= 433.5\ngini = 0.2635\nsamples = 205\nvalue = [32, 173]\nclass = clear"] ;
846 -> 850 ;
851 [label="Clearsky GHI <= 432.5\ngini = 0.2762\nsamples = 145\nvalue = [24, 121]\nclass = clear"] ;
850 -> 851 ;
852 [label="gini = 0.2809\nsamples = 71\nvalue = [12, 59]\nclass = clear"] ;
851 -> 852 ;
853 [label="gini = 0.2717\nsamples = 74\nvalue = [12, 62]\nclass = clear"] ;
851 -> 853 ;
854 [label="gini = 0.2311\nsamples = 60\nvalue = [8, 52]\nclass = clear"] ;
850 -> 854 ;
855 [label="gini = 0.2941\nsamples = 67\nvalue = [12, 55]\nclass = clear"] ;
843 -> 855 ;
856 [label="GHI <= 440.5\ngini = 0.2244\nsamples = 761\nvalue = [98, 663]\nclass = clear"] ;
842 -> 856 ;
857 [label="Clearsky GHI <= 439.5\ngini = 0.1853\nsamples = 300\nvalue = [31, 269]\nclass = clear"] ;
856 -> 857 ;
858 [label="GHI <= 438.5\ngini = 0.1947\nsamples = 247\nvalue = [27, 220]\nclass = clear"] ;
857 -> 858 ;
859 [label="GHI <= 436.5\ngini = 0.1732\nsamples = 188\nvalue = [18, 170]\nclass = clear"] ;
858 -> 859 ;
860 [label="gini = 0.2122\nsamples = 58\nvalue = [7, 51]\nclass = clear"] ;
859 -> 860 ;
861 [label="Clearsky GHI <= 437.5\ngini = 0.1549\nsamples = 130\nvalue = [11, 119]\nclass = clear"] ;
859 -> 861 ;
862 [label="gini = 0.1225\nsamples = 61\nvalue = [4, 57]\nclass = clear"] ;
861 -> 862 ;
863 [label="gini = 0.1823\nsamples = 69\nvalue = [7, 62]\nclass = clear"] ;
861 -> 863 ;
864 [label="gini = 0.2585\nsamples = 59\nvalue = [9, 50]\nclass = clear"] ;
858 -> 864 ;
865 [label="gini = 0.1396\nsamples = 53\nvalue = [4, 49]\nclass = clear"] ;
857 -> 865 ;
866 [label="GHI <= 441.5\ngini = 0.2484\nsamples = 461\nvalue = [67, 394]\nclass = clear"] ;
856 -> 866 ;
867 [label="gini = 0.2952\nsamples = 50\nvalue = [9, 41]\nclass = clear"] ;
866 -> 867 ;
868 [label="Clearsky GHI <= 445.5\ngini = 0.2424\nsamples = 411\nvalue = [58, 353]\nclass = clear"] ;
866 -> 868 ;
869 [label="GHI <= 443.5\ngini = 0.2311\nsamples = 270\nvalue = [36, 234]\nclass = clear"] ;
868 -> 869 ;
870 [label="Clearsky GHI <= 442.5\ngini = 0.2203\nsamples = 119\nvalue = [15, 104]\nclass = clear"] ;
869 -> 870 ;
871 [label="gini = 0.2293\nsamples = 53\nvalue = [7, 46]\nclass = clear"] ;
870 -> 871 ;
872 [label="gini = 0.213\nsamples = 66\nvalue = [8, 58]\nclass = clear"] ;
870 -> 872 ;
873 [label="Clearsky GHI <= 444.5\ngini = 0.2395\nsamples = 151\nvalue = [21, 130]\nclass = clear"] ;
869 -> 873 ;
874 [label="gini = 0.2364\nsamples = 73\nvalue = [10, 63]\nclass = clear"] ;
873 -> 874 ;
875 [label="gini = 0.2423\nsamples = 78\nvalue = [11, 67]\nclass = clear"] ;
873 -> 875 ;
876 [label="Clearsky GHI <= 446.5\ngini = 0.2634\nsamples = 141\nvalue = [22, 119]\nclass = clear"] ;
868 -> 876 ;
877 [label="gini = 0.2919\nsamples = 62\nvalue = [11, 51]\nclass = clear"] ;
876 -> 877 ;
878 [label="gini = 0.2397\nsamples = 79\nvalue = [11, 68]\nclass = clear"] ;
876 -> 878 ;
879 [label="GHI <= 450.5\ngini = 0.2905\nsamples = 465\nvalue = [82, 383]\nclass = clear"] ;
615 -> 879 ;
880 [label="GHI <= 448.5\ngini = 0.3376\nsamples = 200\nvalue = [43, 157]\nclass = clear"] ;
879 -> 880 ;
881 [label="gini = 0.3496\nsamples = 62\nvalue = [14, 48]\nclass = clear"] ;
880 -> 881 ;
882 [label="Clearsky GHI <= 449.5\ngini = 0.332\nsamples = 138\nvalue = [29, 109]\nclass = clear"] ;
880 -> 882 ;
883 [label="gini = 0.3235\nsamples = 69\nvalue = [14, 55]\nclass = clear"] ;
882 -> 883 ;
884 [label="gini = 0.3403\nsamples = 69\nvalue = [15, 54]\nclass = clear"] ;
882 -> 884 ;
885 [label="Clearsky GHI <= 451.5\ngini = 0.251\nsamples = 265\nvalue = [39, 226]\nclass = clear"] ;
879 -> 885 ;
886 [label="gini = 0.1847\nsamples = 68\nvalue = [7, 61]\nclass = clear"] ;
885 -> 886 ;
887 [label="Clearsky GHI <= 453.5\ngini = 0.2721\nsamples = 197\nvalue = [32, 165]\nclass = clear"] ;
885 -> 887 ;
888 [label="Clearsky GHI <= 452.5\ngini = 0.2604\nsamples = 117\nvalue = [18, 99]\nclass = clear"] ;
887 -> 888 ;
889 [label="gini = 0.2645\nsamples = 51\nvalue = [8, 43]\nclass = clear"] ;
888 -> 889 ;
890 [label="gini = 0.2571\nsamples = 66\nvalue = [10, 56]\nclass = clear"] ;
888 -> 890 ;
891 [label="gini = 0.2887\nsamples = 80\nvalue = [14, 66]\nclass = clear"] ;
887 -> 891 ;
892 [label="Clearsky GHI <= 978.5\ngini = 0.1874\nsamples = 49234\nvalue = [5152, 44082]\nclass = clear"] ;
390 -> 892 ;
893 [label="GHI <= 653.5\ngini = 0.1944\nsamples = 42265\nvalue = [4610, 37655]\nclass = clear"] ;
892 -> 893 ;
894 [label="Clearsky GHI <= 570.5\ngini = 0.1845\nsamples = 16688\nvalue = [1716, 14972]\nclass = clear"] ;
893 -> 894 ;
895 [label="GHI <= 568.5\ngini = 0.1965\nsamples = 8981\nvalue = [992, 7989]\nclass = clear"] ;
894 -> 895 ;
896 [label="Clearsky GHI <= 531.5\ngini = 0.1945\nsamples = 8778\nvalue = [958, 7820]\nclass = clear"] ;
895 -> 896 ;
897 [label="GHI <= 514.5\ngini = 0.2006\nsamples = 5669\nvalue = [641, 5028]\nclass = clear"] ;
896 -> 897 ;
898 [label="GHI <= 511.5\ngini = 0.1906\nsamples = 4386\nvalue = [468, 3918]\nclass = clear"] ;
897 -> 898 ;
899 [label="Clearsky GHI <= 500.5\ngini = 0.1955\nsamples = 4153\nvalue = [456, 3697]\nclass = clear"] ;
898 -> 899 ;
900 [label="GHI <= 493.5\ngini = 0.1891\nsamples = 3330\nvalue = [352, 2978]\nclass = clear"] ;
899 -> 900 ;
901 [label="GHI <= 486.5\ngini = 0.1978\nsamples = 2867\nvalue = [319, 2548]\nclass = clear"] ;
900 -> 901 ;
902 [label="Clearsky GHI <= 485.5\ngini = 0.2026\nsamples = 2360\nvalue = [270, 2090]\nclass = clear"] ;
901 -> 902 ;
903 [label="Clearsky GHI <= 474.5\ngini = 0.1994\nsamples = 2288\nvalue = [257, 2031]\nclass = clear"] ;
902 -> 903 ;
904 [label="GHI <= 455.5\ngini = 0.2069\nsamples = 1476\nvalue = [173, 1303]\nclass = clear"] ;
903 -> 904 ;
905 [label="gini = 0.1748\nsamples = 62\nvalue = [6, 56]\nclass = clear"] ;
904 -> 905 ;
906 [label="Clearsky GHI <= 457.5\ngini = 0.2083\nsamples = 1414\nvalue = [167, 1247]\nclass = clear"] ;
904 -> 906 ;
907 [label="Clearsky GHI <= 456.5\ngini = 0.2366\nsamples = 124\nvalue = [17, 107]\nclass = clear"] ;
906 -> 907 ;
908 [label="gini = 0.2378\nsamples = 58\nvalue = [8, 50]\nclass = clear"] ;
907 -> 908 ;
909 [label="gini = 0.2355\nsamples = 66\nvalue = [9, 57]\nclass = clear"] ;
907 -> 909 ;
910 [label="GHI <= 459.5\ngini = 0.2055\nsamples = 1290\nvalue = [150, 1140]\nclass = clear"] ;
906 -> 910 ;
911 [label="GHI <= 458.5\ngini = 0.179\nsamples = 161\nvalue = [16, 145]\nclass = clear"] ;
910 -> 911 ;
912 [label="gini = 0.1975\nsamples = 72\nvalue = [8, 64]\nclass = clear"] ;
911 -> 912 ;
913 [label="gini = 0.1636\nsamples = 89\nvalue = [8, 81]\nclass = clear"] ;
911 -> 913 ;
914 [label="GHI <= 461.5\ngini = 0.2092\nsamples = 1129\nvalue = [134, 995]\nclass = clear"] ;
910 -> 914 ;
915 [label="GHI <= 460.5\ngini = 0.2477\nsamples = 145\nvalue = [21, 124]\nclass = clear"] ;
914 -> 915 ;
916 [label="gini = 0.2188\nsamples = 72\nvalue = [9, 63]\nclass = clear"] ;
915 -> 916 ;
917 [label="gini = 0.2747\nsamples = 73\nvalue = [12, 61]\nclass = clear"] ;
915 -> 917 ;
918 [label="GHI <= 462.5\ngini = 0.2033\nsamples = 984\nvalue = [113, 871]\nclass = clear"] ;
914 -> 918 ;
919 [label="gini = 0.1609\nsamples = 68\nvalue = [6, 62]\nclass = clear"] ;
918 -> 919 ;
920 [label="Clearsky GHI <= 466.5\ngini = 0.2063\nsamples = 916\nvalue = [107, 809]\nclass = clear"] ;
918 -> 920 ;
921 [label="GHI <= 465.5\ngini = 0.22\nsamples = 294\nvalue = [37, 257]\nclass = clear"] ;
920 -> 921 ;
922 [label="Clearsky GHI <= 463.5\ngini = 0.2014\nsamples = 220\nvalue = [25, 195]\nclass = clear"] ;
921 -> 922 ;
923 [label="gini = 0.205\nsamples = 69\nvalue = [8, 61]\nclass = clear"] ;
922 -> 923 ;
924 [label="Clearsky GHI <= 464.5\ngini = 0.1998\nsamples = 151\nvalue = [17, 134]\nclass = clear"] ;
922 -> 924 ;
925 [label="gini = 0.1997\nsamples = 80\nvalue = [9, 71]\nclass = clear"] ;
924 -> 925 ;
926 [label="gini = 0.2\nsamples = 71\nvalue = [8, 63]\nclass = clear"] ;
924 -> 926 ;
927 [label="gini = 0.2717\nsamples = 74\nvalue = [12, 62]\nclass = clear"] ;
921 -> 927 ;
928 [label="Clearsky GHI <= 470.5\ngini = 0.1997\nsamples = 622\nvalue = [70, 552]\nclass = clear"] ;
920 -> 928 ;
929 [label="GHI <= 469.5\ngini = 0.1805\nsamples = 319\nvalue = [32, 287]\nclass = clear"] ;
928 -> 929 ;
930 [label="GHI <= 468.5\ngini = 0.1939\nsamples = 239\nvalue = [26, 213]\nclass = clear"] ;
929 -> 930 ;
931 [label="GHI <= 467.5\ngini = 0.1718\nsamples = 158\nvalue = [15, 143]\nclass = clear"] ;
930 -> 931 ;
932 [label="gini = 0.1874\nsamples = 86\nvalue = [9, 77]\nclass = clear"] ;
931 -> 932 ;
933 [label="gini = 0.1528\nsamples = 72\nvalue = [6, 66]\nclass = clear"] ;
931 -> 933 ;
934 [label="gini = 0.2347\nsamples = 81\nvalue = [11, 70]\nclass = clear"] ;
930 -> 934 ;
935 [label="gini = 0.1388\nsamples = 80\nvalue = [6, 74]\nclass = clear"] ;
929 -> 935 ;
936 [label="Clearsky GHI <= 471.5\ngini = 0.2194\nsamples = 303\nvalue = [38, 265]\nclass = clear"] ;
928 -> 936 ;
937 [label="gini = 0.2364\nsamples = 73\nvalue = [10, 63]\nclass = clear"] ;
936 -> 937 ;
938 [label="Clearsky GHI <= 472.5\ngini = 0.2138\nsamples = 230\nvalue = [28, 202]\nclass = clear"] ;
936 -> 938 ;
939 [label="gini = 0.1975\nsamples = 81\nvalue = [9, 72]\nclass = clear"] ;
938 -> 939 ;
940 [label="Clearsky GHI <= 473.5\ngini = 0.2225\nsamples = 149\nvalue = [19, 130]\nclass = clear"] ;
938 -> 940 ;
941 [label="gini = 0.226\nsamples = 77\nvalue = [10, 67]\nclass = clear"] ;
940 -> 941 ;
942 [label="gini = 0.2188\nsamples = 72\nvalue = [9, 63]\nclass = clear"] ;
940 -> 942 ;
943 [label="GHI <= 480.5\ngini = 0.1855\nsamples = 812\nvalue = [84, 728]\nclass = clear"] ;
903 -> 943 ;
944 [label="Clearsky GHI <= 475.5\ngini = 0.1521\nsamples = 434\nvalue = [36, 398]\nclass = clear"] ;
943 -> 944 ;
945 [label="gini = 0.1172\nsamples = 80\nvalue = [5, 75]\nclass = clear"] ;
944 -> 945 ;
946 [label="Clearsky GHI <= 477.5\ngini = 0.1598\nsamples = 354\nvalue = [31, 323]\nclass = clear"] ;
944 -> 946 ;
947 [label="Clearsky GHI <= 476.5\ngini = 0.1913\nsamples = 140\nvalue = [15, 125]\nclass = clear"] ;
946 -> 947 ;
948 [label="gini = 0.1884\nsamples = 76\nvalue = [8, 68]\nclass = clear"] ;
947 -> 948 ;
949 [label="gini = 0.1948\nsamples = 64\nvalue = [7, 57]\nclass = clear"] ;
947 -> 949 ;
950 [label="Clearsky GHI <= 478.5\ngini = 0.1384\nsamples = 214\nvalue = [16, 198]\nclass = clear"] ;
946 -> 950 ;
951 [label="gini = 0.0749\nsamples = 77\nvalue = [3, 74]\nclass = clear"] ;
950 -> 951 ;
952 [label="Clearsky GHI <= 479.5\ngini = 0.1718\nsamples = 137\nvalue = [13, 124]\nclass = clear"] ;
950 -> 952 ;
953 [label="gini = 0.1847\nsamples = 68\nvalue = [7, 61]\nclass = clear"] ;
952 -> 953 ;
954 [label="gini = 0.1588\nsamples = 69\nvalue = [6, 63]\nclass = clear"] ;
952 -> 954 ;
955 [label="GHI <= 482.5\ngini = 0.2217\nsamples = 378\nvalue = [48, 330]\nclass = clear"] ;
943 -> 955 ;
956 [label="GHI <= 481.5\ngini = 0.2381\nsamples = 152\nvalue = [21, 131]\nclass = clear"] ;
955 -> 956 ;
957 [label="gini = 0.2211\nsamples = 79\nvalue = [10, 69]\nclass = clear"] ;
956 -> 957 ;
958 [label="gini = 0.256\nsamples = 73\nvalue = [11, 62]\nclass = clear"] ;
956 -> 958 ;
959 [label="Clearsky GHI <= 483.5\ngini = 0.2104\nsamples = 226\nvalue = [27, 199]\nclass = clear"] ;
955 -> 959 ;
960 [label="gini = 0.1919\nsamples = 93\nvalue = [10, 83]\nclass = clear"] ;
959 -> 960 ;
961 [label="Clearsky GHI <= 484.5\ngini = 0.223\nsamples = 133\nvalue = [17, 116]\nclass = clear"] ;
959 -> 961 ;
962 [label="gini = 0.2162\nsamples = 73\nvalue = [9, 64]\nclass = clear"] ;
961 -> 962 ;
963 [label="gini = 0.2311\nsamples = 60\nvalue = [8, 52]\nclass = clear"] ;
961 -> 963 ;
964 [label="gini = 0.2959\nsamples = 72\nvalue = [13, 59]\nclass = clear"] ;
902 -> 964 ;
965 [label="Clearsky GHI <= 490.5\ngini = 0.1746\nsamples = 507\nvalue = [49, 458]\nclass = clear"] ;
901 -> 965 ;
966 [label="GHI <= 489.5\ngini = 0.1385\nsamples = 294\nvalue = [22, 272]\nclass = clear"] ;
965 -> 966 ;
967 [label="Clearsky GHI <= 487.5\ngini = 0.1585\nsamples = 219\nvalue = [19, 200]\nclass = clear"] ;
966 -> 967 ;
968 [label="gini = 0.1827\nsamples = 59\nvalue = [6, 53]\nclass = clear"] ;
967 -> 968 ;
969 [label="GHI <= 488.5\ngini = 0.1493\nsamples = 160\nvalue = [13, 147]\nclass = clear"] ;
967 -> 969 ;
970 [label="gini = 0.1454\nsamples = 76\nvalue = [6, 70]\nclass = clear"] ;
969 -> 970 ;
971 [label="gini = 0.1528\nsamples = 84\nvalue = [7, 77]\nclass = clear"] ;
969 -> 971 ;
972 [label="gini = 0.0768\nsamples = 75\nvalue = [3, 72]\nclass = clear"] ;
966 -> 972 ;
973 [label="Clearsky GHI <= 491.5\ngini = 0.2214\nsamples = 213\nvalue = [27, 186]\nclass = clear"] ;
965 -> 973 ;
974 [label="gini = 0.2688\nsamples = 75\nvalue = [12, 63]\nclass = clear"] ;
973 -> 974 ;
975 [label="Clearsky GHI <= 492.5\ngini = 0.1938\nsamples = 138\nvalue = [15, 123]\nclass = clear"] ;
973 -> 975 ;
976 [label="gini = 0.1327\nsamples = 70\nvalue = [5, 65]\nclass = clear"] ;
975 -> 976 ;
977 [label="gini = 0.2509\nsamples = 68\nvalue = [10, 58]\nclass = clear"] ;
975 -> 977 ;
978 [label="Clearsky GHI <= 495.5\ngini = 0.1324\nsamples = 463\nvalue = [33, 430]\nclass = clear"] ;
900 -> 978 ;
979 [label="Clearsky GHI <= 494.5\ngini = 0.0931\nsamples = 143\nvalue = [7, 136]\nclass = clear"] ;
978 -> 979 ;
980 [label="gini = 0.1092\nsamples = 69\nvalue = [4, 65]\nclass = clear"] ;
979 -> 980 ;
981 [label="gini = 0.0778\nsamples = 74\nvalue = [3, 71]\nclass = clear"] ;
979 -> 981 ;
982 [label="Clearsky GHI <= 496.5\ngini = 0.1493\nsamples = 320\nvalue = [26, 294]\nclass = clear"] ;
978 -> 982 ;
983 [label="gini = 0.1827\nsamples = 59\nvalue = [6, 53]\nclass = clear"] ;
982 -> 983 ;
984 [label="GHI <= 497.5\ngini = 0.1415\nsamples = 261\nvalue = [20, 241]\nclass = clear"] ;
982 -> 984 ;
985 [label="gini = 0.0832\nsamples = 69\nvalue = [3, 66]\nclass = clear"] ;
984 -> 985 ;
986 [label="Clearsky GHI <= 499.5\ngini = 0.1614\nsamples = 192\nvalue = [17, 175]\nclass = clear"] ;
984 -> 986 ;
987 [label="Clearsky GHI <= 498.5\ngini = 0.1761\nsamples = 123\nvalue = [12, 111]\nclass = clear"] ;
986 -> 987 ;
988 [label="gini = 0.1748\nsamples = 62\nvalue = [6, 56]\nclass = clear"] ;
987 -> 988 ;
989 [label="gini = 0.1774\nsamples = 61\nvalue = [6, 55]\nclass = clear"] ;
987 -> 989 ;
990 [label="gini = 0.1344\nsamples = 69\nvalue = [5, 64]\nclass = clear"] ;
986 -> 990 ;
991 [label="Clearsky GHI <= 508.5\ngini = 0.2208\nsamples = 823\nvalue = [104, 719]\nclass = clear"] ;
899 -> 991 ;
992 [label="Clearsky GHI <= 507.5\ngini = 0.2279\nsamples = 610\nvalue = [80, 530]\nclass = clear"] ;
991 -> 992 ;
993 [label="Clearsky GHI <= 505.5\ngini = 0.218\nsamples = 530\nvalue = [66, 464]\nclass = clear"] ;
992 -> 993 ;
994 [label="GHI <= 501.5\ngini = 0.2285\nsamples = 380\nvalue = [50, 330]\nclass = clear"] ;
993 -> 994 ;
995 [label="gini = 0.2474\nsamples = 83\nvalue = [12, 71]\nclass = clear"] ;
994 -> 995 ;
996 [label="GHI <= 502.5\ngini = 0.2232\nsamples = 297\nvalue = [38, 259]\nclass = clear"] ;
994 -> 996 ;
997 [label="gini = 0.18\nsamples = 60\nvalue = [6, 54]\nclass = clear"] ;
996 -> 997 ;
998 [label="GHI <= 503.5\ngini = 0.2336\nsamples = 237\nvalue = [32, 205]\nclass = clear"] ;
996 -> 998 ;
