digraph Tree {
node [shape=box] ;
0 [label="ratio <= 0.9992\ngini = 0.3992\nsamples = 236664\nvalue = [171466, 65198]\nclass = cloudy"] ;
1 [label="gini = 0.0\nsamples = 159206\nvalue = [159206, 0]\nclass = cloudy"] ;
0 -> 1 [labeldistance=2.5, labelangle=45, headlabel="True"] ;
2 [label="GHI <= 199.5\ngini = 0.2665\nsamples = 77458\nvalue = [12260, 65198]\nclass = clear"] ;
0 -> 2 [labeldistance=2.5, labelangle=-45, headlabel="False"] ;
3 [label="GHI <= 110.5\ngini = 0.456\nsamples = 12798\nvalue = [4500, 8298]\nclass = clear"] ;
2 -> 3 ;
4 [label="Clearsky GHI <= 35.5\ngini = 0.4828\nsamples = 7640\nvalue = [3111, 4529]\nclass = clear"] ;
3 -> 4 ;
5 [label="GHI <= 22.5\ngini = 0.4995\nsamples = 2335\nvalue = [1129, 1206]\nclass = clear"] ;
4 -> 5 ;
6 [label="Clearsky GHI <= 11.5\ngini = 0.4924\nsamples = 960\nvalue = [421, 539]\nclass = clear"] ;
5 -> 6 ;
7 [label="GHI <= 10.5\ngini = 0.4082\nsamples = 28\nvalue = [20, 8]\nclass = cloudy"] ;
6 -> 7 ;
8 [label="gini = 0.5\nsamples = 4\nvalue = [2, 2]\nclass = cloudy"] ;
7 -> 8 ;
9 [label="gini = 0.375\nsamples = 24\nvalue = [18, 6]\nclass = cloudy"] ;
7 -> 9 ;
10 [label="GHI <= 12.5\ngini = 0.4903\nsamples = 932\nvalue = [401, 531]\nclass = clear"] ;
6 -> 10 ;
11 [label="gini = 0.5\nsamples = 40\nvalue = [20, 20]\nclass = cloudy"] ;
10 -> 11 ;
12 [label="GHI <= 19.5\ngini = 0.4894\nsamples = 892\nvalue = [381, 511]\nclass = clear"] ;
10 -> 12 ;
13 [label="GHI <= 15.5\ngini = 0.4861\nsamples = 629\nvalue = [262, 367]\nclass = clear"] ;
12 -> 13 ;
14 [label="Clearsky GHI <= 13.5\ngini = 0.491\nsamples = 261\nvalue = [113, 148]\nclass = clear"] ;
13 -> 14 ;
15 [label="gini = 0.4865\nsamples = 67\nvalue = [28, 39]\nclass = clear"] ;
14 -> 15 ;
16 [label="GHI <= 14.5\ngini = 0.4923\nsamples = 194\nvalue = [85, 109]\nclass = clear"] ;
14 -> 16 ;
17 [label="gini = 0.4941\nsamples = 101\nvalue = [45, 56]\nclass = clear"] ;
16 -> 17 ;
18 [label="gini = 0.4902\nsamples = 93\nvalue = [40, 53]\nclass = clear"] ;
16 -> 18 ;
19 [label="GHI <= 16.5\ngini = 0.4819\nsamples = 368\nvalue = [149, 219]\nclass = clear"] ;
13 -> 19 ;
20 [label="gini = 0.4764\nsamples = 92\nvalue = [36, 56]\nclass = clear"] ;
19 -> 20 ;
21 [label="Clearsky GHI <= 17.5\ngini = 0.4836\nsamples = 276\nvalue = [113, 163]\nclass = clear"] ;
19 -> 21 ;
22 [label="gini = 0.4864\nsamples = 91\nvalue = [38, 53]\nclass = clear"] ;
21 -> 22 ;
23 [label="GHI <= 18.5\ngini = 0.4821\nsamples = 185\nvalue = [75, 110]\nclass = clear"] ;
21 -> 23 ;
24 [label="gini = 0.4784\nsamples = 101\nvalue = [40, 61]\nclass = clear"] ;
23 -> 24 ;
25 [label="gini = 0.4861\nsamples = 84\nvalue = [35, 49]\nclass = clear"] ;
23 -> 25 ;
26 [label="Clearsky GHI <= 21.5\ngini = 0.4955\nsamples = 263\nvalue = [119, 144]\nclass = clear"] ;
12 -> 26 ;
27 [label="GHI <= 20.5\ngini = 0.4935\nsamples = 149\nvalue = [66, 83]\nclass = clear"] ;
26 -> 27 ;
28 [label="gini = 0.4938\nsamples = 63\nvalue = [28, 35]\nclass = clear"] ;
27 -> 28 ;
29 [label="gini = 0.4932\nsamples = 86\nvalue = [38, 48]\nclass = clear"] ;
27 -> 29 ;
30 [label="gini = 0.4975\nsamples = 114\nvalue = [53, 61]\nclass = clear"] ;
26 -> 30 ;
31 [label="Clearsky GHI <= 26.5\ngini = 0.4996\nsamples = 1375\nvalue = [708, 667]\nclass = cloudy"] ;
5 -> 31 ;
32 [label="GHI <= 24.5\ngini = 0.4868\nsamples = 492\nvalue = [286, 206]\nclass = cloudy"] ;
31 -> 32 ;
33 [label="GHI <= 23.5\ngini = 0.485\nsamples = 271\nvalue = [159, 112]\nclass = cloudy"] ;
32 -> 33 ;
34 [label="gini = 0.4841\nsamples = 129\nvalue = [76, 53]\nclass = cloudy"] ;
33 -> 34 ;
35 [label="gini = 0.4857\nsamples = 142\nvalue = [83, 59]\nclass = cloudy"] ;
33 -> 35 ;
36 [label="GHI <= 25.5\ngini = 0.4889\nsamples = 221\nvalue = [127, 94]\nclass = cloudy"] ;
32 -> 36 ;
37 [label="gini = 0.4923\nsamples = 105\nvalue = [59, 46]\nclass = cloudy"] ;
36 -> 37 ;
38 [label="gini = 0.4851\nsamples = 116\nvalue = [68, 48]\nclass = cloudy"] ;
36 -> 38 ;
39 [label="Clearsky GHI <= 31.5\ngini = 0.499\nsamples = 883\nvalue = [422, 461]\nclass = clear"] ;
31 -> 39 ;
40 [label="GHI <= 29.5\ngini = 0.5\nsamples = 492\nvalue = [245, 247]\nclass = clear"] ;
39 -> 40 ;
41 [label="Clearsky GHI <= 27.5\ngini = 0.4991\nsamples = 315\nvalue = [151, 164]\nclass = clear"] ;
40 -> 41 ;
42 [label="gini = 0.4966\nsamples = 109\nvalue = [50, 59]\nclass = clear"] ;
41 -> 42 ;
43 [label="Clearsky GHI <= 28.5\ngini = 0.4998\nsamples = 206\nvalue = [101, 105]\nclass = clear"] ;
41 -> 43 ;
44 [label="gini = 0.4992\nsamples = 100\nvalue = [52, 48]\nclass = cloudy"] ;
43 -> 44 ;
45 [label="gini = 0.4972\nsamples = 106\nvalue = [49, 57]\nclass = clear"] ;
43 -> 45 ;
46 [label="Clearsky GHI <= 30.5\ngini = 0.4981\nsamples = 177\nvalue = [94, 83]\nclass = cloudy"] ;
40 -> 46 ;
47 [label="gini = 0.4989\nsamples = 84\nvalue = [44, 40]\nclass = cloudy"] ;
46 -> 47 ;
48 [label="gini = 0.4972\nsamples = 93\nvalue = [50, 43]\nclass = cloudy"] ;
46 -> 48 ;
49 [label="Clearsky GHI <= 33.5\ngini = 0.4955\nsamples = 391\nvalue = [177, 214]\nclass = clear"] ;
39 -> 49 ;
50 [label="Clearsky GHI <= 32.5\ngini = 0.4936\nsamples = 203\nvalue = [90, 113]\nclass = clear"] ;
49 -> 50 ;
51 [label="gini = 0.4941\nsamples = 101\nvalue = [45, 56]\nclass = clear"] ;
50 -> 51 ;
52 [label="gini = 0.4931\nsamples = 102\nvalue = [45, 57]\nclass = clear"] ;
50 -> 52 ;
53 [label="GHI <= 34.5\ngini = 0.4972\nsamples = 188\nvalue = [87, 101]\nclass = clear"] ;
49 -> 53 ;
54 [label="gini = 0.4964\nsamples = 83\nvalue = [38, 45]\nclass = clear"] ;
53 -> 54 ;
55 [label="gini = 0.4978\nsamples = 105\nvalue = [49, 56]\nclass = clear"] ;
53 -> 55 ;
56 [label="Clearsky GHI <= 46.5\ngini = 0.4681\nsamples = 5305\nvalue = [1982, 3323]\nclass = clear"] ;
4 -> 56 ;
57 [label="Clearsky GHI <= 39.5\ngini = 0.4835\nsamples = 860\nvalue = [352, 508]\nclass = clear"] ;
56 -> 57 ;
58 [label="GHI <= 38.5\ngini = 0.4786\nsamples = 300\nvalue = [119, 181]\nclass = clear"] ;
57 -> 58 ;
59 [label="Clearsky GHI <= 36.5\ngini = 0.4853\nsamples = 239\nvalue = [99, 140]\nclass = clear"] ;
58 -> 59 ;
60 [label="gini = 0.4827\nsamples = 86\nvalue = [35, 51]\nclass = clear"] ;
59 -> 60 ;
61 [label="Clearsky GHI <= 37.5\ngini = 0.4867\nsamples = 153\nvalue = [64, 89]\nclass = clear"] ;
59 -> 61 ;
62 [label="gini = 0.4877\nsamples = 83\nvalue = [35, 48]\nclass = clear"] ;
61 -> 62 ;
63 [label="gini = 0.4853\nsamples = 70\nvalue = [29, 41]\nclass = clear"] ;
61 -> 63 ;
64 [label="gini = 0.4407\nsamples = 61\nvalue = [20, 41]\nclass = clear"] ;
58 -> 64 ;
65 [label="GHI <= 42.5\ngini = 0.4859\nsamples = 560\nvalue = [233, 327]\nclass = clear"] ;
57 -> 65 ;
66 [label="Clearsky GHI <= 41.5\ngini = 0.4918\nsamples = 211\nvalue = [92, 119]\nclass = clear"] ;
65 -> 66 ;
67 [label="GHI <= 40.5\ngini = 0.4831\nsamples = 147\nvalue = [60, 87]\nclass = clear"] ;
66 -> 67 ;
68 [label="gini = 0.483\nsamples = 76\nvalue = [31, 45]\nclass = clear"] ;
67 -> 68 ;
69 [label="gini = 0.4832\nsamples = 71\nvalue = [29, 42]\nclass = clear"] ;
67 -> 69 ;
70 [label="gini = 0.5\nsamples = 64\nvalue = [32, 32]\nclass = cloudy"] ;
66 -> 70 ;
71 [label="Clearsky GHI <= 43.5\ngini = 0.4816\nsamples = 349\nvalue = [141, 208]\nclass = clear"] ;
65 -> 71 ;
72 [label="gini = 0.4657\nsamples = 84\nvalue = [31, 53]\nclass = clear"] ;
71 -> 72 ;
73 [label="GHI <= 45.5\ngini = 0.4856\nsamples = 265\nvalue = [110, 155]\nclass = clear"] ;
71 -> 73 ;
74 [label="Clearsky GHI <= 44.5\ngini = 0.4848\nsamples = 172\nvalue = [71, 101]\nclass = clear"] ;
73 -> 74 ;
75 [label="gini = 0.4842\nsamples = 90\nvalue = [37, 53]\nclass = clear"] ;
74 -> 75 ;
76 [label="gini = 0.4854\nsamples = 82\nvalue = [34, 48]\nclass = clear"] ;
74 -> 76 ;
77 [label="gini = 0.487\nsamples = 93\nvalue = [39, 54]\nclass = clear"] ;
73 -> 77 ;
78 [label="Clearsky GHI <= 67.5\ngini = 0.4645\nsamples = 4445\nvalue = [1630, 2815]\nclass = clear"] ;
56 -> 78 ;
79 [label="GHI <= 57.5\ngini = 0.4711\nsamples = 1701\nvalue = [646, 1055]\nclass = clear"] ;
78 -> 79 ;
80 [label="GHI <= 48.5\ngini = 0.4629\nsamples = 888\nvalue = [323, 565]\nclass = clear"] ;
79 -> 80 ;
81 [label="GHI <= 47.5\ngini = 0.4457\nsamples = 182\nvalue = [61, 121]\nclass = clear"] ;
80 -> 81 ;
82 [label="gini = 0.4723\nsamples = 102\nvalue = [39, 63]\nclass = clear"] ;
81 -> 82 ;
83 [label="gini = 0.3988\nsamples = 80\nvalue = [22, 58]\nclass = clear"] ;
81 -> 83 ;
84 [label="Clearsky GHI <= 52.5\ngini = 0.4668\nsamples = 706\nvalue = [262, 444]\nclass = clear"] ;
80 -> 84 ;
85 [label="Clearsky GHI <= 51.5\ngini = 0.4739\nsamples = 311\nvalue = [120, 191]\nclass = clear"] ;
84 -> 85 ;
86 [label="Clearsky GHI <= 50.5\ngini = 0.4709\nsamples = 232\nvalue = [88, 144]\nclass = clear"] ;
85 -> 86 ;
87 [label="GHI <= 49.5\ngini = 0.4683\nsamples = 147\nvalue = [55, 92]\nclass = clear"] ;
86 -> 87 ;
88 [label="gini = 0.4669\nsamples = 70\nvalue = [26, 44]\nclass = clear"] ;
87 -> 88 ;
89 [label="gini = 0.4696\nsamples = 77\nvalue = [29, 48]\nclass = clear"] ;
87 -> 89 ;
90 [label="gini = 0.475\nsamples = 85\nvalue = [33, 52]\nclass = clear"] ;
86 -> 90 ;
91 [label="gini = 0.482\nsamples = 79\nvalue = [32, 47]\nclass = clear"] ;
85 -> 91 ;
92 [label="Clearsky GHI <= 53.5\ngini = 0.4605\nsamples = 395\nvalue = [142, 253]\nclass = clear"] ;
84 -> 92 ;
93 [label="gini = 0.4335\nsamples = 85\nvalue = [27, 58]\nclass = clear"] ;
92 -> 93 ;
94 [label="GHI <= 54.5\ngini = 0.4667\nsamples = 310\nvalue = [115, 195]\nclass = clear"] ;
92 -> 94 ;
95 [label="gini = 0.4829\nsamples = 81\nvalue = [33, 48]\nclass = clear"] ;
94 -> 95 ;
96 [label="Clearsky GHI <= 55.5\ngini = 0.4597\nsamples = 229\nvalue = [82, 147]\nclass = clear"] ;
94 -> 96 ;
97 [label="gini = 0.4414\nsamples = 73\nvalue = [24, 49]\nclass = clear"] ;
96 -> 97 ;
98 [label="GHI <= 56.5\ngini = 0.4671\nsamples = 156\nvalue = [58, 98]\nclass = clear"] ;
96 -> 98 ;
99 [label="gini = 0.464\nsamples = 82\nvalue = [30, 52]\nclass = clear"] ;
98 -> 99 ;
100 [label="gini = 0.4704\nsamples = 74\nvalue = [28, 46]\nclass = clear"] ;
98 -> 100 ;
101 [label="Clearsky GHI <= 59.5\ngini = 0.4789\nsamples = 813\nvalue = [323, 490]\nclass = clear"] ;
79 -> 101 ;
102 [label="GHI <= 58.5\ngini = 0.492\nsamples = 158\nvalue = [69, 89]\nclass = clear"] ;
101 -> 102 ;
103 [label="gini = 0.4734\nsamples = 78\nvalue = [30, 48]\nclass = clear"] ;
102 -> 103 ;
104 [label="gini = 0.4997\nsamples = 80\nvalue = [39, 41]\nclass = clear"] ;
102 -> 104 ;
105 [label="GHI <= 60.5\ngini = 0.4748\nsamples = 655\nvalue = [254, 401]\nclass = clear"] ;
101 -> 105 ;
106 [label="gini = 0.4325\nsamples = 98\nvalue = [31, 67]\nclass = clear"] ;
105 -> 106 ;
107 [label="Clearsky GHI <= 61.5\ngini = 0.4801\nsamples = 557\nvalue = [223, 334]\nclass = clear"] ;
105 -> 107 ;
108 [label="gini = 0.4999\nsamples = 79\nvalue = [39, 40]\nclass = clear"] ;
107 -> 108 ;
109 [label="GHI <= 62.5\ngini = 0.4735\nsamples = 478\nvalue = [184, 294]\nclass = clear"] ;
107 -> 109 ;
110 [label="gini = 0.4268\nsamples = 81\nvalue = [25, 56]\nclass = clear"] ;
109 -> 110 ;
111 [label="Clearsky GHI <= 63.5\ngini = 0.4802\nsamples = 397\nvalue = [159, 238]\nclass = clear"] ;
109 -> 111 ;
112 [label="gini = 0.4647\nsamples = 79\nvalue = [29, 50]\nclass = clear"] ;
111 -> 112 ;
113 [label="Clearsky GHI <= 64.5\ngini = 0.4834\nsamples = 318\nvalue = [130, 188]\nclass = clear"] ;
111 -> 113 ;
114 [label="gini = 0.4935\nsamples = 88\nvalue = [39, 49]\nclass = clear"] ;
113 -> 114 ;
115 [label="GHI <= 65.5\ngini = 0.4782\nsamples = 230\nvalue = [91, 139]\nclass = clear"] ;
113 -> 115 ;
116 [label="gini = 0.4664\nsamples = 81\nvalue = [30, 51]\nclass = clear"] ;
115 -> 116 ;
117 [label="GHI <= 66.5\ngini = 0.4836\nsamples = 149\nvalue = [61, 88]\nclass = clear"] ;
115 -> 117 ;
118 [label="gini = 0.4841\nsamples = 73\nvalue = [30, 43]\nclass = clear"] ;
117 -> 118 ;
119 [label="gini = 0.483\nsamples = 76\nvalue = [31, 45]\nclass = clear"] ;
117 -> 119 ;
120 [label="GHI <= 77.5\ngini = 0.46\nsamples = 2744\nvalue = [984, 1760]\nclass = clear"] ;
78 -> 120 ;
121 [label="Clearsky GHI <= 71.5\ngini = 0.4337\nsamples = 755\nvalue = [240, 515]\nclass = clear"] ;
120 -> 121 ;
122 [label="GHI <= 70.5\ngini = 0.4519\nsamples = 345\nvalue = [119, 226]\nclass = clear"] ;
121 -> 122 ;
123 [label="Clearsky GHI <= 68.5\ngini = 0.4444\nsamples = 258\nvalue = [86, 172]\nclass = clear"] ;
122 -> 123 ;
124 [label="gini = 0.4639\nsamples = 93\nvalue = [34, 59]\nclass = clear"] ;
123 -> 124 ;
125 [label="Clearsky GHI <= 69.5\ngini = 0.4317\nsamples = 165\nvalue = [52, 113]\nclass = clear"] ;
123 -> 125 ;
126 [label="gini = 0.4342\nsamples = 91\nvalue = [29, 62]\nclass = clear"] ;
125 -> 126 ;
127 [label="gini = 0.4284\nsamples = 74\nvalue = [23, 51]\nclass = clear"] ;
125 -> 127 ;
128 [label="gini = 0.4709\nsamples = 87\nvalue = [33, 54]\nclass = clear"] ;
122 -> 128 ;
129 [label="Clearsky GHI <= 75.5\ngini = 0.416\nsamples = 410\nvalue = [121, 289]\nclass = clear"] ;
121 -> 129 ;
130 [label="GHI <= 74.5\ngini = 0.409\nsamples = 300\nvalue = [86, 214]\nclass = clear"] ;
129 -> 130 ;
131 [label="Clearsky GHI <= 73.5\ngini = 0.42\nsamples = 230\nvalue = [69, 161]\nclass = clear"] ;
130 -> 131 ;
132 [label="Clearsky GHI <= 72.5\ngini = 0.4074\nsamples = 158\nvalue = [45, 113]\nclass = clear"] ;
131 -> 132 ;
133 [label="gini = 0.4082\nsamples = 77\nvalue = [22, 55]\nclass = clear"] ;
132 -> 133 ;
134 [label="gini = 0.4066\nsamples = 81\nvalue = [23, 58]\nclass = clear"] ;
132 -> 134 ;
135 [label="gini = 0.4444\nsamples = 72\nvalue = [24, 48]\nclass = clear"] ;
131 -> 135 ;
136 [label="gini = 0.3678\nsamples = 70\nvalue = [17, 53]\nclass = clear"] ;
130 -> 136 ;
137 [label="GHI <= 76.5\ngini = 0.4339\nsamples = 110\nvalue = [35, 75]\nclass = clear"] ;
129 -> 137 ;
138 [label="gini = 0.4527\nsamples = 52\nvalue = [18, 34]\nclass = clear"] ;
137 -> 138 ;
139 [label="gini = 0.4144\nsamples = 58\nvalue = [17, 41]\nclass = clear"] ;
137 -> 139 ;
140 [label="GHI <= 78.5\ngini = 0.4683\nsamples = 1989\nvalue = [744, 1245]\nclass = clear"] ;
120 -> 140 ;
141 [label="gini = 0.4999\nsamples = 59\nvalue = [30, 29]\nclass = cloudy"] ;
140 -> 141 ;
142 [label="Clearsky GHI <= 88.5\ngini = 0.4662\nsamples = 1930\nvalue = [714, 1216]\nclass = clear"] ;
140 -> 142 ;
143 [label="GHI <= 81.5\ngini = 0.4561\nsamples = 577\nvalue = [203, 374]\nclass = clear"] ;
142 -> 143 ;
144 [label="GHI <= 79.5\ngini = 0.4822\nsamples = 175\nvalue = [71, 104]\nclass = clear"] ;
143 -> 144 ;
145 [label="gini = 0.4334\nsamples = 63\nvalue = [20, 43]\nclass = clear"] ;
144 -> 145 ;
146 [label="Clearsky GHI <= 80.5\ngini = 0.496\nsamples = 112\nvalue = [51, 61]\nclass = clear"] ;
144 -> 146 ;
147 [label="gini = 0.4994\nsamples = 58\nvalue = [30, 28]\nclass = cloudy"] ;
146 -> 147 ;
148 [label="gini = 0.4753\nsamples = 54\nvalue = [21, 33]\nclass = clear"] ;
146 -> 148 ;
149 [label="Clearsky GHI <= 83.5\ngini = 0.4411\nsamples = 402\nvalue = [132, 270]\nclass = clear"] ;
143 -> 149 ;
150 [label="GHI <= 82.5\ngini = 0.425\nsamples = 111\nvalue = [34, 77]\nclass = clear"] ;
149 -> 150 ;
151 [label="gini = 0.4367\nsamples = 59\nvalue = [19, 40]\nclass = clear"] ;
150 -> 151 ;
152 [label="gini = 0.4105\nsamples = 52\nvalue = [15, 37]\nclass = clear"] ;
150 -> 152 ;
153 [label="GHI <= 84.5\ngini = 0.4467\nsamples = 291\nvalue = [98, 193]\nclass = clear"] ;
149 -> 153 ;
154 [label="gini = 0.4764\nsamples = 46\nvalue = [18, 28]\nclass = clear"] ;
153 -> 154 ;
155 [label="Clearsky GHI <= 85.5\ngini = 0.4398\nsamples = 245\nvalue = [80, 165]\nclass = clear"] ;
153 -> 155 ;
156 [label="gini = 0.4102\nsamples = 59\nvalue = [17, 42]\nclass = clear"] ;
155 -> 156 ;
157 [label="GHI <= 87.5\ngini = 0.448\nsamples = 186\nvalue = [63, 123]\nclass = clear"] ;
155 -> 157 ;
158 [label="Clearsky GHI <= 86.5\ngini = 0.4461\nsamples = 131\nvalue = [44, 87]\nclass = clear"] ;
157 -> 158 ;
159 [label="gini = 0.4474\nsamples = 74\nvalue = [25, 49]\nclass = clear"] ;
158 -> 159 ;
160 [label="gini = 0.4444\nsamples = 57\nvalue = [19, 38]\nclass = clear"] ;
158 -> 160 ;
161 [label="gini = 0.4522\nsamples = 55\nvalue = [19, 36]\nclass = clear"] ;
157 -> 161 ;
162 [label="Clearsky GHI <= 100.5\ngini = 0.4701\nsamples = 1353\nvalue = [511, 842]\nclass = clear"] ;
142 -> 162 ;
163 [label="Clearsky GHI <= 95.5\ngini = 0.4802\nsamples = 659\nvalue = [264, 395]\nclass = clear"] ;
162 -> 163 ;
164 [label="Clearsky GHI <= 93.5\ngini = 0.4733\nsamples = 372\nvalue = [143, 229]\nclass = clear"] ;
163 -> 164 ;
165 [label="Clearsky GHI <= 91.5\ngini = 0.4806\nsamples = 259\nvalue = [104, 155]\nclass = clear"] ;
164 -> 165 ;
166 [label="Clearsky GHI <= 90.5\ngini = 0.4666\nsamples = 151\nvalue = [56, 95]\nclass = clear"] ;
165 -> 166 ;
167 [label="GHI <= 89.5\ngini = 0.4846\nsamples = 97\nvalue = [40, 57]\nclass = clear"] ;
166 -> 167 ;
168 [label="gini = 0.4831\nsamples = 49\nvalue = [20, 29]\nclass = clear"] ;
167 -> 168 ;
169 [label="gini = 0.4861\nsamples = 48\nvalue = [20, 28]\nclass = clear"] ;
167 -> 169 ;
170 [label="gini = 0.417\nsamples = 54\nvalue = [16, 38]\nclass = clear"] ;
166 -> 170 ;
171 [label="GHI <= 92.5\ngini = 0.4938\nsamples = 108\nvalue = [48, 60]\nclass = clear"] ;
165 -> 171 ;
172 [label="gini = 0.4991\nsamples = 48\nvalue = [25, 23]\nclass = cloudy"] ;
171 -> 172 ;
173 [label="gini = 0.4728\nsamples = 60\nvalue = [23, 37]\nclass = clear"] ;
171 -> 173 ;
174 [label="GHI <= 94.5\ngini = 0.452\nsamples = 113\nvalue = [39, 74]\nclass = clear"] ;
164 -> 174 ;
175 [label="gini = 0.4444\nsamples = 51\nvalue = [17, 34]\nclass = clear"] ;
174 -> 175 ;
176 [label="gini = 0.4579\nsamples = 62\nvalue = [22, 40]\nclass = clear"] ;
174 -> 176 ;
177 [label="Clearsky GHI <= 97.5\ngini = 0.4877\nsamples = 287\nvalue = [121, 166]\nclass = clear"] ;
163 -> 177 ;
178 [label="Clearsky GHI <= 96.5\ngini = 0.4945\nsamples = 105\nvalue = [47, 58]\nclass = clear"] ;
177 -> 178 ;
179 [label="gini = 0.4952\nsamples = 51\nvalue = [23, 28]\nclass = clear"] ;
178 -> 179 ;
180 [label="gini = 0.4938\nsamples = 54\nvalue = [24, 30]\nclass = clear"] ;
178 -> 180 ;
181 [label="Clearsky GHI <= 99.5\ngini = 0.4826\nsamples = 182\nvalue = [74, 108]\nclass = clear"] ;
177 -> 181 ;
182 [label="GHI <= 98.5\ngini = 0.4731\nsamples = 125\nvalue = [48, 77]\nclass = clear"] ;
181 -> 182 ;
183 [label="gini = 0.4734\nsamples = 52\nvalue = [20, 32]\nclass = clear"] ;
182 -> 183 ;
184 [label="gini = 0.4729\nsamples = 73\nvalue = [28, 45]\nclass = clear"] ;
182 -> 184 ;
185 [label="gini = 0.4962\nsamples = 57\nvalue = [26, 31]\nclass = clear"] ;
181 -> 185 ;
186 [label="GHI <= 109.5\ngini = 0.4585\nsamples = 694\nvalue = [247, 447]\nclass = clear"] ;
162 -> 186 ;
187 [label="GHI <= 107.5\ngini = 0.4547\nsamples = 621\nvalue = [217, 404]\nclass = clear"] ;
186 -> 187 ;
188 [label="Clearsky GHI <= 103.5\ngini = 0.4586\nsamples = 483\nvalue = [172, 311]\nclass = clear"] ;
187 -> 188 ;
189 [label="Clearsky GHI <= 101.5\ngini = 0.4433\nsamples = 190\nvalue = [63, 127]\nclass = clear"] ;
188 -> 189 ;
190 [label="gini = 0.455\nsamples = 60\nvalue = [21, 39]\nclass = clear"] ;
189 -> 190 ;
191 [label="Clearsky GHI <= 102.5\ngini = 0.4374\nsamples = 130\nvalue = [42, 88]\nclass = clear"] ;
189 -> 191 ;
192 [label="gini = 0.4297\nsamples = 64\nvalue = [20, 44]\nclass = clear"] ;
191 -> 192 ;
193 [label="gini = 0.4444\nsamples = 66\nvalue = [22, 44]\nclass = clear"] ;
191 -> 193 ;
194 [label="Clearsky GHI <= 104.5\ngini = 0.4672\nsamples = 293\nvalue = [109, 184]\nclass = clear"] ;
188 -> 194 ;
195 [label="gini = 0.4777\nsamples = 71\nvalue = [28, 43]\nclass = clear"] ;
194 -> 195 ;
196 [label="Clearsky GHI <= 105.5\ngini = 0.4635\nsamples = 222\nvalue = [81, 141]\nclass = clear"] ;
194 -> 196 ;
197 [label="gini = 0.4444\nsamples = 81\nvalue = [27, 54]\nclass = clear"] ;
196 -> 197 ;
198 [label="GHI <= 106.5\ngini = 0.4726\nsamples = 141\nvalue = [54, 87]\nclass = clear"] ;
196 -> 198 ;
199 [label="gini = 0.4841\nsamples = 73\nvalue = [30, 43]\nclass = clear"] ;
198 -> 199 ;
200 [label="gini = 0.4567\nsamples = 68\nvalue = [24, 44]\nclass = clear"] ;
198 -> 200 ;
201 [label="Clearsky GHI <= 108.5\ngini = 0.4395\nsamples = 138\nvalue = [45, 93]\nclass = clear"] ;
187 -> 201 ;
202 [label="gini = 0.4252\nsamples = 75\nvalue = [23, 52]\nclass = clear"] ;
201 -> 202 ;
203 [label="gini = 0.4545\nsamples = 63\nvalue = [22, 41]\nclass = clear"] ;
201 -> 203 ;
204 [label="gini = 0.4841\nsamples = 73\nvalue = [30, 43]\nclass = clear"] ;
186 -> 204 ;
205 [label="GHI <= 132.5\ngini = 0.3935\nsamples = 5158\nvalue = [1389, 3769]\nclass = clear"] ;
3 -> 205 ;
206 [label="Clearsky GHI <= 130.5\ngini = 0.4295\nsamples = 1313\nvalue = [410, 903]\nclass = clear"] ;
205 -> 206 ;
207 [label="Clearsky GHI <= 129.5\ngini = 0.4262\nsamples = 1205\nvalue = [371, 834]\nclass = clear"] ;
206 -> 207 ;
208 [label="Clearsky GHI <= 123.5\ngini = 0.4304\nsamples = 1142\nvalue = [358, 784]\nclass = clear"] ;
207 -> 208 ;
209 [label="Clearsky GHI <= 114.5\ngini = 0.4216\nsamples = 818\nvalue = [247, 571]\nclass = clear"] ;
208 -> 209 ;
210 [label="GHI <= 113.5\ngini = 0.4406\nsamples = 296\nvalue = [97, 199]\nclass = clear"] ;
209 -> 210 ;
211 [label="Clearsky GHI <= 111.5\ngini = 0.4321\nsamples = 228\nvalue = [72, 156]\nclass = clear"] ;
210 -> 211 ;
212 [label="gini = 0.4444\nsamples = 78\nvalue = [26, 52]\nclass = clear"] ;
211 -> 212 ;
213 [label="Clearsky GHI <= 112.5\ngini = 0.4252\nsamples = 150\nvalue = [46, 104]\nclass = clear"] ;
211 -> 213 ;
214 [label="gini = 0.4158\nsamples = 78\nvalue = [23, 55]\nclass = clear"] ;
213 -> 214 ;
215 [label="gini = 0.4348\nsamples = 72\nvalue = [23, 49]\nclass = clear"] ;
213 -> 215 ;
216 [label="gini = 0.465\nsamples = 68\nvalue = [25, 43]\nclass = clear"] ;
210 -> 216 ;
217 [label="Clearsky GHI <= 117.5\ngini = 0.4096\nsamples = 522\nvalue = [150, 372]\nclass = clear"] ;
209 -> 217 ;
218 [label="Clearsky GHI <= 115.5\ngini = 0.3878\nsamples = 171\nvalue = [45, 126]\nclass = clear"] ;
217 -> 218 ;
219 [label="gini = 0.375\nsamples = 68\nvalue = [17, 51]\nclass = clear"] ;
218 -> 219 ;
220 [label="Clearsky GHI <= 116.5\ngini = 0.3959\nsamples = 103\nvalue = [28, 75]\nclass = clear"] ;
218 -> 220 ;
221 [label="gini = 0.4082\nsamples = 49\nvalue = [14, 35]\nclass = clear"] ;
220 -> 221 ;
222 [label="gini = 0.3841\nsamples = 54\nvalue = [14, 40]\nclass = clear"] ;
220 -> 222 ;
223 [label="Clearsky GHI <= 118.5\ngini = 0.4193\nsamples = 351\nvalue = [105, 246]\nclass = clear"] ;
217 -> 223 ;
224 [label="gini = 0.4723\nsamples = 68\nvalue = [26, 42]\nclass = clear"] ;
223 -> 224 ;
225 [label="Clearsky GHI <= 122.5\ngini = 0.4025\nsamples = 283\nvalue = [79, 204]\nclass = clear"] ;
223 -> 225 ;
226 [label="GHI <= 121.5\ngini = 0.4076\nsamples = 235\nvalue = [67, 168]\nclass = clear"] ;
225 -> 226 ;
227 [label="Clearsky GHI <= 120.5\ngini = 0.3972\nsamples = 172\nvalue = [47, 125]\nclass = clear"] ;
226 -> 227 ;
228 [label="Clearsky GHI <= 119.5\ngini = 0.3911\nsamples = 120\nvalue = [32, 88]\nclass = clear"] ;
227 -> 228 ;
229 [label="gini = 0.3995\nsamples = 58\nvalue = [16, 42]\nclass = clear"] ;
228 -> 229 ;
230 [label="gini = 0.3829\nsamples = 62\nvalue = [16, 46]\nclass = clear"] ;
228 -> 230 ;
231 [label="gini = 0.4105\nsamples = 52\nvalue = [15, 37]\nclass = clear"] ;
227 -> 231 ;
232 [label="gini = 0.4334\nsamples = 63\nvalue = [20, 43]\nclass = clear"] ;
226 -> 232 ;
233 [label="gini = 0.375\nsamples = 48\nvalue = [12, 36]\nclass = clear"] ;
225 -> 233 ;
234 [label="Clearsky GHI <= 125.5\ngini = 0.4504\nsamples = 324\nvalue = [111, 213]\nclass = clear"] ;
208 -> 234 ;
235 [label="GHI <= 124.5\ngini = 0.4869\nsamples = 105\nvalue = [44, 61]\nclass = clear"] ;
234 -> 235 ;
236 [label="gini = 0.4767\nsamples = 51\nvalue = [20, 31]\nclass = clear"] ;
235 -> 236 ;
237 [label="gini = 0.4938\nsamples = 54\nvalue = [24, 30]\nclass = clear"] ;
235 -> 237 ;
238 [label="Clearsky GHI <= 126.5\ngini = 0.4247\nsamples = 219\nvalue = [67, 152]\nclass = clear"] ;
234 -> 238 ;
239 [label="gini = 0.3336\nsamples = 52\nvalue = [11, 41]\nclass = clear"] ;
238 -> 239 ;
240 [label="GHI <= 128.5\ngini = 0.4458\nsamples = 167\nvalue = [56, 111]\nclass = clear"] ;
238 -> 240 ;
241 [label="GHI <= 127.5\ngini = 0.4623\nsamples = 102\nvalue = [37, 65]\nclass = clear"] ;
240 -> 241 ;
242 [label="gini = 0.4742\nsamples = 44\nvalue = [17, 27]\nclass = clear"] ;
241 -> 242 ;
243 [label="gini = 0.4518\nsamples = 58\nvalue = [20, 38]\nclass = clear"] ;
241 -> 243 ;
244 [label="gini = 0.4137\nsamples = 65\nvalue = [19, 46]\nclass = clear"] ;
240 -> 244 ;
245 [label="gini = 0.3275\nsamples = 63\nvalue = [13, 50]\nclass = clear"] ;
207 -> 245 ;
246 [label="GHI <= 131.5\ngini = 0.4614\nsamples = 108\nvalue = [39, 69]\nclass = clear"] ;
206 -> 246 ;
247 [label="gini = 0.455\nsamples = 60\nvalue = [21, 39]\nclass = clear"] ;
246 -> 247 ;
248 [label="gini = 0.4688\nsamples = 48\nvalue = [18, 30]\nclass = clear"] ;
246 -> 248 ;
249 [label="Clearsky GHI <= 197.5\ngini = 0.3796\nsamples = 3845\nvalue = [979, 2866]\nclass = clear"] ;
205 -> 249 ;
250 [label="Clearsky GHI <= 193.5\ngini = 0.3773\nsamples = 3721\nvalue = [939, 2782]\nclass = clear"] ;
249 -> 250 ;
251 [label="Clearsky GHI <= 149.5\ngini = 0.3806\nsamples = 3477\nvalue = [889, 2588]\nclass = clear"] ;
250 -> 251 ;
252 [label="GHI <= 142.5\ngini = 0.395\nsamples = 1004\nvalue = [272, 732]\nclass = clear"] ;
251 -> 252 ;
253 [label="GHI <= 139.5\ngini = 0.3791\nsamples = 602\nvalue = [153, 449]\nclass = clear"] ;
252 -> 253 ;
254 [label="Clearsky GHI <= 136.5\ngini = 0.3959\nsamples = 434\nvalue = [118, 316]\nclass = clear"] ;
253 -> 254 ;
255 [label="GHI <= 134.5\ngini = 0.3622\nsamples = 240\nvalue = [57, 183]\nclass = clear"] ;
254 -> 255 ;
256 [label="GHI <= 133.5\ngini = 0.3815\nsamples = 113\nvalue = [29, 84]\nclass = clear"] ;
255 -> 256 ;
257 [label="gini = 0.3324\nsamples = 57\nvalue = [12, 45]\nclass = clear"] ;
256 -> 257 ;
258 [label="gini = 0.4228\nsamples = 56\nvalue = [17, 39]\nclass = clear"] ;
256 -> 258 ;
259 [label="Clearsky GHI <= 135.5\ngini = 0.3437\nsamples = 127\nvalue = [28, 99]\nclass = clear"] ;
255 -> 259 ;
260 [label="gini = 0.3491\nsamples = 71\nvalue = [16, 55]\nclass = clear"] ;
259 -> 260 ;
261 [label="gini = 0.3367\nsamples = 56\nvalue = [12, 44]\nclass = clear"] ;
259 -> 261 ;
262 [label="GHI <= 137.5\ngini = 0.4311\nsamples = 194\nvalue = [61, 133]\nclass = clear"] ;
254 -> 262 ;
263 [label="gini = 0.4121\nsamples = 62\nvalue = [18, 44]\nclass = clear"] ;
262 -> 263 ;
264 [label="Clearsky GHI <= 138.5\ngini = 0.4393\nsamples = 132\nvalue = [43, 89]\nclass = clear"] ;
262 -> 264 ;
265 [label="gini = 0.438\nsamples = 71\nvalue = [23, 48]\nclass = clear"] ;
264 -> 265 ;
266 [label="gini = 0.4407\nsamples = 61\nvalue = [20, 41]\nclass = clear"] ;
264 -> 266 ;
267 [label="Clearsky GHI <= 141.5\ngini = 0.3299\nsamples = 168\nvalue = [35, 133]\nclass = clear"] ;
253 -> 267 ;
268 [label="Clearsky GHI <= 140.5\ngini = 0.2985\nsamples = 115\nvalue = [21, 94]\nclass = clear"] ;
267 -> 268 ;
269 [label="gini = 0.3394\nsamples = 60\nvalue = [13, 47]\nclass = clear"] ;
268 -> 269 ;
270 [label="gini = 0.2486\nsamples = 55\nvalue = [8, 47]\nclass = clear"] ;
268 -> 270 ;
271 [label="gini = 0.3888\nsamples = 53\nvalue = [14, 39]\nclass = clear"] ;
267 -> 271 ;
272 [label="Clearsky GHI <= 143.5\ngini = 0.4168\nsamples = 402\nvalue = [119, 283]\nclass = clear"] ;
252 -> 272 ;
273 [label="gini = 0.4882\nsamples = 52\nvalue = [22, 30]\nclass = clear"] ;
272 -> 273 ;
274 [label="GHI <= 148.5\ngini = 0.4007\nsamples = 350\nvalue = [97, 253]\nclass = clear"] ;
272 -> 274 ;
275 [label="Clearsky GHI <= 145.5\ngini = 0.3876\nsamples = 289\nvalue = [76, 213]\nclass = clear"] ;
274 -> 275 ;
276 [label="GHI <= 144.5\ngini = 0.4271\nsamples = 110\nvalue = [34, 76]\nclass = clear"] ;
275 -> 276 ;
277 [label="gini = 0.4012\nsamples = 54\nvalue = [15, 39]\nclass = clear"] ;
276 -> 277 ;
278 [label="gini = 0.4483\nsamples = 56\nvalue = [19, 37]\nclass = clear"] ;
276 -> 278 ;
279 [label="Clearsky GHI <= 146.5\ngini = 0.3592\nsamples = 179\nvalue = [42, 137]\nclass = clear"] ;
275 -> 279 ;
280 [label="gini = 0.3496\nsamples = 62\nvalue = [14, 48]\nclass = clear"] ;
279 -> 280 ;
281 [label="GHI <= 147.5\ngini = 0.3641\nsamples = 117\nvalue = [28, 89]\nclass = clear"] ;
279 -> 281 ;
282 [label="gini = 0.3706\nsamples = 57\nvalue = [14, 43]\nclass = clear"] ;
281 -> 282 ;
283 [label="gini = 0.3578\nsamples = 60\nvalue = [14, 46]\nclass = clear"] ;
281 -> 283 ;
284 [label="gini = 0.4515\nsamples = 61\nvalue = [21, 40]\nclass = clear"] ;
274 -> 284 ;
285 [label="Clearsky GHI <= 151.5\ngini = 0.3745\nsamples = 2473\nvalue = [617, 1856]\nclass = clear"] ;
251 -> 285 ;
286 [label="Clearsky GHI <= 150.5\ngini = 0.327\nsamples = 136\nvalue = [28, 108]\nclass = clear"] ;
285 -> 286 ;
287 [label="gini = 0.327\nsamples = 68\nvalue = [14, 54]\nclass = clear"] ;
286 -> 287 ;
288 [label="gini = 0.327\nsamples = 68\nvalue = [14, 54]\nclass = clear"] ;
286 -> 288 ;
289 [label="GHI <= 161.5\ngini = 0.377\nsamples = 2337\nvalue = [589, 1748]\nclass = clear"] ;
285 -> 289 ;
290 [label="Clearsky GHI <= 157.5\ngini = 0.3922\nsamples = 657\nvalue = [176, 481]\nclass = clear"] ;
289 -> 290 ;
291 [label="GHI <= 155.5\ngini = 0.364\nsamples = 393\nvalue = [94, 299]\nclass = clear"] ;
290 -> 291 ;
292 [label="Clearsky GHI <= 153.5\ngini = 0.374\nsamples = 257\nvalue = [64, 193]\nclass = clear"] ;
291 -> 292 ;
293 [label="Clearsky GHI <= 152.5\ngini = 0.3686\nsamples = 119\nvalue = [29, 90]\nclass = clear"] ;
292 -> 293 ;
294 [label="gini = 0.3709\nsamples = 61\nvalue = [15, 46]\nclass = clear"] ;
293 -> 294 ;
295 [label="gini = 0.3662\nsamples = 58\nvalue = [14, 44]\nclass = clear"] ;
293 -> 295 ;
296 [label="GHI <= 154.5\ngini = 0.3786\nsamples = 138\nvalue = [35, 103]\nclass = clear"] ;
292 -> 296 ;
297 [label="gini = 0.3885\nsamples = 72\nvalue = [19, 53]\nclass = clear"] ;
296 -> 297 ;
298 [label="gini = 0.3673\nsamples = 66\nvalue = [16, 50]\nclass = clear"] ;
296 -> 298 ;
299 [label="Clearsky GHI <= 156.5\ngini = 0.3439\nsamples = 136\nvalue = [30, 106]\nclass = clear"] ;
291 -> 299 ;
300 [label="gini = 0.3457\nsamples = 72\nvalue = [16, 56]\nclass = clear"] ;
299 -> 300 ;
301 [label="gini = 0.3418\nsamples = 64\nvalue = [14, 50]\nclass = clear"] ;
299 -> 301 ;
302 [label="Clearsky GHI <= 158.5\ngini = 0.4283\nsamples = 264\nvalue = [82, 182]\nclass = clear"] ;
290 -> 302 ;
303 [label="gini = 0.4664\nsamples = 81\nvalue = [30, 51]\nclass = clear"] ;
302 -> 303 ;
304 [label="GHI <= 160.5\ngini = 0.4068\nsamples = 183\nvalue = [52, 131]\nclass = clear"] ;
302 -> 304 ;
305 [label="GHI <= 159.5\ngini = 0.3771\nsamples = 119\nvalue = [30, 89]\nclass = clear"] ;
304 -> 305 ;
306 [label="gini = 0.4186\nsamples = 57\nvalue = [17, 40]\nclass = clear"] ;
305 -> 306 ;
307 [label="gini = 0.3314\nsamples = 62\nvalue = [13, 49]\nclass = clear"] ;
305 -> 307 ;
308 [label="gini = 0.4512\nsamples = 64\nvalue = [22, 42]\nclass = clear"] ;
304 -> 308 ;
309 [label="Clearsky GHI <= 171.5\ngini = 0.3708\nsamples = 1680\nvalue = [413, 1267]\nclass = clear"] ;
289 -> 309 ;
310 [label="GHI <= 165.5\ngini = 0.3409\nsamples = 569\nvalue = [124, 445]\nclass = clear"] ;
309 -> 310 ;
311 [label="Clearsky GHI <= 162.5\ngini = 0.3632\nsamples = 239\nvalue = [57, 182]\nclass = clear"] ;
310 -> 311 ;
312 [label="gini = 0.3128\nsamples = 67\nvalue = [13, 54]\nclass = clear"] ;
311 -> 312 ;
313 [label="GHI <= 163.5\ngini = 0.3807\nsamples = 172\nvalue = [44, 128]\nclass = clear"] ;
311 -> 313 ;
314 [label="gini = 0.3995\nsamples = 58\nvalue = [16, 42]\nclass = clear"] ;
313 -> 314 ;
315 [label="GHI <= 164.5\ngini = 0.3706\nsamples = 114\nvalue = [28, 86]\nclass = clear"] ;
313 -> 315 ;
316 [label="gini = 0.3578\nsamples = 60\nvalue = [14, 46]\nclass = clear"] ;
315 -> 316 ;
317 [label="gini = 0.3841\nsamples = 54\nvalue = [14, 40]\nclass = clear"] ;
315 -> 317 ;
318 [label="Clearsky GHI <= 168.5\ngini = 0.3236\nsamples = 330\nvalue = [67, 263]\nclass = clear"] ;
310 -> 318 ;
319 [label="Clearsky GHI <= 167.5\ngini = 0.2832\nsamples = 164\nvalue = [28, 136]\nclass = clear"] ;
318 -> 319 ;
320 [label="GHI <= 166.5\ngini = 0.2999\nsamples = 98\nvalue = [18, 80]\nclass = clear"] ;
319 -> 320 ;
321 [label="gini = 0.2999\nsamples = 49\nvalue = [9, 40]\nclass = clear"] ;
320 -> 321 ;
322 [label="gini = 0.2999\nsamples = 49\nvalue = [9, 40]\nclass = clear"] ;
320 -> 322 ;
323 [label="gini = 0.2571\nsamples = 66\nvalue = [10, 56]\nclass = clear"] ;
319 -> 323 ;
324 [label="GHI <= 169.5\ngini = 0.3595\nsamples = 166\nvalue = [39, 127]\nclass = clear"] ;
318 -> 324 ;
325 [label="gini = 0.4032\nsamples = 50\nvalue = [14, 36]\nclass = clear"] ;
324 -> 325 ;
326 [label="GHI <= 170.5\ngini = 0.3381\nsamples = 116\nvalue = [25, 91]\nclass = clear"] ;
324 -> 326 ;
327 [label="gini = 0.3496\nsamples = 62\nvalue = [14, 48]\nclass = clear"] ;
326 -> 327 ;
328 [label="gini = 0.3244\nsamples = 54\nvalue = [11, 43]\nclass = clear"] ;
326 -> 328 ;
329 [label="GHI <= 192.5\ngini = 0.3849\nsamples = 1111\nvalue = [289, 822]\nclass = clear"] ;
309 -> 329 ;
330 [label="Clearsky GHI <= 191.5\ngini = 0.3819\nsamples = 1043\nvalue = [268, 775]\nclass = clear"] ;
329 -> 330 ;
331 [label="GHI <= 176.5\ngini = 0.3847\nsamples = 985\nvalue = [256, 729]\nclass = clear"] ;
330 -> 331 ;
332 [label="Clearsky GHI <= 175.5\ngini = 0.373\nsamples = 246\nvalue = [61, 185]\nclass = clear"] ;
331 -> 332 ;
333 [label="Clearsky GHI <= 174.5\ngini = 0.3788\nsamples = 197\nvalue = [50, 147]\nclass = clear"] ;
332 -> 333 ;
334 [label="Clearsky GHI <= 172.5\ngini = 0.3702\nsamples = 159\nvalue = [39, 120]\nclass = clear"] ;
333 -> 334 ;
335 [label="gini = 0.3922\nsamples = 56\nvalue = [15, 41]\nclass = clear"] ;
334 -> 335 ;
336 [label="Clearsky GHI <= 173.5\ngini = 0.3574\nsamples = 103\nvalue = [24, 79]\nclass = clear"] ;
334 -> 336 ;
337 [label="gini = 0.3482\nsamples = 49\nvalue = [11, 38]\nclass = clear"] ;
336 -> 337 ;
338 [label="gini = 0.3656\nsamples = 54\nvalue = [13, 41]\nclass = clear"] ;
336 -> 338 ;
339 [label="gini = 0.4114\nsamples = 38\nvalue = [11, 27]\nclass = clear"] ;
333 -> 339 ;
340 [label="gini = 0.3482\nsamples = 49\nvalue = [11, 38]\nclass = clear"] ;
332 -> 340 ;
341 [label="Clearsky GHI <= 177.5\ngini = 0.3885\nsamples = 739\nvalue = [195, 544]\nclass = clear"] ;
331 -> 341 ;
342 [label="gini = 0.4398\nsamples = 49\nvalue = [16, 33]\nclass = clear"] ;
341 -> 342 ;
343 [label="GHI <= 179.5\ngini = 0.3842\nsamples = 690\nvalue = [179, 511]\nclass = clear"] ;
341 -> 343 ;
344 [label="Clearsky GHI <= 178.5\ngini = 0.3501\nsamples = 84\nvalue = [19, 65]\nclass = clear"] ;
343 -> 344 ;
345 [label="gini = 0.3694\nsamples = 45\nvalue = [11, 34]\nclass = clear"] ;
344 -> 345 ;
346 [label="gini = 0.3261\nsamples = 39\nvalue = [8, 31]\nclass = clear"] ;
344 -> 346 ;
347 [label="GHI <= 180.5\ngini = 0.3886\nsamples = 606\nvalue = [160, 446]\nclass = clear"] ;
343 -> 347 ;
348 [label="gini = 0.4491\nsamples = 47\nvalue = [16, 31]\nclass = clear"] ;
347 -> 348 ;
349 [label="Clearsky GHI <= 181.5\ngini = 0.3825\nsamples = 559\nvalue = [144, 415]\nclass = clear"] ;
347 -> 349 ;
350 [label="gini = 0.3324\nsamples = 57\nvalue = [12, 45]\nclass = clear"] ;
349 -> 350 ;
351 [label="Clearsky GHI <= 185.5\ngini = 0.3876\nsamples = 502\nvalue = [132, 370]\nclass = clear"] ;
349 -> 351 ;
352 [label="Clearsky GHI <= 184.5\ngini = 0.4015\nsamples = 205\nvalue = [57, 148]\nclass = clear"] ;
351 -> 352 ;
353 [label="Clearsky GHI <= 183.5\ngini = 0.3829\nsamples = 155\nvalue = [40, 115]\nclass = clear"] ;
352 -> 353 ;
354 [label="GHI <= 182.5\ngini = 0.3772\nsamples = 111\nvalue = [28, 83]\nclass = clear"] ;
353 -> 354 ;
355 [label="gini = 0.3922\nsamples = 56\nvalue = [15, 41]\nclass = clear"] ;
354 -> 355 ;
356 [label="gini = 0.361\nsamples = 55\nvalue = [13, 42]\nclass = clear"] ;
354 -> 356 ;
357 [label="gini = 0.3967\nsamples = 44\nvalue = [12, 32]\nclass = clear"] ;
353 -> 357 ;
358 [label="gini = 0.4488\nsamples = 50\nvalue = [17, 33]\nclass = clear"] ;
352 -> 358 ;
359 [label="Clearsky GHI <= 187.5\ngini = 0.3775\nsamples = 297\nvalue = [75, 222]\nclass = clear"] ;
351 -> 359 ;
360 [label="GHI <= 186.5\ngini = 0.3535\nsamples = 109\nvalue = [25, 84]\nclass = clear"] ;
359 -> 360 ;
361 [label="gini = 0.3662\nsamples = 58\nvalue = [14, 44]\nclass = clear"] ;
360 -> 361 ;
362 [label="gini = 0.3383\nsamples = 51\nvalue = [11, 40]\nclass = clear"] ;
360 -> 362 ;
363 [label="Clearsky GHI <= 188.5\ngini = 0.3904\nsamples = 188\nvalue = [50, 138]\nclass = clear"] ;
359 -> 363 ;
364 [label="gini = 0.4152\nsamples = 51\nvalue = [15, 36]\nclass = clear"] ;
363 -> 364 ;
365 [label="Clearsky GHI <= 189.5\ngini = 0.3804\nsamples = 137\nvalue = [35, 102]\nclass = clear"] ;
363 -> 365 ;
366 [label="gini = 0.327\nsamples = 34\nvalue = [7, 27]\nclass = clear"] ;
365 -> 366 ;
367 [label="GHI <= 190.5\ngini = 0.3959\nsamples = 103\nvalue = [28, 75]\nclass = clear"] ;
365 -> 367 ;
368 [label="gini = 0.4102\nsamples = 59\nvalue = [17, 42]\nclass = clear"] ;
367 -> 368 ;
369 [label="gini = 0.375\nsamples = 44\nvalue = [11, 33]\nclass = clear"] ;
367 -> 369 ;
370 [label="gini = 0.3282\nsamples = 58\nvalue = [12, 46]\nclass = clear"] ;
330 -> 370 ;
371 [label="gini = 0.4269\nsamples = 68\nvalue = [21, 47]\nclass = clear"] ;
329 -> 371 ;
372 [label="Clearsky GHI <= 194.5\ngini = 0.3259\nsamples = 244\nvalue = [50, 194]\nclass = clear"] ;
250 -> 372 ;
373 [label="gini = 0.2257\nsamples = 54\nvalue = [7, 47]\nclass = clear"] ;
372 -> 373 ;
374 [label="Clearsky GHI <= 196.5\ngini = 0.3502\nsamples = 190\nvalue = [43, 147]\nclass = clear"] ;
372 -> 374 ;
375 [label="Clearsky GHI <= 195.5\ngini = 0.3657\nsamples = 137\nvalue = [33, 104]\nclass = clear"] ;
374 -> 375 ;
376 [label="gini = 0.3394\nsamples = 60\nvalue = [13, 47]\nclass = clear"] ;
375 -> 376 ;
377 [label="gini = 0.3846\nsamples = 77\nvalue = [20, 57]\nclass = clear"] ;
375 -> 377 ;
378 [label="gini = 0.3062\nsamples = 53\nvalue = [10, 43]\nclass = clear"] ;
374 -> 378 ;
379 [label="GHI <= 198.5\ngini = 0.437\nsamples = 124\nvalue = [40, 84]\nclass = clear"] ;
249 -> 379 ;
380 [label="gini = 0.4728\nsamples = 60\nvalue = [23, 37]\nclass = clear"] ;
379 -> 380 ;
381 [label="gini = 0.3901\nsamples = 64\nvalue = [17, 47]\nclass = clear"] ;
379 -> 381 ;
382 [label="GHI <= 456.5\ngini = 0.2112\nsamples = 64660\nvalue = [7760, 56900]\nclass = clear"] ;
2 -> 382 ;
383 [label="Clearsky GHI <= 315.5\ngini = 0.2824\nsamples = 15554\nvalue = [2646, 12908]\nclass = clear"] ;
382 -> 383 ;
384 [label="Clearsky GHI <= 207.5\ngini = 0.3126\nsamples = 6818\nvalue = [1322, 5496]\nclass = clear"] ;
383 -> 384 ;
385 [label="GHI <= 202.5\ngini = 0.3537\nsamples = 514\nvalue = [118, 396]\nclass = clear"] ;
384 -> 385 ;
386 [label="Clearsky GHI <= 200.5\ngini = 0.3272\nsamples = 199\nvalue = [41, 158]\nclass = clear"] ;
385 -> 386 ;
387 [label="gini = 0.3343\nsamples = 66\nvalue = [14, 52]\nclass = clear"] ;
386 -> 387 ;
388 [label="Clearsky GHI <= 201.5\ngini = 0.3236\nsamples = 133\nvalue = [27, 106]\nclass = clear"] ;
386 -> 388 ;
389 [label="gini = 0.3244\nsamples = 54\nvalue = [11, 43]\nclass = clear"] ;
388 -> 389 ;
390 [label="gini = 0.323\nsamples = 79\nvalue = [16, 63]\nclass = clear"] ;
388 -> 390 ;
391 [label="Clearsky GHI <= 206.5\ngini = 0.3694\nsamples = 315\nvalue = [77, 238]\nclass = clear"] ;
385 -> 391 ;
392 [label="Clearsky GHI <= 204.5\ngini = 0.375\nsamples = 264\nvalue = [66, 198]\nclass = clear"] ;
391 -> 392 ;
393 [label="GHI <= 203.5\ngini = 0.3561\nsamples = 151\nvalue = [35, 116]\nclass = clear"] ;
392 -> 393 ;
394 [label="gini = 0.382\nsamples = 70\nvalue = [18, 52]\nclass = clear"] ;
393 -> 394 ;
395 [label="gini = 0.3317\nsamples = 81\nvalue = [17, 64]\nclass = clear"] ;
393 -> 395 ;
396 [label="GHI <= 205.5\ngini = 0.3982\nsamples = 113\nvalue = [31, 82]\nclass = clear"] ;
392 -> 396 ;
397 [label="gini = 0.398\nsamples = 62\nvalue = [17, 45]\nclass = clear"] ;
396 -> 397 ;
398 [label="gini = 0.3983\nsamples = 51\nvalue = [14, 37]\nclass = clear"] ;
396 -> 398 ;
399 [label="gini = 0.3383\nsamples = 51\nvalue = [11, 40]\nclass = clear"] ;
391 -> 399 ;
400 [label="GHI <= 287.5\ngini = 0.309\nsamples = 6304\nvalue = [1204, 5100]\nclass = clear"] ;
384 -> 400 ;
401 [label="Clearsky GHI <= 257.5\ngini = 0.3041\nsamples = 4561\nvalue = [853, 3708]\nclass = clear"] ;
400 -> 401 ;
402 [label="Clearsky GHI <= 231.5\ngini = 0.3167\nsamples = 2930\nvalue = [578, 2352]\nclass = clear"] ;
401 -> 402 ;
403 [label="Clearsky GHI <= 219.5\ngini = 0.2944\nsamples = 1394\nvalue = [250, 1144]\nclass = clear"] ;
402 -> 403 ;
404 [label="Clearsky GHI <= 210.5\ngini = 0.3097\nsamples = 684\nvalue = [131, 553]\nclass = clear"] ;
403 -> 404 ;
405 [label="GHI <= 208.5\ngini = 0.2629\nsamples = 167\nvalue = [26, 141]\nclass = clear"] ;
404 -> 405 ;
406 [label="gini = 0.2778\nsamples = 54\nvalue = [9, 45]\nclass = clear"] ;
405 -> 406 ;
407 [label="GHI <= 209.5\ngini = 0.2556\nsamples = 113\nvalue = [17, 96]\nclass = clear"] ;
405 -> 407 ;
408 [label="gini = 0.2622\nsamples = 58\nvalue = [9, 49]\nclass = clear"] ;
407 -> 408 ;
409 [label="gini = 0.2486\nsamples = 55\nvalue = [8, 47]\nclass = clear"] ;
407 -> 409 ;
410 [label="GHI <= 213.5\ngini = 0.3237\nsamples = 517\nvalue = [105, 412]\nclass = clear"] ;
404 -> 410 ;
411 [label="Clearsky GHI <= 212.5\ngini = 0.3622\nsamples = 160\nvalue = [38, 122]\nclass = clear"] ;
410 -> 411 ;
412 [label="Clearsky GHI <= 211.5\ngini = 0.3725\nsamples = 101\nvalue = [25, 76]\nclass = clear"] ;
411 -> 412 ;
413 [label="gini = 0.3656\nsamples = 54\nvalue = [13, 41]\nclass = clear"] ;
412 -> 413 ;
414 [label="gini = 0.3803\nsamples = 47\nvalue = [12, 35]\nclass = clear"] ;
412 -> 414 ;
415 [label="gini = 0.3436\nsamples = 59\nvalue = [13, 46]\nclass = clear"] ;
411 -> 415 ;
416 [label="GHI <= 215.5\ngini = 0.3049\nsamples = 357\nvalue = [67, 290]\nclass = clear"] ;
410 -> 416 ;
417 [label="Clearsky GHI <= 214.5\ngini = 0.2319\nsamples = 127\nvalue = [17, 110]\nclass = clear"] ;
416 -> 417 ;
418 [label="gini = 0.2241\nsamples = 70\nvalue = [9, 61]\nclass = clear"] ;
417 -> 418 ;
419 [label="gini = 0.2413\nsamples = 57\nvalue = [8, 49]\nclass = clear"] ;
417 -> 419 ;
420 [label="Clearsky GHI <= 217.5\ngini = 0.3403\nsamples = 230\nvalue = [50, 180]\nclass = clear"] ;
416 -> 420 ;
421 [label="Clearsky GHI <= 216.5\ngini = 0.3633\nsamples = 109\nvalue = [26, 83]\nclass = clear"] ;
420 -> 421 ;
422 [label="gini = 0.32\nsamples = 45\nvalue = [9, 36]\nclass = clear"] ;
421 -> 422 ;
423 [label="gini = 0.3901\nsamples = 64\nvalue = [17, 47]\nclass = clear"] ;
421 -> 423 ;
424 [label="GHI <= 218.5\ngini = 0.318\nsamples = 121\nvalue = [24, 97]\nclass = clear"] ;
420 -> 424 ;
425 [label="gini = 0.2812\nsamples = 65\nvalue = [11, 54]\nclass = clear"] ;
424 -> 425 ;
426 [label="gini = 0.3565\nsamples = 56\nvalue = [13, 43]\nclass = clear"] ;
424 -> 426 ;
427 [label="Clearsky GHI <= 223.5\ngini = 0.279\nsamples = 710\nvalue = [119, 591]\nclass = clear"] ;
403 -> 427 ;
428 [label="GHI <= 221.5\ngini = 0.2299\nsamples = 249\nvalue = [33, 216]\nclass = clear"] ;
427 -> 428 ;
429 [label="Clearsky GHI <= 220.5\ngini = 0.264\nsamples = 115\nvalue = [18, 97]\nclass = clear"] ;
428 -> 429 ;
430 [label="gini = 0.2413\nsamples = 57\nvalue = [8, 49]\nclass = clear"] ;
429 -> 430 ;
431 [label="gini = 0.2854\nsamples = 58\nvalue = [10, 48]\nclass = clear"] ;
429 -> 431 ;
432 [label="Clearsky GHI <= 222.5\ngini = 0.1988\nsamples = 134\nvalue = [15, 119]\nclass = clear"] ;
428 -> 432 ;
433 [label="gini = 0.2024\nsamples = 70\nvalue = [8, 62]\nclass = clear"] ;
432 -> 433 ;
434 [label="gini = 0.1948\nsamples = 64\nvalue = [7, 57]\nclass = clear"] ;
432 -> 434 ;
435 [label="Clearsky GHI <= 227.5\ngini = 0.3035\nsamples = 461\nvalue = [86, 375]\nclass = clear"] ;
427 -> 435 ;
436 [label="GHI <= 224.5\ngini = 0.321\nsamples = 239\nvalue = [48, 191]\nclass = clear"] ;
435 -> 436 ;
437 [label="gini = 0.3093\nsamples = 68\nvalue = [13, 55]\nclass = clear"] ;
436 -> 437 ;
438 [label="GHI <= 225.5\ngini = 0.3256\nsamples = 171\nvalue = [35, 136]\nclass = clear"] ;
436 -> 438 ;
439 [label="gini = 0.3244\nsamples = 54\nvalue = [11, 43]\nclass = clear"] ;
438 -> 439 ;
440 [label="GHI <= 226.5\ngini = 0.3261\nsamples = 117\nvalue = [24, 93]\nclass = clear"] ;
438 -> 440 ;
441 [label="gini = 0.3275\nsamples = 63\nvalue = [13, 50]\nclass = clear"] ;
440 -> 441 ;
442 [label="gini = 0.3244\nsamples = 54\nvalue = [11, 43]\nclass = clear"] ;
440 -> 442 ;
443 [label="Clearsky GHI <= 229.5\ngini = 0.2837\nsamples = 222\nvalue = [38, 184]\nclass = clear"] ;
435 -> 443 ;
444 [label="GHI <= 228.5\ngini = 0.2702\nsamples = 118\nvalue = [19, 99]\nclass = clear"] ;
443 -> 444 ;
445 [label="gini = 0.2956\nsamples = 61\nvalue = [11, 50]\nclass = clear"] ;
444 -> 445 ;
446 [label="gini = 0.2413\nsamples = 57\nvalue = [8, 49]\nclass = clear"] ;
444 -> 446 ;
447 [label="GHI <= 230.5\ngini = 0.2986\nsamples = 104\nvalue = [19, 85]\nclass = clear"] ;
443 -> 447 ;
448 [label="gini = 0.3047\nsamples = 48\nvalue = [9, 39]\nclass = clear"] ;
447 -> 448 ;
449 [label="gini = 0.2934\nsamples = 56\nvalue = [10, 46]\nclass = clear"] ;
447 -> 449 ;
450 [label="GHI <= 234.5\ngini = 0.3359\nsamples = 1536\nvalue = [328, 1208]\nclass = clear"] ;
402 -> 450 ;
451 [label="GHI <= 232.5\ngini = 0.3967\nsamples = 187\nvalue = [51, 136]\nclass = clear"] ;
450 -> 451 ;
452 [label="gini = 0.42\nsamples = 60\nvalue = [18, 42]\nclass = clear"] ;
451 -> 452 ;
453 [label="GHI <= 233.5\ngini = 0.3846\nsamples = 127\nvalue = [33, 94]\nclass = clear"] ;
451 -> 453 ;
454 [label="gini = 0.3599\nsamples = 68\nvalue = [16, 52]\nclass = clear"] ;
453 -> 454 ;
455 [label="gini = 0.4102\nsamples = 59\nvalue = [17, 42]\nclass = clear"] ;
453 -> 455 ;
456 [label="GHI <= 253.5\ngini = 0.3263\nsamples = 1349\nvalue = [277, 1072]\nclass = clear"] ;
450 -> 456 ;
457 [label="Clearsky GHI <= 249.5\ngini = 0.3314\nsamples = 1116\nvalue = [234, 882]\nclass = clear"] ;
456 -> 457 ;
458 [label="GHI <= 235.5\ngini = 0.3236\nsamples = 872\nvalue = [177, 695]\nclass = clear"] ;
457 -> 458 ;
459 [label="gini = 0.2847\nsamples = 64\nvalue = [11, 53]\nclass = clear"] ;
458 -> 459 ;
460 [label="GHI <= 248.5\ngini = 0.3265\nsamples = 808\nvalue = [166, 642]\nclass = clear"] ;
458 -> 460 ;
461 [label="Clearsky GHI <= 241.5\ngini = 0.3289\nsamples = 742\nvalue = [154, 588]\nclass = clear"] ;
460 -> 461 ;
462 [label="GHI <= 240.5\ngini = 0.3186\nsamples = 347\nvalue = [69, 278]\nclass = clear"] ;
461 -> 462 ;
463 [label="Clearsky GHI <= 238.5\ngini = 0.324\nsamples = 295\nvalue = [60, 235]\nclass = clear"] ;
462 -> 463 ;
464 [label="GHI <= 236.5\ngini = 0.3307\nsamples = 177\nvalue = [37, 140]\nclass = clear"] ;
463 -> 464 ;
465 [label="gini = 0.316\nsamples = 61\nvalue = [12, 49]\nclass = clear"] ;
464 -> 465 ;
466 [label="GHI <= 237.5\ngini = 0.3381\nsamples = 116\nvalue = [25, 91]\nclass = clear"] ;
464 -> 466 ;
467 [label="gini = 0.3412\nsamples = 55\nvalue = [12, 43]\nclass = clear"] ;
466 -> 467 ;
468 [label="gini = 0.3354\nsamples = 61\nvalue = [13, 48]\nclass = clear"] ;
466 -> 468 ;
469 [label="Clearsky GHI <= 239.5\ngini = 0.3138\nsamples = 118\nvalue = [23, 95]\nclass = clear"] ;
463 -> 469 ;
470 [label="gini = 0.3047\nsamples = 48\nvalue = [9, 39]\nclass = clear"] ;
469 -> 470 ;
471 [label="gini = 0.32\nsamples = 70\nvalue = [14, 56]\nclass = clear"] ;
469 -> 471 ;
472 [label="gini = 0.2862\nsamples = 52\nvalue = [9, 43]\nclass = clear"] ;
462 -> 472 ;
473 [label="GHI <= 242.5\ngini = 0.3378\nsamples = 395\nvalue = [85, 310]\nclass = clear"] ;
461 -> 473 ;
474 [label="gini = 0.375\nsamples = 48\nvalue = [12, 36]\nclass = clear"] ;
473 -> 474 ;
475 [label="Clearsky GHI <= 244.5\ngini = 0.3322\nsamples = 347\nvalue = [73, 274]\nclass = clear"] ;
473 -> 475 ;
476 [label="Clearsky GHI <= 243.5\ngini = 0.3176\nsamples = 101\nvalue = [20, 81]\nclass = clear"] ;
475 -> 476 ;
477 [label="gini = 0.3261\nsamples = 39\nvalue = [8, 31]\nclass = clear"] ;
476 -> 477 ;
478 [label="gini = 0.3122\nsamples = 62\nvalue = [12, 50]\nclass = clear"] ;
476 -> 478 ;
479 [label="Clearsky GHI <= 245.5\ngini = 0.3381\nsamples = 246\nvalue = [53, 193]\nclass = clear"] ;
475 -> 479 ;
480 [label="gini = 0.3678\nsamples = 70\nvalue = [17, 53]\nclass = clear"] ;
479 -> 480 ;
481 [label="GHI <= 247.5\ngini = 0.3254\nsamples = 176\nvalue = [36, 140]\nclass = clear"] ;
479 -> 481 ;
482 [label="GHI <= 246.5\ngini = 0.32\nsamples = 110\nvalue = [22, 88]\nclass = clear"] ;
481 -> 482 ;
483 [label="gini = 0.3275\nsamples = 63\nvalue = [13, 50]\nclass = clear"] ;
482 -> 483 ;
484 [label="gini = 0.3096\nsamples = 47\nvalue = [9, 38]\nclass = clear"] ;
482 -> 484 ;
485 [label="gini = 0.3343\nsamples = 66\nvalue = [14, 52]\nclass = clear"] ;
481 -> 485 ;
486 [label="gini = 0.2975\nsamples = 66\nvalue = [12, 54]\nclass = clear"] ;
460 -> 486 ;
487 [label="Clearsky GHI <= 250.5\ngini = 0.3581\nsamples = 244\nvalue = [57, 187]\nclass = clear"] ;
457 -> 487 ;
488 [label="gini = 0.3901\nsamples = 64\nvalue = [17, 47]\nclass = clear"] ;
487 -> 488 ;
489 [label="GHI <= 252.5\ngini = 0.3457\nsamples = 180\nvalue = [40, 140]\nclass = clear"] ;
487 -> 489 ;
490 [label="GHI <= 251.5\ngini = 0.3256\nsamples = 127\nvalue = [26, 101]\nclass = clear"] ;
489 -> 490 ;
491 [label="gini = 0.3166\nsamples = 71\nvalue = [14, 57]\nclass = clear"] ;
490 -> 491 ;
492 [label="gini = 0.3367\nsamples = 56\nvalue = [12, 44]\nclass = clear"] ;
490 -> 492 ;
493 [label="gini = 0.3888\nsamples = 53\nvalue = [14, 39]\nclass = clear"] ;
489 -> 493 ;
494 [label="GHI <= 255.5\ngini = 0.301\nsamples = 233\nvalue = [43, 190]\nclass = clear"] ;
456 -> 494 ;
495 [label="GHI <= 254.5\ngini = 0.2578\nsamples = 125\nvalue = [19, 106]\nclass = clear"] ;
494 -> 495 ;
496 [label="gini = 0.2585\nsamples = 59\nvalue = [9, 50]\nclass = clear"] ;
495 -> 496 ;
497 [label="gini = 0.2571\nsamples = 66\nvalue = [10, 56]\nclass = clear"] ;
495 -> 497 ;
498 [label="GHI <= 256.5\ngini = 0.3457\nsamples = 108\nvalue = [24, 84]\nclass = clear"] ;
494 -> 498 ;
499 [label="gini = 0.3457\nsamples = 54\nvalue = [12, 42]\nclass = clear"] ;
498 -> 499 ;
500 [label="gini = 0.3457\nsamples = 54\nvalue = [12, 42]\nclass = clear"] ;
498 -> 500 ;
501 [label="GHI <= 278.5\ngini = 0.2804\nsamples = 1631\nvalue = [275, 1356]\nclass = clear"] ;
401 -> 501 ;
502 [label="Clearsky GHI <= 275.5\ngini = 0.2669\nsamples = 1141\nvalue = [181, 960]\nclass = clear"] ;
501 -> 502 ;
503 [label="GHI <= 262.5\ngini = 0.2745\nsamples = 1011\nvalue = [166, 845]\nclass = clear"] ;
502 -> 503 ;
504 [label="Clearsky GHI <= 260.5\ngini = 0.2581\nsamples = 289\nvalue = [44, 245]\nclass = clear"] ;
503 -> 504 ;
505 [label="GHI <= 258.5\ngini = 0.2889\nsamples = 177\nvalue = [31, 146]\nclass = clear"] ;
504 -> 505 ;
506 [label="gini = 0.2778\nsamples = 66\nvalue = [11, 55]\nclass = clear"] ;
505 -> 506 ;
507 [label="Clearsky GHI <= 259.5\ngini = 0.2954\nsamples = 111\nvalue = [20, 91]\nclass = clear"] ;
505 -> 507 ;
508 [label="gini = 0.2975\nsamples = 55\nvalue = [10, 45]\nclass = clear"] ;
507 -> 508 ;
509 [label="gini = 0.2934\nsamples = 56\nvalue = [10, 46]\nclass = clear"] ;
507 -> 509 ;
510 [label="Clearsky GHI <= 261.5\ngini = 0.2052\nsamples = 112\nvalue = [13, 99]\nclass = clear"] ;
504 -> 510 ;
511 [label="gini = 0.1884\nsamples = 57\nvalue = [6, 51]\nclass = clear"] ;
510 -> 511 ;
512 [label="gini = 0.2221\nsamples = 55\nvalue = [7, 48]\nclass = clear"] ;
510 -> 512 ;
513 [label="Clearsky GHI <= 264.5\ngini = 0.2808\nsamples = 722\nvalue = [122, 600]\nclass = clear"] ;
503 -> 513 ;
514 [label="GHI <= 263.5\ngini = 0.3362\nsamples = 145\nvalue = [31, 114]\nclass = clear"] ;
513 -> 514 ;
515 [label="gini = 0.3356\nsamples = 75\nvalue = [16, 59]\nclass = clear"] ;
514 -> 515 ;
516 [label="gini = 0.3367\nsamples = 70\nvalue = [15, 55]\nclass = clear"] ;
514 -> 516 ;
517 [label="GHI <= 274.5\ngini = 0.2657\nsamples = 577\nvalue = [91, 486]\nclass = clear"] ;
513 -> 517 ;
518 [label="Clearsky GHI <= 273.5\ngini = 0.2614\nsamples = 524\nvalue = [81, 443]\nclass = clear"] ;
517 -> 518 ;
519 [label="GHI <= 272.5\ngini = 0.2652\nsamples = 464\nvalue = [73, 391]\nclass = clear"] ;
518 -> 519 ;
520 [label="Clearsky GHI <= 270.5\ngini = 0.2611\nsamples = 421\nvalue = [65, 356]\nclass = clear"] ;
519 -> 520 ;
521 [label="GHI <= 269.5\ngini = 0.2686\nsamples = 319\nvalue = [51, 268]\nclass = clear"] ;
520 -> 521 ;
522 [label="Clearsky GHI <= 266.5\ngini = 0.2611\nsamples = 272\nvalue = [42, 230]\nclass = clear"] ;
521 -> 522 ;
523 [label="GHI <= 265.5\ngini = 0.248\nsamples = 131\nvalue = [19, 112]\nclass = clear"] ;
522 -> 523 ;
524 [label="gini = 0.2563\nsamples = 53\nvalue = [8, 45]\nclass = clear"] ;
523 -> 524 ;
525 [label="gini = 0.2423\nsamples = 78\nvalue = [11, 67]\nclass = clear"] ;
523 -> 525 ;
526 [label="Clearsky GHI <= 268.5\ngini = 0.273\nsamples = 141\nvalue = [23, 118]\nclass = clear"] ;
522 -> 526 ;
527 [label="GHI <= 267.5\ngini = 0.2898\nsamples = 91\nvalue = [16, 75]\nclass = clear"] ;
526 -> 527 ;
528 [label="gini = 0.2732\nsamples = 49\nvalue = [8, 41]\nclass = clear"] ;
527 -> 528 ;
529 [label="gini = 0.3084\nsamples = 42\nvalue = [8, 34]\nclass = clear"] ;
527 -> 529 ;
530 [label="gini = 0.2408\nsamples = 50\nvalue = [7, 43]\nclass = clear"] ;
526 -> 530 ;
531 [label="gini = 0.3096\nsamples = 47\nvalue = [9, 38]\nclass = clear"] ;
521 -> 531 ;
532 [label="Clearsky GHI <= 271.5\ngini = 0.2368\nsamples = 102\nvalue = [14, 88]\nclass = clear"] ;
520 -> 532 ;
533 [label="gini = 0.2491\nsamples = 48\nvalue = [7, 41]\nclass = clear"] ;
532 -> 533 ;
534 [label="gini = 0.2257\nsamples = 54\nvalue = [7, 47]\nclass = clear"] ;
532 -> 534 ;
535 [label="gini = 0.3029\nsamples = 43\nvalue = [8, 35]\nclass = clear"] ;
519 -> 535 ;
536 [label="gini = 0.2311\nsamples = 60\nvalue = [8, 52]\nclass = clear"] ;
518 -> 536 ;
537 [label="gini = 0.3062\nsamples = 53\nvalue = [10, 43]\nclass = clear"] ;
517 -> 537 ;
538 [label="GHI <= 277.5\ngini = 0.2041\nsamples = 130\nvalue = [15, 115]\nclass = clear"] ;
502 -> 538 ;
539 [label="GHI <= 276.5\ngini = 0.1687\nsamples = 86\nvalue = [8, 78]\nclass = clear"] ;
538 -> 539 ;
540 [label="gini = 0.1699\nsamples = 32\nvalue = [3, 29]\nclass = clear"] ;
539 -> 540 ;
541 [label="gini = 0.168\nsamples = 54\nvalue = [5, 49]\nclass = clear"] ;
539 -> 541 ;
542 [label="gini = 0.2676\nsamples = 44\nvalue = [7, 37]\nclass = clear"] ;
538 -> 542 ;
543 [label="GHI <= 285.5\ngini = 0.3101\nsamples = 490\nvalue = [94, 396]\nclass = clear"] ;
501 -> 543 ;
544 [label="GHI <= 279.5\ngini = 0.322\nsamples = 367\nvalue = [74, 293]\nclass = clear"] ;
543 -> 544 ;
545 [label="gini = 0.3537\nsamples = 61\nvalue = [14, 47]\nclass = clear"] ;
544 -> 545 ;
546 [label="Clearsky GHI <= 280.5\ngini = 0.3153\nsamples = 306\nvalue = [60, 246]\nclass = clear"] ;
544 -> 546 ;
547 [label="gini = 0.2268\nsamples = 46\nvalue = [6, 40]\nclass = clear"] ;
546 -> 547 ;
548 [label="Clearsky GHI <= 282.5\ngini = 0.3291\nsamples = 260\nvalue = [54, 206]\nclass = clear"] ;
546 -> 548 ;
549 [label="GHI <= 281.5\ngini = 0.3623\nsamples = 101\nvalue = [24, 77]\nclass = clear"] ;
548 -> 549 ;
550 [label="gini = 0.32\nsamples = 50\nvalue = [10, 40]\nclass = clear"] ;
549 -> 550 ;
551 [label="gini = 0.3983\nsamples = 51\nvalue = [14, 37]\nclass = clear"] ;
549 -> 551 ;
552 [label="Clearsky GHI <= 284.5\ngini = 0.3062\nsamples = 159\nvalue = [30, 129]\nclass = clear"] ;
548 -> 552 ;
553 [label="Clearsky GHI <= 283.5\ngini = 0.2822\nsamples = 100\nvalue = [17, 83]\nclass = clear"] ;
552 -> 553 ;
554 [label="gini = 0.282\nsamples = 53\nvalue = [9, 44]\nclass = clear"] ;
553 -> 554 ;
555 [label="gini = 0.2825\nsamples = 47\nvalue = [8, 39]\nclass = clear"] ;
553 -> 555 ;
556 [label="gini = 0.3436\nsamples = 59\nvalue = [13, 46]\nclass = clear"] ;
552 -> 556 ;
557 [label="GHI <= 286.5\ngini = 0.2723\nsamples = 123\nvalue = [20, 103]\nclass = clear"] ;
543 -> 557 ;
558 [label="gini = 0.2604\nsamples = 65\nvalue = [10, 55]\nclass = clear"] ;
557 -> 558 ;
559 [label="gini = 0.2854\nsamples = 58\nvalue = [10, 48]\nclass = clear"] ;
557 -> 559 ;
560 [label="GHI <= 304.5\ngini = 0.3216\nsamples = 1743\nvalue = [351, 1392]\nclass = clear"] ;
400 -> 560 ;
561 [label="GHI <= 288.5\ngini = 0.3395\nsamples = 1015\nvalue = [220, 795]\nclass = clear"] ;
560 -> 561 ;
562 [label="gini = 0.4132\nsamples = 48\nvalue = [14, 34]\nclass = clear"] ;
561 -> 562 ;
563 [label="Clearsky GHI <= 299.5\ngini = 0.3353\nsamples = 967\nvalue = [206, 761]\nclass = clear"] ;
561 -> 563 ;
564 [label="GHI <= 298.5\ngini = 0.325\nsamples = 671\nvalue = [137, 534]\nclass = clear"] ;
563 -> 564 ;
565 [label="Clearsky GHI <= 294.5\ngini = 0.335\nsamples = 611\nvalue = [130, 481]\nclass = clear"] ;
564 -> 565 ;
566 [label="GHI <= 293.5\ngini = 0.3168\nsamples = 375\nvalue = [74, 301]\nclass = clear"] ;
565 -> 566 ;
567 [label="Clearsky GHI <= 290.5\ngini = 0.3357\nsamples = 314\nvalue = [67, 247]\nclass = clear"] ;
566 -> 567 ;
568 [label="GHI <= 289.5\ngini = 0.2926\nsamples = 118\nvalue = [21, 97]\nclass = clear"] ;
567 -> 568 ;
569 [label="gini = 0.3436\nsamples = 59\nvalue = [13, 46]\nclass = clear"] ;
568 -> 569 ;
570 [label="gini = 0.2344\nsamples = 59\nvalue = [8, 51]\nclass = clear"] ;
568 -> 570 ;
571 [label="Clearsky GHI <= 292.5\ngini = 0.3592\nsamples = 196\nvalue = [46, 150]\nclass = clear"] ;
567 -> 571 ;
572 [label="Clearsky GHI <= 291.5\ngini = 0.3447\nsamples = 131\nvalue = [29, 102]\nclass = clear"] ;
571 -> 572 ;
573 [label="gini = 0.3491\nsamples = 71\nvalue = [16, 55]\nclass = clear"] ;
572 -> 573 ;
574 [label="gini = 0.3394\nsamples = 60\nvalue = [13, 47]\nclass = clear"] ;
572 -> 574 ;
575 [label="gini = 0.3863\nsamples = 65\nvalue = [17, 48]\nclass = clear"] ;
571 -> 575 ;
576 [label="gini = 0.2032\nsamples = 61\nvalue = [7, 54]\nclass = clear"] ;
566 -> 576 ;
577 [label="Clearsky GHI <= 295.5\ngini = 0.362\nsamples = 236\nvalue = [56, 180]\nclass = clear"] ;
565 -> 577 ;
578 [label="gini = 0.375\nsamples = 60\nvalue = [15, 45]\nclass = clear"] ;
577 -> 578 ;
579 [label="Clearsky GHI <= 296.5\ngini = 0.3574\nsamples = 176\nvalue = [41, 135]\nclass = clear"] ;
577 -> 579 ;
580 [label="gini = 0.335\nsamples = 47\nvalue = [10, 37]\nclass = clear"] ;
579 -> 580 ;
581 [label="Clearsky GHI <= 297.5\ngini = 0.3651\nsamples = 129\nvalue = [31, 98]\nclass = clear"] ;
579 -> 581 ;
582 [label="gini = 0.3711\nsamples = 65\nvalue = [16, 49]\nclass = clear"] ;
581 -> 582 ;
583 [label="gini = 0.3589\nsamples = 64\nvalue = [15, 49]\nclass = clear"] ;
581 -> 583 ;
584 [label="gini = 0.2061\nsamples = 60\nvalue = [7, 53]\nclass = clear"] ;
564 -> 584 ;
585 [label="Clearsky GHI <= 300.5\ngini = 0.3575\nsamples = 296\nvalue = [69, 227]\nclass = clear"] ;
563 -> 585 ;
586 [label="gini = 0.398\nsamples = 62\nvalue = [17, 45]\nclass = clear"] ;
585 -> 586 ;
587 [label="GHI <= 301.5\ngini = 0.3457\nsamples = 234\nvalue = [52, 182]\nclass = clear"] ;
585 -> 587 ;
588 [label="gini = 0.282\nsamples = 53\nvalue = [9, 44]\nclass = clear"] ;
587 -> 588 ;
589 [label="GHI <= 302.5\ngini = 0.3623\nsamples = 181\nvalue = [43, 138]\nclass = clear"] ;
587 -> 589 ;
590 [label="gini = 0.4082\nsamples = 49\nvalue = [14, 35]\nclass = clear"] ;
589 -> 590 ;
591 [label="GHI <= 303.5\ngini = 0.3429\nsamples = 132\nvalue = [29, 103]\nclass = clear"] ;
589 -> 591 ;
592 [label="gini = 0.3265\nsamples = 73\nvalue = [15, 58]\nclass = clear"] ;
591 -> 592 ;
593 [label="gini = 0.362\nsamples = 59\nvalue = [14, 45]\nclass = clear"] ;
591 -> 593 ;
594 [label="GHI <= 307.5\ngini = 0.2951\nsamples = 728\nvalue = [131, 597]\nclass = clear"] ;
560 -> 594 ;
595 [label="Clearsky GHI <= 305.5\ngini = 0.2316\nsamples = 202\nvalue = [27, 175]\nclass = clear"] ;
594 -> 595 ;
596 [label="gini = 0.3068\nsamples = 74\nvalue = [14, 60]\nclass = clear"] ;
595 -> 596 ;
597 [label="GHI <= 306.5\ngini = 0.1825\nsamples = 128\nvalue = [13, 115]\nclass = clear"] ;
595 -> 597 ;
598 [label="gini = 0.1922\nsamples = 65\nvalue = [7, 58]\nclass = clear"] ;
597 -> 598 ;
599 [label="gini = 0.1723\nsamples = 63\nvalue = [6, 57]\nclass = clear"] ;
597 -> 599 ;
600 [label="Clearsky GHI <= 310.5\ngini = 0.3173\nsamples = 526\nvalue = [104, 422]\nclass = clear"] ;
594 -> 600 ;
601 [label="GHI <= 309.5\ngini = 0.345\nsamples = 185\nvalue = [41, 144]\nclass = clear"] ;
600 -> 601 ;
602 [label="GHI <= 308.5\ngini = 0.2956\nsamples = 122\nvalue = [22, 100]\nclass = clear"] ;
601 -> 602 ;
603 [label="gini = 0.3299\nsamples = 72\nvalue = [15, 57]\nclass = clear"] ;
602 -> 603 ;
604 [label="gini = 0.2408\nsamples = 50\nvalue = [7, 43]\nclass = clear"] ;
602 -> 604 ;
605 [label="gini = 0.4213\nsamples = 63\nvalue = [19, 44]\nclass = clear"] ;
601 -> 605 ;
606 [label="Clearsky GHI <= 313.5\ngini = 0.3012\nsamples = 341\nvalue = [63, 278]\nclass = clear"] ;
600 -> 606 ;
607 [label="GHI <= 312.5\ngini = 0.2862\nsamples = 208\nvalue = [36, 172]\nclass = clear"] ;
606 -> 607 ;
608 [label="GHI <= 311.5\ngini = 0.3149\nsamples = 143\nvalue = [28, 115]\nclass = clear"] ;
607 -> 608 ;
609 [label="gini = 0.3133\nsamples = 72\nvalue = [14, 58]\nclass = clear"] ;
608 -> 609 ;
610 [label="gini = 0.3166\nsamples = 71\nvalue = [14, 57]\nclass = clear"] ;
608 -> 610 ;
611 [label="gini = 0.2159\nsamples = 65\nvalue = [8, 57]\nclass = clear"] ;
607 -> 611 ;
612 [label="GHI <= 314.5\ngini = 0.3236\nsamples = 133\nvalue = [27, 106]\nclass = clear"] ;
606 -> 612 ;
613 [label="gini = 0.32\nsamples = 70\nvalue = [14, 56]\nclass = clear"] ;
612 -> 613 ;
614 [label="gini = 0.3275\nsamples = 63\nvalue = [13, 50]\nclass = clear"] ;
612 -> 614 ;
615 [label="Clearsky GHI <= 444.5\ngini = 0.2572\nsamples = 8736\nvalue = [1324, 7412]\nclass = clear"] ;
383 -> 615 ;
616 [label="Clearsky GHI <= 422.5\ngini = 0.2539\nsamples = 7934\nvalue = [1184, 6750]\nclass = clear"] ;
615 -> 616 ;
617 [label="Clearsky GHI <= 416.5\ngini = 0.2585\nsamples = 6595\nvalue = [1006, 5589]\nclass = clear"] ;
616 -> 617 ;
618 [label="Clearsky GHI <= 337.5\ngini = 0.2547\nsamples = 6257\nvalue = [937, 5320]\nclass = clear"] ;
617 -> 618 ;
619 [label="Clearsky GHI <= 327.5\ngini = 0.2362\nsamples = 1323\nvalue = [181, 1142]\nclass = clear"] ;
618 -> 619 ;
620 [label="GHI <= 325.5\ngini = 0.2581\nsamples = 749\nvalue = [114, 635]\nclass = clear"] ;
619 -> 620 ;
621 [label="Clearsky GHI <= 317.5\ngini = 0.2508\nsamples = 653\nvalue = [96, 557]\nclass = clear"] ;
620 -> 621 ;
622 [label="GHI <= 316.5\ngini = 0.2174\nsamples = 137\nvalue = [17, 120]\nclass = clear"] ;
621 -> 622 ;
623 [label="gini = 0.2478\nsamples = 69\nvalue = [10, 59]\nclass = clear"] ;
622 -> 623 ;
624 [label="gini = 0.1847\nsamples = 68\nvalue = [7, 61]\nclass = clear"] ;
622 -> 624 ;
625 [label="GHI <= 322.5\ngini = 0.2593\nsamples = 516\nvalue = [79, 437]\nclass = clear"] ;
621 -> 625 ;
626 [label="GHI <= 321.5\ngini = 0.2757\nsamples = 315\nvalue = [52, 263]\nclass = clear"] ;
625 -> 626 ;
627 [label="GHI <= 319.5\ngini = 0.2633\nsamples = 250\nvalue = [39, 211]\nclass = clear"] ;
626 -> 627 ;
628 [label="GHI <= 318.5\ngini = 0.2671\nsamples = 126\nvalue = [20, 106]\nclass = clear"] ;
627 -> 628 ;
629 [label="gini = 0.2671\nsamples = 63\nvalue = [10, 53]\nclass = clear"] ;
628 -> 629 ;
630 [label="gini = 0.2671\nsamples = 63\nvalue = [10, 53]\nclass = clear"] ;
628 -> 630 ;
631 [label="GHI <= 320.5\ngini = 0.2595\nsamples = 124\nvalue = [19, 105]\nclass = clear"] ;
627 -> 631 ;
632 [label="gini = 0.2515\nsamples = 61\nvalue = [9, 52]\nclass = clear"] ;
631 -> 632 ;
633 [label="gini = 0.2671\nsamples = 63\nvalue = [10, 53]\nclass = clear"] ;
631 -> 633 ;
634 [label="gini = 0.32\nsamples = 65\nvalue = [13, 52]\nclass = clear"] ;
626 -> 634 ;
635 [label="Clearsky GHI <= 323.5\ngini = 0.2326\nsamples = 201\nvalue = [27, 174]\nclass = clear"] ;
625 -> 635 ;
636 [label="gini = 0.1871\nsamples = 67\nvalue = [7, 60]\nclass = clear"] ;
635 -> 636 ;
637 [label="GHI <= 324.5\ngini = 0.254\nsamples = 134\nvalue = [20, 114]\nclass = clear"] ;
635 -> 637 ;
638 [label="gini = 0.2515\nsamples = 61\nvalue = [9, 52]\nclass = clear"] ;
637 -> 638 ;
639 [label="gini = 0.256\nsamples = 73\nvalue = [11, 62]\nclass = clear"] ;
637 -> 639 ;
640 [label="GHI <= 326.5\ngini = 0.3047\nsamples = 96\nvalue = [18, 78]\nclass = clear"] ;
620 -> 640 ;
641 [label="gini = 0.3157\nsamples = 56\nvalue = [11, 45]\nclass = clear"] ;
640 -> 641 ;
642 [label="gini = 0.2887\nsamples = 40\nvalue = [7, 33]\nclass = clear"] ;
640 -> 642 ;
643 [label="GHI <= 336.5\ngini = 0.2062\nsamples = 574\nvalue = [67, 507]\nclass = clear"] ;
619 -> 643 ;
644 [label="Clearsky GHI <= 334.5\ngini = 0.2012\nsamples = 511\nvalue = [58, 453]\nclass = clear"] ;
643 -> 644 ;
645 [label="GHI <= 333.5\ngini = 0.2151\nsamples = 408\nvalue = [50, 358]\nclass = clear"] ;
644 -> 645 ;
646 [label="Clearsky GHI <= 329.5\ngini = 0.198\nsamples = 359\nvalue = [40, 319]\nclass = clear"] ;
645 -> 646 ;
647 [label="GHI <= 328.5\ngini = 0.2255\nsamples = 139\nvalue = [18, 121]\nclass = clear"] ;
646 -> 647 ;
648 [label="gini = 0.2162\nsamples = 73\nvalue = [9, 64]\nclass = clear"] ;
647 -> 648 ;
649 [label="gini = 0.2355\nsamples = 66\nvalue = [9, 57]\nclass = clear"] ;
647 -> 649 ;
650 [label="GHI <= 330.5\ngini = 0.18\nsamples = 220\nvalue = [22, 198]\nclass = clear"] ;
646 -> 650 ;
651 [label="gini = 0.095\nsamples = 60\nvalue = [3, 57]\nclass = clear"] ;
650 -> 651 ;
652 [label="GHI <= 331.5\ngini = 0.2093\nsamples = 160\nvalue = [19, 141]\nclass = clear"] ;
650 -> 652 ;
653 [label="gini = 0.2712\nsamples = 68\nvalue = [11, 57]\nclass = clear"] ;
652 -> 653 ;
654 [label="GHI <= 332.5\ngini = 0.1588\nsamples = 92\nvalue = [8, 84]\nclass = clear"] ;
652 -> 654 ;
655 [label="gini = 0.0907\nsamples = 42\nvalue = [2, 40]\nclass = clear"] ;
654 -> 655 ;
656 [label="gini = 0.2112\nsamples = 50\nvalue = [6, 44]\nclass = clear"] ;
654 -> 656 ;
657 [label="gini = 0.3249\nsamples = 49\nvalue = [10, 39]\nclass = clear"] ;
645 -> 657 ;
658 [label="GHI <= 335.5\ngini = 0.1433\nsamples = 103\nvalue = [8, 95]\nclass = clear"] ;
644 -> 658 ;
659 [label="gini = 0.0981\nsamples = 58\nvalue = [3, 55]\nclass = clear"] ;
658 -> 659 ;
660 [label="gini = 0.1975\nsamples = 45\nvalue = [5, 40]\nclass = clear"] ;
658 -> 660 ;
661 [label="gini = 0.2449\nsamples = 63\nvalue = [9, 54]\nclass = clear"] ;
643 -> 661 ;
662 [label="GHI <= 367.5\ngini = 0.2595\nsamples = 4934\nvalue = [756, 4178]\nclass = clear"] ;
618 -> 662 ;
663 [label="GHI <= 338.5\ngini = 0.2836\nsamples = 1695\nvalue = [290, 1405]\nclass = clear"] ;
662 -> 663 ;
664 [label="gini = 0.3935\nsamples = 52\nvalue = [14, 38]\nclass = clear"] ;
663 -> 664 ;
665 [label="GHI <= 351.5\ngini = 0.2795\nsamples = 1643\nvalue = [276, 1367]\nclass = clear"] ;
663 -> 665 ;
666 [label="GHI <= 340.5\ngini = 0.2547\nsamples = 721\nvalue = [108, 613]\nclass = clear"] ;
665 -> 666 ;
667 [label="Clearsky GHI <= 339.5\ngini = 0.1941\nsamples = 101\nvalue = [11, 90]\nclass = clear"] ;
666 -> 667 ;
668 [label="gini = 0.2368\nsamples = 51\nvalue = [7, 44]\nclass = clear"] ;
667 -> 668 ;
669 [label="gini = 0.1472\nsamples = 50\nvalue = [4, 46]\nclass = clear"] ;
667 -> 669 ;
670 [label="Clearsky GHI <= 341.5\ngini = 0.2639\nsamples = 620\nvalue = [97, 523]\nclass = clear"] ;
666 -> 670 ;
671 [label="gini = 0.3412\nsamples = 55\nvalue = [12, 43]\nclass = clear"] ;
670 -> 671 ;
672 [label="GHI <= 342.5\ngini = 0.2556\nsamples = 565\nvalue = [85, 480]\nclass = clear"] ;
670 -> 672 ;
673 [label="gini = 0.1975\nsamples = 54\nvalue = [6, 48]\nclass = clear"] ;
672 -> 673 ;
674 [label="GHI <= 348.5\ngini = 0.2614\nsamples = 511\nvalue = [79, 432]\nclass = clear"] ;
672 -> 674 ;
675 [label="GHI <= 344.5\ngini = 0.2771\nsamples = 325\nvalue = [54, 271]\nclass = clear"] ;
674 -> 675 ;
676 [label="GHI <= 343.5\ngini = 0.2408\nsamples = 100\nvalue = [14, 86]\nclass = clear"] ;
675 -> 676 ;
677 [label="gini = 0.258\nsamples = 46\nvalue = [7, 39]\nclass = clear"] ;
676 -> 677 ;
678 [label="gini = 0.2257\nsamples = 54\nvalue = [7, 47]\nclass = clear"] ;
676 -> 678 ;
679 [label="GHI <= 345.5\ngini = 0.2923\nsamples = 225\nvalue = [40, 185]\nclass = clear"] ;
675 -> 679 ;
680 [label="gini = 0.3275\nsamples = 63\nvalue = [13, 50]\nclass = clear"] ;
679 -> 680 ;
681 [label="Clearsky GHI <= 346.5\ngini = 0.2778\nsamples = 162\nvalue = [27, 135]\nclass = clear"] ;
679 -> 681 ;
682 [label="gini = 0.2671\nsamples = 63\nvalue = [10, 53]\nclass = clear"] ;
681 -> 682 ;
683 [label="GHI <= 347.5\ngini = 0.2845\nsamples = 99\nvalue = [17, 82]\nclass = clear"] ;
681 -> 683 ;
684 [label="gini = 0.2825\nsamples = 47\nvalue = [8, 39]\nclass = clear"] ;
683 -> 684 ;
685 [label="gini = 0.2862\nsamples = 52\nvalue = [9, 43]\nclass = clear"] ;
683 -> 685 ;
686 [label="GHI <= 350.5\ngini = 0.2327\nsamples = 186\nvalue = [25, 161]\nclass = clear"] ;
674 -> 686 ;
687 [label="Clearsky GHI <= 349.5\ngini = 0.2107\nsamples = 117\nvalue = [14, 103]\nclass = clear"] ;
686 -> 687 ;
688 [label="gini = 0.2486\nsamples = 55\nvalue = [8, 47]\nclass = clear"] ;
687 -> 688 ;
689 [label="gini = 0.1748\nsamples = 62\nvalue = [6, 56]\nclass = clear"] ;
687 -> 689 ;
690 [label="gini = 0.268\nsamples = 69\nvalue = [11, 58]\nclass = clear"] ;
686 -> 690 ;
691 [label="Clearsky GHI <= 357.5\ngini = 0.298\nsamples = 922\nvalue = [168, 754]\nclass = clear"] ;
665 -> 691 ;
692 [label="Clearsky GHI <= 356.5\ngini = 0.324\nsamples = 300\nvalue = [61, 239]\nclass = clear"] ;
691 -> 692 ;
693 [label="GHI <= 355.5\ngini = 0.317\nsamples = 243\nvalue = [48, 195]\nclass = clear"] ;
692 -> 693 ;
694 [label="GHI <= 352.5\ngini = 0.327\nsamples = 204\nvalue = [42, 162]\nclass = clear"] ;
693 -> 694 ;
695 [label="gini = 0.3533\nsamples = 48\nvalue = [11, 37]\nclass = clear"] ;
694 -> 695 ;
696 [label="Clearsky GHI <= 354.5\ngini = 0.3185\nsamples = 156\nvalue = [31, 125]\nclass = clear"] ;
694 -> 696 ;
697 [label="GHI <= 353.5\ngini = 0.3244\nsamples = 108\nvalue = [22, 86]\nclass = clear"] ;
696 -> 697 ;
698 [label="gini = 0.3074\nsamples = 58\nvalue = [11, 47]\nclass = clear"] ;
697 -> 698 ;
699 [label="gini = 0.3432\nsamples = 50\nvalue = [11, 39]\nclass = clear"] ;
697 -> 699 ;
700 [label="gini = 0.3047\nsamples = 48\nvalue = [9, 39]\nclass = clear"] ;
696 -> 700 ;
701 [label="gini = 0.2604\nsamples = 39\nvalue = [6, 33]\nclass = clear"] ;
693 -> 701 ;
702 [label="gini = 0.3521\nsamples = 57\nvalue = [13, 44]\nclass = clear"] ;
692 -> 702 ;
703 [label="GHI <= 360.5\ngini = 0.2849\nsamples = 622\nvalue = [107, 515]\nclass = clear"] ;
691 -> 703 ;
704 [label="Clearsky GHI <= 359.5\ngini = 0.2962\nsamples = 177\nvalue = [32, 145]\nclass = clear"] ;
703 -> 704 ;
705 [label="Clearsky GHI <= 358.5\ngini = 0.2759\nsamples = 121\nvalue = [20, 101]\nclass = clear"] ;
704 -> 705 ;
706 [label="gini = 0.2825\nsamples = 47\nvalue = [8, 39]\nclass = clear"] ;
705 -> 706 ;
707 [label="gini = 0.2717\nsamples = 74\nvalue = [12, 62]\nclass = clear"] ;
705 -> 707 ;
708 [label="gini = 0.3367\nsamples = 56\nvalue = [12, 44]\nclass = clear"] ;
704 -> 708 ;
709 [label="GHI <= 361.5\ngini = 0.2803\nsamples = 445\nvalue = [75, 370]\nclass = clear"] ;
703 -> 709 ;
710 [label="gini = 0.2449\nsamples = 49\nvalue = [7, 42]\nclass = clear"] ;
709 -> 710 ;
711 [label="Clearsky GHI <= 366.5\ngini = 0.2845\nsamples = 396\nvalue = [68, 328]\nclass = clear"] ;
709 -> 711 ;
712 [label="Clearsky GHI <= 365.5\ngini = 0.2798\nsamples = 321\nvalue = [54, 267]\nclass = clear"] ;
711 -> 712 ;
713 [label="Clearsky GHI <= 364.5\ngini = 0.2882\nsamples = 252\nvalue = [44, 208]\nclass = clear"] ;
712 -> 713 ;
714 [label="Clearsky GHI <= 363.5\ngini = 0.2802\nsamples = 184\nvalue = [31, 153]\nclass = clear"] ;
713 -> 714 ;
715 [label="GHI <= 362.5\ngini = 0.2864\nsamples = 127\nvalue = [22, 105]\nclass = clear"] ;
714 -> 715 ;
716 [label="gini = 0.2744\nsamples = 67\nvalue = [11, 56]\nclass = clear"] ;
715 -> 716 ;
717 [label="gini = 0.2994\nsamples = 60\nvalue = [11, 49]\nclass = clear"] ;
715 -> 717 ;
718 [label="gini = 0.2659\nsamples = 57\nvalue = [9, 48]\nclass = clear"] ;
714 -> 718 ;
719 [label="gini = 0.3093\nsamples = 68\nvalue = [13, 55]\nclass = clear"] ;
713 -> 719 ;
720 [label="gini = 0.2478\nsamples = 69\nvalue = [10, 59]\nclass = clear"] ;
712 -> 720 ;
721 [label="gini = 0.3036\nsamples = 75\nvalue = [14, 61]\nclass = clear"] ;
711 -> 721 ;
722 [label="GHI <= 382.5\ngini = 0.2463\nsamples = 3239\nvalue = [466, 2773]\nclass = clear"] ;
662 -> 722 ;
723 [label="Clearsky GHI <= 377.5\ngini = 0.2243\nsamples = 1033\nvalue = [133, 900]\nclass = clear"] ;
722 -> 723 ;
724 [label="GHI <= 375.5\ngini = 0.2364\nsamples = 679\nvalue = [93, 586]\nclass = clear"] ;
723 -> 724 ;
725 [label="GHI <= 369.5\ngini = 0.2134\nsamples = 527\nvalue = [64, 463]\nclass = clear"] ;
724 -> 725 ;
726 [label="GHI <= 368.5\ngini = 0.1901\nsamples = 141\nvalue = [15, 126]\nclass = clear"] ;
725 -> 726 ;
727 [label="gini = 0.2337\nsamples = 74\nvalue = [10, 64]\nclass = clear"] ;
726 -> 727 ;
728 [label="gini = 0.1381\nsamples = 67\nvalue = [5, 62]\nclass = clear"] ;
726 -> 728 ;
729 [label="Clearsky GHI <= 372.5\ngini = 0.2217\nsamples = 386\nvalue = [49, 337]\nclass = clear"] ;
725 -> 729 ;
730 [label="Clearsky GHI <= 370.5\ngini = 0.2386\nsamples = 195\nvalue = [27, 168]\nclass = clear"] ;
729 -> 730 ;
731 [label="gini = 0.2571\nsamples = 66\nvalue = [10, 56]\nclass = clear"] ;
730 -> 731 ;
732 [label="Clearsky GHI <= 371.5\ngini = 0.2288\nsamples = 129\nvalue = [17, 112]\nclass = clear"] ;
730 -> 732 ;
733 [label="gini = 0.2241\nsamples = 70\nvalue = [9, 61]\nclass = clear"] ;
732 -> 733 ;
734 [label="gini = 0.2344\nsamples = 59\nvalue = [8, 51]\nclass = clear"] ;
732 -> 734 ;
735 [label="GHI <= 374.5\ngini = 0.2038\nsamples = 191\nvalue = [22, 169]\nclass = clear"] ;
729 -> 735 ;
736 [label="GHI <= 373.5\ngini = 0.2134\nsamples = 140\nvalue = [17, 123]\nclass = clear"] ;
735 -> 736 ;
737 [label="gini = 0.1922\nsamples = 65\nvalue = [7, 58]\nclass = clear"] ;
736 -> 737 ;
738 [label="gini = 0.2311\nsamples = 75\nvalue = [10, 65]\nclass = clear"] ;
736 -> 738 ;
739 [label="gini = 0.1769\nsamples = 51\nvalue = [5, 46]\nclass = clear"] ;
735 -> 739 ;
740 [label="GHI <= 376.5\ngini = 0.3088\nsamples = 152\nvalue = [29, 123]\nclass = clear"] ;
724 -> 740 ;
741 [label="gini = 0.3084\nsamples = 84\nvalue = [16, 68]\nclass = clear"] ;
740 -> 741 ;
742 [label="gini = 0.3093\nsamples = 68\nvalue = [13, 55]\nclass = clear"] ;
740 -> 742 ;
743 [label="GHI <= 380.5\ngini = 0.2005\nsamples = 354\nvalue = [40, 314]\nclass = clear"] ;
723 -> 743 ;
744 [label="GHI <= 378.5\ngini = 0.2121\nsamples = 199\nvalue = [24, 175]\nclass = clear"] ;
743 -> 744 ;
745 [label="gini = 0.1755\nsamples = 72\nvalue = [7, 65]\nclass = clear"] ;
744 -> 745 ;
746 [label="Clearsky GHI <= 379.5\ngini = 0.2319\nsamples = 127\nvalue = [17, 110]\nclass = clear"] ;
744 -> 746 ;
747 [label="gini = 0.2221\nsamples = 55\nvalue = [7, 48]\nclass = clear"] ;
746 -> 747 ;
748 [label="gini = 0.2392\nsamples = 72\nvalue = [10, 62]\nclass = clear"] ;
746 -> 748 ;
749 [label="Clearsky GHI <= 381.5\ngini = 0.1851\nsamples = 155\nvalue = [16, 139]\nclass = clear"] ;
743 -> 749 ;
750 [label="gini = 0.182\nsamples = 79\nvalue = [8, 71]\nclass = clear"] ;
749 -> 750 ;
751 [label="gini = 0.1884\nsamples = 76\nvalue = [8, 68]\nclass = clear"] ;
749 -> 751 ;
752 [label="GHI <= 409.5\ngini = 0.2563\nsamples = 2206\nvalue = [333, 1873]\nclass = clear"] ;
722 -> 752 ;
753 [label="Clearsky GHI <= 397.5\ngini = 0.2644\nsamples = 1792\nvalue = [281, 1511]\nclass = clear"] ;
752 -> 753 ;
754 [label="Clearsky GHI <= 393.5\ngini = 0.251\nsamples = 992\nvalue = [146, 846]\nclass = clear"] ;
753 -> 754 ;
755 [label="GHI <= 383.5\ngini = 0.2728\nsamples = 724\nvalue = [118, 606]\nclass = clear"] ;
754 -> 755 ;
756 [label="gini = 0.3354\nsamples = 61\nvalue = [13, 48]\nclass = clear"] ;
755 -> 756 ;
757 [label="GHI <= 389.5\ngini = 0.2666\nsamples = 663\nvalue = [105, 558]\nclass = clear"] ;
755 -> 757 ;
758 [label="Clearsky GHI <= 388.5\ngini = 0.2537\nsamples = 389\nvalue = [58, 331]\nclass = clear"] ;
757 -> 758 ;
759 [label="Clearsky GHI <= 384.5\ngini = 0.2695\nsamples = 324\nvalue = [52, 272]\nclass = clear"] ;
758 -> 759 ;
760 [label="gini = 0.2778\nsamples = 60\nvalue = [10, 50]\nclass = clear"] ;
759 -> 760 ;
761 [label="Clearsky GHI <= 385.5\ngini = 0.2676\nsamples = 264\nvalue = [42, 222]\nclass = clear"] ;
759 -> 761 ;
762 [label="gini = 0.2571\nsamples = 66\nvalue = [10, 56]\nclass = clear"] ;
761 -> 762 ;
763 [label="GHI <= 386.5\ngini = 0.271\nsamples = 198\nvalue = [32, 166]\nclass = clear"] ;
761 -> 763 ;
764 [label="gini = 0.2854\nsamples = 58\nvalue = [10, 48]\nclass = clear"] ;
763 -> 764 ;
765 [label="GHI <= 387.5\ngini = 0.2649\nsamples = 140\nvalue = [22, 118]\nclass = clear"] ;
763 -> 765 ;
766 [label="gini = 0.2585\nsamples = 59\nvalue = [9, 50]\nclass = clear"] ;
765 -> 766 ;
767 [label="gini = 0.2695\nsamples = 81\nvalue = [13, 68]\nclass = clear"] ;
765 -> 767 ;
768 [label="gini = 0.1676\nsamples = 65\nvalue = [6, 59]\nclass = clear"] ;
758 -> 768 ;
769 [label="GHI <= 391.5\ngini = 0.2842\nsamples = 274\nvalue = [47, 227]\nclass = clear"] ;
757 -> 769 ;
770 [label="GHI <= 390.5\ngini = 0.2778\nsamples = 138\nvalue = [23, 115]\nclass = clear"] ;
769 -> 770 ;
771 [label="gini = 0.2956\nsamples = 61\nvalue = [11, 50]\nclass = clear"] ;
770 -> 771 ;
772 [label="gini = 0.2631\nsamples = 77\nvalue = [12, 65]\nclass = clear"] ;
770 -> 772 ;
773 [label="GHI <= 392.5\ngini = 0.2907\nsamples = 136\nvalue = [24, 112]\nclass = clear"] ;
769 -> 773 ;
774 [label="gini = 0.2907\nsamples = 68\nvalue = [12, 56]\nclass = clear"] ;
773 -> 774 ;
775 [label="gini = 0.2907\nsamples = 68\nvalue = [12, 56]\nclass = clear"] ;
773 -> 775 ;
776 [label="GHI <= 394.5\ngini = 0.1871\nsamples = 268\nvalue = [28, 240]\nclass = clear"] ;
754 -> 776 ;
777 [label="gini = 0.0596\nsamples = 65\nvalue = [2, 63]\nclass = clear"] ;
776 -> 777 ;
778 [label="GHI <= 395.5\ngini = 0.2233\nsamples = 203\nvalue = [26, 177]\nclass = clear"] ;
776 -> 778 ;
779 [label="gini = 0.2975\nsamples = 55\nvalue = [10, 45]\nclass = clear"] ;
778 -> 779 ;
780 [label="Clearsky GHI <= 396.5\ngini = 0.1928\nsamples = 148\nvalue = [16, 132]\nclass = clear"] ;
778 -> 780 ;
781 [label="gini = 0.1207\nsamples = 62\nvalue = [4, 58]\nclass = clear"] ;
780 -> 781 ;
782 [label="gini = 0.2401\nsamples = 86\nvalue = [12, 74]\nclass = clear"] ;
780 -> 782 ;
783 [label="Clearsky GHI <= 401.5\ngini = 0.2805\nsamples = 800\nvalue = [135, 665]\nclass = clear"] ;
753 -> 783 ;
784 [label="GHI <= 398.5\ngini = 0.3101\nsamples = 271\nvalue = [52, 219]\nclass = clear"] ;
783 -> 784 ;
785 [label="gini = 0.3333\nsamples = 71\nvalue = [15, 56]\nclass = clear"] ;
784 -> 785 ;
786 [label="Clearsky GHI <= 399.5\ngini = 0.3016\nsamples = 200\nvalue = [37, 163]\nclass = clear"] ;
784 -> 786 ;
787 [label="gini = 0.2778\nsamples = 60\nvalue = [10, 50]\nclass = clear"] ;
786 -> 787 ;
788 [label="GHI <= 400.5\ngini = 0.3113\nsamples = 140\nvalue = [27, 113]\nclass = clear"] ;
786 -> 788 ;
789 [label="gini = 0.32\nsamples = 70\nvalue = [14, 56]\nclass = clear"] ;
788 -> 789 ;
790 [label="gini = 0.3024\nsamples = 70\nvalue = [13, 57]\nclass = clear"] ;
788 -> 790 ;
791 [label="GHI <= 402.5\ngini = 0.2646\nsamples = 529\nvalue = [83, 446]\nclass = clear"] ;
783 -> 791 ;
792 [label="gini = 0.142\nsamples = 65\nvalue = [5, 60]\nclass = clear"] ;
791 -> 792 ;
793 [label="GHI <= 404.5\ngini = 0.2797\nsamples = 464\nvalue = [78, 386]\nclass = clear"] ;
791 -> 793 ;
794 [label="GHI <= 403.5\ngini = 0.2449\nsamples = 126\nvalue = [18, 108]\nclass = clear"] ;
793 -> 794 ;
795 [label="gini = 0.2563\nsamples = 53\nvalue = [8, 45]\nclass = clear"] ;
794 -> 795 ;
796 [label="gini = 0.2364\nsamples = 73\nvalue = [10, 63]\nclass = clear"] ;
794 -> 796 ;
797 [label="Clearsky GHI <= 408.5\ngini = 0.292\nsamples = 338\nvalue = [60, 278]\nclass = clear"] ;
793 -> 797 ;
798 [label="Clearsky GHI <= 406.5\ngini = 0.3026\nsamples = 269\nvalue = [50, 219]\nclass = clear"] ;
797 -> 798 ;
799 [label="Clearsky GHI <= 405.5\ngini = 0.2809\nsamples = 142\nvalue = [24, 118]\nclass = clear"] ;
798 -> 799 ;
800 [label="gini = 0.32\nsamples = 70\nvalue = [14, 56]\nclass = clear"] ;
799 -> 800 ;
801 [label="gini = 0.2392\nsamples = 72\nvalue = [10, 62]\nclass = clear"] ;
799 -> 801 ;
802 [label="Clearsky GHI <= 407.5\ngini = 0.3256\nsamples = 127\nvalue = [26, 101]\nclass = clear"] ;
798 -> 802 ;
803 [label="gini = 0.3423\nsamples = 73\nvalue = [16, 57]\nclass = clear"] ;
802 -> 803 ;
804 [label="gini = 0.3018\nsamples = 54\nvalue = [10, 44]\nclass = clear"] ;
802 -> 804 ;
805 [label="gini = 0.2478\nsamples = 69\nvalue = [10, 59]\nclass = clear"] ;
797 -> 805 ;
806 [label="Clearsky GHI <= 411.5\ngini = 0.2197\nsamples = 414\nvalue = [52, 362]\nclass = clear"] ;
752 -> 806 ;
807 [label="Clearsky GHI <= 410.5\ngini = 0.1472\nsamples = 125\nvalue = [10, 115]\nclass = clear"] ;
806 -> 807 ;
808 [label="gini = 0.1123\nsamples = 67\nvalue = [4, 63]\nclass = clear"] ;
807 -> 808 ;
809 [label="gini = 0.1855\nsamples = 58\nvalue = [6, 52]\nclass = clear"] ;
807 -> 809 ;
810 [label="GHI <= 414.5\ngini = 0.2484\nsamples = 289\nvalue = [42, 247]\nclass = clear"] ;
806 -> 810 ;
811 [label="GHI <= 413.5\ngini = 0.2305\nsamples = 173\nvalue = [23, 150]\nclass = clear"] ;
810 -> 811 ;
812 [label="GHI <= 412.5\ngini = 0.2515\nsamples = 122\nvalue = [18, 104]\nclass = clear"] ;
811 -> 812 ;
813 [label="gini = 0.2344\nsamples = 59\nvalue = [8, 51]\nclass = clear"] ;
812 -> 813 ;
814 [label="gini = 0.2671\nsamples = 63\nvalue = [10, 53]\nclass = clear"] ;
812 -> 814 ;
815 [label="gini = 0.1769\nsamples = 51\nvalue = [5, 46]\nclass = clear"] ;
811 -> 815 ;
816 [label="Clearsky GHI <= 415.5\ngini = 0.2739\nsamples = 116\nvalue = [19, 97]\nclass = clear"] ;
810 -> 816 ;
817 [label="gini = 0.2862\nsamples = 52\nvalue = [9, 43]\nclass = clear"] ;
816 -> 817 ;
818 [label="gini = 0.2637\nsamples = 64\nvalue = [10, 54]\nclass = clear"] ;
816 -> 818 ;
819 [label="GHI <= 417.5\ngini = 0.3249\nsamples = 338\nvalue = [69, 269]\nclass = clear"] ;
617 -> 819 ;
820 [label="gini = 0.3807\nsamples = 43\nvalue = [11, 32]\nclass = clear"] ;
819 -> 820 ;
821 [label="Clearsky GHI <= 419.5\ngini = 0.3159\nsamples = 295\nvalue = [58, 237]\nclass = clear"] ;
819 -> 821 ;
822 [label="GHI <= 418.5\ngini = 0.2996\nsamples = 109\nvalue = [20, 89]\nclass = clear"] ;
821 -> 822 ;
823 [label="gini = 0.3018\nsamples = 54\nvalue = [10, 44]\nclass = clear"] ;
822 -> 823 ;
824 [label="gini = 0.2975\nsamples = 55\nvalue = [10, 45]\nclass = clear"] ;
822 -> 824 ;
825 [label="Clearsky GHI <= 420.5\ngini = 0.3251\nsamples = 186\nvalue = [38, 148]\nclass = clear"] ;
821 -> 825 ;
826 [label="gini = 0.3475\nsamples = 67\nvalue = [15, 52]\nclass = clear"] ;
825 -> 826 ;
827 [label="GHI <= 421.5\ngini = 0.3118\nsamples = 119\nvalue = [23, 96]\nclass = clear"] ;
825 -> 827 ;
828 [label="gini = 0.3058\nsamples = 69\nvalue = [13, 56]\nclass = clear"] ;
827 -> 828 ;
829 [label="gini = 0.32\nsamples = 50\nvalue = [10, 40]\nclass = clear"] ;
827 -> 829 ;
830 [label="Clearsky GHI <= 430.5\ngini = 0.2305\nsamples = 1339\nvalue = [178, 1161]\nclass = clear"] ;
616 -> 830 ;
831 [label="GHI <= 426.5\ngini = 0.2008\nsamples = 468\nvalue = [53, 415]\nclass = clear"] ;
830 -> 831 ;
832 [label="GHI <= 425.5\ngini = 0.2364\nsamples = 241\nvalue = [33, 208]\nclass = clear"] ;
831 -> 832 ;
833 [label="Clearsky GHI <= 424.5\ngini = 0.1994\nsamples = 187\nvalue = [21, 166]\nclass = clear"] ;
832 -> 833 ;
834 [label="GHI <= 423.5\ngini = 0.189\nsamples = 123\nvalue = [13, 110]\nclass = clear"] ;
833 -> 834 ;
835 [label="gini = 0.2159\nsamples = 65\nvalue = [8, 57]\nclass = clear"] ;
834 -> 835 ;
836 [label="gini = 0.1576\nsamples = 58\nvalue = [5, 53]\nclass = clear"] ;
834 -> 836 ;
837 [label="gini = 0.2188\nsamples = 64\nvalue = [8, 56]\nclass = clear"] ;
833 -> 837 ;
838 [label="gini = 0.3457\nsamples = 54\nvalue = [12, 42]\nclass = clear"] ;
832 -> 838 ;
839 [label="Clearsky GHI <= 428.5\ngini = 0.1607\nsamples = 227\nvalue = [20, 207]\nclass = clear"] ;
831 -> 839 ;
840 [label="GHI <= 427.5\ngini = 0.1264\nsamples = 118\nvalue = [8, 110]\nclass = clear"] ;
839 -> 840 ;
841 [label="gini = 0.1723\nsamples = 63\nvalue = [6, 57]\nclass = clear"] ;
840 -> 841 ;
842 [label="gini = 0.0701\nsamples = 55\nvalue = [2, 53]\nclass = clear"] ;
840 -> 842 ;
843 [label="GHI <= 429.5\ngini = 0.1959\nsamples = 109\nvalue = [12, 97]\nclass = clear"] ;
839 -> 843 ;
844 [label="gini = 0.2188\nsamples = 56\nvalue = [7, 49]\nclass = clear"] ;
843 -> 844 ;
845 [label="gini = 0.1709\nsamples = 53\nvalue = [5, 48]\nclass = clear"] ;
843 -> 845 ;
846 [label="GHI <= 435.5\ngini = 0.2458\nsamples = 871\nvalue = [125, 746]\nclass = clear"] ;
830 -> 846 ;
847 [label="GHI <= 433.5\ngini = 0.2708\nsamples = 322\nvalue = [52, 270]\nclass = clear"] ;
846 -> 847 ;
848 [label="GHI <= 431.5\ngini = 0.2755\nsamples = 200\nvalue = [33, 167]\nclass = clear"] ;
847 -> 848 ;
849 [label="gini = 0.2604\nsamples = 65\nvalue = [10, 55]\nclass = clear"] ;
848 -> 849 ;
850 [label="Clearsky GHI <= 432.5\ngini = 0.2827\nsamples = 135\nvalue = [23, 112]\nclass = clear"] ;
848 -> 850 ;
851 [label="gini = 0.2882\nsamples = 63\nvalue = [11, 52]\nclass = clear"] ;
850 -> 851 ;
852 [label="gini = 0.2778\nsamples = 72\nvalue = [12, 60]\nclass = clear"] ;
850 -> 852 ;
853 [label="GHI <= 434.5\ngini = 0.263\nsamples = 122\nvalue = [19, 103]\nclass = clear"] ;
847 -> 853 ;
854 [label="gini = 0.2449\nsamples = 63\nvalue = [9, 54]\nclass = clear"] ;
853 -> 854 ;
855 [label="gini = 0.2815\nsamples = 59\nvalue = [10, 49]\nclass = clear"] ;
853 -> 855 ;
856 [label="Clearsky GHI <= 438.5\ngini = 0.2306\nsamples = 549\nvalue = [73, 476]\nclass = clear"] ;
846 -> 856 ;
857 [label="GHI <= 436.5\ngini = 0.1792\nsamples = 191\nvalue = [19, 172]\nclass = clear"] ;
856 -> 857 ;
858 [label="gini = 0.1774\nsamples = 61\nvalue = [6, 55]\nclass = clear"] ;
857 -> 858 ;
859 [label="GHI <= 437.5\ngini = 0.18\nsamples = 130\nvalue = [13, 117]\nclass = clear"] ;
857 -> 859 ;
860 [label="gini = 0.1827\nsamples = 59\nvalue = [6, 53]\nclass = clear"] ;
859 -> 860 ;
861 [label="gini = 0.1777\nsamples = 71\nvalue = [7, 64]\nclass = clear"] ;
859 -> 861 ;
862 [label="Clearsky GHI <= 443.5\ngini = 0.2562\nsamples = 358\nvalue = [54, 304]\nclass = clear"] ;
856 -> 862 ;
863 [label="Clearsky GHI <= 440.5\ngini = 0.2701\nsamples = 292\nvalue = [47, 245]\nclass = clear"] ;
862 -> 863 ;
864 [label="Clearsky GHI <= 439.5\ngini = 0.232\nsamples = 112\nvalue = [15, 97]\nclass = clear"] ;
863 -> 864 ;
865 [label="gini = 0.2311\nsamples = 60\nvalue = [8, 52]\nclass = clear"] ;
864 -> 865 ;
866 [label="gini = 0.233\nsamples = 52\nvalue = [7, 45]\nclass = clear"] ;
864 -> 866 ;
867 [label="GHI <= 441.5\ngini = 0.2923\nsamples = 180\nvalue = [32, 148]\nclass = clear"] ;
863 -> 867 ;
868 [label="gini = 0.3457\nsamples = 54\nvalue = [12, 42]\nclass = clear"] ;
867 -> 868 ;
869 [label="GHI <= 442.5\ngini = 0.2671\nsamples = 126\nvalue = [20, 106]\nclass = clear"] ;
867 -> 869 ;
870 [label="gini = 0.2706\nsamples = 62\nvalue = [10, 52]\nclass = clear"] ;
869 -> 870 ;
871 [label="gini = 0.2637\nsamples = 64\nvalue = [10, 54]\nclass = clear"] ;
869 -> 871 ;
872 [label="gini = 0.1896\nsamples = 66\nvalue = [7, 59]\nclass = clear"] ;
862 -> 872 ;
873 [label="Clearsky GHI <= 450.5\ngini = 0.2882\nsamples = 802\nvalue = [140, 662]\nclass = clear"] ;
615 -> 873 ;
874 [label="Clearsky GHI <= 447.5\ngini = 0.3053\nsamples = 415\nvalue = [78, 337]\nclass = clear"] ;
873 -> 874 ;
875 [label="GHI <= 446.5\ngini = 0.2809\nsamples = 213\nvalue = [36, 177]\nclass = clear"] ;
874 -> 875 ;
876 [label="GHI <= 445.5\ngini = 0.2991\nsamples = 142\nvalue = [26, 116]\nclass = clear"] ;
875 -> 876 ;
877 [label="gini = 0.3107\nsamples = 78\nvalue = [15, 63]\nclass = clear"] ;
876 -> 877 ;
878 [label="gini = 0.2847\nsamples = 64\nvalue = [11, 53]\nclass = clear"] ;
876 -> 878 ;
879 [label="gini = 0.242\nsamples = 71\nvalue = [10, 61]\nclass = clear"] ;
875 -> 879 ;
880 [label="GHI <= 448.5\ngini = 0.3294\nsamples = 202\nvalue = [42, 160]\nclass = clear"] ;
874 -> 880 ;
881 [label="gini = 0.3394\nsamples = 60\nvalue = [13, 47]\nclass = clear"] ;
880 -> 881 ;
882 [label="GHI <= 449.5\ngini = 0.325\nsamples = 142\nvalue = [29, 113]\nclass = clear"] ;
880 -> 882 ;
883 [label="gini = 0.327\nsamples = 68\nvalue = [14, 54]\nclass = clear"] ;
882 -> 883 ;
884 [label="gini = 0.3232\nsamples = 74\nvalue = [15, 59]\nclass = clear"] ;
882 -> 884 ;
885 [label="GHI <= 455.5\ngini = 0.2691\nsamples = 387\nvalue = [62, 325]\nclass = clear"] ;
873 -> 885 ;
886 [label="GHI <= 452.5\ngini = 0.2633\nsamples = 327\nvalue = [51, 276]\nclass = clear"] ;
885 -> 886 ;
887 [label="GHI <= 451.5\ngini = 0.2778\nsamples = 114\nvalue = [19, 95]\nclass = clear"] ;
886 -> 887 ;
888 [label="gini = 0.2712\nsamples = 68\nvalue = [11, 57]\nclass = clear"] ;
887 -> 888 ;
889 [label="gini = 0.2873\nsamples = 46\nvalue = [8, 38]\nclass = clear"] ;
887 -> 889 ;
890 [label="Clearsky GHI <= 453.5\ngini = 0.2553\nsamples = 213\nvalue = [32, 181]\nclass = clear"] ;
886 -> 890 ;
891 [label="gini = 0.2476\nsamples = 76\nvalue = [11, 65]\nclass = clear"] ;
890 -> 891 ;
892 [label="GHI <= 454.5\ngini = 0.2596\nsamples = 137\nvalue = [21, 116]\nclass = clear"] ;
890 -> 892 ;
893 [label="gini = 0.2604\nsamples = 78\nvalue = [12, 66]\nclass = clear"] ;
892 -> 893 ;
894 [label="gini = 0.2585\nsamples = 59\nvalue = [9, 50]\nclass = clear"] ;
892 -> 894 ;
895 [label="gini = 0.2994\nsamples = 60\nvalue = [11, 49]\nclass = clear"] ;
885 -> 895 ;
896 [label="Clearsky GHI <= 978.5\ngini = 0.1866\nsamples = 49106\nvalue = [5114, 43992]\nclass = clear"] ;
382 -> 896 ;
897 [label="Clearsky GHI <= 653.5\ngini = 0.1933\nsamples = 42202\nvalue = [4574, 37628]\nclass = clear"] ;
896 -> 897 ;
898 [label="GHI <= 528.5\ngini = 0.1843\nsamples = 16528\nvalue = [1697, 14831]\nclass = clear"] ;
897 -> 898 ;
899 [label="GHI <= 514.5\ngini = 0.2027\nsamples = 5303\nvalue = [607, 4696]\nclass = clear"] ;
898 -> 899 ;
900 [label="Clearsky GHI <= 510.5\ngini = 0.1948\nsamples = 4244\nvalue = [464, 3780]\nclass = clear"] ;
899 -> 900 ;
901 [label="GHI <= 486.5\ngini = 0.2007\nsamples = 3933\nvalue = [445, 3488]\nclass = clear"] ;
900 -> 901 ;
902 [label="GHI <= 485.5\ngini = 0.2142\nsamples = 2222\nvalue = [271, 1951]\nclass = clear"] ;
901 -> 902 ;
903 [label="GHI <= 461.5\ngini = 0.2114\nsamples = 2156\nvalue = [259, 1897]\nclass = clear"] ;
902 -> 903 ;
904 [label="GHI <= 459.5\ngini = 0.2314\nsamples = 367\nvalue = [49, 318]\nclass = clear"] ;
903 -> 904 ;
905 [label="Clearsky GHI <= 458.5\ngini = 0.2239\nsamples = 218\nvalue = [28, 190]\nclass = clear"] ;
904 -> 905 ;
906 [label="GHI <= 457.5\ngini = 0.2311\nsamples = 135\nvalue = [18, 117]\nclass = clear"] ;
905 -> 906 ;
907 [label="gini = 0.2297\nsamples = 68\nvalue = [9, 59]\nclass = clear"] ;
906 -> 907 ;
908 [label="gini = 0.2326\nsamples = 67\nvalue = [9, 58]\nclass = clear"] ;
906 -> 908 ;
909 [label="gini = 0.2119\nsamples = 83\nvalue = [10, 73]\nclass = clear"] ;
905 -> 909 ;
910 [label="Clearsky GHI <= 460.5\ngini = 0.2422\nsamples = 149\nvalue = [21, 128]\nclass = clear"] ;
904 -> 910 ;
911 [label="gini = 0.2476\nsamples = 76\nvalue = [11, 65]\nclass = clear"] ;
910 -> 911 ;
912 [label="gini = 0.2364\nsamples = 73\nvalue = [10, 63]\nclass = clear"] ;
910 -> 912 ;
913 [label="Clearsky GHI <= 468.5\ngini = 0.2072\nsamples = 1789\nvalue = [210, 1579]\nclass = clear"] ;
903 -> 913 ;
914 [label="GHI <= 463.5\ngini = 0.1838\nsamples = 508\nvalue = [52, 456]\nclass = clear"] ;
913 -> 914 ;
915 [label="Clearsky GHI <= 462.5\ngini = 0.2162\nsamples = 146\nvalue = [18, 128]\nclass = clear"] ;
914 -> 915 ;
916 [label="gini = 0.2162\nsamples = 73\nvalue = [9, 64]\nclass = clear"] ;
915 -> 916 ;
917 [label="gini = 0.2162\nsamples = 73\nvalue = [9, 64]\nclass = clear"] ;
915 -> 917 ;
918 [label="Clearsky GHI <= 465.5\ngini = 0.1702\nsamples = 362\nvalue = [34, 328]\nclass = clear"] ;
914 -> 918 ;
919 [label="Clearsky GHI <= 464.5\ngini = 0.1497\nsamples = 135\nvalue = [11, 124]\nclass = clear"] ;
918 -> 919 ;
920 [label="gini = 0.1454\nsamples = 76\nvalue = [6, 70]\nclass = clear"] ;
919 -> 920 ;
921 [label="gini = 0.1551\nsamples = 59\nvalue = [5, 54]\nclass = clear"] ;
919 -> 921 ;
922 [label="Clearsky GHI <= 467.5\ngini = 0.1821\nsamples = 227\nvalue = [23, 204]\nclass = clear"] ;
918 -> 922 ;
923 [label="GHI <= 466.5\ngini = 0.1975\nsamples = 162\nvalue = [18, 144]\nclass = clear"] ;
922 -> 923 ;
924 [label="gini = 0.2019\nsamples = 79\nvalue = [9, 70]\nclass = clear"] ;
923 -> 924 ;
925 [label="gini = 0.1934\nsamples = 83\nvalue = [9, 74]\nclass = clear"] ;
923 -> 925 ;
926 [label="gini = 0.142\nsamples = 65\nvalue = [5, 60]\nclass = clear"] ;
922 -> 926 ;
927 [label="Clearsky GHI <= 474.5\ngini = 0.2163\nsamples = 1281\nvalue = [158, 1123]\nclass = clear"] ;
913 -> 927 ;
928 [label="GHI <= 472.5\ngini = 0.2294\nsamples = 469\nvalue = [62, 407]\nclass = clear"] ;
927 -> 928 ;
929 [label="Clearsky GHI <= 469.5\ngini = 0.2151\nsamples = 310\nvalue = [38, 272]\nclass = clear"] ;
928 -> 929 ;
930 [label="gini = 0.2372\nsamples = 80\nvalue = [11, 69]\nclass = clear"] ;
929 -> 930 ;
931 [label="GHI <= 470.5\ngini = 0.2072\nsamples = 230\nvalue = [27, 203]\nclass = clear"] ;
929 -> 931 ;
932 [label="gini = 0.1836\nsamples = 88\nvalue = [9, 79]\nclass = clear"] ;
931 -> 932 ;
933 [label="GHI <= 471.5\ngini = 0.2214\nsamples = 142\nvalue = [18, 124]\nclass = clear"] ;
931 -> 933 ;
934 [label="gini = 0.2386\nsamples = 65\nvalue = [9, 56]\nclass = clear"] ;
933 -> 934 ;
935 [label="gini = 0.2064\nsamples = 77\nvalue = [9, 68]\nclass = clear"] ;
933 -> 935 ;
936 [label="Clearsky GHI <= 473.5\ngini = 0.2563\nsamples = 159\nvalue = [24, 135]\nclass = clear"] ;
928 -> 936 ;
937 [label="gini = 0.2778\nsamples = 78\nvalue = [13, 65]\nclass = clear"] ;
936 -> 937 ;
938 [label="gini = 0.2347\nsamples = 81\nvalue = [11, 70]\nclass = clear"] ;
936 -> 938 ;
939 [label="GHI <= 478.5\ngini = 0.2085\nsamples = 812\nvalue = [96, 716]\nclass = clear"] ;
927 -> 939 ;
940 [label="Clearsky GHI <= 477.5\ngini = 0.1806\nsamples = 289\nvalue = [29, 260]\nclass = clear"] ;
939 -> 940 ;
941 [label="GHI <= 475.5\ngini = 0.2033\nsamples = 209\nvalue = [24, 185]\nclass = clear"] ;
940 -> 941 ;
942 [label="gini = 0.1777\nsamples = 71\nvalue = [7, 64]\nclass = clear"] ;
941 -> 942 ;
943 [label="GHI <= 476.5\ngini = 0.216\nsamples = 138\nvalue = [17, 121]\nclass = clear"] ;
941 -> 943 ;
944 [label="gini = 0.2235\nsamples = 78\nvalue = [10, 68]\nclass = clear"] ;
943 -> 944 ;
945 [label="gini = 0.2061\nsamples = 60\nvalue = [7, 53]\nclass = clear"] ;
943 -> 945 ;
946 [label="gini = 0.1172\nsamples = 80\nvalue = [5, 75]\nclass = clear"] ;
940 -> 946 ;
947 [label="Clearsky GHI <= 480.5\ngini = 0.2234\nsamples = 523\nvalue = [67, 456]\nclass = clear"] ;
939 -> 947 ;
948 [label="Clearsky GHI <= 479.5\ngini = 0.2112\nsamples = 150\nvalue = [18, 132]\nclass = clear"] ;
947 -> 948 ;
949 [label="gini = 0.2214\nsamples = 71\nvalue = [9, 62]\nclass = clear"] ;
948 -> 949 ;
950 [label="gini = 0.2019\nsamples = 79\nvalue = [9, 70]\nclass = clear"] ;
948 -> 950 ;
951 [label="Clearsky GHI <= 481.5\ngini = 0.2282\nsamples = 373\nvalue = [49, 324]\nclass = clear"] ;
947 -> 951 ;
952 [label="gini = 0.2397\nsamples = 79\nvalue = [11, 68]\nclass = clear"] ;
951 -> 952 ;
953 [label="Clearsky GHI <= 482.5\ngini = 0.2251\nsamples = 294\nvalue = [38, 256]\nclass = clear"] ;
951 -> 953 ;
954 [label="gini = 0.2137\nsamples = 74\nvalue = [9, 65]\nclass = clear"] ;
953 -> 954 ;
955 [label="Clearsky GHI <= 483.5\ngini = 0.2289\nsamples = 220\nvalue = [29, 191]\nclass = clear"] ;
953 -> 955 ;
956 [label="gini = 0.2347\nsamples = 81\nvalue = [11, 70]\nclass = clear"] ;
955 -> 956 ;
957 [label="Clearsky GHI <= 484.5\ngini = 0.2255\nsamples = 139\nvalue = [18, 121]\nclass = clear"] ;
955 -> 957 ;
958 [label="gini = 0.2235\nsamples = 78\nvalue = [10, 68]\nclass = clear"] ;
957 -> 958 ;
959 [label="gini = 0.2279\nsamples = 61\nvalue = [8, 53]\nclass = clear"] ;
957 -> 959 ;
960 [label="gini = 0.2975\nsamples = 66\nvalue = [12, 54]\nclass = clear"] ;
902 -> 960 ;
961 [label="GHI <= 497.5\ngini = 0.1827\nsamples = 1711\nvalue = [174, 1537]\nclass = clear"] ;
901 -> 961 ;
962 [label="Clearsky GHI <= 496.5\ngini = 0.1548\nsamples = 769\nvalue = [65, 704]\nclass = clear"] ;
961 -> 962 ;
963 [label="Clearsky GHI <= 490.5\ngini = 0.1632\nsamples = 703\nvalue = [63, 640]\nclass = clear"] ;
962 -> 963 ;
964 [label="Clearsky GHI <= 489.5\ngini = 0.1393\nsamples = 292\nvalue = [22, 270]\nclass = clear"] ;
963 -> 964 ;
965 [label="GHI <= 488.5\ngini = 0.1605\nsamples = 216\nvalue = [19, 197]\nclass = clear"] ;
964 -> 965 ;
966 [label="Clearsky GHI <= 487.5\ngini = 0.1457\nsamples = 139\nvalue = [11, 128]\nclass = clear"] ;
965 -> 966 ;
967 [label="gini = 0.1713\nsamples = 74\nvalue = [7, 67]\nclass = clear"] ;
966 -> 967 ;
968 [label="gini = 0.1155\nsamples = 65\nvalue = [4, 61]\nclass = clear"] ;
966 -> 968 ;
969 [label="gini = 0.1862\nsamples = 77\nvalue = [8, 69]\nclass = clear"] ;
965 -> 969 ;
970 [label="gini = 0.0758\nsamples = 76\nvalue = [3, 73]\nclass = clear"] ;
964 -> 970 ;
971 [label="Clearsky GHI <= 491.5\ngini = 0.1796\nsamples = 411\nvalue = [41, 370]\nclass = clear"] ;
963 -> 971 ;
972 [label="gini = 0.2503\nsamples = 75\nvalue = [11, 64]\nclass = clear"] ;
971 -> 972 ;
973 [label="Clearsky GHI <= 494.5\ngini = 0.1626\nsamples = 336\nvalue = [30, 306]\nclass = clear"] ;
971 -> 973 ;
974 [label="Clearsky GHI <= 492.5\ngini = 0.1761\nsamples = 205\nvalue = [20, 185]\nclass = clear"] ;
973 -> 974 ;
975 [label="gini = 0.142\nsamples = 65\nvalue = [5, 60]\nclass = clear"] ;
974 -> 975 ;
976 [label="GHI <= 493.5\ngini = 0.1913\nsamples = 140\nvalue = [15, 125]\nclass = clear"] ;
974 -> 976 ;
977 [label="gini = 0.2217\nsamples = 63\nvalue = [8, 55]\nclass = clear"] ;
976 -> 977 ;
978 [label="gini = 0.1653\nsamples = 77\nvalue = [7, 70]\nclass = clear"] ;
976 -> 978 ;
979 [label="Clearsky GHI <= 495.5\ngini = 0.141\nsamples = 131\nvalue = [10, 121]\nclass = clear"] ;
973 -> 979 ;
980 [label="gini = 0.1244\nsamples = 75\nvalue = [5, 70]\nclass = clear"] ;
979 -> 980 ;
981 [label="gini = 0.1626\nsamples = 56\nvalue = [5, 51]\nclass = clear"] ;
979 -> 981 ;
982 [label="gini = 0.0588\nsamples = 66\nvalue = [2, 64]\nclass = clear"] ;
962 -> 982 ;
983 [label="GHI <= 507.5\ngini = 0.2046\nsamples = 942\nvalue = [109, 833]\nclass = clear"] ;
961 -> 983 ;
984 [label="GHI <= 506.5\ngini = 0.2004\nsamples = 717\nvalue = [81, 636]\nclass = clear"] ;
983 -> 984 ;
985 [label="GHI <= 503.5\ngini = 0.2079\nsamples = 645\nvalue = [76, 569]\nclass = clear"] ;
984 -> 985 ;
986 [label="Clearsky GHI <= 501.5\ngini = 0.2004\nsamples = 416\nvalue = [47, 369]\nclass = clear"] ;
985 -> 986 ;
987 [label="GHI <= 500.5\ngini = 0.2147\nsamples = 278\nvalue = [34, 244]\nclass = clear"] ;
986 -> 987 ;
988 [label="Clearsky GHI <= 499.5\ngini = 0.2022\nsamples = 184\nvalue = [21, 163]\nclass = clear"] ;
987 -> 988 ;
989 [label="Clearsky GHI <= 498.5\ngini = 0.2172\nsamples = 121\nvalue = [15, 106]\nclass = clear"] ;
988 -> 989 ;
990 [label="gini = 0.2091\nsamples = 59\nvalue = [7, 52]\nclass = clear"] ;
989 -> 990 ;
991 [label="gini = 0.2248\nsamples = 62\nvalue = [8, 54]\nclass = clear"] ;
989 -> 991 ;
992 [label="gini = 0.1723\nsamples = 63\nvalue = [6, 57]\nclass = clear"] ;
988 -> 992 ;
993 [label="gini = 0.2383\nsamples = 94\nvalue = [13, 81]\nclass = clear"] ;
987 -> 993 ;
994 [label="Clearsky GHI <= 502.5\ngini = 0.1707\nsamples = 138\nvalue = [13, 125]\nclass = clear"] ;
986 -> 994 ;
995 [label="gini = 0.1827\nsamples = 59\nvalue = [6, 53]\nclass = clear"] ;
994 -> 995 ;
996 [label="gini = 0.1615\nsamples = 79\nvalue = [7, 72]\nclass = clear"] ;
994 -> 996 ;
997 [label="GHI <= 504.5\ngini = 0.2212\nsamples = 229\nvalue = [29, 200]\nclass = clear"] ;
985 -> 997 ;
998 [label="gini = 0.2142\nsamples = 82\nvalue = [10, 72]\nclass = clear"] ;
997 -> 998 ;
999 [label="GHI <= 505.5\ngini = 0.2251\nsamples = 147\nvalue = [19, 128]\nclass = clear"] ;
997 -> 999 ;
