digraph Tree {
node [shape=box] ;
0 [label="abs_diff_ratio <= 0.0008\ngini = 0.3994\nsamples = 236664\nvalue = [171418, 65246]\nclass = cloudy"] ;
1 [label="GHI <= 200.5\ngini = 0.2655\nsamples = 77452\nvalue = [12206, 65246]\nclass = clear"] ;
0 -> 1 [labeldistance=2.5, labelangle=45, headlabel="True"] ;
2 [label="GHI <= 114.5\ngini = 0.4574\nsamples = 12803\nvalue = [4533, 8270]\nclass = clear"] ;
1 -> 2 ;
3 [label="GHI <= 35.5\ngini = 0.483\nsamples = 7846\nvalue = [3200, 4646]\nclass = clear"] ;
2 -> 3 ;
4 [label="Clearsky GHI <= 22.5\ngini = 0.5\nsamples = 2321\nvalue = [1152, 1169]\nclass = clear"] ;
3 -> 4 ;
5 [label="Clearsky GHI <= 11.5\ngini = 0.4922\nsamples = 939\nvalue = [411, 528]\nclass = clear"] ;
4 -> 5 ;
6 [label="Clearsky GHI <= 10.5\ngini = 0.4512\nsamples = 32\nvalue = [21, 11]\nclass = cloudy"] ;
5 -> 6 ;
7 [label="gini = 0.4444\nsamples = 6\nvalue = [4, 2]\nclass = cloudy"] ;
6 -> 7 ;
8 [label="gini = 0.4527\nsamples = 26\nvalue = [17, 9]\nclass = cloudy"] ;
6 -> 8 ;
9 [label="GHI <= 21.5\ngini = 0.4902\nsamples = 907\nvalue = [390, 517]\nclass = clear"] ;
5 -> 9 ;
10 [label="GHI <= 14.5\ngini = 0.4882\nsamples = 799\nvalue = [338, 461]\nclass = clear"] ;
9 -> 10 ;
11 [label="Clearsky GHI <= 12.5\ngini = 0.4934\nsamples = 192\nvalue = [85, 107]\nclass = clear"] ;
10 -> 11 ;
12 [label="gini = 0.4688\nsamples = 40\nvalue = [15, 25]\nclass = clear"] ;
11 -> 12 ;
13 [label="Clearsky GHI <= 13.5\ngini = 0.4969\nsamples = 152\nvalue = [70, 82]\nclass = clear"] ;
11 -> 13 ;
14 [label="gini = 0.5\nsamples = 56\nvalue = [28, 28]\nclass = cloudy"] ;
13 -> 14 ;
15 [label="gini = 0.4922\nsamples = 96\nvalue = [42, 54]\nclass = clear"] ;
13 -> 15 ;
16 [label="GHI <= 15.5\ngini = 0.4862\nsamples = 607\nvalue = [253, 354]\nclass = clear"] ;
10 -> 16 ;
17 [label="gini = 0.473\nsamples = 86\nvalue = [33, 53]\nclass = clear"] ;
16 -> 17 ;
18 [label="Clearsky GHI <= 20.5\ngini = 0.4879\nsamples = 521\nvalue = [220, 301]\nclass = clear"] ;
16 -> 18 ;
19 [label="Clearsky GHI <= 19.5\ngini = 0.4862\nsamples = 427\nvalue = [178, 249]\nclass = clear"] ;
18 -> 19 ;
20 [label="Clearsky GHI <= 17.5\ngini = 0.4882\nsamples = 364\nvalue = [154, 210]\nclass = clear"] ;
19 -> 20 ;
21 [label="GHI <= 16.5\ngini = 0.4914\nsamples = 175\nvalue = [76, 99]\nclass = clear"] ;
20 -> 21 ;
22 [label="gini = 0.4851\nsamples = 87\nvalue = [36, 51]\nclass = clear"] ;
21 -> 22 ;
23 [label="gini = 0.4959\nsamples = 88\nvalue = [40, 48]\nclass = clear"] ;
21 -> 23 ;
24 [label="GHI <= 18.5\ngini = 0.4848\nsamples = 189\nvalue = [78, 111]\nclass = clear"] ;
20 -> 24 ;
25 [label="gini = 0.4854\nsamples = 111\nvalue = [46, 65]\nclass = clear"] ;
24 -> 25 ;
26 [label="gini = 0.4839\nsamples = 78\nvalue = [32, 46]\nclass = clear"] ;
24 -> 26 ;
27 [label="gini = 0.4717\nsamples = 63\nvalue = [24, 39]\nclass = clear"] ;
19 -> 27 ;
28 [label="gini = 0.4943\nsamples = 94\nvalue = [42, 52]\nclass = clear"] ;
18 -> 28 ;
29 [label="gini = 0.4993\nsamples = 108\nvalue = [52, 56]\nclass = clear"] ;
9 -> 29 ;
30 [label="Clearsky GHI <= 26.5\ngini = 0.4974\nsamples = 1382\nvalue = [741, 641]\nclass = cloudy"] ;
4 -> 30 ;
31 [label="Clearsky GHI <= 24.5\ngini = 0.4715\nsamples = 486\nvalue = [301, 185]\nclass = cloudy"] ;
30 -> 31 ;
32 [label="Clearsky GHI <= 23.5\ngini = 0.4606\nsamples = 278\nvalue = [178, 100]\nclass = cloudy"] ;
31 -> 32 ;
33 [label="gini = 0.4509\nsamples = 134\nvalue = [88, 46]\nclass = cloudy"] ;
32 -> 33 ;
34 [label="gini = 0.4688\nsamples = 144\nvalue = [90, 54]\nclass = cloudy"] ;
32 -> 34 ;
35 [label="GHI <= 25.5\ngini = 0.4833\nsamples = 208\nvalue = [123, 85]\nclass = cloudy"] ;
31 -> 35 ;
36 [label="gini = 0.4842\nsamples = 107\nvalue = [63, 44]\nclass = cloudy"] ;
35 -> 36 ;
37 [label="gini = 0.4823\nsamples = 101\nvalue = [60, 41]\nclass = cloudy"] ;
35 -> 37 ;
38 [label="GHI <= 31.5\ngini = 0.4998\nsamples = 896\nvalue = [440, 456]\nclass = clear"] ;
30 -> 38 ;
39 [label="GHI <= 28.5\ngini = 0.4995\nsamples = 516\nvalue = [266, 250]\nclass = cloudy"] ;
38 -> 39 ;
40 [label="Clearsky GHI <= 27.5\ngini = 0.4983\nsamples = 223\nvalue = [118, 105]\nclass = cloudy"] ;
39 -> 40 ;
41 [label="gini = 0.5\nsamples = 111\nvalue = [55, 56]\nclass = clear"] ;
40 -> 41 ;
42 [label="gini = 0.4922\nsamples = 112\nvalue = [63, 49]\nclass = cloudy"] ;
40 -> 42 ;
43 [label="GHI <= 29.5\ngini = 0.4999\nsamples = 293\nvalue = [148, 145]\nclass = cloudy"] ;
39 -> 43 ;
44 [label="gini = 0.4988\nsamples = 103\nvalue = [49, 54]\nclass = clear"] ;
43 -> 44 ;
45 [label="Clearsky GHI <= 30.5\ngini = 0.4991\nsamples = 190\nvalue = [99, 91]\nclass = cloudy"] ;
43 -> 45 ;
46 [label="gini = 0.4982\nsamples = 100\nvalue = [53, 47]\nclass = cloudy"] ;
45 -> 46 ;
47 [label="gini = 0.4998\nsamples = 90\nvalue = [46, 44]\nclass = cloudy"] ;
45 -> 47 ;
48 [label="Clearsky GHI <= 33.5\ngini = 0.4965\nsamples = 380\nvalue = [174, 206]\nclass = clear"] ;
38 -> 48 ;
49 [label="GHI <= 32.5\ngini = 0.4932\nsamples = 197\nvalue = [87, 110]\nclass = clear"] ;
48 -> 49 ;
50 [label="gini = 0.4984\nsamples = 89\nvalue = [42, 47]\nclass = clear"] ;
49 -> 50 ;
51 [label="gini = 0.4861\nsamples = 108\nvalue = [45, 63]\nclass = clear"] ;
49 -> 51 ;
52 [label="Clearsky GHI <= 34.5\ngini = 0.4988\nsamples = 183\nvalue = [87, 96]\nclass = clear"] ;
48 -> 52 ;
53 [label="gini = 0.4976\nsamples = 86\nvalue = [40, 46]\nclass = clear"] ;
52 -> 53 ;
54 [label="gini = 0.4995\nsamples = 97\nvalue = [47, 50]\nclass = clear"] ;
52 -> 54 ;
55 [label="Clearsky GHI <= 46.5\ngini = 0.4666\nsamples = 5525\nvalue = [2048, 3477]\nclass = clear"] ;
3 -> 55 ;
56 [label="GHI <= 39.5\ngini = 0.4803\nsamples = 836\nvalue = [335, 501]\nclass = clear"] ;
55 -> 56 ;
57 [label="Clearsky GHI <= 37.5\ngini = 0.4696\nsamples = 300\nvalue = [113, 187]\nclass = clear"] ;
56 -> 57 ;
58 [label="Clearsky GHI <= 36.5\ngini = 0.4795\nsamples = 168\nvalue = [67, 101]\nclass = clear"] ;
57 -> 58 ;
59 [label="gini = 0.4738\nsamples = 83\nvalue = [32, 51]\nclass = clear"] ;
58 -> 59 ;
60 [label="gini = 0.4844\nsamples = 85\nvalue = [35, 50]\nclass = clear"] ;
58 -> 60 ;
61 [label="GHI <= 38.5\ngini = 0.4541\nsamples = 132\nvalue = [46, 86]\nclass = clear"] ;
57 -> 61 ;
62 [label="gini = 0.4642\nsamples = 71\nvalue = [26, 45]\nclass = clear"] ;
61 -> 62 ;
63 [label="gini = 0.4407\nsamples = 61\nvalue = [20, 41]\nclass = clear"] ;
61 -> 63 ;
64 [label="Clearsky GHI <= 42.5\ngini = 0.4853\nsamples = 536\nvalue = [222, 314]\nclass = clear"] ;
56 -> 64 ;
65 [label="GHI <= 41.5\ngini = 0.4931\nsamples = 204\nvalue = [90, 114]\nclass = clear"] ;
64 -> 65 ;
66 [label="Clearsky GHI <= 40.5\ngini = 0.4837\nsamples = 144\nvalue = [59, 85]\nclass = clear"] ;
65 -> 66 ;
67 [label="gini = 0.4865\nsamples = 67\nvalue = [28, 39]\nclass = clear"] ;
66 -> 67 ;
68 [label="gini = 0.481\nsamples = 77\nvalue = [31, 46]\nclass = clear"] ;
66 -> 68 ;
69 [label="gini = 0.4994\nsamples = 60\nvalue = [31, 29]\nclass = cloudy"] ;
65 -> 69 ;
70 [label="GHI <= 44.5\ngini = 0.479\nsamples = 332\nvalue = [132, 200]\nclass = clear"] ;
64 -> 70 ;
71 [label="Clearsky GHI <= 43.5\ngini = 0.4628\nsamples = 176\nvalue = [64, 112]\nclass = clear"] ;
70 -> 71 ;
72 [label="gini = 0.4572\nsamples = 82\nvalue = [29, 53]\nclass = clear"] ;
71 -> 72 ;
73 [label="gini = 0.4674\nsamples = 94\nvalue = [35, 59]\nclass = clear"] ;
71 -> 73 ;
74 [label="Clearsky GHI <= 45.5\ngini = 0.4918\nsamples = 156\nvalue = [68, 88]\nclass = clear"] ;
70 -> 74 ;
75 [label="gini = 0.4875\nsamples = 76\nvalue = [32, 44]\nclass = clear"] ;
74 -> 75 ;
76 [label="gini = 0.495\nsamples = 80\nvalue = [36, 44]\nclass = clear"] ;
74 -> 76 ;
77 [label="GHI <= 88.5\ngini = 0.4637\nsamples = 4689\nvalue = [1713, 2976]\nclass = clear"] ;
55 -> 77 ;
78 [label="GHI <= 67.5\ngini = 0.4589\nsamples = 3017\nvalue = [1076, 1941]\nclass = clear"] ;
77 -> 78 ;
79 [label="GHI <= 64.5\ngini = 0.4669\nsamples = 1675\nvalue = [622, 1053]\nclass = clear"] ;
78 -> 79 ;
80 [label="Clearsky GHI <= 61.5\ngini = 0.4631\nsamples = 1450\nvalue = [528, 922]\nclass = clear"] ;
79 -> 80 ;
81 [label="Clearsky GHI <= 60.5\ngini = 0.4669\nsamples = 1201\nvalue = [446, 755]\nclass = clear"] ;
80 -> 81 ;
82 [label="Clearsky GHI <= 59.5\ngini = 0.4627\nsamples = 1117\nvalue = [406, 711]\nclass = clear"] ;
81 -> 82 ;
83 [label="Clearsky GHI <= 58.5\ngini = 0.4663\nsamples = 1021\nvalue = [378, 643]\nclass = clear"] ;
82 -> 83 ;
84 [label="Clearsky GHI <= 51.5\ngini = 0.462\nsamples = 950\nvalue = [344, 606]\nclass = clear"] ;
83 -> 84 ;
85 [label="Clearsky GHI <= 49.5\ngini = 0.4507\nsamples = 411\nvalue = [141, 270]\nclass = clear"] ;
84 -> 85 ;
86 [label="GHI <= 48.5\ngini = 0.4471\nsamples = 252\nvalue = [85, 167]\nclass = clear"] ;
85 -> 86 ;
87 [label="Clearsky GHI <= 47.5\ngini = 0.454\nsamples = 178\nvalue = [62, 116]\nclass = clear"] ;
86 -> 87 ;
88 [label="gini = 0.4512\nsamples = 96\nvalue = [33, 63]\nclass = clear"] ;
87 -> 88 ;
89 [label="gini = 0.4572\nsamples = 82\nvalue = [29, 53]\nclass = clear"] ;
87 -> 89 ;
90 [label="gini = 0.4284\nsamples = 74\nvalue = [23, 51]\nclass = clear"] ;
86 -> 90 ;
91 [label="GHI <= 50.5\ngini = 0.4563\nsamples = 159\nvalue = [56, 103]\nclass = clear"] ;
85 -> 91 ;
92 [label="gini = 0.4597\nsamples = 81\nvalue = [29, 52]\nclass = clear"] ;
91 -> 92 ;
93 [label="gini = 0.4527\nsamples = 78\nvalue = [27, 51]\nclass = clear"] ;
91 -> 93 ;
94 [label="Clearsky GHI <= 52.5\ngini = 0.4696\nsamples = 539\nvalue = [203, 336]\nclass = clear"] ;
84 -> 94 ;
95 [label="gini = 0.4996\nsamples = 70\nvalue = [34, 36]\nclass = clear"] ;
94 -> 95 ;
96 [label="Clearsky GHI <= 54.5\ngini = 0.461\nsamples = 469\nvalue = [169, 300]\nclass = clear"] ;
94 -> 96 ;
97 [label="Clearsky GHI <= 53.5\ngini = 0.4736\nsamples = 161\nvalue = [62, 99]\nclass = clear"] ;
96 -> 97 ;
98 [label="gini = 0.4524\nsamples = 81\nvalue = [28, 53]\nclass = clear"] ;
97 -> 98 ;
99 [label="gini = 0.4888\nsamples = 80\nvalue = [34, 46]\nclass = clear"] ;
97 -> 99 ;
100 [label="GHI <= 55.5\ngini = 0.4534\nsamples = 308\nvalue = [107, 201]\nclass = clear"] ;
96 -> 100 ;
101 [label="gini = 0.417\nsamples = 81\nvalue = [24, 57]\nclass = clear"] ;
100 -> 101 ;
102 [label="Clearsky GHI <= 56.5\ngini = 0.4639\nsamples = 227\nvalue = [83, 144]\nclass = clear"] ;
100 -> 102 ;
103 [label="gini = 0.479\nsamples = 83\nvalue = [33, 50]\nclass = clear"] ;
102 -> 103 ;
104 [label="Clearsky GHI <= 57.5\ngini = 0.4533\nsamples = 144\nvalue = [50, 94]\nclass = clear"] ;
102 -> 104 ;
105 [label="gini = 0.4621\nsamples = 69\nvalue = [25, 44]\nclass = clear"] ;
104 -> 105 ;
106 [label="gini = 0.4444\nsamples = 75\nvalue = [25, 50]\nclass = clear"] ;
104 -> 106 ;
107 [label="gini = 0.4991\nsamples = 71\nvalue = [34, 37]\nclass = clear"] ;
83 -> 107 ;
108 [label="gini = 0.4132\nsamples = 96\nvalue = [28, 68]\nclass = clear"] ;
82 -> 108 ;
109 [label="gini = 0.4989\nsamples = 84\nvalue = [40, 44]\nclass = clear"] ;
81 -> 109 ;
110 [label="Clearsky GHI <= 63.5\ngini = 0.4417\nsamples = 249\nvalue = [82, 167]\nclass = clear"] ;
80 -> 110 ;
111 [label="Clearsky GHI <= 62.5\ngini = 0.4243\nsamples = 167\nvalue = [51, 116]\nclass = clear"] ;
110 -> 111 ;
112 [label="gini = 0.4111\nsamples = 83\nvalue = [24, 59]\nclass = clear"] ;
111 -> 112 ;
113 [label="gini = 0.4362\nsamples = 84\nvalue = [27, 57]\nclass = clear"] ;
111 -> 113 ;
114 [label="gini = 0.4703\nsamples = 82\nvalue = [31, 51]\nclass = clear"] ;
110 -> 114 ;
115 [label="Clearsky GHI <= 65.5\ngini = 0.4865\nsamples = 225\nvalue = [94, 131]\nclass = clear"] ;
79 -> 115 ;
116 [label="gini = 0.4931\nsamples = 68\nvalue = [30, 38]\nclass = clear"] ;
115 -> 116 ;
117 [label="GHI <= 66.5\ngini = 0.4829\nsamples = 157\nvalue = [64, 93]\nclass = clear"] ;
115 -> 117 ;
118 [label="gini = 0.4826\nsamples = 91\nvalue = [37, 54]\nclass = clear"] ;
117 -> 118 ;
119 [label="gini = 0.4835\nsamples = 66\nvalue = [27, 39]\nclass = clear"] ;
117 -> 119 ;
120 [label="GHI <= 77.5\ngini = 0.4477\nsamples = 1342\nvalue = [454, 888]\nclass = clear"] ;
78 -> 120 ;
121 [label="GHI <= 71.5\ngini = 0.4326\nsamples = 730\nvalue = [231, 499]\nclass = clear"] ;
120 -> 121 ;
122 [label="GHI <= 70.5\ngini = 0.4489\nsamples = 341\nvalue = [116, 225]\nclass = clear"] ;
121 -> 122 ;
123 [label="GHI <= 69.5\ngini = 0.4453\nsamples = 248\nvalue = [83, 165]\nclass = clear"] ;
122 -> 123 ;
124 [label="Clearsky GHI <= 68.5\ngini = 0.4531\nsamples = 173\nvalue = [60, 113]\nclass = clear"] ;
123 -> 124 ;
125 [label="gini = 0.4564\nsamples = 88\nvalue = [31, 57]\nclass = clear"] ;
124 -> 125 ;
126 [label="gini = 0.4496\nsamples = 85\nvalue = [29, 56]\nclass = clear"] ;
124 -> 126 ;
127 [label="gini = 0.4252\nsamples = 75\nvalue = [23, 52]\nclass = clear"] ;
123 -> 127 ;
128 [label="gini = 0.4579\nsamples = 93\nvalue = [33, 60]\nclass = clear"] ;
122 -> 128 ;
129 [label="GHI <= 72.5\ngini = 0.4165\nsamples = 389\nvalue = [115, 274]\nclass = clear"] ;
121 -> 129 ;
130 [label="gini = 0.3817\nsamples = 74\nvalue = [19, 55]\nclass = clear"] ;
129 -> 130 ;
131 [label="Clearsky GHI <= 74.5\ngini = 0.4238\nsamples = 315\nvalue = [96, 219]\nclass = clear"] ;
129 -> 131 ;
132 [label="Clearsky GHI <= 73.5\ngini = 0.4413\nsamples = 143\nvalue = [47, 96]\nclass = clear"] ;
131 -> 132 ;
133 [label="gini = 0.4244\nsamples = 72\nvalue = [22, 50]\nclass = clear"] ;
132 -> 133 ;
134 [label="gini = 0.4563\nsamples = 71\nvalue = [25, 46]\nclass = clear"] ;
132 -> 134 ;
135 [label="GHI <= 75.5\ngini = 0.4074\nsamples = 172\nvalue = [49, 123]\nclass = clear"] ;
131 -> 135 ;
136 [label="gini = 0.3792\nsamples = 59\nvalue = [15, 44]\nclass = clear"] ;
135 -> 136 ;
137 [label="GHI <= 76.5\ngini = 0.4207\nsamples = 113\nvalue = [34, 79]\nclass = clear"] ;
135 -> 137 ;
138 [label="gini = 0.4357\nsamples = 53\nvalue = [17, 36]\nclass = clear"] ;
137 -> 138 ;
139 [label="gini = 0.4061\nsamples = 60\nvalue = [17, 43]\nclass = clear"] ;
137 -> 139 ;
140 [label="Clearsky GHI <= 82.5\ngini = 0.4632\nsamples = 612\nvalue = [223, 389]\nclass = clear"] ;
120 -> 140 ;
141 [label="GHI <= 78.5\ngini = 0.4841\nsamples = 292\nvalue = [120, 172]\nclass = clear"] ;
140 -> 141 ;
142 [label="gini = 0.4995\nsamples = 62\nvalue = [30, 32]\nclass = clear"] ;
141 -> 142 ;
143 [label="GHI <= 79.5\ngini = 0.4764\nsamples = 230\nvalue = [90, 140]\nclass = clear"] ;
141 -> 143 ;
144 [label="gini = 0.4486\nsamples = 53\nvalue = [18, 35]\nclass = clear"] ;
143 -> 144 ;
145 [label="Clearsky GHI <= 80.5\ngini = 0.4826\nsamples = 177\nvalue = [72, 105]\nclass = clear"] ;
143 -> 145 ;
146 [label="gini = 0.4969\nsamples = 63\nvalue = [29, 34]\nclass = clear"] ;
145 -> 146 ;
147 [label="GHI <= 81.5\ngini = 0.4698\nsamples = 114\nvalue = [43, 71]\nclass = clear"] ;
145 -> 147 ;
148 [label="gini = 0.4561\nsamples = 54\nvalue = [19, 35]\nclass = clear"] ;
147 -> 148 ;
149 [label="gini = 0.48\nsamples = 60\nvalue = [24, 36]\nclass = clear"] ;
147 -> 149 ;
150 [label="GHI <= 83.5\ngini = 0.4365\nsamples = 320\nvalue = [103, 217]\nclass = clear"] ;
140 -> 150 ;
151 [label="gini = 0.331\nsamples = 43\nvalue = [9, 34]\nclass = clear"] ;
150 -> 151 ;
152 [label="Clearsky GHI <= 84.5\ngini = 0.4484\nsamples = 277\nvalue = [94, 183]\nclass = clear"] ;
150 -> 152 ;
153 [label="gini = 0.4898\nsamples = 49\nvalue = [21, 28]\nclass = clear"] ;
152 -> 153 ;
154 [label="Clearsky GHI <= 85.5\ngini = 0.4353\nsamples = 228\nvalue = [73, 155]\nclass = clear"] ;
152 -> 154 ;
155 [label="gini = 0.4321\nsamples = 57\nvalue = [18, 39]\nclass = clear"] ;
154 -> 155 ;
156 [label="GHI <= 87.5\ngini = 0.4364\nsamples = 171\nvalue = [55, 116]\nclass = clear"] ;
154 -> 156 ;
157 [label="Clearsky GHI <= 86.5\ngini = 0.4384\nsamples = 114\nvalue = [37, 77]\nclass = clear"] ;
156 -> 157 ;
158 [label="gini = 0.437\nsamples = 62\nvalue = [20, 42]\nclass = clear"] ;
157 -> 158 ;
159 [label="gini = 0.4401\nsamples = 52\nvalue = [17, 35]\nclass = clear"] ;
157 -> 159 ;
160 [label="gini = 0.4321\nsamples = 57\nvalue = [18, 39]\nclass = clear"] ;
156 -> 160 ;
161 [label="Clearsky GHI <= 100.5\ngini = 0.4717\nsamples = 1672\nvalue = [637, 1035]\nclass = clear"] ;
77 -> 161 ;
162 [label="Clearsky GHI <= 99.5\ngini = 0.4845\nsamples = 675\nvalue = [278, 397]\nclass = clear"] ;
161 -> 162 ;
163 [label="GHI <= 97.5\ngini = 0.4817\nsamples = 611\nvalue = [247, 364]\nclass = clear"] ;
162 -> 163 ;
164 [label="GHI <= 95.5\ngini = 0.4872\nsamples = 481\nvalue = [202, 279]\nclass = clear"] ;
163 -> 164 ;
165 [label="Clearsky GHI <= 90.5\ngini = 0.4778\nsamples = 370\nvalue = [146, 224]\nclass = clear"] ;
164 -> 165 ;
166 [label="Clearsky GHI <= 89.5\ngini = 0.4938\nsamples = 99\nvalue = [44, 55]\nclass = clear"] ;
165 -> 166 ;
167 [label="gini = 0.4867\nsamples = 43\nvalue = [18, 25]\nclass = clear"] ;
166 -> 167 ;
168 [label="gini = 0.4974\nsamples = 56\nvalue = [26, 30]\nclass = clear"] ;
166 -> 168 ;
169 [label="GHI <= 91.5\ngini = 0.4694\nsamples = 271\nvalue = [102, 169]\nclass = clear"] ;
165 -> 169 ;
170 [label="gini = 0.4401\nsamples = 52\nvalue = [17, 35]\nclass = clear"] ;
169 -> 170 ;
171 [label="Clearsky GHI <= 94.5\ngini = 0.475\nsamples = 219\nvalue = [85, 134]\nclass = clear"] ;
169 -> 171 ;
172 [label="Clearsky GHI <= 92.5\ngini = 0.4824\nsamples = 160\nvalue = [65, 95]\nclass = clear"] ;
171 -> 172 ;
173 [label="gini = 0.4913\nsamples = 53\nvalue = [23, 30]\nclass = clear"] ;
172 -> 173 ;
174 [label="Clearsky GHI <= 93.5\ngini = 0.4769\nsamples = 107\nvalue = [42, 65]\nclass = clear"] ;
172 -> 174 ;
175 [label="gini = 0.477\nsamples = 56\nvalue = [22, 34]\nclass = clear"] ;
174 -> 175 ;
176 [label="gini = 0.4767\nsamples = 51\nvalue = [20, 31]\nclass = clear"] ;
174 -> 176 ;
177 [label="gini = 0.4481\nsamples = 59\nvalue = [20, 39]\nclass = clear"] ;
171 -> 177 ;
178 [label="Clearsky GHI <= 96.5\ngini = 0.5\nsamples = 111\nvalue = [56, 55]\nclass = cloudy"] ;
164 -> 178 ;
179 [label="gini = 0.5\nsamples = 52\nvalue = [26, 26]\nclass = cloudy"] ;
178 -> 179 ;
180 [label="gini = 0.4999\nsamples = 59\nvalue = [30, 29]\nclass = cloudy"] ;
178 -> 180 ;
181 [label="GHI <= 98.5\ngini = 0.4527\nsamples = 130\nvalue = [45, 85]\nclass = clear"] ;
163 -> 181 ;
182 [label="gini = 0.4281\nsamples = 58\nvalue = [18, 40]\nclass = clear"] ;
181 -> 182 ;
183 [label="gini = 0.4688\nsamples = 72\nvalue = [27, 45]\nclass = clear"] ;
181 -> 183 ;
184 [label="gini = 0.4995\nsamples = 64\nvalue = [31, 33]\nclass = clear"] ;
162 -> 184 ;
185 [label="GHI <= 102.5\ngini = 0.4608\nsamples = 997\nvalue = [359, 638]\nclass = clear"] ;
161 -> 185 ;
186 [label="GHI <= 101.5\ngini = 0.4321\nsamples = 152\nvalue = [48, 104]\nclass = clear"] ;
185 -> 186 ;
187 [label="gini = 0.4537\nsamples = 69\nvalue = [24, 45]\nclass = clear"] ;
186 -> 187 ;
188 [label="gini = 0.4111\nsamples = 83\nvalue = [24, 59]\nclass = clear"] ;
186 -> 188 ;
189 [label="Clearsky GHI <= 110.5\ngini = 0.4652\nsamples = 845\nvalue = [311, 534]\nclass = clear"] ;
185 -> 189 ;
190 [label="Clearsky GHI <= 109.5\ngini = 0.4718\nsamples = 564\nvalue = [215, 349]\nclass = clear"] ;
189 -> 190 ;
191 [label="GHI <= 104.5\ngini = 0.4675\nsamples = 494\nvalue = [184, 310]\nclass = clear"] ;
190 -> 191 ;
192 [label="Clearsky GHI <= 103.5\ngini = 0.48\nsamples = 140\nvalue = [56, 84]\nclass = clear"] ;
191 -> 192 ;
193 [label="gini = 0.4713\nsamples = 71\nvalue = [27, 44]\nclass = clear"] ;
192 -> 193 ;
194 [label="gini = 0.4873\nsamples = 69\nvalue = [29, 40]\nclass = clear"] ;
192 -> 194 ;
195 [label="GHI <= 108.5\ngini = 0.4617\nsamples = 354\nvalue = [128, 226]\nclass = clear"] ;
191 -> 195 ;
196 [label="Clearsky GHI <= 107.5\ngini = 0.4638\nsamples = 290\nvalue = [106, 184]\nclass = clear"] ;
195 -> 196 ;
197 [label="Clearsky GHI <= 106.5\ngini = 0.4607\nsamples = 214\nvalue = [77, 137]\nclass = clear"] ;
196 -> 197 ;
198 [label="GHI <= 105.5\ngini = 0.4638\nsamples = 145\nvalue = [53, 92]\nclass = clear"] ;
197 -> 198 ;
199 [label="gini = 0.4635\nsamples = 74\nvalue = [27, 47]\nclass = clear"] ;
198 -> 199 ;
200 [label="gini = 0.4642\nsamples = 71\nvalue = [26, 45]\nclass = clear"] ;
198 -> 200 ;
201 [label="gini = 0.4537\nsamples = 69\nvalue = [24, 45]\nclass = clear"] ;
197 -> 201 ;
202 [label="gini = 0.472\nsamples = 76\nvalue = [29, 47]\nclass = clear"] ;
196 -> 202 ;
203 [label="gini = 0.4512\nsamples = 64\nvalue = [22, 42]\nclass = clear"] ;
195 -> 203 ;
204 [label="gini = 0.4935\nsamples = 70\nvalue = [31, 39]\nclass = clear"] ;
190 -> 204 ;
205 [label="Clearsky GHI <= 112.5\ngini = 0.4498\nsamples = 281\nvalue = [96, 185]\nclass = clear"] ;
189 -> 205 ;
206 [label="Clearsky GHI <= 111.5\ngini = 0.43\nsamples = 147\nvalue = [46, 101]\nclass = clear"] ;
205 -> 206 ;
207 [label="gini = 0.4474\nsamples = 74\nvalue = [25, 49]\nclass = clear"] ;
206 -> 207 ;
208 [label="gini = 0.4098\nsamples = 73\nvalue = [21, 52]\nclass = clear"] ;
206 -> 208 ;
209 [label="Clearsky GHI <= 113.5\ngini = 0.4678\nsamples = 134\nvalue = [50, 84]\nclass = clear"] ;
205 -> 209 ;
210 [label="gini = 0.4775\nsamples = 66\nvalue = [26, 40]\nclass = clear"] ;
209 -> 210 ;
211 [label="gini = 0.4567\nsamples = 68\nvalue = [24, 44]\nclass = clear"] ;
209 -> 211 ;
212 [label="GHI <= 128.5\ngini = 0.3932\nsamples = 4957\nvalue = [1333, 3624]\nclass = clear"] ;
2 -> 212 ;
213 [label="GHI <= 121.5\ngini = 0.4402\nsamples = 795\nvalue = [260, 535]\nclass = clear"] ;
212 -> 213 ;
214 [label="GHI <= 115.5\ngini = 0.4189\nsamples = 422\nvalue = [126, 296]\nclass = clear"] ;
213 -> 214 ;
215 [label="gini = 0.3615\nsamples = 76\nvalue = [18, 58]\nclass = clear"] ;
214 -> 215 ;
216 [label="Clearsky GHI <= 116.5\ngini = 0.4294\nsamples = 346\nvalue = [108, 238]\nclass = clear"] ;
214 -> 216 ;
217 [label="gini = 0.4829\nsamples = 54\nvalue = [22, 32]\nclass = clear"] ;
216 -> 217 ;
218 [label="Clearsky GHI <= 118.5\ngini = 0.4156\nsamples = 292\nvalue = [86, 206]\nclass = clear"] ;
216 -> 218 ;
219 [label="GHI <= 117.5\ngini = 0.4315\nsamples = 127\nvalue = [40, 87]\nclass = clear"] ;
218 -> 219 ;
220 [label="gini = 0.3967\nsamples = 66\nvalue = [18, 48]\nclass = clear"] ;
219 -> 220 ;
221 [label="gini = 0.4612\nsamples = 61\nvalue = [22, 39]\nclass = clear"] ;
219 -> 221 ;
222 [label="Clearsky GHI <= 120.5\ngini = 0.4021\nsamples = 165\nvalue = [46, 119]\nclass = clear"] ;
218 -> 222 ;
223 [label="Clearsky GHI <= 119.5\ngini = 0.3922\nsamples = 112\nvalue = [30, 82]\nclass = clear"] ;
222 -> 223 ;
224 [label="gini = 0.3888\nsamples = 53\nvalue = [14, 39]\nclass = clear"] ;
223 -> 224 ;
225 [label="gini = 0.3953\nsamples = 59\nvalue = [16, 43]\nclass = clear"] ;
223 -> 225 ;
226 [label="gini = 0.4215\nsamples = 53\nvalue = [16, 37]\nclass = clear"] ;
222 -> 226 ;
227 [label="Clearsky GHI <= 122.5\ngini = 0.4604\nsamples = 373\nvalue = [134, 239]\nclass = clear"] ;
213 -> 227 ;
228 [label="gini = 0.4841\nsamples = 56\nvalue = [23, 33]\nclass = clear"] ;
227 -> 228 ;
229 [label="GHI <= 123.5\ngini = 0.4551\nsamples = 317\nvalue = [111, 206]\nclass = clear"] ;
227 -> 229 ;
230 [label="gini = 0.375\nsamples = 44\nvalue = [11, 33]\nclass = clear"] ;
229 -> 230 ;
231 [label="Clearsky GHI <= 125.5\ngini = 0.4642\nsamples = 273\nvalue = [100, 173]\nclass = clear"] ;
229 -> 231 ;
232 [label="GHI <= 124.5\ngini = 0.4853\nsamples = 99\nvalue = [41, 58]\nclass = clear"] ;
231 -> 232 ;
233 [label="gini = 0.4712\nsamples = 50\nvalue = [19, 31]\nclass = clear"] ;
232 -> 233 ;
234 [label="gini = 0.4948\nsamples = 49\nvalue = [22, 27]\nclass = clear"] ;
232 -> 234 ;
235 [label="GHI <= 126.5\ngini = 0.4482\nsamples = 174\nvalue = [59, 115]\nclass = clear"] ;
231 -> 235 ;
236 [label="gini = 0.3922\nsamples = 56\nvalue = [15, 41]\nclass = clear"] ;
235 -> 236 ;
237 [label="GHI <= 127.5\ngini = 0.4677\nsamples = 118\nvalue = [44, 74]\nclass = clear"] ;
235 -> 237 ;
238 [label="gini = 0.4814\nsamples = 57\nvalue = [23, 34]\nclass = clear"] ;
237 -> 238 ;
239 [label="gini = 0.4515\nsamples = 61\nvalue = [21, 40]\nclass = clear"] ;
237 -> 239 ;
240 [label="GHI <= 197.5\ngini = 0.3827\nsamples = 4162\nvalue = [1073, 3089]\nclass = clear"] ;
212 -> 240 ;
241 [label="GHI <= 193.5\ngini = 0.3794\nsamples = 3958\nvalue = [1007, 2951]\nclass = clear"] ;
240 -> 241 ;
242 [label="Clearsky GHI <= 179.5\ngini = 0.3832\nsamples = 3716\nvalue = [960, 2756]\nclass = clear"] ;
241 -> 242 ;
243 [label="GHI <= 150.5\ngini = 0.3779\nsamples = 3009\nvalue = [761, 2248]\nclass = clear"] ;
242 -> 243 ;
244 [label="Clearsky GHI <= 130.5\ngini = 0.3953\nsamples = 1331\nvalue = [361, 970]\nclass = clear"] ;
243 -> 244 ;
245 [label="GHI <= 129.5\ngini = 0.3355\nsamples = 136\nvalue = [29, 107]\nclass = clear"] ;
244 -> 245 ;
246 [label="gini = 0.3573\nsamples = 73\nvalue = [17, 56]\nclass = clear"] ;
245 -> 246 ;
247 [label="gini = 0.3084\nsamples = 63\nvalue = [12, 51]\nclass = clear"] ;
245 -> 247 ;
248 [label="GHI <= 132.5\ngini = 0.4013\nsamples = 1195\nvalue = [332, 863]\nclass = clear"] ;
244 -> 248 ;
249 [label="GHI <= 131.5\ngini = 0.4369\nsamples = 121\nvalue = [39, 82]\nclass = clear"] ;
248 -> 249 ;
250 [label="gini = 0.4409\nsamples = 64\nvalue = [21, 43]\nclass = clear"] ;
249 -> 250 ;
251 [label="gini = 0.4321\nsamples = 57\nvalue = [18, 39]\nclass = clear"] ;
249 -> 251 ;
252 [label="GHI <= 133.5\ngini = 0.3968\nsamples = 1074\nvalue = [293, 781]\nclass = clear"] ;
248 -> 252 ;
253 [label="gini = 0.324\nsamples = 59\nvalue = [12, 47]\nclass = clear"] ;
252 -> 253 ;
254 [label="GHI <= 134.5\ngini = 0.4004\nsamples = 1015\nvalue = [281, 734]\nclass = clear"] ;
252 -> 254 ;
255 [label="gini = 0.4561\nsamples = 54\nvalue = [19, 35]\nclass = clear"] ;
254 -> 255 ;
256 [label="GHI <= 136.5\ngini = 0.3966\nsamples = 961\nvalue = [262, 699]\nclass = clear"] ;
254 -> 256 ;
257 [label="GHI <= 135.5\ngini = 0.3429\nsamples = 132\nvalue = [29, 103]\nclass = clear"] ;
256 -> 257 ;
258 [label="gini = 0.3389\nsamples = 74\nvalue = [16, 58]\nclass = clear"] ;
257 -> 258 ;
259 [label="gini = 0.3478\nsamples = 58\nvalue = [13, 45]\nclass = clear"] ;
257 -> 259 ;
260 [label="GHI <= 139.5\ngini = 0.4041\nsamples = 829\nvalue = [233, 596]\nclass = clear"] ;
256 -> 260 ;
261 [label="GHI <= 137.5\ngini = 0.4383\nsamples = 185\nvalue = [60, 125]\nclass = clear"] ;
260 -> 261 ;
262 [label="gini = 0.4573\nsamples = 65\nvalue = [23, 42]\nclass = clear"] ;
261 -> 262 ;
263 [label="Clearsky GHI <= 138.5\ngini = 0.4265\nsamples = 120\nvalue = [37, 83]\nclass = clear"] ;
261 -> 263 ;
264 [label="gini = 0.4304\nsamples = 67\nvalue = [21, 46]\nclass = clear"] ;
263 -> 264 ;
265 [label="gini = 0.4215\nsamples = 53\nvalue = [16, 37]\nclass = clear"] ;
263 -> 265 ;
266 [label="GHI <= 141.5\ngini = 0.3929\nsamples = 644\nvalue = [173, 471]\nclass = clear"] ;
260 -> 266 ;
267 [label="Clearsky GHI <= 140.5\ngini = 0.3047\nsamples = 128\nvalue = [24, 104]\nclass = clear"] ;
266 -> 267 ;
268 [label="gini = 0.327\nsamples = 68\nvalue = [14, 54]\nclass = clear"] ;
267 -> 268 ;
269 [label="gini = 0.2778\nsamples = 60\nvalue = [10, 50]\nclass = clear"] ;
267 -> 269 ;
270 [label="Clearsky GHI <= 145.5\ngini = 0.4108\nsamples = 516\nvalue = [149, 367]\nclass = clear"] ;
266 -> 270 ;
271 [label="Clearsky GHI <= 142.5\ngini = 0.4336\nsamples = 214\nvalue = [68, 146]\nclass = clear"] ;
270 -> 271 ;
272 [label="gini = 0.3935\nsamples = 52\nvalue = [14, 38]\nclass = clear"] ;
271 -> 272 ;
273 [label="GHI <= 143.5\ngini = 0.4444\nsamples = 162\nvalue = [54, 108]\nclass = clear"] ;
271 -> 273 ;
274 [label="gini = 0.4664\nsamples = 54\nvalue = [20, 34]\nclass = clear"] ;
273 -> 274 ;
275 [label="Clearsky GHI <= 144.5\ngini = 0.4314\nsamples = 108\nvalue = [34, 74]\nclass = clear"] ;
273 -> 275 ;
276 [label="gini = 0.4352\nsamples = 50\nvalue = [16, 34]\nclass = clear"] ;
275 -> 276 ;
277 [label="gini = 0.4281\nsamples = 58\nvalue = [18, 40]\nclass = clear"] ;
275 -> 277 ;
278 [label="Clearsky GHI <= 147.5\ngini = 0.3925\nsamples = 302\nvalue = [81, 221]\nclass = clear"] ;
270 -> 278 ;
279 [label="Clearsky GHI <= 146.5\ngini = 0.405\nsamples = 117\nvalue = [33, 84]\nclass = clear"] ;
278 -> 279 ;
280 [label="gini = 0.375\nsamples = 52\nvalue = [13, 39]\nclass = clear"] ;
279 -> 280 ;
281 [label="gini = 0.426\nsamples = 65\nvalue = [20, 45]\nclass = clear"] ;
279 -> 281 ;
282 [label="Clearsky GHI <= 148.5\ngini = 0.3843\nsamples = 185\nvalue = [48, 137]\nclass = clear"] ;
278 -> 282 ;
283 [label="gini = 0.3367\nsamples = 56\nvalue = [12, 44]\nclass = clear"] ;
282 -> 283 ;
284 [label="Clearsky GHI <= 149.5\ngini = 0.4024\nsamples = 129\nvalue = [36, 93]\nclass = clear"] ;
282 -> 284 ;
285 [label="gini = 0.4144\nsamples = 58\nvalue = [17, 41]\nclass = clear"] ;
284 -> 285 ;
286 [label="gini = 0.392\nsamples = 71\nvalue = [19, 52]\nclass = clear"] ;
284 -> 286 ;
287 [label="Clearsky GHI <= 165.5\ngini = 0.3631\nsamples = 1678\nvalue = [400, 1278]\nclass = clear"] ;
243 -> 287 ;
288 [label="GHI <= 157.5\ngini = 0.3725\nsamples = 990\nvalue = [245, 745]\nclass = clear"] ;
287 -> 288 ;
289 [label="GHI <= 151.5\ngini = 0.354\nsamples = 470\nvalue = [108, 362]\nclass = clear"] ;
288 -> 289 ;
290 [label="gini = 0.3093\nsamples = 68\nvalue = [13, 55]\nclass = clear"] ;
289 -> 290 ;
291 [label="Clearsky GHI <= 155.5\ngini = 0.3609\nsamples = 402\nvalue = [95, 307]\nclass = clear"] ;
289 -> 291 ;
292 [label="GHI <= 153.5\ngini = 0.3713\nsamples = 272\nvalue = [67, 205]\nclass = clear"] ;
291 -> 292 ;
293 [label="GHI <= 152.5\ngini = 0.3569\nsamples = 129\nvalue = [30, 99]\nclass = clear"] ;
292 -> 293 ;
294 [label="gini = 0.3475\nsamples = 67\nvalue = [15, 52]\nclass = clear"] ;
293 -> 294 ;
295 [label="gini = 0.3668\nsamples = 62\nvalue = [15, 47]\nclass = clear"] ;
293 -> 295 ;
296 [label="GHI <= 154.5\ngini = 0.3836\nsamples = 143\nvalue = [37, 106]\nclass = clear"] ;
292 -> 296 ;
297 [label="gini = 0.3785\nsamples = 71\nvalue = [18, 53]\nclass = clear"] ;
296 -> 297 ;
298 [label="gini = 0.3885\nsamples = 72\nvalue = [19, 53]\nclass = clear"] ;
296 -> 298 ;
299 [label="Clearsky GHI <= 156.5\ngini = 0.338\nsamples = 130\nvalue = [28, 102]\nclass = clear"] ;
291 -> 299 ;
300 [label="gini = 0.3047\nsamples = 64\nvalue = [12, 52]\nclass = clear"] ;
299 -> 300 ;
301 [label="gini = 0.3673\nsamples = 66\nvalue = [16, 50]\nclass = clear"] ;
299 -> 301 ;
302 [label="Clearsky GHI <= 158.5\ngini = 0.3881\nsamples = 520\nvalue = [137, 383]\nclass = clear"] ;
288 -> 302 ;
303 [label="gini = 0.4527\nsamples = 78\nvalue = [27, 51]\nclass = clear"] ;
302 -> 303 ;
304 [label="Clearsky GHI <= 160.5\ngini = 0.3739\nsamples = 442\nvalue = [110, 332]\nclass = clear"] ;
302 -> 304 ;
305 [label="Clearsky GHI <= 159.5\ngini = 0.3569\nsamples = 129\nvalue = [30, 99]\nclass = clear"] ;
304 -> 305 ;
306 [label="gini = 0.382\nsamples = 70\nvalue = [18, 52]\nclass = clear"] ;
305 -> 306 ;
307 [label="gini = 0.324\nsamples = 59\nvalue = [12, 47]\nclass = clear"] ;
305 -> 307 ;
308 [label="Clearsky GHI <= 161.5\ngini = 0.3805\nsamples = 313\nvalue = [80, 233]\nclass = clear"] ;
304 -> 308 ;
309 [label="gini = 0.4224\nsamples = 66\nvalue = [20, 46]\nclass = clear"] ;
308 -> 309 ;
310 [label="GHI <= 163.5\ngini = 0.3678\nsamples = 247\nvalue = [60, 187]\nclass = clear"] ;
308 -> 310 ;
311 [label="GHI <= 162.5\ngini = 0.3494\nsamples = 133\nvalue = [30, 103]\nclass = clear"] ;
310 -> 311 ;
312 [label="gini = 0.3343\nsamples = 66\nvalue = [14, 52]\nclass = clear"] ;
311 -> 312 ;
313 [label="gini = 0.3636\nsamples = 67\nvalue = [16, 51]\nclass = clear"] ;
311 -> 313 ;
314 [label="GHI <= 164.5\ngini = 0.3878\nsamples = 114\nvalue = [30, 84]\nclass = clear"] ;
310 -> 314 ;
315 [label="gini = 0.387\nsamples = 61\nvalue = [16, 45]\nclass = clear"] ;
314 -> 315 ;
316 [label="gini = 0.3888\nsamples = 53\nvalue = [14, 39]\nclass = clear"] ;
314 -> 316 ;
317 [label="GHI <= 168.5\ngini = 0.3491\nsamples = 688\nvalue = [155, 533]\nclass = clear"] ;
287 -> 317 ;
318 [label="GHI <= 166.5\ngini = 0.2706\nsamples = 155\nvalue = [25, 130]\nclass = clear"] ;
317 -> 318 ;
319 [label="gini = 0.2408\nsamples = 50\nvalue = [7, 43]\nclass = clear"] ;
318 -> 319 ;
320 [label="GHI <= 167.5\ngini = 0.2841\nsamples = 105\nvalue = [18, 87]\nclass = clear"] ;
318 -> 320 ;
321 [label="gini = 0.2778\nsamples = 48\nvalue = [8, 40]\nclass = clear"] ;
320 -> 321 ;
322 [label="gini = 0.2893\nsamples = 57\nvalue = [10, 47]\nclass = clear"] ;
320 -> 322 ;
323 [label="Clearsky GHI <= 177.5\ngini = 0.3688\nsamples = 533\nvalue = [130, 403]\nclass = clear"] ;
317 -> 323 ;
324 [label="Clearsky GHI <= 176.5\ngini = 0.375\nsamples = 452\nvalue = [113, 339]\nclass = clear"] ;
323 -> 324 ;
325 [label="GHI <= 169.5\ngini = 0.3643\nsamples = 405\nvalue = [97, 308]\nclass = clear"] ;
324 -> 325 ;
326 [label="gini = 0.3911\nsamples = 45\nvalue = [12, 33]\nclass = clear"] ;
325 -> 326 ;
327 [label="GHI <= 172.5\ngini = 0.3607\nsamples = 360\nvalue = [85, 275]\nclass = clear"] ;
325 -> 327 ;
328 [label="GHI <= 171.5\ngini = 0.3675\nsamples = 169\nvalue = [41, 128]\nclass = clear"] ;
327 -> 328 ;
329 [label="GHI <= 170.5\ngini = 0.3527\nsamples = 105\nvalue = [24, 81]\nclass = clear"] ;
328 -> 329 ;
330 [label="gini = 0.3521\nsamples = 57\nvalue = [13, 44]\nclass = clear"] ;
329 -> 330 ;
331 [label="gini = 0.3533\nsamples = 48\nvalue = [11, 37]\nclass = clear"] ;
329 -> 331 ;
332 [label="gini = 0.3901\nsamples = 64\nvalue = [17, 47]\nclass = clear"] ;
328 -> 332 ;
333 [label="Clearsky GHI <= 174.5\ngini = 0.3546\nsamples = 191\nvalue = [44, 147]\nclass = clear"] ;
327 -> 333 ;
334 [label="GHI <= 173.5\ngini = 0.3482\nsamples = 98\nvalue = [22, 76]\nclass = clear"] ;
333 -> 334 ;
335 [label="gini = 0.3482\nsamples = 49\nvalue = [11, 38]\nclass = clear"] ;
334 -> 335 ;
336 [label="gini = 0.3482\nsamples = 49\nvalue = [11, 38]\nclass = clear"] ;
334 -> 336 ;
337 [label="Clearsky GHI <= 175.5\ngini = 0.3612\nsamples = 93\nvalue = [22, 71]\nclass = clear"] ;
333 -> 337 ;
338 [label="gini = 0.375\nsamples = 40\nvalue = [10, 30]\nclass = clear"] ;
337 -> 338 ;
339 [label="gini = 0.3503\nsamples = 53\nvalue = [12, 41]\nclass = clear"] ;
337 -> 339 ;
340 [label="gini = 0.4491\nsamples = 47\nvalue = [16, 31]\nclass = clear"] ;
324 -> 340 ;
341 [label="Clearsky GHI <= 178.5\ngini = 0.3317\nsamples = 81\nvalue = [17, 64]\nclass = clear"] ;
323 -> 341 ;
342 [label="gini = 0.3084\nsamples = 42\nvalue = [8, 34]\nclass = clear"] ;
341 -> 342 ;
343 [label="gini = 0.355\nsamples = 39\nvalue = [9, 30]\nclass = clear"] ;
341 -> 343 ;
344 [label="GHI <= 185.5\ngini = 0.4045\nsamples = 707\nvalue = [199, 508]\nclass = clear"] ;
242 -> 344 ;
345 [label="Clearsky GHI <= 184.5\ngini = 0.4277\nsamples = 284\nvalue = [88, 196]\nclass = clear"] ;
344 -> 345 ;
346 [label="Clearsky GHI <= 180.5\ngini = 0.4107\nsamples = 239\nvalue = [69, 170]\nclass = clear"] ;
345 -> 346 ;
347 [label="gini = 0.4392\nsamples = 43\nvalue = [14, 29]\nclass = clear"] ;
346 -> 347 ;
348 [label="GHI <= 182.5\ngini = 0.4037\nsamples = 196\nvalue = [55, 141]\nclass = clear"] ;
346 -> 348 ;
349 [label="GHI <= 181.5\ngini = 0.3935\nsamples = 104\nvalue = [28, 76]\nclass = clear"] ;
348 -> 349 ;
350 [label="gini = 0.3935\nsamples = 52\nvalue = [14, 38]\nclass = clear"] ;
349 -> 350 ;
351 [label="gini = 0.3935\nsamples = 52\nvalue = [14, 38]\nclass = clear"] ;
349 -> 351 ;
352 [label="Clearsky GHI <= 183.5\ngini = 0.4147\nsamples = 92\nvalue = [27, 65]\nclass = clear"] ;
348 -> 352 ;
353 [label="gini = 0.4306\nsamples = 51\nvalue = [16, 35]\nclass = clear"] ;
352 -> 353 ;
354 [label="gini = 0.3926\nsamples = 41\nvalue = [11, 30]\nclass = clear"] ;
352 -> 354 ;
355 [label="gini = 0.4879\nsamples = 45\nvalue = [19, 26]\nclass = clear"] ;
345 -> 355 ;
356 [label="GHI <= 192.5\ngini = 0.3871\nsamples = 423\nvalue = [111, 312]\nclass = clear"] ;
344 -> 356 ;
357 [label="GHI <= 191.5\ngini = 0.3736\nsamples = 354\nvalue = [88, 266]\nclass = clear"] ;
356 -> 357 ;
358 [label="GHI <= 187.5\ngini = 0.3856\nsamples = 299\nvalue = [78, 221]\nclass = clear"] ;
357 -> 358 ;
359 [label="GHI <= 186.5\ngini = 0.3527\nsamples = 105\nvalue = [24, 81]\nclass = clear"] ;
358 -> 359 ;
360 [label="gini = 0.3995\nsamples = 58\nvalue = [16, 42]\nclass = clear"] ;
359 -> 360 ;
361 [label="gini = 0.2825\nsamples = 47\nvalue = [8, 39]\nclass = clear"] ;
359 -> 361 ;
362 [label="GHI <= 188.5\ngini = 0.4017\nsamples = 194\nvalue = [54, 140]\nclass = clear"] ;
358 -> 362 ;
363 [label="gini = 0.4403\nsamples = 55\nvalue = [18, 37]\nclass = clear"] ;
362 -> 363 ;
364 [label="Clearsky GHI <= 189.5\ngini = 0.3838\nsamples = 139\nvalue = [36, 103]\nclass = clear"] ;
362 -> 364 ;
365 [label="gini = 0.3367\nsamples = 42\nvalue = [9, 33]\nclass = clear"] ;
364 -> 365 ;
366 [label="Clearsky GHI <= 190.5\ngini = 0.4017\nsamples = 97\nvalue = [27, 70]\nclass = clear"] ;
364 -> 366 ;
367 [label="gini = 0.3983\nsamples = 51\nvalue = [14, 37]\nclass = clear"] ;
366 -> 367 ;
368 [label="gini = 0.4055\nsamples = 46\nvalue = [13, 33]\nclass = clear"] ;
366 -> 368 ;
369 [label="gini = 0.2975\nsamples = 55\nvalue = [10, 45]\nclass = clear"] ;
357 -> 369 ;
370 [label="gini = 0.4444\nsamples = 69\nvalue = [23, 46]\nclass = clear"] ;
356 -> 370 ;
371 [label="Clearsky GHI <= 194.5\ngini = 0.313\nsamples = 242\nvalue = [47, 195]\nclass = clear"] ;
241 -> 371 ;
372 [label="gini = 0.2449\nsamples = 56\nvalue = [8, 48]\nclass = clear"] ;
371 -> 372 ;
373 [label="GHI <= 196.5\ngini = 0.3314\nsamples = 186\nvalue = [39, 147]\nclass = clear"] ;
371 -> 373 ;
374 [label="GHI <= 195.5\ngini = 0.3531\nsamples = 131\nvalue = [30, 101]\nclass = clear"] ;
373 -> 374 ;
375 [label="gini = 0.3324\nsamples = 57\nvalue = [12, 45]\nclass = clear"] ;
374 -> 375 ;
376 [label="gini = 0.3682\nsamples = 74\nvalue = [18, 56]\nclass = clear"] ;
374 -> 376 ;
377 [label="gini = 0.2737\nsamples = 55\nvalue = [9, 46]\nclass = clear"] ;
373 -> 377 ;
378 [label="Clearsky GHI <= 199.5\ngini = 0.4377\nsamples = 204\nvalue = [66, 138]\nclass = clear"] ;
240 -> 378 ;
379 [label="GHI <= 198.5\ngini = 0.4493\nsamples = 135\nvalue = [46, 89]\nclass = clear"] ;
378 -> 379 ;
380 [label="gini = 0.4374\nsamples = 65\nvalue = [21, 44]\nclass = clear"] ;
379 -> 380 ;
381 [label="gini = 0.4592\nsamples = 70\nvalue = [25, 45]\nclass = clear"] ;
379 -> 381 ;
382 [label="gini = 0.4117\nsamples = 69\nvalue = [20, 49]\nclass = clear"] ;
378 -> 382 ;
383 [label="GHI <= 458.5\ngini = 0.2092\nsamples = 64649\nvalue = [7673, 56976]\nclass = clear"] ;
1 -> 383 ;
384 [label="GHI <= 311.5\ngini = 0.2799\nsamples = 15647\nvalue = [2633, 13014]\nclass = clear"] ;
383 -> 384 ;
385 [label="Clearsky GHI <= 258.5\ngini = 0.3156\nsamples = 6508\nvalue = [1278, 5230]\nclass = clear"] ;
384 -> 385 ;
386 [label="Clearsky GHI <= 231.5\ngini = 0.3267\nsamples = 3409\nvalue = [701, 2708]\nclass = clear"] ;
385 -> 386 ;
387 [label="GHI <= 206.5\ngini = 0.3135\nsamples = 1839\nvalue = [358, 1481]\nclass = clear"] ;
386 -> 387 ;
388 [label="Clearsky GHI <= 204.5\ngini = 0.3565\nsamples = 405\nvalue = [94, 311]\nclass = clear"] ;
387 -> 388 ;
389 [label="GHI <= 201.5\ngini = 0.3367\nsamples = 266\nvalue = [57, 209]\nclass = clear"] ;
388 -> 389 ;
390 [label="gini = 0.2975\nsamples = 55\nvalue = [10, 45]\nclass = clear"] ;
389 -> 390 ;
391 [label="Clearsky GHI <= 203.5\ngini = 0.3463\nsamples = 211\nvalue = [47, 164]\nclass = clear"] ;
389 -> 391 ;
392 [label="GHI <= 202.5\ngini = 0.3585\nsamples = 141\nvalue = [33, 108]\nclass = clear"] ;
391 -> 392 ;
393 [label="gini = 0.3423\nsamples = 73\nvalue = [16, 57]\nclass = clear"] ;
392 -> 393 ;
394 [label="gini = 0.375\nsamples = 68\nvalue = [17, 51]\nclass = clear"] ;
392 -> 394 ;
395 [label="gini = 0.32\nsamples = 70\nvalue = [14, 56]\nclass = clear"] ;
391 -> 395 ;
396 [label="Clearsky GHI <= 205.5\ngini = 0.3907\nsamples = 139\nvalue = [37, 102]\nclass = clear"] ;
388 -> 396 ;
397 [label="gini = 0.3918\nsamples = 86\nvalue = [23, 63]\nclass = clear"] ;
396 -> 397 ;
398 [label="gini = 0.3888\nsamples = 53\nvalue = [14, 39]\nclass = clear"] ;
396 -> 398 ;
399 [label="Clearsky GHI <= 219.5\ngini = 0.3004\nsamples = 1434\nvalue = [264, 1170]\nclass = clear"] ;
387 -> 399 ;
400 [label="GHI <= 216.5\ngini = 0.3097\nsamples = 731\nvalue = [140, 591]\nclass = clear"] ;
399 -> 400 ;
401 [label="GHI <= 213.5\ngini = 0.293\nsamples = 561\nvalue = [100, 461]\nclass = clear"] ;
400 -> 401 ;
402 [label="GHI <= 211.5\ngini = 0.3063\nsamples = 376\nvalue = [71, 305]\nclass = clear"] ;
401 -> 402 ;
403 [label="GHI <= 209.5\ngini = 0.2878\nsamples = 264\nvalue = [46, 218]\nclass = clear"] ;
402 -> 403 ;
404 [label="GHI <= 208.5\ngini = 0.3076\nsamples = 158\nvalue = [30, 128]\nclass = clear"] ;
403 -> 404 ;
405 [label="GHI <= 207.5\ngini = 0.2907\nsamples = 102\nvalue = [18, 84]\nclass = clear"] ;
404 -> 405 ;
406 [label="gini = 0.2952\nsamples = 50\nvalue = [9, 41]\nclass = clear"] ;
405 -> 406 ;
407 [label="gini = 0.2862\nsamples = 52\nvalue = [9, 43]\nclass = clear"] ;
405 -> 407 ;
408 [label="gini = 0.3367\nsamples = 56\nvalue = [12, 44]\nclass = clear"] ;
404 -> 408 ;
409 [label="Clearsky GHI <= 210.5\ngini = 0.2563\nsamples = 106\nvalue = [16, 90]\nclass = clear"] ;
403 -> 409 ;
410 [label="gini = 0.2732\nsamples = 49\nvalue = [8, 41]\nclass = clear"] ;
409 -> 410 ;
411 [label="gini = 0.2413\nsamples = 57\nvalue = [8, 49]\nclass = clear"] ;
409 -> 411 ;
412 [label="GHI <= 212.5\ngini = 0.3468\nsamples = 112\nvalue = [25, 87]\nclass = clear"] ;
402 -> 412 ;
413 [label="gini = 0.361\nsamples = 55\nvalue = [13, 42]\nclass = clear"] ;
412 -> 413 ;
414 [label="gini = 0.3324\nsamples = 57\nvalue = [12, 45]\nclass = clear"] ;
412 -> 414 ;
415 [label="GHI <= 214.5\ngini = 0.2644\nsamples = 185\nvalue = [29, 156]\nclass = clear"] ;
401 -> 415 ;
416 [label="gini = 0.2297\nsamples = 68\nvalue = [9, 59]\nclass = clear"] ;
415 -> 416 ;
417 [label="Clearsky GHI <= 215.5\ngini = 0.2834\nsamples = 117\nvalue = [20, 97]\nclass = clear"] ;
415 -> 417 ;
418 [label="gini = 0.2994\nsamples = 60\nvalue = [11, 49]\nclass = clear"] ;
417 -> 418 ;
419 [label="gini = 0.2659\nsamples = 57\nvalue = [9, 48]\nclass = clear"] ;
417 -> 419 ;
420 [label="GHI <= 217.5\ngini = 0.3599\nsamples = 170\nvalue = [40, 130]\nclass = clear"] ;
400 -> 420 ;
421 [label="gini = 0.426\nsamples = 52\nvalue = [16, 36]\nclass = clear"] ;
420 -> 421 ;
422 [label="Clearsky GHI <= 218.5\ngini = 0.324\nsamples = 118\nvalue = [24, 94]\nclass = clear"] ;
420 -> 422 ;
423 [label="gini = 0.32\nsamples = 65\nvalue = [13, 52]\nclass = clear"] ;
422 -> 423 ;
424 [label="gini = 0.3289\nsamples = 53\nvalue = [11, 42]\nclass = clear"] ;
422 -> 424 ;
425 [label="GHI <= 223.5\ngini = 0.2905\nsamples = 703\nvalue = [124, 579]\nclass = clear"] ;
399 -> 425 ;
426 [label="Clearsky GHI <= 222.5\ngini = 0.2458\nsamples = 237\nvalue = [34, 203]\nclass = clear"] ;
425 -> 426 ;
427 [label="GHI <= 220.5\ngini = 0.2604\nsamples = 182\nvalue = [28, 154]\nclass = clear"] ;
426 -> 427 ;
428 [label="gini = 0.233\nsamples = 52\nvalue = [7, 45]\nclass = clear"] ;
427 -> 428 ;
429 [label="Clearsky GHI <= 221.5\ngini = 0.2709\nsamples = 130\nvalue = [21, 109]\nclass = clear"] ;
427 -> 429 ;
430 [label="gini = 0.2815\nsamples = 59\nvalue = [10, 49]\nclass = clear"] ;
429 -> 430 ;
431 [label="gini = 0.2619\nsamples = 71\nvalue = [11, 60]\nclass = clear"] ;
429 -> 431 ;
432 [label="gini = 0.1944\nsamples = 55\nvalue = [6, 49]\nclass = clear"] ;
426 -> 432 ;
433 [label="Clearsky GHI <= 229.5\ngini = 0.3117\nsamples = 466\nvalue = [90, 376]\nclass = clear"] ;
425 -> 433 ;
434 [label="Clearsky GHI <= 224.5\ngini = 0.3213\nsamples = 363\nvalue = [73, 290]\nclass = clear"] ;
433 -> 434 ;
435 [label="gini = 0.2941\nsamples = 67\nvalue = [12, 55]\nclass = clear"] ;
434 -> 435 ;
436 [label="Clearsky GHI <= 225.5\ngini = 0.3272\nsamples = 296\nvalue = [61, 235]\nclass = clear"] ;
434 -> 436 ;
437 [label="gini = 0.375\nsamples = 56\nvalue = [14, 42]\nclass = clear"] ;
436 -> 437 ;
438 [label="Clearsky GHI <= 228.5\ngini = 0.315\nsamples = 240\nvalue = [47, 193]\nclass = clear"] ;
436 -> 438 ;
439 [label="GHI <= 226.5\ngini = 0.3094\nsamples = 183\nvalue = [35, 148]\nclass = clear"] ;
438 -> 439 ;
440 [label="gini = 0.32\nsamples = 60\nvalue = [12, 48]\nclass = clear"] ;
439 -> 440 ;
441 [label="GHI <= 227.5\ngini = 0.3041\nsamples = 123\nvalue = [23, 100]\nclass = clear"] ;
439 -> 441 ;
442 [label="gini = 0.3062\nsamples = 53\nvalue = [10, 43]\nclass = clear"] ;
441 -> 442 ;
443 [label="gini = 0.3024\nsamples = 70\nvalue = [13, 57]\nclass = clear"] ;
441 -> 443 ;
444 [label="gini = 0.3324\nsamples = 57\nvalue = [12, 45]\nclass = clear"] ;
438 -> 444 ;
445 [label="Clearsky GHI <= 230.5\ngini = 0.2756\nsamples = 103\nvalue = [17, 86]\nclass = clear"] ;
433 -> 445 ;
446 [label="gini = 0.258\nsamples = 46\nvalue = [7, 39]\nclass = clear"] ;
445 -> 446 ;
447 [label="gini = 0.2893\nsamples = 57\nvalue = [10, 47]\nclass = clear"] ;
445 -> 447 ;
448 [label="GHI <= 255.5\ngini = 0.3415\nsamples = 1570\nvalue = [343, 1227]\nclass = clear"] ;
386 -> 448 ;
449 [label="GHI <= 253.5\ngini = 0.3367\nsamples = 1405\nvalue = [301, 1104]\nclass = clear"] ;
448 -> 449 ;
450 [label="Clearsky GHI <= 232.5\ngini = 0.3441\nsamples = 1300\nvalue = [287, 1013]\nclass = clear"] ;
449 -> 450 ;
451 [label="gini = 0.3878\nsamples = 57\nvalue = [15, 42]\nclass = clear"] ;
450 -> 451 ;
452 [label="Clearsky GHI <= 233.5\ngini = 0.3419\nsamples = 1243\nvalue = [272, 971]\nclass = clear"] ;
450 -> 452 ;
453 [label="gini = 0.3047\nsamples = 64\nvalue = [12, 52]\nclass = clear"] ;
452 -> 453 ;
454 [label="GHI <= 234.5\ngini = 0.3438\nsamples = 1179\nvalue = [260, 919]\nclass = clear"] ;
452 -> 454 ;
455 [label="gini = 0.3825\nsamples = 66\nvalue = [17, 49]\nclass = clear"] ;
454 -> 455 ;
456 [label="GHI <= 235.5\ngini = 0.3413\nsamples = 1113\nvalue = [243, 870]\nclass = clear"] ;
454 -> 456 ;
457 [label="gini = 0.2741\nsamples = 61\nvalue = [10, 51]\nclass = clear"] ;
456 -> 457 ;
458 [label="Clearsky GHI <= 236.5\ngini = 0.3449\nsamples = 1052\nvalue = [233, 819]\nclass = clear"] ;
456 -> 458 ;
459 [label="gini = 0.3878\nsamples = 57\nvalue = [15, 42]\nclass = clear"] ;
458 -> 459 ;
460 [label="Clearsky GHI <= 248.5\ngini = 0.3422\nsamples = 995\nvalue = [218, 777]\nclass = clear"] ;
458 -> 460 ;
461 [label="Clearsky GHI <= 247.5\ngini = 0.3479\nsamples = 678\nvalue = [152, 526]\nclass = clear"] ;
460 -> 461 ;
462 [label="GHI <= 243.5\ngini = 0.3425\nsamples = 620\nvalue = [136, 484]\nclass = clear"] ;
461 -> 462 ;
463 [label="GHI <= 237.5\ngini = 0.3335\nsamples = 383\nvalue = [81, 302]\nclass = clear"] ;
462 -> 463 ;
464 [label="gini = 0.3578\nsamples = 60\nvalue = [14, 46]\nclass = clear"] ;
463 -> 464 ;
465 [label="Clearsky GHI <= 242.5\ngini = 0.3288\nsamples = 323\nvalue = [67, 256]\nclass = clear"] ;
463 -> 465 ;
466 [label="GHI <= 241.5\ngini = 0.3316\nsamples = 286\nvalue = [60, 226]\nclass = clear"] ;
465 -> 466 ;
467 [label="Clearsky GHI <= 238.5\ngini = 0.3282\nsamples = 232\nvalue = [48, 184]\nclass = clear"] ;
466 -> 467 ;
468 [label="gini = 0.324\nsamples = 59\nvalue = [12, 47]\nclass = clear"] ;
467 -> 468 ;
469 [label="Clearsky GHI <= 239.5\ngini = 0.3296\nsamples = 173\nvalue = [36, 137]\nclass = clear"] ;
467 -> 469 ;
470 [label="gini = 0.335\nsamples = 47\nvalue = [10, 37]\nclass = clear"] ;
469 -> 470 ;
471 [label="Clearsky GHI <= 240.5\ngini = 0.3275\nsamples = 126\nvalue = [26, 100]\nclass = clear"] ;
469 -> 471 ;
472 [label="gini = 0.327\nsamples = 68\nvalue = [14, 54]\nclass = clear"] ;
471 -> 472 ;
473 [label="gini = 0.3282\nsamples = 58\nvalue = [12, 46]\nclass = clear"] ;
471 -> 473 ;
474 [label="gini = 0.3457\nsamples = 54\nvalue = [12, 42]\nclass = clear"] ;
466 -> 474 ;
475 [label="gini = 0.3068\nsamples = 37\nvalue = [7, 30]\nclass = clear"] ;
465 -> 475 ;
476 [label="Clearsky GHI <= 245.5\ngini = 0.3564\nsamples = 237\nvalue = [55, 182]\nclass = clear"] ;
462 -> 476 ;
477 [label="GHI <= 244.5\ngini = 0.3807\nsamples = 129\nvalue = [33, 96]\nclass = clear"] ;
476 -> 477 ;
478 [label="gini = 0.3537\nsamples = 61\nvalue = [14, 47]\nclass = clear"] ;
477 -> 478 ;
479 [label="gini = 0.4027\nsamples = 68\nvalue = [19, 49]\nclass = clear"] ;
477 -> 479 ;
480 [label="GHI <= 246.5\ngini = 0.3244\nsamples = 108\nvalue = [22, 86]\nclass = clear"] ;
476 -> 480 ;
481 [label="gini = 0.32\nsamples = 60\nvalue = [12, 48]\nclass = clear"] ;
480 -> 481 ;
482 [label="gini = 0.3299\nsamples = 48\nvalue = [10, 38]\nclass = clear"] ;
480 -> 482 ;
483 [label="gini = 0.3995\nsamples = 58\nvalue = [16, 42]\nclass = clear"] ;
461 -> 483 ;
484 [label="GHI <= 249.5\ngini = 0.3297\nsamples = 317\nvalue = [66, 251]\nclass = clear"] ;
460 -> 484 ;
485 [label="gini = 0.2671\nsamples = 63\nvalue = [10, 53]\nclass = clear"] ;
484 -> 485 ;
486 [label="GHI <= 250.5\ngini = 0.3437\nsamples = 254\nvalue = [56, 198]\nclass = clear"] ;
484 -> 486 ;
487 [label="gini = 0.3709\nsamples = 61\nvalue = [15, 46]\nclass = clear"] ;
486 -> 487 ;
488 [label="Clearsky GHI <= 251.5\ngini = 0.3346\nsamples = 193\nvalue = [41, 152]\nclass = clear"] ;
486 -> 488 ;
489 [label="gini = 0.3058\nsamples = 69\nvalue = [13, 56]\nclass = clear"] ;
488 -> 489 ;
490 [label="GHI <= 252.5\ngini = 0.3496\nsamples = 124\nvalue = [28, 96]\nclass = clear"] ;
488 -> 490 ;
491 [label="gini = 0.3789\nsamples = 63\nvalue = [16, 47]\nclass = clear"] ;
490 -> 491 ;
492 [label="gini = 0.316\nsamples = 61\nvalue = [12, 49]\nclass = clear"] ;
490 -> 492 ;
493 [label="Clearsky GHI <= 254.5\ngini = 0.2311\nsamples = 105\nvalue = [14, 91]\nclass = clear"] ;
449 -> 493 ;
494 [label="gini = 0.1866\nsamples = 48\nvalue = [5, 43]\nclass = clear"] ;
493 -> 494 ;
495 [label="gini = 0.2659\nsamples = 57\nvalue = [9, 48]\nclass = clear"] ;
493 -> 495 ;
496 [label="GHI <= 257.5\ngini = 0.3795\nsamples = 165\nvalue = [42, 123]\nclass = clear"] ;
448 -> 496 ;
497 [label="Clearsky GHI <= 256.5\ngini = 0.3893\nsamples = 102\nvalue = [27, 75]\nclass = clear"] ;
496 -> 497 ;
498 [label="gini = 0.3807\nsamples = 43\nvalue = [11, 32]\nclass = clear"] ;
497 -> 498 ;
499 [label="gini = 0.3953\nsamples = 59\nvalue = [16, 43]\nclass = clear"] ;
497 -> 499 ;
500 [label="gini = 0.3628\nsamples = 63\nvalue = [15, 48]\nclass = clear"] ;
496 -> 500 ;
501 [label="GHI <= 294.5\ngini = 0.303\nsamples = 3099\nvalue = [577, 2522]\nclass = clear"] ;
385 -> 501 ;
502 [label="Clearsky GHI <= 293.5\ngini = 0.2885\nsamples = 2054\nvalue = [359, 1695]\nclass = clear"] ;
501 -> 502 ;
503 [label="GHI <= 278.5\ngini = 0.292\nsamples = 2000\nvalue = [355, 1645]\nclass = clear"] ;
502 -> 503 ;
504 [label="Clearsky GHI <= 275.5\ngini = 0.2772\nsamples = 1131\nvalue = [188, 943]\nclass = clear"] ;
503 -> 504 ;
505 [label="GHI <= 270.5\ngini = 0.2851\nsamples = 993\nvalue = [171, 822]\nclass = clear"] ;
504 -> 505 ;
506 [label="GHI <= 262.5\ngini = 0.2917\nsamples = 722\nvalue = [128, 594]\nclass = clear"] ;
505 -> 506 ;
507 [label="Clearsky GHI <= 260.5\ngini = 0.2669\nsamples = 227\nvalue = [36, 191]\nclass = clear"] ;
506 -> 507 ;
508 [label="Clearsky GHI <= 259.5\ngini = 0.2926\nsamples = 118\nvalue = [21, 97]\nclass = clear"] ;
507 -> 508 ;
509 [label="gini = 0.2919\nsamples = 62\nvalue = [11, 51]\nclass = clear"] ;
508 -> 509 ;
510 [label="gini = 0.2934\nsamples = 56\nvalue = [10, 46]\nclass = clear"] ;
508 -> 510 ;
511 [label="Clearsky GHI <= 261.5\ngini = 0.2374\nsamples = 109\nvalue = [15, 94]\nclass = clear"] ;
507 -> 511 ;
512 [label="gini = 0.1866\nsamples = 48\nvalue = [5, 43]\nclass = clear"] ;
511 -> 512 ;
513 [label="gini = 0.2741\nsamples = 61\nvalue = [10, 51]\nclass = clear"] ;
511 -> 513 ;
514 [label="GHI <= 263.5\ngini = 0.3026\nsamples = 495\nvalue = [92, 403]\nclass = clear"] ;
506 -> 514 ;
515 [label="gini = 0.3628\nsamples = 63\nvalue = [15, 48]\nclass = clear"] ;
514 -> 515 ;
516 [label="GHI <= 264.5\ngini = 0.2929\nsamples = 432\nvalue = [77, 355]\nclass = clear"] ;
514 -> 516 ;
517 [label="gini = 0.3047\nsamples = 64\nvalue = [12, 52]\nclass = clear"] ;
516 -> 517 ;
518 [label="Clearsky GHI <= 267.5\ngini = 0.2909\nsamples = 368\nvalue = [65, 303]\nclass = clear"] ;
516 -> 518 ;
519 [label="Clearsky GHI <= 265.5\ngini = 0.2843\nsamples = 204\nvalue = [35, 169]\nclass = clear"] ;
518 -> 519 ;
520 [label="gini = 0.2873\nsamples = 69\nvalue = [12, 57]\nclass = clear"] ;
519 -> 520 ;
521 [label="GHI <= 266.5\ngini = 0.2827\nsamples = 135\nvalue = [23, 112]\nclass = clear"] ;
519 -> 521 ;
522 [label="gini = 0.2804\nsamples = 83\nvalue = [14, 69]\nclass = clear"] ;
521 -> 522 ;
523 [label="gini = 0.2862\nsamples = 52\nvalue = [9, 43]\nclass = clear"] ;
521 -> 523 ;
524 [label="Clearsky GHI <= 268.5\ngini = 0.2989\nsamples = 164\nvalue = [30, 134]\nclass = clear"] ;
518 -> 524 ;
525 [label="gini = 0.3096\nsamples = 47\nvalue = [9, 38]\nclass = clear"] ;
524 -> 525 ;
526 [label="GHI <= 269.5\ngini = 0.2945\nsamples = 117\nvalue = [21, 96]\nclass = clear"] ;
524 -> 526 ;
527 [label="gini = 0.2975\nsamples = 55\nvalue = [10, 45]\nclass = clear"] ;
526 -> 527 ;
528 [label="gini = 0.2919\nsamples = 62\nvalue = [11, 51]\nclass = clear"] ;
526 -> 528 ;
529 [label="GHI <= 272.5\ngini = 0.267\nsamples = 271\nvalue = [43, 228]\nclass = clear"] ;
505 -> 529 ;
530 [label="Clearsky GHI <= 271.5\ngini = 0.2239\nsamples = 109\nvalue = [14, 95]\nclass = clear"] ;
529 -> 530 ;
531 [label="gini = 0.2491\nsamples = 48\nvalue = [7, 41]\nclass = clear"] ;
530 -> 531 ;
532 [label="gini = 0.2032\nsamples = 61\nvalue = [7, 54]\nclass = clear"] ;
530 -> 532 ;
533 [label="GHI <= 273.5\ngini = 0.2939\nsamples = 162\nvalue = [29, 133]\nclass = clear"] ;
529 -> 533 ;
534 [label="gini = 0.3403\nsamples = 46\nvalue = [10, 36]\nclass = clear"] ;
533 -> 534 ;
535 [label="GHI <= 274.5\ngini = 0.2739\nsamples = 116\nvalue = [19, 97]\nclass = clear"] ;
533 -> 535 ;
536 [label="gini = 0.2413\nsamples = 57\nvalue = [8, 49]\nclass = clear"] ;
535 -> 536 ;
537 [label="gini = 0.3034\nsamples = 59\nvalue = [11, 48]\nclass = clear"] ;
535 -> 537 ;
538 [label="Clearsky GHI <= 277.5\ngini = 0.216\nsamples = 138\nvalue = [17, 121]\nclass = clear"] ;
504 -> 538 ;
539 [label="GHI <= 276.5\ngini = 0.2311\nsamples = 90\nvalue = [12, 78]\nclass = clear"] ;
538 -> 539 ;
540 [label="gini = 0.2098\nsamples = 42\nvalue = [5, 37]\nclass = clear"] ;
539 -> 540 ;
541 [label="gini = 0.2491\nsamples = 48\nvalue = [7, 41]\nclass = clear"] ;
539 -> 541 ;
542 [label="gini = 0.1866\nsamples = 48\nvalue = [5, 43]\nclass = clear"] ;
538 -> 542 ;
543 [label="GHI <= 282.5\ngini = 0.3105\nsamples = 869\nvalue = [167, 702]\nclass = clear"] ;
503 -> 543 ;
544 [label="GHI <= 280.5\ngini = 0.3701\nsamples = 208\nvalue = [51, 157]\nclass = clear"] ;
543 -> 544 ;
545 [label="Clearsky GHI <= 279.5\ngini = 0.3023\nsamples = 97\nvalue = [18, 79]\nclass = clear"] ;
544 -> 545 ;
546 [label="gini = 0.32\nsamples = 55\nvalue = [11, 44]\nclass = clear"] ;
545 -> 546 ;
547 [label="gini = 0.2778\nsamples = 42\nvalue = [7, 35]\nclass = clear"] ;
545 -> 547 ;
548 [label="GHI <= 281.5\ngini = 0.4178\nsamples = 111\nvalue = [33, 78]\nclass = clear"] ;
544 -> 548 ;
549 [label="gini = 0.3967\nsamples = 55\nvalue = [15, 40]\nclass = clear"] ;
548 -> 549 ;
550 [label="gini = 0.4362\nsamples = 56\nvalue = [18, 38]\nclass = clear"] ;
548 -> 550 ;
551 [label="Clearsky GHI <= 284.5\ngini = 0.2894\nsamples = 661\nvalue = [116, 545]\nclass = clear"] ;
543 -> 551 ;
552 [label="GHI <= 283.5\ngini = 0.2118\nsamples = 108\nvalue = [13, 95]\nclass = clear"] ;
551 -> 552 ;
553 [label="gini = 0.1884\nsamples = 57\nvalue = [6, 51]\nclass = clear"] ;
552 -> 553 ;
554 [label="gini = 0.2368\nsamples = 51\nvalue = [7, 44]\nclass = clear"] ;
552 -> 554 ;
555 [label="Clearsky GHI <= 292.5\ngini = 0.3031\nsamples = 553\nvalue = [103, 450]\nclass = clear"] ;
551 -> 555 ;
556 [label="GHI <= 289.5\ngini = 0.293\nsamples = 488\nvalue = [87, 401]\nclass = clear"] ;
555 -> 556 ;
557 [label="Clearsky GHI <= 287.5\ngini = 0.3055\nsamples = 303\nvalue = [57, 246]\nclass = clear"] ;
556 -> 557 ;
558 [label="Clearsky GHI <= 286.5\ngini = 0.2754\nsamples = 188\nvalue = [31, 157]\nclass = clear"] ;
557 -> 558 ;
559 [label="Clearsky GHI <= 285.5\ngini = 0.2984\nsamples = 126\nvalue = [23, 103]\nclass = clear"] ;
558 -> 559 ;
560 [label="gini = 0.2706\nsamples = 62\nvalue = [10, 52]\nclass = clear"] ;
559 -> 560 ;
561 [label="gini = 0.3237\nsamples = 64\nvalue = [13, 51]\nclass = clear"] ;
559 -> 561 ;
562 [label="gini = 0.2248\nsamples = 62\nvalue = [8, 54]\nclass = clear"] ;
558 -> 562 ;
563 [label="Clearsky GHI <= 288.5\ngini = 0.3499\nsamples = 115\nvalue = [26, 89]\nclass = clear"] ;
557 -> 563 ;
564 [label="gini = 0.3336\nsamples = 52\nvalue = [11, 41]\nclass = clear"] ;
563 -> 564 ;
565 [label="gini = 0.3628\nsamples = 63\nvalue = [15, 48]\nclass = clear"] ;
563 -> 565 ;
566 [label="GHI <= 290.5\ngini = 0.2717\nsamples = 185\nvalue = [30, 155]\nclass = clear"] ;
556 -> 566 ;
567 [label="gini = 0.1653\nsamples = 55\nvalue = [5, 50]\nclass = clear"] ;
566 -> 567 ;
568 [label="GHI <= 291.5\ngini = 0.3107\nsamples = 130\nvalue = [25, 105]\nclass = clear"] ;
566 -> 568 ;
569 [label="gini = 0.3163\nsamples = 66\nvalue = [13, 53]\nclass = clear"] ;
568 -> 569 ;
570 [label="gini = 0.3047\nsamples = 64\nvalue = [12, 52]\nclass = clear"] ;
568 -> 570 ;
571 [label="gini = 0.3711\nsamples = 65\nvalue = [16, 49]\nclass = clear"] ;
555 -> 571 ;
572 [label="gini = 0.1372\nsamples = 54\nvalue = [4, 50]\nclass = clear"] ;
502 -> 572 ;
573 [label="Clearsky GHI <= 295.5\ngini = 0.3302\nsamples = 1045\nvalue = [218, 827]\nclass = clear"] ;
501 -> 573 ;
574 [label="gini = 0.3941\nsamples = 63\nvalue = [17, 46]\nclass = clear"] ;
573 -> 574 ;
575 [label="GHI <= 307.5\ngini = 0.3256\nsamples = 982\nvalue = [201, 781]\nclass = clear"] ;
573 -> 575 ;
576 [label="GHI <= 305.5\ngini = 0.3127\nsamples = 696\nvalue = [135, 561]\nclass = clear"] ;
575 -> 576 ;
577 [label="Clearsky GHI <= 301.5\ngini = 0.3319\nsamples = 576\nvalue = [121, 455]\nclass = clear"] ;
576 -> 577 ;
578 [label="Clearsky GHI <= 298.5\ngini = 0.3047\nsamples = 336\nvalue = [63, 273]\nclass = clear"] ;
577 -> 578 ;
579 [label="GHI <= 296.5\ngini = 0.3428\nsamples = 173\nvalue = [38, 135]\nclass = clear"] ;
578 -> 579 ;
580 [label="gini = 0.2535\nsamples = 47\nvalue = [7, 40]\nclass = clear"] ;
579 -> 580 ;
581 [label="GHI <= 297.5\ngini = 0.371\nsamples = 126\nvalue = [31, 95]\nclass = clear"] ;
579 -> 581 ;
582 [label="gini = 0.3628\nsamples = 63\nvalue = [15, 48]\nclass = clear"] ;
581 -> 582 ;
583 [label="gini = 0.3789\nsamples = 63\nvalue = [16, 47]\nclass = clear"] ;
581 -> 583 ;
584 [label="Clearsky GHI <= 299.5\ngini = 0.2597\nsamples = 163\nvalue = [25, 138]\nclass = clear"] ;
578 -> 584 ;
585 [label="gini = 0.1014\nsamples = 56\nvalue = [3, 53]\nclass = clear"] ;
584 -> 585 ;
586 [label="GHI <= 300.5\ngini = 0.3267\nsamples = 107\nvalue = [22, 85]\nclass = clear"] ;
584 -> 586 ;
587 [label="gini = 0.3995\nsamples = 58\nvalue = [16, 42]\nclass = clear"] ;
586 -> 587 ;
588 [label="gini = 0.2149\nsamples = 49\nvalue = [6, 43]\nclass = clear"] ;
586 -> 588 ;
589 [label="GHI <= 302.5\ngini = 0.3665\nsamples = 240\nvalue = [58, 182]\nclass = clear"] ;
577 -> 589 ;
590 [label="gini = 0.4688\nsamples = 48\nvalue = [18, 30]\nclass = clear"] ;
589 -> 590 ;
591 [label="Clearsky GHI <= 303.5\ngini = 0.3299\nsamples = 192\nvalue = [40, 152]\nclass = clear"] ;
589 -> 591 ;
592 [label="gini = 0.3599\nsamples = 68\nvalue = [16, 52]\nclass = clear"] ;
591 -> 592 ;
593 [label="GHI <= 304.5\ngini = 0.3122\nsamples = 124\nvalue = [24, 100]\nclass = clear"] ;
591 -> 593 ;
594 [label="gini = 0.3062\nsamples = 53\nvalue = [10, 43]\nclass = clear"] ;
593 -> 594 ;
595 [label="gini = 0.3166\nsamples = 71\nvalue = [14, 57]\nclass = clear"] ;
593 -> 595 ;
596 [label="Clearsky GHI <= 306.5\ngini = 0.2061\nsamples = 120\nvalue = [14, 106]\nclass = clear"] ;
576 -> 596 ;
597 [label="gini = 0.1461\nsamples = 63\nvalue = [5, 58]\nclass = clear"] ;
596 -> 597 ;
598 [label="gini = 0.2659\nsamples = 57\nvalue = [9, 48]\nclass = clear"] ;
596 -> 598 ;
599 [label="Clearsky GHI <= 310.5\ngini = 0.355\nsamples = 286\nvalue = [66, 220]\nclass = clear"] ;
575 -> 599 ;
600 [label="GHI <= 309.5\ngini = 0.3738\nsamples = 205\nvalue = [51, 154]\nclass = clear"] ;
599 -> 600 ;
601 [label="Clearsky GHI <= 308.5\ngini = 0.3447\nsamples = 131\nvalue = [29, 102]\nclass = clear"] ;
600 -> 601 ;
602 [label="gini = 0.3813\nsamples = 78\nvalue = [20, 58]\nclass = clear"] ;
601 -> 602 ;
603 [label="gini = 0.282\nsamples = 53\nvalue = [9, 44]\nclass = clear"] ;
601 -> 603 ;
604 [label="gini = 0.4178\nsamples = 74\nvalue = [22, 52]\nclass = clear"] ;
600 -> 604 ;
605 [label="gini = 0.3018\nsamples = 81\nvalue = [15, 66]\nclass = clear"] ;
599 -> 605 ;
606 [label="Clearsky GHI <= 368.5\ngini = 0.2526\nsamples = 9139\nvalue = [1355, 7784]\nclass = clear"] ;
384 -> 606 ;
607 [label="Clearsky GHI <= 344.5\ngini = 0.2653\nsamples = 3341\nvalue = [526, 2815]\nclass = clear"] ;
606 -> 607 ;
608 [label="Clearsky GHI <= 334.5\ngini = 0.2499\nsamples = 1913\nvalue = [280, 1633]\nclass = clear"] ;
607 -> 608 ;
609 [label="GHI <= 333.5\ngini = 0.2572\nsamples = 1392\nvalue = [211, 1181]\nclass = clear"] ;
608 -> 609 ;
610 [label="Clearsky GHI <= 331.5\ngini = 0.2532\nsamples = 1338\nvalue = [199, 1139]\nclass = clear"] ;
609 -> 610 ;
611 [label="GHI <= 313.5\ngini = 0.2573\nsamples = 1240\nvalue = [188, 1052]\nclass = clear"] ;
610 -> 611 ;
612 [label="Clearsky GHI <= 312.5\ngini = 0.2201\nsamples = 135\nvalue = [17, 118]\nclass = clear"] ;
611 -> 612 ;
613 [label="gini = 0.2449\nsamples = 63\nvalue = [9, 54]\nclass = clear"] ;
612 -> 613 ;
614 [label="gini = 0.1975\nsamples = 72\nvalue = [8, 64]\nclass = clear"] ;
612 -> 614 ;
615 [label="GHI <= 315.5\ngini = 0.2616\nsamples = 1105\nvalue = [171, 934]\nclass = clear"] ;
611 -> 615 ;
616 [label="GHI <= 314.5\ngini = 0.318\nsamples = 121\nvalue = [24, 97]\nclass = clear"] ;
615 -> 616 ;
617 [label="gini = 0.2847\nsamples = 64\nvalue = [11, 53]\nclass = clear"] ;
616 -> 617 ;
618 [label="gini = 0.3521\nsamples = 57\nvalue = [13, 44]\nclass = clear"] ;
616 -> 618 ;
619 [label="Clearsky GHI <= 325.5\ngini = 0.2541\nsamples = 984\nvalue = [147, 837]\nclass = clear"] ;
615 -> 619 ;
620 [label="Clearsky GHI <= 322.5\ngini = 0.242\nsamples = 632\nvalue = [89, 543]\nclass = clear"] ;
619 -> 620 ;
621 [label="GHI <= 321.5\ngini = 0.255\nsamples = 440\nvalue = [66, 374]\nclass = clear"] ;
620 -> 621 ;
622 [label="GHI <= 319.5\ngini = 0.2428\nsamples = 382\nvalue = [54, 328]\nclass = clear"] ;
621 -> 622 ;
623 [label="Clearsky GHI <= 318.5\ngini = 0.2532\nsamples = 269\nvalue = [40, 229]\nclass = clear"] ;
622 -> 623 ;
624 [label="Clearsky GHI <= 316.5\ngini = 0.2378\nsamples = 203\nvalue = [28, 175]\nclass = clear"] ;
623 -> 624 ;
625 [label="gini = 0.2482\nsamples = 62\nvalue = [9, 53]\nclass = clear"] ;
624 -> 625 ;
626 [label="GHI <= 317.5\ngini = 0.2332\nsamples = 141\nvalue = [19, 122]\nclass = clear"] ;
624 -> 626 ;
627 [label="gini = 0.2285\nsamples = 76\nvalue = [10, 66]\nclass = clear"] ;
626 -> 627 ;
628 [label="gini = 0.2386\nsamples = 65\nvalue = [9, 56]\nclass = clear"] ;
626 -> 628 ;
629 [label="gini = 0.2975\nsamples = 66\nvalue = [12, 54]\nclass = clear"] ;
623 -> 629 ;
630 [label="Clearsky GHI <= 320.5\ngini = 0.2171\nsamples = 113\nvalue = [14, 99]\nclass = clear"] ;
622 -> 630 ;
631 [label="gini = 0.2279\nsamples = 61\nvalue = [8, 53]\nclass = clear"] ;
630 -> 631 ;
632 [label="gini = 0.2041\nsamples = 52\nvalue = [6, 46]\nclass = clear"] ;
630 -> 632 ;
633 [label="gini = 0.3282\nsamples = 58\nvalue = [12, 46]\nclass = clear"] ;
621 -> 633 ;
634 [label="Clearsky GHI <= 324.5\ngini = 0.2109\nsamples = 192\nvalue = [23, 169]\nclass = clear"] ;
620 -> 634 ;
635 [label="Clearsky GHI <= 323.5\ngini = 0.1827\nsamples = 118\nvalue = [12, 106]\nclass = clear"] ;
634 -> 635 ;
636 [label="gini = 0.1748\nsamples = 62\nvalue = [6, 56]\nclass = clear"] ;
635 -> 636 ;
637 [label="gini = 0.1913\nsamples = 56\nvalue = [6, 50]\nclass = clear"] ;
635 -> 637 ;
638 [label="gini = 0.2531\nsamples = 74\nvalue = [11, 63]\nclass = clear"] ;
634 -> 638 ;
639 [label="GHI <= 326.5\ngini = 0.2752\nsamples = 352\nvalue = [58, 294]\nclass = clear"] ;
619 -> 639 ;
640 [label="gini = 0.3799\nsamples = 51\nvalue = [13, 38]\nclass = clear"] ;
639 -> 640 ;
641 [label="Clearsky GHI <= 329.5\ngini = 0.2543\nsamples = 301\nvalue = [45, 256]\nclass = clear"] ;
639 -> 641 ;
642 [label="Clearsky GHI <= 328.5\ngini = 0.2615\nsamples = 181\nvalue = [28, 153]\nclass = clear"] ;
641 -> 642 ;
643 [label="GHI <= 327.5\ngini = 0.2575\nsamples = 112\nvalue = [17, 95]\nclass = clear"] ;
642 -> 643 ;
644 [label="gini = 0.255\nsamples = 40\nvalue = [6, 34]\nclass = clear"] ;
643 -> 644 ;
645 [label="gini = 0.2589\nsamples = 72\nvalue = [11, 61]\nclass = clear"] ;
643 -> 645 ;
646 [label="gini = 0.268\nsamples = 69\nvalue = [11, 58]\nclass = clear"] ;
642 -> 646 ;
647 [label="GHI <= 330.5\ngini = 0.2432\nsamples = 120\nvalue = [17, 103]\nclass = clear"] ;
641 -> 647 ;
648 [label="gini = 0.2188\nsamples = 56\nvalue = [7, 49]\nclass = clear"] ;
647 -> 648 ;
649 [label="gini = 0.2637\nsamples = 64\nvalue = [10, 54]\nclass = clear"] ;
647 -> 649 ;
650 [label="GHI <= 332.5\ngini = 0.1993\nsamples = 98\nvalue = [11, 87]\nclass = clear"] ;
610 -> 650 ;
651 [label="gini = 0.0849\nsamples = 45\nvalue = [2, 43]\nclass = clear"] ;
650 -> 651 ;
652 [label="gini = 0.282\nsamples = 53\nvalue = [9, 44]\nclass = clear"] ;
650 -> 652 ;
653 [label="gini = 0.3457\nsamples = 54\nvalue = [12, 42]\nclass = clear"] ;
609 -> 653 ;
654 [label="GHI <= 340.5\ngini = 0.2298\nsamples = 521\nvalue = [69, 452]\nclass = clear"] ;
608 -> 654 ;
655 [label="Clearsky GHI <= 339.5\ngini = 0.207\nsamples = 307\nvalue = [36, 271]\nclass = clear"] ;
654 -> 655 ;
656 [label="Clearsky GHI <= 337.5\ngini = 0.2173\nsamples = 258\nvalue = [32, 226]\nclass = clear"] ;
655 -> 656 ;
657 [label="Clearsky GHI <= 336.5\ngini = 0.1895\nsamples = 151\nvalue = [16, 135]\nclass = clear"] ;
656 -> 657 ;
658 [label="Clearsky GHI <= 335.5\ngini = 0.1732\nsamples = 94\nvalue = [9, 85]\nclass = clear"] ;
657 -> 658 ;
659 [label="gini = 0.1738\nsamples = 52\nvalue = [5, 47]\nclass = clear"] ;
658 -> 659 ;
660 [label="gini = 0.1723\nsamples = 42\nvalue = [4, 38]\nclass = clear"] ;
658 -> 660 ;
661 [label="gini = 0.2155\nsamples = 57\nvalue = [7, 50]\nclass = clear"] ;
657 -> 661 ;
662 [label="GHI <= 338.5\ngini = 0.2543\nsamples = 107\nvalue = [16, 91]\nclass = clear"] ;
656 -> 662 ;
663 [label="gini = 0.3107\nsamples = 52\nvalue = [10, 42]\nclass = clear"] ;
662 -> 663 ;
664 [label="gini = 0.1944\nsamples = 55\nvalue = [6, 49]\nclass = clear"] ;
662 -> 664 ;
665 [label="gini = 0.1499\nsamples = 49\nvalue = [4, 45]\nclass = clear"] ;
655 -> 665 ;
666 [label="Clearsky GHI <= 341.5\ngini = 0.2609\nsamples = 214\nvalue = [33, 181]\nclass = clear"] ;
654 -> 666 ;
667 [label="gini = 0.2737\nsamples = 55\nvalue = [9, 46]\nclass = clear"] ;
666 -> 667 ;
668 [label="Clearsky GHI <= 342.5\ngini = 0.2563\nsamples = 159\nvalue = [24, 135]\nclass = clear"] ;
666 -> 668 ;
669 [label="gini = 0.2368\nsamples = 51\nvalue = [7, 44]\nclass = clear"] ;
668 -> 669 ;
670 [label="GHI <= 343.5\ngini = 0.2653\nsamples = 108\nvalue = [17, 91]\nclass = clear"] ;
668 -> 670 ;
671 [label="gini = 0.2732\nsamples = 49\nvalue = [8, 41]\nclass = clear"] ;
670 -> 671 ;
672 [label="gini = 0.2585\nsamples = 59\nvalue = [9, 50]\nclass = clear"] ;
670 -> 672 ;
673 [label="Clearsky GHI <= 361.5\ngini = 0.2852\nsamples = 1428\nvalue = [246, 1182]\nclass = clear"] ;
607 -> 673 ;
674 [label="GHI <= 351.5\ngini = 0.2943\nsamples = 965\nvalue = [173, 792]\nclass = clear"] ;
673 -> 674 ;
675 [label="Clearsky GHI <= 348.5\ngini = 0.2826\nsamples = 411\nvalue = [70, 341]\nclass = clear"] ;
674 -> 675 ;
676 [label="GHI <= 346.5\ngini = 0.3036\nsamples = 225\nvalue = [42, 183]\nclass = clear"] ;
675 -> 676 ;
677 [label="GHI <= 345.5\ngini = 0.2702\nsamples = 118\nvalue = [19, 99]\nclass = clear"] ;
676 -> 677 ;
678 [label="gini = 0.2698\nsamples = 56\nvalue = [9, 47]\nclass = clear"] ;
677 -> 678 ;
679 [label="gini = 0.2706\nsamples = 62\nvalue = [10, 52]\nclass = clear"] ;
677 -> 679 ;
680 [label="Clearsky GHI <= 347.5\ngini = 0.3375\nsamples = 107\nvalue = [23, 84]\nclass = clear"] ;
676 -> 680 ;
681 [label="gini = 0.3336\nsamples = 52\nvalue = [11, 41]\nclass = clear"] ;
680 -> 681 ;
682 [label="gini = 0.3412\nsamples = 55\nvalue = [12, 43]\nclass = clear"] ;
680 -> 682 ;
683 [label="Clearsky GHI <= 350.5\ngini = 0.2558\nsamples = 186\nvalue = [28, 158]\nclass = clear"] ;
675 -> 683 ;
684 [label="GHI <= 349.5\ngini = 0.2382\nsamples = 123\nvalue = [17, 106]\nclass = clear"] ;
683 -> 684 ;
685 [label="gini = 0.2698\nsamples = 56\nvalue = [9, 47]\nclass = clear"] ;
684 -> 685 ;
686 [label="gini = 0.2103\nsamples = 67\nvalue = [8, 59]\nclass = clear"] ;
684 -> 686 ;
687 [label="gini = 0.2882\nsamples = 63\nvalue = [11, 52]\nclass = clear"] ;
683 -> 687 ;
688 [label="Clearsky GHI <= 354.5\ngini = 0.3027\nsamples = 554\nvalue = [103, 451]\nclass = clear"] ;
674 -> 688 ;
689 [label="GHI <= 353.5\ngini = 0.3243\nsamples = 167\nvalue = [34, 133]\nclass = clear"] ;
688 -> 689 ;
690 [label="Clearsky GHI <= 352.5\ngini = 0.3179\nsamples = 116\nvalue = [23, 93]\nclass = clear"] ;
689 -> 690 ;
691 [label="gini = 0.3157\nsamples = 56\nvalue = [11, 45]\nclass = clear"] ;
690 -> 691 ;
692 [label="gini = 0.32\nsamples = 60\nvalue = [12, 48]\nclass = clear"] ;
690 -> 692 ;
693 [label="gini = 0.3383\nsamples = 51\nvalue = [11, 40]\nclass = clear"] ;
689 -> 693 ;
694 [label="Clearsky GHI <= 357.5\ngini = 0.293\nsamples = 387\nvalue = [69, 318]\nclass = clear"] ;
688 -> 694 ;
695 [label="GHI <= 356.5\ngini = 0.3006\nsamples = 152\nvalue = [28, 124]\nclass = clear"] ;
694 -> 695 ;
696 [label="Clearsky GHI <= 355.5\ngini = 0.2868\nsamples = 98\nvalue = [17, 81]\nclass = clear"] ;
695 -> 696 ;
697 [label="gini = 0.2778\nsamples = 54\nvalue = [9, 45]\nclass = clear"] ;
696 -> 697 ;
698 [label="gini = 0.2975\nsamples = 44\nvalue = [8, 36]\nclass = clear"] ;
696 -> 698 ;
699 [label="gini = 0.3244\nsamples = 54\nvalue = [11, 43]\nclass = clear"] ;
695 -> 699 ;
700 [label="GHI <= 358.5\ngini = 0.2881\nsamples = 235\nvalue = [41, 194]\nclass = clear"] ;
694 -> 700 ;
701 [label="gini = 0.2645\nsamples = 51\nvalue = [8, 43]\nclass = clear"] ;
700 -> 701 ;
702 [label="Clearsky GHI <= 359.5\ngini = 0.2944\nsamples = 184\nvalue = [33, 151]\nclass = clear"] ;
700 -> 702 ;
703 [label="gini = 0.3024\nsamples = 70\nvalue = [13, 57]\nclass = clear"] ;
702 -> 703 ;
704 [label="GHI <= 360.5\ngini = 0.2893\nsamples = 114\nvalue = [20, 94]\nclass = clear"] ;
702 -> 704 ;
705 [label="gini = 0.2737\nsamples = 55\nvalue = [9, 46]\nclass = clear"] ;
704 -> 705 ;
706 [label="gini = 0.3034\nsamples = 59\nvalue = [11, 48]\nclass = clear"] ;
704 -> 706 ;
707 [label="GHI <= 364.5\ngini = 0.2656\nsamples = 463\nvalue = [73, 390]\nclass = clear"] ;
673 -> 707 ;
708 [label="GHI <= 362.5\ngini = 0.2482\nsamples = 186\nvalue = [27, 159]\nclass = clear"] ;
707 -> 708 ;
709 [label="gini = 0.2344\nsamples = 59\nvalue = [8, 51]\nclass = clear"] ;
708 -> 709 ;
710 [label="GHI <= 363.5\ngini = 0.2544\nsamples = 127\nvalue = [19, 108]\nclass = clear"] ;
708 -> 710 ;
711 [label="gini = 0.2509\nsamples = 68\nvalue = [10, 58]\nclass = clear"] ;
710 -> 711 ;
712 [label="gini = 0.2585\nsamples = 59\nvalue = [9, 50]\nclass = clear"] ;
710 -> 712 ;
713 [label="GHI <= 367.5\ngini = 0.277\nsamples = 277\nvalue = [46, 231]\nclass = clear"] ;
707 -> 713 ;
714 [label="Clearsky GHI <= 366.5\ngini = 0.2847\nsamples = 192\nvalue = [33, 159]\nclass = clear"] ;
713 -> 714 ;
715 [label="Clearsky GHI <= 365.5\ngini = 0.2743\nsamples = 128\nvalue = [21, 107]\nclass = clear"] ;
714 -> 715 ;
716 [label="gini = 0.2941\nsamples = 67\nvalue = [12, 55]\nclass = clear"] ;
715 -> 716 ;
717 [label="gini = 0.2515\nsamples = 61\nvalue = [9, 52]\nclass = clear"] ;
715 -> 717 ;
718 [label="gini = 0.3047\nsamples = 64\nvalue = [12, 52]\nclass = clear"] ;
714 -> 718 ;
719 [label="gini = 0.2591\nsamples = 85\nvalue = [13, 72]\nclass = clear"] ;
713 -> 719 ;
720 [label="GHI <= 375.5\ngini = 0.2451\nsamples = 5798\nvalue = [829, 4969]\nclass = clear"] ;
606 -> 720 ;
721 [label="GHI <= 374.5\ngini = 0.1839\nsamples = 488\nvalue = [50, 438]\nclass = clear"] ;
720 -> 721 ;
722 [label="Clearsky GHI <= 371.5\ngini = 0.1917\nsamples = 419\nvalue = [45, 374]\nclass = clear"] ;
721 -> 722 ;
723 [label="Clearsky GHI <= 369.5\ngini = 0.1771\nsamples = 224\nvalue = [22, 202]\nclass = clear"] ;
722 -> 723 ;
724 [label="gini = 0.1862\nsamples = 77\nvalue = [8, 69]\nclass = clear"] ;
723 -> 724 ;
725 [label="Clearsky GHI <= 370.5\ngini = 0.1723\nsamples = 147\nvalue = [14, 133]\nclass = clear"] ;
723 -> 725 ;
726 [label="gini = 0.1713\nsamples = 74\nvalue = [7, 67]\nclass = clear"] ;
725 -> 726 ;
727 [label="gini = 0.1734\nsamples = 73\nvalue = [7, 66]\nclass = clear"] ;
725 -> 727 ;
728 [label="Clearsky GHI <= 373.5\ngini = 0.2081\nsamples = 195\nvalue = [23, 172]\nclass = clear"] ;
722 -> 728 ;
729 [label="Clearsky GHI <= 372.5\ngini = 0.2005\nsamples = 115\nvalue = [13, 102]\nclass = clear"] ;
728 -> 729 ;
730 [label="gini = 0.2032\nsamples = 61\nvalue = [7, 54]\nclass = clear"] ;
729 -> 730 ;
731 [label="gini = 0.1975\nsamples = 54\nvalue = [6, 48]\nclass = clear"] ;
729 -> 731 ;
732 [label="gini = 0.2188\nsamples = 80\nvalue = [10, 70]\nclass = clear"] ;
728 -> 732 ;
733 [label="gini = 0.1344\nsamples = 69\nvalue = [5, 64]\nclass = clear"] ;
721 -> 733 ;
734 [label="GHI <= 376.5\ngini = 0.2504\nsamples = 5310\nvalue = [779, 4531]\nclass = clear"] ;
720 -> 734 ;
735 [label="gini = 0.3519\nsamples = 79\nvalue = [18, 61]\nclass = clear"] ;
734 -> 735 ;
736 [label="GHI <= 445.5\ngini = 0.2486\nsamples = 5231\nvalue = [761, 4470]\nclass = clear"] ;
734 -> 736 ;
737 [label="Clearsky GHI <= 421.5\ngini = 0.2429\nsamples = 4341\nvalue = [614, 3727]\nclass = clear"] ;
736 -> 737 ;
738 [label="Clearsky GHI <= 382.5\ngini = 0.2537\nsamples = 2891\nvalue = [431, 2460]\nclass = clear"] ;
737 -> 738 ;
739 [label="GHI <= 378.5\ngini = 0.2057\nsamples = 421\nvalue = [49, 372]\nclass = clear"] ;
738 -> 739 ;
740 [label="Clearsky GHI <= 377.5\ngini = 0.2464\nsamples = 139\nvalue = [20, 119]\nclass = clear"] ;
739 -> 740 ;
741 [label="gini = 0.2671\nsamples = 63\nvalue = [10, 53]\nclass = clear"] ;
740 -> 741 ;
742 [label="gini = 0.2285\nsamples = 76\nvalue = [10, 66]\nclass = clear"] ;
740 -> 742 ;
743 [label="GHI <= 381.5\ngini = 0.1845\nsamples = 282\nvalue = [29, 253]\nclass = clear"] ;
739 -> 743 ;
744 [label="Clearsky GHI <= 379.5\ngini = 0.1941\nsamples = 202\nvalue = [22, 180]\nclass = clear"] ;
743 -> 744 ;
745 [label="gini = 0.2112\nsamples = 50\nvalue = [6, 44]\nclass = clear"] ;
744 -> 745 ;
746 [label="GHI <= 380.5\ngini = 0.1884\nsamples = 152\nvalue = [16, 136]\nclass = clear"] ;
744 -> 746 ;
747 [label="gini = 0.1734\nsamples = 73\nvalue = [7, 66]\nclass = clear"] ;
746 -> 747 ;
748 [label="gini = 0.2019\nsamples = 79\nvalue = [9, 70]\nclass = clear"] ;
746 -> 748 ;
749 [label="gini = 0.1597\nsamples = 80\nvalue = [7, 73]\nclass = clear"] ;
743 -> 749 ;
750 [label="Clearsky GHI <= 416.5\ngini = 0.2615\nsamples = 2470\nvalue = [382, 2088]\nclass = clear"] ;
738 -> 750 ;
751 [label="Clearsky GHI <= 407.5\ngini = 0.2551\nsamples = 2166\nvalue = [325, 1841]\nclass = clear"] ;
750 -> 751 ;
752 [label="GHI <= 406.5\ngini = 0.2667\nsamples = 1641\nvalue = [260, 1381]\nclass = clear"] ;
751 -> 752 ;
753 [label="GHI <= 401.5\ngini = 0.2624\nsamples = 1571\nvalue = [244, 1327]\nclass = clear"] ;
752 -> 753 ;
754 [label="Clearsky GHI <= 397.5\ngini = 0.2698\nsamples = 1257\nvalue = [202, 1055]\nclass = clear"] ;
753 -> 754 ;
755 [label="GHI <= 393.5\ngini = 0.2626\nsamples = 984\nvalue = [153, 831]\nclass = clear"] ;
754 -> 755 ;
756 [label="GHI <= 391.5\ngini = 0.2772\nsamples = 716\nvalue = [119, 597]\nclass = clear"] ;
755 -> 756 ;
757 [label="GHI <= 388.5\ngini = 0.2691\nsamples = 593\nvalue = [95, 498]\nclass = clear"] ;
756 -> 757 ;
758 [label="GHI <= 384.5\ngini = 0.2761\nsamples = 393\nvalue = [65, 328]\nclass = clear"] ;
757 -> 758 ;
759 [label="GHI <= 383.5\ngini = 0.2595\nsamples = 124\nvalue = [19, 105]\nclass = clear"] ;
758 -> 759 ;
760 [label="gini = 0.2571\nsamples = 66\nvalue = [10, 56]\nclass = clear"] ;
759 -> 760 ;
761 [label="gini = 0.2622\nsamples = 58\nvalue = [9, 49]\nclass = clear"] ;
759 -> 761 ;
762 [label="GHI <= 385.5\ngini = 0.2835\nsamples = 269\nvalue = [46, 223]\nclass = clear"] ;
758 -> 762 ;
763 [label="gini = 0.2927\nsamples = 73\nvalue = [13, 60]\nclass = clear"] ;
762 -> 763 ;
764 [label="GHI <= 386.5\ngini = 0.28\nsamples = 196\nvalue = [33, 163]\nclass = clear"] ;
762 -> 764 ;
765 [label="gini = 0.2622\nsamples = 58\nvalue = [9, 49]\nclass = clear"] ;
764 -> 765 ;
766 [label="GHI <= 387.5\ngini = 0.2873\nsamples = 138\nvalue = [24, 114]\nclass = clear"] ;
764 -> 766 ;
767 [label="gini = 0.2815\nsamples = 59\nvalue = [10, 49]\nclass = clear"] ;
766 -> 767 ;
768 [label="gini = 0.2916\nsamples = 79\nvalue = [14, 65]\nclass = clear"] ;
766 -> 768 ;
769 [label="Clearsky GHI <= 389.5\ngini = 0.255\nsamples = 200\nvalue = [30, 170]\nclass = clear"] ;
757 -> 769 ;
770 [label="gini = 0.1922\nsamples = 65\nvalue = [7, 58]\nclass = clear"] ;
769 -> 770 ;
771 [label="GHI <= 390.5\ngini = 0.2827\nsamples = 135\nvalue = [23, 112]\nclass = clear"] ;
769 -> 771 ;
772 [label="gini = 0.2919\nsamples = 62\nvalue = [11, 51]\nclass = clear"] ;
771 -> 772 ;
773 [label="gini = 0.2747\nsamples = 73\nvalue = [12, 61]\nclass = clear"] ;
771 -> 773 ;
774 [label="Clearsky GHI <= 392.5\ngini = 0.3141\nsamples = 123\nvalue = [24, 99]\nclass = clear"] ;
756 -> 774 ;
775 [label="gini = 0.3282\nsamples = 58\nvalue = [12, 46]\nclass = clear"] ;
774 -> 775 ;
776 [label="gini = 0.3011\nsamples = 65\nvalue = [12, 53]\nclass = clear"] ;
774 -> 776 ;
777 [label="GHI <= 394.5\ngini = 0.2215\nsamples = 268\nvalue = [34, 234]\nclass = clear"] ;
755 -> 777 ;
778 [label="gini = 0.1172\nsamples = 64\nvalue = [4, 60]\nclass = clear"] ;
777 -> 778 ;
779 [label="GHI <= 395.5\ngini = 0.2509\nsamples = 204\nvalue = [30, 174]\nclass = clear"] ;
777 -> 779 ;
780 [label="gini = 0.2778\nsamples = 60\nvalue = [10, 50]\nclass = clear"] ;
779 -> 780 ;
781 [label="GHI <= 396.5\ngini = 0.2392\nsamples = 144\nvalue = [20, 124]\nclass = clear"] ;
779 -> 781 ;
782 [label="gini = 0.1975\nsamples = 63\nvalue = [7, 56]\nclass = clear"] ;
781 -> 782 ;
783 [label="gini = 0.2695\nsamples = 81\nvalue = [13, 68]\nclass = clear"] ;
781 -> 783 ;
784 [label="GHI <= 398.5\ngini = 0.2945\nsamples = 273\nvalue = [49, 224]\nclass = clear"] ;
754 -> 784 ;
785 [label="gini = 0.3235\nsamples = 69\nvalue = [14, 55]\nclass = clear"] ;
784 -> 785 ;
786 [label="Clearsky GHI <= 399.5\ngini = 0.2843\nsamples = 204\nvalue = [35, 169]\nclass = clear"] ;
784 -> 786 ;
787 [label="gini = 0.2994\nsamples = 60\nvalue = [11, 49]\nclass = clear"] ;
786 -> 787 ;
788 [label="Clearsky GHI <= 400.5\ngini = 0.2778\nsamples = 144\nvalue = [24, 120]\nclass = clear"] ;
786 -> 788 ;
789 [label="gini = 0.2649\nsamples = 70\nvalue = [11, 59]\nclass = clear"] ;
788 -> 789 ;
790 [label="gini = 0.2896\nsamples = 74\nvalue = [13, 61]\nclass = clear"] ;
788 -> 790 ;
791 [label="GHI <= 402.5\ngini = 0.2317\nsamples = 314\nvalue = [42, 272]\nclass = clear"] ;
753 -> 791 ;
792 [label="gini = 0.142\nsamples = 65\nvalue = [5, 60]\nclass = clear"] ;
791 -> 792 ;
793 [label="Clearsky GHI <= 404.5\ngini = 0.253\nsamples = 249\nvalue = [37, 212]\nclass = clear"] ;
791 -> 793 ;
794 [label="GHI <= 403.5\ngini = 0.2235\nsamples = 117\nvalue = [15, 102]\nclass = clear"] ;
793 -> 794 ;
795 [label="gini = 0.2563\nsamples = 53\nvalue = [8, 45]\nclass = clear"] ;
794 -> 795 ;
796 [label="gini = 0.1948\nsamples = 64\nvalue = [7, 57]\nclass = clear"] ;
794 -> 796 ;
797 [label="Clearsky GHI <= 405.5\ngini = 0.2778\nsamples = 132\nvalue = [22, 110]\nclass = clear"] ;
793 -> 797 ;
798 [label="gini = 0.3314\nsamples = 62\nvalue = [13, 49]\nclass = clear"] ;
797 -> 798 ;
799 [label="gini = 0.2241\nsamples = 70\nvalue = [9, 61]\nclass = clear"] ;
797 -> 799 ;
800 [label="gini = 0.3527\nsamples = 70\nvalue = [16, 54]\nclass = clear"] ;
752 -> 800 ;
801 [label="Clearsky GHI <= 410.5\ngini = 0.217\nsamples = 525\nvalue = [65, 460]\nclass = clear"] ;
751 -> 801 ;
802 [label="GHI <= 409.5\ngini = 0.1736\nsamples = 177\nvalue = [17, 160]\nclass = clear"] ;
801 -> 802 ;
803 [label="GHI <= 408.5\ngini = 0.2127\nsamples = 124\nvalue = [15, 109]\nclass = clear"] ;
802 -> 803 ;
804 [label="gini = 0.2368\nsamples = 51\nvalue = [7, 44]\nclass = clear"] ;
803 -> 804 ;
805 [label="gini = 0.1952\nsamples = 73\nvalue = [8, 65]\nclass = clear"] ;
803 -> 805 ;
806 [label="gini = 0.0726\nsamples = 53\nvalue = [2, 51]\nclass = clear"] ;
802 -> 806 ;
807 [label="GHI <= 413.5\ngini = 0.2378\nsamples = 348\nvalue = [48, 300]\nclass = clear"] ;
801 -> 807 ;
808 [label="GHI <= 412.5\ngini = 0.2632\nsamples = 186\nvalue = [29, 157]\nclass = clear"] ;
807 -> 808 ;
809 [label="GHI <= 411.5\ngini = 0.2219\nsamples = 118\nvalue = [15, 103]\nclass = clear"] ;
808 -> 809 ;
810 [label="gini = 0.2604\nsamples = 65\nvalue = [10, 55]\nclass = clear"] ;
809 -> 810 ;
811 [label="gini = 0.1709\nsamples = 53\nvalue = [5, 48]\nclass = clear"] ;
809 -> 811 ;
812 [label="gini = 0.327\nsamples = 68\nvalue = [14, 54]\nclass = clear"] ;
808 -> 812 ;
813 [label="Clearsky GHI <= 414.5\ngini = 0.2071\nsamples = 162\nvalue = [19, 143]\nclass = clear"] ;
807 -> 813 ;
814 [label="gini = 0.115\nsamples = 49\nvalue = [3, 46]\nclass = clear"] ;
813 -> 814 ;
815 [label="Clearsky GHI <= 415.5\ngini = 0.2431\nsamples = 113\nvalue = [16, 97]\nclass = clear"] ;
813 -> 815 ;
816 [label="gini = 0.2563\nsamples = 53\nvalue = [8, 45]\nclass = clear"] ;
815 -> 816 ;
817 [label="gini = 0.2311\nsamples = 60\nvalue = [8, 52]\nclass = clear"] ;
815 -> 817 ;
818 [label="GHI <= 417.5\ngini = 0.3047\nsamples = 304\nvalue = [57, 247]\nclass = clear"] ;
750 -> 818 ;
819 [label="gini = 0.3482\nsamples = 49\nvalue = [11, 38]\nclass = clear"] ;
818 -> 819 ;
820 [label="GHI <= 418.5\ngini = 0.2957\nsamples = 255\nvalue = [46, 209]\nclass = clear"] ;
818 -> 820 ;
821 [label="gini = 0.2645\nsamples = 51\nvalue = [8, 43]\nclass = clear"] ;
820 -> 821 ;
822 [label="GHI <= 420.5\ngini = 0.3032\nsamples = 204\nvalue = [38, 166]\nclass = clear"] ;
820 -> 822 ;
823 [label="Clearsky GHI <= 419.5\ngini = 0.3143\nsamples = 128\nvalue = [25, 103]\nclass = clear"] ;
822 -> 823 ;
824 [label="gini = 0.3084\nsamples = 63\nvalue = [12, 51]\nclass = clear"] ;
823 -> 824 ;
825 [label="gini = 0.32\nsamples = 65\nvalue = [13, 52]\nclass = clear"] ;
823 -> 825 ;
826 [label="gini = 0.2836\nsamples = 76\nvalue = [13, 63]\nclass = clear"] ;
822 -> 826 ;
827 [label="Clearsky GHI <= 424.5\ngini = 0.2206\nsamples = 1450\nvalue = [183, 1267]\nclass = clear"] ;
737 -> 827 ;
828 [label="Clearsky GHI <= 422.5\ngini = 0.1705\nsamples = 170\nvalue = [16, 154]\nclass = clear"] ;
827 -> 828 ;
829 [label="gini = 0.2368\nsamples = 51\nvalue = [7, 44]\nclass = clear"] ;
828 -> 829 ;
830 [label="GHI <= 423.5\ngini = 0.1398\nsamples = 119\nvalue = [9, 110]\nclass = clear"] ;
828 -> 830 ;
831 [label="gini = 0.1461\nsamples = 63\nvalue = [5, 58]\nclass = clear"] ;
830 -> 831 ;
832 [label="gini = 0.1327\nsamples = 56\nvalue = [4, 52]\nclass = clear"] ;
830 -> 832 ;
833 [label="GHI <= 426.5\ngini = 0.2269\nsamples = 1280\nvalue = [167, 1113]\nclass = clear"] ;
827 -> 833 ;
834 [label="GHI <= 425.5\ngini = 0.2519\nsamples = 115\nvalue = [17, 98]\nclass = clear"] ;
833 -> 834 ;
835 [label="gini = 0.2622\nsamples = 58\nvalue = [9, 49]\nclass = clear"] ;
834 -> 835 ;
836 [label="gini = 0.2413\nsamples = 57\nvalue = [8, 49]\nclass = clear"] ;
834 -> 836 ;
837 [label="Clearsky GHI <= 427.5\ngini = 0.2244\nsamples = 1165\nvalue = [150, 1015]\nclass = clear"] ;
833 -> 837 ;
838 [label="gini = 0.1327\nsamples = 56\nvalue = [4, 52]\nclass = clear"] ;
837 -> 838 ;
839 [label="Clearsky GHI <= 435.5\ngini = 0.2286\nsamples = 1109\nvalue = [146, 963]\nclass = clear"] ;
837 -> 839 ;
840 [label="GHI <= 431.5\ngini = 0.2406\nsamples = 479\nvalue = [67, 412]\nclass = clear"] ;
839 -> 840 ;
841 [label="Clearsky GHI <= 428.5\ngini = 0.2179\nsamples = 233\nvalue = [29, 204]\nclass = clear"] ;
840 -> 841 ;
842 [label="gini = 0.2032\nsamples = 61\nvalue = [7, 54]\nclass = clear"] ;
841 -> 842 ;
843 [label="Clearsky GHI <= 429.5\ngini = 0.2231\nsamples = 172\nvalue = [22, 150]\nclass = clear"] ;
841 -> 843 ;
844 [label="gini = 0.2449\nsamples = 63\nvalue = [9, 54]\nclass = clear"] ;
843 -> 844 ;
845 [label="Clearsky GHI <= 430.5\ngini = 0.2101\nsamples = 109\nvalue = [13, 96]\nclass = clear"] ;
843 -> 845 ;
846 [label="gini = 0.1833\nsamples = 49\nvalue = [5, 44]\nclass = clear"] ;
845 -> 846 ;
847 [label="gini = 0.2311\nsamples = 60\nvalue = [8, 52]\nclass = clear"] ;
845 -> 847 ;
848 [label="Clearsky GHI <= 432.5\ngini = 0.2612\nsamples = 246\nvalue = [38, 208]\nclass = clear"] ;
840 -> 848 ;
849 [label="gini = 0.3115\nsamples = 57\nvalue = [11, 46]\nclass = clear"] ;
848 -> 849 ;
850 [label="Clearsky GHI <= 434.5\ngini = 0.2449\nsamples = 189\nvalue = [27, 162]\nclass = clear"] ;
848 -> 850 ;
851 [label="GHI <= 433.5\ngini = 0.2288\nsamples = 129\nvalue = [17, 112]\nclass = clear"] ;
850 -> 851 ;
852 [label="gini = 0.2619\nsamples = 71\nvalue = [11, 60]\nclass = clear"] ;
851 -> 852 ;
853 [label="gini = 0.1855\nsamples = 58\nvalue = [6, 52]\nclass = clear"] ;
851 -> 853 ;
854 [label="gini = 0.2778\nsamples = 60\nvalue = [10, 50]\nclass = clear"] ;
850 -> 854 ;
855 [label="Clearsky GHI <= 438.5\ngini = 0.2193\nsamples = 630\nvalue = [79, 551]\nclass = clear"] ;
839 -> 855 ;
856 [label="GHI <= 436.5\ngini = 0.1924\nsamples = 204\nvalue = [22, 182]\nclass = clear"] ;
855 -> 856 ;
857 [label="gini = 0.1774\nsamples = 61\nvalue = [6, 55]\nclass = clear"] ;
856 -> 857 ;
858 [label="GHI <= 437.5\ngini = 0.1987\nsamples = 143\nvalue = [16, 127]\nclass = clear"] ;
856 -> 858 ;
859 [label="gini = 0.213\nsamples = 66\nvalue = [8, 58]\nclass = clear"] ;
858 -> 859 ;
860 [label="gini = 0.1862\nsamples = 77\nvalue = [8, 69]\nclass = clear"] ;
858 -> 860 ;
861 [label="GHI <= 439.5\ngini = 0.2318\nsamples = 426\nvalue = [57, 369]\nclass = clear"] ;
855 -> 861 ;
862 [label="gini = 0.2975\nsamples = 55\nvalue = [10, 45]\nclass = clear"] ;
861 -> 862 ;
863 [label="Clearsky GHI <= 440.5\ngini = 0.2213\nsamples = 371\nvalue = [47, 324]\nclass = clear"] ;
861 -> 863 ;
864 [label="gini = 0.1827\nsamples = 59\nvalue = [6, 53]\nclass = clear"] ;
863 -> 864 ;
865 [label="Clearsky GHI <= 442.5\ngini = 0.2283\nsamples = 312\nvalue = [41, 271]\nclass = clear"] ;
863 -> 865 ;
866 [label="Clearsky GHI <= 441.5\ngini = 0.2524\nsamples = 108\nvalue = [16, 92]\nclass = clear"] ;
865 -> 866 ;
867 [label="gini = 0.2563\nsamples = 53\nvalue = [8, 45]\nclass = clear"] ;
866 -> 867 ;
868 [label="gini = 0.2486\nsamples = 55\nvalue = [8, 47]\nclass = clear"] ;
866 -> 868 ;
869 [label="GHI <= 444.5\ngini = 0.2151\nsamples = 204\nvalue = [25, 179]\nclass = clear"] ;
865 -> 869 ;
870 [label="GHI <= 443.5\ngini = 0.195\nsamples = 137\nvalue = [15, 122]\nclass = clear"] ;
869 -> 870 ;
871 [label="gini = 0.2159\nsamples = 65\nvalue = [8, 57]\nclass = clear"] ;
870 -> 871 ;
872 [label="gini = 0.1755\nsamples = 72\nvalue = [7, 65]\nclass = clear"] ;
870 -> 872 ;
873 [label="gini = 0.254\nsamples = 67\nvalue = [10, 57]\nclass = clear"] ;
869 -> 873 ;
874 [label="Clearsky GHI <= 450.5\ngini = 0.2758\nsamples = 890\nvalue = [147, 743]\nclass = clear"] ;
736 -> 874 ;
875 [label="GHI <= 447.5\ngini = 0.3065\nsamples = 344\nvalue = [65, 279]\nclass = clear"] ;
874 -> 875 ;
876 [label="Clearsky GHI <= 446.5\ngini = 0.268\nsamples = 138\nvalue = [22, 116]\nclass = clear"] ;
875 -> 876 ;
877 [label="gini = 0.2671\nsamples = 63\nvalue = [10, 53]\nclass = clear"] ;
876 -> 877 ;
878 [label="gini = 0.2688\nsamples = 75\nvalue = [12, 63]\nclass = clear"] ;
876 -> 878 ;
879 [label="Clearsky GHI <= 448.5\ngini = 0.3303\nsamples = 206\nvalue = [43, 163]\nclass = clear"] ;
875 -> 879 ;
880 [label="gini = 0.3439\nsamples = 68\nvalue = [15, 53]\nclass = clear"] ;
879 -> 880 ;
881 [label="GHI <= 449.5\ngini = 0.3235\nsamples = 138\nvalue = [28, 110]\nclass = clear"] ;
879 -> 881 ;
882 [label="gini = 0.3024\nsamples = 70\nvalue = [13, 57]\nclass = clear"] ;
881 -> 882 ;
883 [label="gini = 0.3439\nsamples = 68\nvalue = [15, 53]\nclass = clear"] ;
881 -> 883 ;
884 [label="Clearsky GHI <= 454.5\ngini = 0.2553\nsamples = 546\nvalue = [82, 464]\nclass = clear"] ;
874 -> 884 ;
885 [label="GHI <= 453.5\ngini = 0.2699\nsamples = 286\nvalue = [46, 240]\nclass = clear"] ;
884 -> 885 ;
886 [label="Clearsky GHI <= 452.5\ngini = 0.2577\nsamples = 204\nvalue = [31, 173]\nclass = clear"] ;
885 -> 886 ;
887 [label="GHI <= 451.5\ngini = 0.2726\nsamples = 129\nvalue = [21, 108]\nclass = clear"] ;
886 -> 887 ;
888 [label="gini = 0.2747\nsamples = 73\nvalue = [12, 61]\nclass = clear"] ;
887 -> 888 ;
889 [label="gini = 0.2698\nsamples = 56\nvalue = [9, 47]\nclass = clear"] ;
887 -> 889 ;
890 [label="gini = 0.2311\nsamples = 75\nvalue = [10, 65]\nclass = clear"] ;
886 -> 890 ;
891 [label="gini = 0.2989\nsamples = 82\nvalue = [15, 67]\nclass = clear"] ;
885 -> 891 ;
892 [label="GHI <= 455.5\ngini = 0.2386\nsamples = 260\nvalue = [36, 224]\nclass = clear"] ;
884 -> 892 ;
893 [label="gini = 0.2449\nsamples = 63\nvalue = [9, 54]\nclass = clear"] ;
892 -> 893 ;
894 [label="GHI <= 456.5\ngini = 0.2365\nsamples = 197\nvalue = [27, 170]\nclass = clear"] ;
892 -> 894 ;
895 [label="gini = 0.2257\nsamples = 54\nvalue = [7, 47]\nclass = clear"] ;
894 -> 895 ;
896 [label="GHI <= 457.5\ngini = 0.2406\nsamples = 143\nvalue = [20, 123]\nclass = clear"] ;
894 -> 896 ;
897 [label="gini = 0.242\nsamples = 71\nvalue = [10, 61]\nclass = clear"] ;
896 -> 897 ;
898 [label="gini = 0.2392\nsamples = 72\nvalue = [10, 62]\nclass = clear"] ;
896 -> 898 ;
899 [label="GHI <= 1000.5\ngini = 0.1845\nsamples = 49002\nvalue = [5040, 43962]\nclass = clear"] ;
383 -> 899 ;
900 [label="GHI <= 653.5\ngini = 0.1903\nsamples = 44143\nvalue = [4702, 39441]\nclass = clear"] ;
899 -> 900 ;
901 [label="GHI <= 578.5\ngini = 0.1821\nsamples = 16395\nvalue = [1661, 14734]\nclass = clear"] ;
900 -> 901 ;
902 [label="GHI <= 545.5\ngini = 0.1924\nsamples = 9615\nvalue = [1037, 8578]\nclass = clear"] ;
901 -> 902 ;
903 [label="Clearsky GHI <= 541.5\ngini = 0.187\nsamples = 6502\nvalue = [679, 5823]\nclass = clear"] ;
902 -> 903 ;
904 [label="GHI <= 514.5\ngini = 0.1898\nsamples = 6169\nvalue = [655, 5514]\nclass = clear"] ;
903 -> 904 ;
905 [label="GHI <= 510.5\ngini = 0.1836\nsamples = 4089\nvalue = [418, 3671]\nclass = clear"] ;
904 -> 905 ;
906 [label="GHI <= 502.5\ngini = 0.1889\nsamples = 3770\nvalue = [398, 3372]\nclass = clear"] ;
905 -> 906 ;
907 [label="Clearsky GHI <= 494.5\ngini = 0.1846\nsamples = 3179\nvalue = [327, 2852]\nclass = clear"] ;
906 -> 907 ;
908 [label="Clearsky GHI <= 492.5\ngini = 0.1922\nsamples = 2637\nvalue = [284, 2353]\nclass = clear"] ;
907 -> 908 ;
909 [label="Clearsky GHI <= 486.5\ngini = 0.1894\nsamples = 2511\nvalue = [266, 2245]\nclass = clear"] ;
908 -> 909 ;
910 [label="GHI <= 484.5\ngini = 0.1954\nsamples = 2077\nvalue = [228, 1849]\nclass = clear"] ;
909 -> 910 ;
911 [label="Clearsky GHI <= 473.5\ngini = 0.1897\nsamples = 1941\nvalue = [206, 1735]\nclass = clear"] ;
910 -> 911 ;
912 [label="Clearsky GHI <= 470.5\ngini = 0.1995\nsamples = 1130\nvalue = [127, 1003]\nclass = clear"] ;
911 -> 912 ;
913 [label="Clearsky GHI <= 463.5\ngini = 0.1895\nsamples = 906\nvalue = [96, 810]\nclass = clear"] ;
912 -> 913 ;
914 [label="Clearsky GHI <= 459.5\ngini = 0.2048\nsamples = 380\nvalue = [44, 336]\nclass = clear"] ;
913 -> 914 ;
915 [label="gini = 0.178\nsamples = 81\nvalue = [8, 73]\nclass = clear"] ;
914 -> 915 ;
916 [label="GHI <= 460.5\ngini = 0.2118\nsamples = 299\nvalue = [36, 263]\nclass = clear"] ;
914 -> 916 ;
917 [label="gini = 0.2531\nsamples = 74\nvalue = [11, 63]\nclass = clear"] ;
916 -> 917 ;
918 [label="GHI <= 461.5\ngini = 0.1975\nsamples = 225\nvalue = [25, 200]\nclass = clear"] ;
916 -> 918 ;
919 [label="gini = 0.1777\nsamples = 71\nvalue = [7, 64]\nclass = clear"] ;
918 -> 919 ;
920 [label="Clearsky GHI <= 462.5\ngini = 0.2064\nsamples = 154\nvalue = [18, 136]\nclass = clear"] ;
918 -> 920 ;
921 [label="gini = 0.1997\nsamples = 80\nvalue = [9, 71]\nclass = clear"] ;
920 -> 921 ;
922 [label="gini = 0.2137\nsamples = 74\nvalue = [9, 65]\nclass = clear"] ;
920 -> 922 ;
923 [label="GHI <= 469.5\ngini = 0.1782\nsamples = 526\nvalue = [52, 474]\nclass = clear"] ;
913 -> 923 ;
924 [label="GHI <= 468.5\ngini = 0.1833\nsamples = 441\nvalue = [45, 396]\nclass = clear"] ;
923 -> 924 ;
925 [label="GHI <= 464.5\ngini = 0.1715\nsamples = 359\nvalue = [34, 325]\nclass = clear"] ;
924 -> 925 ;
926 [label="gini = 0.149\nsamples = 74\nvalue = [6, 68]\nclass = clear"] ;
925 -> 926 ;
927 [label="GHI <= 466.5\ngini = 0.1772\nsamples = 285\nvalue = [28, 257]\nclass = clear"] ;
925 -> 927 ;
928 [label="GHI <= 465.5\ngini = 0.1922\nsamples = 130\nvalue = [14, 116]\nclass = clear"] ;
927 -> 928 ;
929 [label="gini = 0.1699\nsamples = 64\nvalue = [6, 58]\nclass = clear"] ;
928 -> 929 ;
930 [label="gini = 0.213\nsamples = 66\nvalue = [8, 58]\nclass = clear"] ;
928 -> 930 ;
931 [label="Clearsky GHI <= 467.5\ngini = 0.1643\nsamples = 155\nvalue = [14, 141]\nclass = clear"] ;
927 -> 931 ;
932 [label="gini = 0.1588\nsamples = 92\nvalue = [8, 84]\nclass = clear"] ;
931 -> 932 ;
933 [label="gini = 0.1723\nsamples = 63\nvalue = [6, 57]\nclass = clear"] ;
931 -> 933 ;
934 [label="gini = 0.2323\nsamples = 82\nvalue = [11, 71]\nclass = clear"] ;
924 -> 934 ;
935 [label="gini = 0.1511\nsamples = 85\nvalue = [7, 78]\nclass = clear"] ;
923 -> 935 ;
936 [label="Clearsky GHI <= 471.5\ngini = 0.2385\nsamples = 224\nvalue = [31, 193]\nclass = clear"] ;
912 -> 936 ;
937 [label="gini = 0.2809\nsamples = 71\nvalue = [12, 59]\nclass = clear"] ;
936 -> 937 ;
938 [label="Clearsky GHI <= 472.5\ngini = 0.2175\nsamples = 153\nvalue = [19, 134]\nclass = clear"] ;
936 -> 938 ;
939 [label="gini = 0.1653\nsamples = 77\nvalue = [7, 70]\nclass = clear"] ;
938 -> 939 ;
940 [label="gini = 0.2659\nsamples = 76\nvalue = [12, 64]\nclass = clear"] ;
938 -> 940 ;
941 [label="Clearsky GHI <= 478.5\ngini = 0.1758\nsamples = 811\nvalue = [79, 732]\nclass = clear"] ;
911 -> 941 ;
942 [label="GHI <= 476.5\ngini = 0.1566\nsamples = 362\nvalue = [31, 331]\nclass = clear"] ;
941 -> 942 ;
943 [label="GHI <= 474.5\ngini = 0.1744\nsamples = 228\nvalue = [22, 206]\nclass = clear"] ;
942 -> 943 ;
944 [label="gini = 0.1615\nsamples = 79\nvalue = [7, 72]\nclass = clear"] ;
943 -> 944 ;
945 [label="Clearsky GHI <= 475.5\ngini = 0.1811\nsamples = 149\nvalue = [15, 134]\nclass = clear"] ;
943 -> 945 ;
946 [label="gini = 0.1755\nsamples = 72\nvalue = [7, 65]\nclass = clear"] ;
945 -> 946 ;
947 [label="gini = 0.1862\nsamples = 77\nvalue = [8, 69]\nclass = clear"] ;
945 -> 947 ;
948 [label="GHI <= 477.5\ngini = 0.1253\nsamples = 134\nvalue = [9, 125]\nclass = clear"] ;
942 -> 948 ;
949 [label="gini = 0.1155\nsamples = 65\nvalue = [4, 61]\nclass = clear"] ;
948 -> 949 ;
950 [label="gini = 0.1344\nsamples = 69\nvalue = [5, 64]\nclass = clear"] ;
948 -> 950 ;
951 [label="GHI <= 479.5\ngini = 0.191\nsamples = 449\nvalue = [48, 401]\nclass = clear"] ;
941 -> 951 ;
952 [label="gini = 0.213\nsamples = 66\nvalue = [8, 58]\nclass = clear"] ;
951 -> 952 ;
953 [label="Clearsky GHI <= 480.5\ngini = 0.1871\nsamples = 383\nvalue = [40, 343]\nclass = clear"] ;
951 -> 953 ;
954 [label="gini = 0.1547\nsamples = 71\nvalue = [6, 65]\nclass = clear"] ;
953 -> 954 ;
955 [label="Clearsky GHI <= 481.5\ngini = 0.1942\nsamples = 312\nvalue = [34, 278]\nclass = clear"] ;
953 -> 955 ;
956 [label="gini = 0.2188\nsamples = 80\nvalue = [10, 70]\nclass = clear"] ;
955 -> 956 ;
957 [label="Clearsky GHI <= 482.5\ngini = 0.1855\nsamples = 232\nvalue = [24, 208]\nclass = clear"] ;
955 -> 957 ;
958 [label="gini = 0.1975\nsamples = 72\nvalue = [8, 64]\nclass = clear"] ;
957 -> 958 ;
959 [label="Clearsky GHI <= 483.5\ngini = 0.18\nsamples = 160\nvalue = [16, 144]\nclass = clear"] ;
957 -> 959 ;
960 [label="gini = 0.18\nsamples = 90\nvalue = [9, 81]\nclass = clear"] ;
959 -> 960 ;
961 [label="gini = 0.18\nsamples = 70\nvalue = [7, 63]\nclass = clear"] ;
959 -> 961 ;
962 [label="GHI <= 485.5\ngini = 0.2712\nsamples = 136\nvalue = [22, 114]\nclass = clear"] ;
910 -> 962 ;
963 [label="gini = 0.2778\nsamples = 66\nvalue = [11, 55]\nclass = clear"] ;
962 -> 963 ;
964 [label="gini = 0.2649\nsamples = 70\nvalue = [11, 59]\nclass = clear"] ;
962 -> 964 ;
965 [label="GHI <= 491.5\ngini = 0.1598\nsamples = 434\nvalue = [38, 396]\nclass = clear"] ;
909 -> 965 ;
966 [label="Clearsky GHI <= 490.5\ngini = 0.1665\nsamples = 360\nvalue = [33, 327]\nclass = clear"] ;
965 -> 966 ;
967 [label="GHI <= 489.5\ngini = 0.1523\nsamples = 289\nvalue = [24, 265]\nclass = clear"] ;
966 -> 967 ;
968 [label="Clearsky GHI <= 488.5\ngini = 0.1702\nsamples = 213\nvalue = [20, 193]\nclass = clear"] ;
967 -> 968 ;
969 [label="GHI <= 487.5\ngini = 0.1557\nsamples = 141\nvalue = [12, 129]\nclass = clear"] ;
968 -> 969 ;
970 [label="gini = 0.1734\nsamples = 73\nvalue = [7, 66]\nclass = clear"] ;
969 -> 970 ;
971 [label="gini = 0.1362\nsamples = 68\nvalue = [5, 63]\nclass = clear"] ;
969 -> 971 ;
972 [label="gini = 0.1975\nsamples = 72\nvalue = [8, 64]\nclass = clear"] ;
968 -> 972 ;
973 [label="gini = 0.0997\nsamples = 76\nvalue = [4, 72]\nclass = clear"] ;
967 -> 973 ;
974 [label="gini = 0.2214\nsamples = 71\nvalue = [9, 62]\nclass = clear"] ;
966 -> 974 ;
975 [label="gini = 0.126\nsamples = 74\nvalue = [5, 69]\nclass = clear"] ;
965 -> 975 ;
976 [label="GHI <= 493.5\ngini = 0.2449\nsamples = 126\nvalue = [18, 108]\nclass = clear"] ;
908 -> 976 ;
977 [label="gini = 0.2815\nsamples = 59\nvalue = [10, 49]\nclass = clear"] ;
976 -> 977 ;
978 [label="gini = 0.2103\nsamples = 67\nvalue = [8, 59]\nclass = clear"] ;
976 -> 978 ;
979 [label="GHI <= 501.5\ngini = 0.1461\nsamples = 542\nvalue = [43, 499]\nclass = clear"] ;
907 -> 979 ;
980 [label="Clearsky GHI <= 497.5\ngini = 0.1557\nsamples = 482\nvalue = [41, 441]\nclass = clear"] ;
979 -> 980 ;
981 [label="GHI <= 496.5\ngini = 0.1151\nsamples = 212\nvalue = [13, 199]\nclass = clear"] ;
980 -> 981 ;
982 [label="GHI <= 495.5\ngini = 0.14\nsamples = 132\nvalue = [10, 122]\nclass = clear"] ;
981 -> 982 ;
983 [label="gini = 0.1063\nsamples = 71\nvalue = [4, 67]\nclass = clear"] ;
982 -> 983 ;
984 [label="gini = 0.1774\nsamples = 61\nvalue = [6, 55]\nclass = clear"] ;
982 -> 984 ;
985 [label="gini = 0.0722\nsamples = 80\nvalue = [3, 77]\nclass = clear"] ;
981 -> 985 ;
986 [label="Clearsky GHI <= 500.5\ngini = 0.1859\nsamples = 270\nvalue = [28, 242]\nclass = clear"] ;
980 -> 986 ;
987 [label="Clearsky GHI <= 499.5\ngini = 0.1707\nsamples = 191\nvalue = [18, 173]\nclass = clear"] ;
986 -> 987 ;
988 [label="GHI <= 498.5\ngini = 0.1851\nsamples = 126\nvalue = [13, 113]\nclass = clear"] ;
987 -> 988 ;
989 [label="gini = 0.1774\nsamples = 61\nvalue = [6, 55]\nclass = clear"] ;
988 -> 989 ;
990 [label="gini = 0.1922\nsamples = 65\nvalue = [7, 58]\nclass = clear"] ;
988 -> 990 ;
991 [label="gini = 0.142\nsamples = 65\nvalue = [5, 60]\nclass = clear"] ;
987 -> 991 ;
992 [label="gini = 0.2211\nsamples = 79\nvalue = [10, 69]\nclass = clear"] ;
986 -> 992 ;
993 [label="gini = 0.0644\nsamples = 60\nvalue = [2, 58]\nclass = clear"] ;
979 -> 993 ;
994 [label="GHI <= 505.5\ngini = 0.2114\nsamples = 591\nvalue = [71, 520]\nclass = clear"] ;
906 -> 994 ;
995 [label="GHI <= 503.5\ngini = 0.2458\nsamples = 223\nvalue = [32, 191]\nclass = clear"] ;
994 -> 995 ;
996 [label="gini = 0.2717\nsamples = 74\nvalue = [12, 62]\nclass = clear"] ;
995 -> 996 ;
997 [label="Clearsky GHI <= 504.5\ngini = 0.2324\nsamples = 149\nvalue = [20, 129]\nclass = clear"] ;
995 -> 997 ;
998 [label="gini = 0.2\nsamples = 71\nvalue = [8, 63]\nclass = clear"] ;
997 -> 998 ;
999 [label="gini = 0.2604\nsamples = 78\nvalue = [12, 66]\nclass = clear"] ;
997 -> 999 ;
