digraph Tree {
node [shape=box] ;
0 [label="abs_diff_ratio <= 0.0007\ngini = 0.3985\nsamples = 236664\nvalue = [171660, 65004]\nclass = cloudy"] ;
1 [label="GHI <= 193.5\ngini = 0.2667\nsamples = 77242\nvalue = [12238, 65004]\nclass = clear"] ;
0 -> 1 [labeldistance=2.5, labelangle=45, headlabel="True"] ;
2 [label="GHI <= 110.5\ngini = 0.4583\nsamples = 12290\nvalue = [4370, 7920]\nclass = clear"] ;
1 -> 2 ;
3 [label="Clearsky GHI <= 35.5\ngini = 0.4831\nsamples = 7578\nvalue = [3093, 4485]\nclass = clear"] ;
2 -> 3 ;
4 [label="GHI <= 21.5\ngini = 0.4999\nsamples = 2279\nvalue = [1120, 1159]\nclass = clear"] ;
3 -> 4 ;
5 [label="gini = 0.4947\nsamples = 827\nvalue = [371, 456]\nclass = clear"] ;
4 -> 5 ;
6 [label="gini = 0.4995\nsamples = 1452\nvalue = [749, 703]\nclass = cloudy"] ;
4 -> 6 ;
7 [label="Clearsky GHI <= 77.5\ngini = 0.4674\nsamples = 5299\nvalue = [1973, 3326]\nclass = clear"] ;
3 -> 7 ;
8 [label="gini = 0.4619\nsamples = 3304\nvalue = [1196, 2108]\nclass = clear"] ;
7 -> 8 ;
9 [label="gini = 0.4756\nsamples = 1995\nvalue = [777, 1218]\nclass = clear"] ;
7 -> 9 ;
10 [label="Clearsky GHI <= 128.5\ngini = 0.3951\nsamples = 4712\nvalue = [1277, 3435]\nclass = clear"] ;
2 -> 10 ;
11 [label="Clearsky GHI <= 123.5\ngini = 0.4295\nsamples = 1041\nvalue = [325, 716]\nclass = clear"] ;
10 -> 11 ;
12 [label="gini = 0.4153\nsamples = 785\nvalue = [231, 554]\nclass = clear"] ;
11 -> 12 ;
13 [label="gini = 0.4647\nsamples = 256\nvalue = [94, 162]\nclass = clear"] ;
11 -> 13 ;
14 [label="Clearsky GHI <= 192.5\ngini = 0.3842\nsamples = 3671\nvalue = [952, 2719]\nclass = clear"] ;
10 -> 14 ;
15 [label="gini = 0.3824\nsamples = 3603\nvalue = [928, 2675]\nclass = clear"] ;
14 -> 15 ;
16 [label="gini = 0.4567\nsamples = 68\nvalue = [24, 44]\nclass = clear"] ;
14 -> 16 ;
17 [label="Clearsky GHI <= 459.5\ngini = 0.2129\nsamples = 64952\nvalue = [7868, 57084]\nclass = clear"] ;
1 -> 17 ;
18 [label="Clearsky GHI <= 312.5\ngini = 0.2864\nsamples = 16134\nvalue = [2794, 13340]\nclass = clear"] ;
17 -> 18 ;
19 [label="Clearsky GHI <= 206.5\ngini = 0.3195\nsamples = 7009\nvalue = [1399, 5610]\nclass = clear"] ;
18 -> 19 ;
20 [label="gini = 0.3517\nsamples = 830\nvalue = [189, 641]\nclass = clear"] ;
19 -> 20 ;
21 [label="gini = 0.315\nsamples = 6179\nvalue = [1210, 4969]\nclass = clear"] ;
19 -> 21 ;
22 [label="Clearsky GHI <= 343.5\ngini = 0.259\nsamples = 9125\nvalue = [1395, 7730]\nclass = clear"] ;
18 -> 22 ;
23 [label="gini = 0.2428\nsamples = 1782\nvalue = [252, 1530]\nclass = clear"] ;
22 -> 23 ;
24 [label="gini = 0.2629\nsamples = 7343\nvalue = [1143, 6200]\nclass = clear"] ;
22 -> 24 ;
25 [label="GHI <= 978.5\ngini = 0.1863\nsamples = 48818\nvalue = [5074, 43744]\nclass = clear"] ;
17 -> 25 ;
26 [label="Clearsky GHI <= 653.5\ngini = 0.1928\nsamples = 41922\nvalue = [4531, 37391]\nclass = clear"] ;
25 -> 26 ;
27 [label="gini = 0.1855\nsamples = 16414\nvalue = [1698, 14716]\nclass = clear"] ;
26 -> 27 ;
28 [label="gini = 0.1975\nsamples = 25508\nvalue = [2833, 22675]\nclass = clear"] ;
26 -> 28 ;
29 [label="GHI <= 1057.5\ngini = 0.1451\nsamples = 6896\nvalue = [543, 6353]\nclass = clear"] ;
25 -> 29 ;
30 [label="gini = 0.1527\nsamples = 6110\nvalue = [509, 5601]\nclass = clear"] ;
29 -> 30 ;
31 [label="gini = 0.0828\nsamples = 786\nvalue = [34, 752]\nclass = clear"] ;
29 -> 31 ;
32 [label="gini = 0.0\nsamples = 159422\nvalue = [159422, 0]\nclass = cloudy"] ;
0 -> 32 [labeldistance=2.5, labelangle=-45, headlabel="False"] ;
}