digraph Tree {
node [shape=box] ;
0 [label="ratio <= 0.9993\ngini = 0.2535\nsamples = 236664\nvalue = [201423, 35241]\nclass = cloudy"] ;
1 [label="gini = 0.0\nsamples = 186826\nvalue = [186826, 0]\nclass = cloudy"] ;
0 -> 1 [labeldistance=2.5, labelangle=45, headlabel="True"] ;
2 [label="Clearsky GHI <= 321.5\ngini = 0.4142\nsamples = 49838\nvalue = [14597, 35241]\nclass = clear"] ;
0 -> 2 [labeldistance=2.5, labelangle=-45, headlabel="False"] ;
3 [label="Clearsky GHI <= 61.5\ngini = 0.4968\nsamples = 15538\nvalue = [7145, 8393]\nclass = clear"] ;
2 -> 3 ;
4 [label="GHI <= 43.5\ngini = 0.4799\nsamples = 3430\nvalue = [2059, 1371]\nclass = cloudy"] ;
3 -> 4 ;
5 [label="Clearsky GHI <= 33.5\ngini = 0.4843\nsamples = 2603\nvalue = [1532, 1071]\nclass = cloudy"] ;
4 -> 5 ;
6 [label="GHI <= 13.5\ngini = 0.478\nsamples = 1855\nvalue = [1122, 733]\nclass = cloudy"] ;
5 -> 6 ;
7 [label="GHI <= 9.5\ngini = 0.4969\nsamples = 102\nvalue = [55, 47]\nclass = cloudy"] ;
6 -> 7 ;
8 [label="gini = 0.0\nsamples = 1\nvalue = [0, 1]\nclass = clear"] ;
7 -> 8 ;
9 [label="Clearsky GHI <= 10.5\ngini = 0.496\nsamples = 101\nvalue = [55, 46]\nclass = cloudy"] ;
7 -> 9 ;
10 [label="gini = 0.0\nsamples = 2\nvalue = [2, 0]\nclass = cloudy"] ;
9 -> 10 ;
11 [label="Clearsky GHI <= 12.5\ngini = 0.4975\nsamples = 99\nvalue = [53, 46]\nclass = cloudy"] ;
9 -> 11 ;
12 [label="Clearsky GHI <= 11.5\ngini = 0.4994\nsamples = 56\nvalue = [29, 27]\nclass = cloudy"] ;
11 -> 12 ;
13 [label="gini = 0.5\nsamples = 22\nvalue = [11, 11]\nclass = cloudy"] ;
12 -> 13 ;
14 [label="gini = 0.4983\nsamples = 34\nvalue = [18, 16]\nclass = cloudy"] ;
12 -> 14 ;
15 [label="gini = 0.4932\nsamples = 43\nvalue = [24, 19]\nclass = cloudy"] ;
11 -> 15 ;
16 [label="Clearsky GHI <= 16.5\ngini = 0.4764\nsamples = 1753\nvalue = [1067, 686]\nclass = cloudy"] ;
6 -> 16 ;
17 [label="Clearsky GHI <= 15.5\ngini = 0.4532\nsamples = 291\nvalue = [190, 101]\nclass = cloudy"] ;
16 -> 17 ;
18 [label="Clearsky GHI <= 14.5\ngini = 0.4694\nsamples = 178\nvalue = [111, 67]\nclass = cloudy"] ;
17 -> 18 ;
19 [label="gini = 0.4745\nsamples = 62\nvalue = [38, 24]\nclass = cloudy"] ;
18 -> 19 ;
20 [label="gini = 0.4666\nsamples = 116\nvalue = [73, 43]\nclass = cloudy"] ;
18 -> 20 ;
21 [label="gini = 0.4207\nsamples = 113\nvalue = [79, 34]\nclass = cloudy"] ;
17 -> 21 ;
22 [label="GHI <= 30.5\ngini = 0.4801\nsamples = 1462\nvalue = [877, 585]\nclass = cloudy"] ;
16 -> 22 ;
23 [label="Clearsky GHI <= 24.5\ngini = 0.4825\nsamples = 1230\nvalue = [730, 500]\nclass = cloudy"] ;
22 -> 23 ;
24 [label="Clearsky GHI <= 21.5\ngini = 0.4783\nsamples = 735\nvalue = [444, 291]\nclass = cloudy"] ;
23 -> 24 ;
25 [label="Clearsky GHI <= 18.5\ngini = 0.4834\nsamples = 494\nvalue = [292, 202]\nclass = cloudy"] ;
24 -> 25 ;
26 [label="GHI <= 17.5\ngini = 0.4886\nsamples = 212\nvalue = [122, 90]\nclass = cloudy"] ;
25 -> 26 ;
27 [label="gini = 0.4869\nsamples = 105\nvalue = [61, 44]\nclass = cloudy"] ;
26 -> 27 ;
28 [label="gini = 0.4902\nsamples = 107\nvalue = [61, 46]\nclass = cloudy"] ;
26 -> 28 ;
29 [label="Clearsky GHI <= 19.5\ngini = 0.4788\nsamples = 282\nvalue = [170, 112]\nclass = cloudy"] ;
25 -> 29 ;
30 [label="gini = 0.4571\nsamples = 99\nvalue = [64, 35]\nclass = cloudy"] ;
29 -> 30 ;
31 [label="Clearsky GHI <= 20.5\ngini = 0.4874\nsamples = 183\nvalue = [106, 77]\nclass = cloudy"] ;
29 -> 31 ;
32 [label="gini = 0.4873\nsamples = 88\nvalue = [51, 37]\nclass = cloudy"] ;
31 -> 32 ;
33 [label="gini = 0.4875\nsamples = 95\nvalue = [55, 40]\nclass = cloudy"] ;
31 -> 33 ;
34 [label="Clearsky GHI <= 23.5\ngini = 0.4658\nsamples = 241\nvalue = [152, 89]\nclass = cloudy"] ;
24 -> 34 ;
35 [label="GHI <= 22.5\ngini = 0.4622\nsamples = 160\nvalue = [102, 58]\nclass = cloudy"] ;
34 -> 35 ;
36 [label="gini = 0.4679\nsamples = 75\nvalue = [47, 28]\nclass = cloudy"] ;
35 -> 36 ;
37 [label="gini = 0.4567\nsamples = 85\nvalue = [55, 30]\nclass = cloudy"] ;
35 -> 37 ;
38 [label="gini = 0.4725\nsamples = 81\nvalue = [50, 31]\nclass = cloudy"] ;
34 -> 38 ;
39 [label="GHI <= 29.5\ngini = 0.4879\nsamples = 495\nvalue = [286, 209]\nclass = cloudy"] ;
23 -> 39 ;
40 [label="GHI <= 27.5\ngini = 0.4866\nsamples = 416\nvalue = [242, 174]\nclass = cloudy"] ;
39 -> 40 ;
41 [label="Clearsky GHI <= 26.5\ngini = 0.4896\nsamples = 243\nvalue = [139, 104]\nclass = cloudy"] ;
40 -> 41 ;
42 [label="GHI <= 25.5\ngini = 0.4843\nsamples = 158\nvalue = [93, 65]\nclass = cloudy"] ;
41 -> 42 ;
43 [label="gini = 0.4922\nsamples = 80\nvalue = [45, 35]\nclass = cloudy"] ;
42 -> 43 ;
44 [label="gini = 0.4734\nsamples = 78\nvalue = [48, 30]\nclass = cloudy"] ;
42 -> 44 ;
45 [label="gini = 0.4966\nsamples = 85\nvalue = [46, 39]\nclass = cloudy"] ;
41 -> 45 ;
46 [label="Clearsky GHI <= 28.5\ngini = 0.4818\nsamples = 173\nvalue = [103, 70]\nclass = cloudy"] ;
40 -> 46 ;
47 [label="gini = 0.4809\nsamples = 92\nvalue = [55, 37]\nclass = cloudy"] ;
46 -> 47 ;
48 [label="gini = 0.4829\nsamples = 81\nvalue = [48, 33]\nclass = cloudy"] ;
46 -> 48 ;
49 [label="gini = 0.4935\nsamples = 79\nvalue = [44, 35]\nclass = cloudy"] ;
39 -> 49 ;
50 [label="GHI <= 32.5\ngini = 0.4643\nsamples = 232\nvalue = [147, 85]\nclass = cloudy"] ;
22 -> 50 ;
51 [label="GHI <= 31.5\ngini = 0.4607\nsamples = 164\nvalue = [105, 59]\nclass = cloudy"] ;
50 -> 51 ;
52 [label="gini = 0.47\nsamples = 98\nvalue = [61, 37]\nclass = cloudy"] ;
51 -> 52 ;
53 [label="gini = 0.4444\nsamples = 66\nvalue = [44, 22]\nclass = cloudy"] ;
51 -> 53 ;
54 [label="gini = 0.4723\nsamples = 68\nvalue = [42, 26]\nclass = cloudy"] ;
50 -> 54 ;
55 [label="GHI <= 42.5\ngini = 0.4954\nsamples = 748\nvalue = [410, 338]\nclass = cloudy"] ;
5 -> 55 ;
56 [label="Clearsky GHI <= 38.5\ngini = 0.4962\nsamples = 692\nvalue = [376, 316]\nclass = cloudy"] ;
55 -> 56 ;
57 [label="GHI <= 36.5\ngini = 0.4929\nsamples = 395\nvalue = [221, 174]\nclass = cloudy"] ;
56 -> 57 ;
58 [label="GHI <= 35.5\ngini = 0.4937\nsamples = 250\nvalue = [139, 111]\nclass = cloudy"] ;
57 -> 58 ;
59 [label="GHI <= 34.5\ngini = 0.4919\nsamples = 165\nvalue = [93, 72]\nclass = cloudy"] ;
58 -> 59 ;
60 [label="gini = 0.4935\nsamples = 88\nvalue = [49, 39]\nclass = cloudy"] ;
59 -> 60 ;
61 [label="gini = 0.4898\nsamples = 77\nvalue = [44, 33]\nclass = cloudy"] ;
59 -> 61 ;
62 [label="gini = 0.4966\nsamples = 85\nvalue = [46, 39]\nclass = cloudy"] ;
58 -> 62 ;
63 [label="Clearsky GHI <= 37.5\ngini = 0.4914\nsamples = 145\nvalue = [82, 63]\nclass = cloudy"] ;
57 -> 63 ;
64 [label="gini = 0.4884\nsamples = 59\nvalue = [34, 25]\nclass = cloudy"] ;
63 -> 64 ;
65 [label="gini = 0.4932\nsamples = 86\nvalue = [48, 38]\nclass = cloudy"] ;
63 -> 65 ;
66 [label="Clearsky GHI <= 40.5\ngini = 0.499\nsamples = 297\nvalue = [155, 142]\nclass = cloudy"] ;
56 -> 66 ;
67 [label="GHI <= 39.5\ngini = 0.4999\nsamples = 166\nvalue = [82, 84]\nclass = clear"] ;
66 -> 67 ;
68 [label="gini = 0.4978\nsamples = 90\nvalue = [48, 42]\nclass = cloudy"] ;
67 -> 68 ;
69 [label="gini = 0.4945\nsamples = 76\nvalue = [34, 42]\nclass = clear"] ;
67 -> 69 ;
70 [label="Clearsky GHI <= 41.5\ngini = 0.4934\nsamples = 131\nvalue = [73, 58]\nclass = cloudy"] ;
66 -> 70 ;
71 [label="gini = 0.493\nsamples = 59\nvalue = [33, 26]\nclass = cloudy"] ;
70 -> 71 ;
72 [label="gini = 0.4938\nsamples = 72\nvalue = [40, 32]\nclass = cloudy"] ;
70 -> 72 ;
73 [label="gini = 0.477\nsamples = 56\nvalue = [34, 22]\nclass = cloudy"] ;
55 -> 73 ;
74 [label="Clearsky GHI <= 59.5\ngini = 0.4623\nsamples = 827\nvalue = [527, 300]\nclass = cloudy"] ;
4 -> 74 ;
75 [label="GHI <= 50.5\ngini = 0.4565\nsamples = 746\nvalue = [483, 263]\nclass = cloudy"] ;
74 -> 75 ;
76 [label="GHI <= 44.5\ngini = 0.4432\nsamples = 374\nvalue = [250, 124]\nclass = cloudy"] ;
75 -> 76 ;
77 [label="gini = 0.4698\nsamples = 61\nvalue = [38, 23]\nclass = cloudy"] ;
76 -> 77 ;
78 [label="GHI <= 49.5\ngini = 0.4371\nsamples = 313\nvalue = [212, 101]\nclass = cloudy"] ;
76 -> 78 ;
79 [label="GHI <= 46.5\ngini = 0.4402\nsamples = 269\nvalue = [181, 88]\nclass = cloudy"] ;
78 -> 79 ;
80 [label="GHI <= 45.5\ngini = 0.4267\nsamples = 94\nvalue = [65, 29]\nclass = cloudy"] ;
79 -> 80 ;
81 [label="gini = 0.4234\nsamples = 46\nvalue = [32, 14]\nclass = cloudy"] ;
80 -> 81 ;
82 [label="gini = 0.4297\nsamples = 48\nvalue = [33, 15]\nclass = cloudy"] ;
80 -> 82 ;
83 [label="GHI <= 47.5\ngini = 0.447\nsamples = 175\nvalue = [116, 59]\nclass = cloudy"] ;
79 -> 83 ;
84 [label="gini = 0.4664\nsamples = 54\nvalue = [34, 20]\nclass = cloudy"] ;
83 -> 84 ;
85 [label="GHI <= 48.5\ngini = 0.4369\nsamples = 121\nvalue = [82, 39]\nclass = cloudy"] ;
83 -> 85 ;
86 [label="gini = 0.4186\nsamples = 57\nvalue = [40, 17]\nclass = cloudy"] ;
85 -> 86 ;
87 [label="gini = 0.4512\nsamples = 64\nvalue = [42, 22]\nclass = cloudy"] ;
85 -> 87 ;
88 [label="gini = 0.4163\nsamples = 44\nvalue = [31, 13]\nclass = cloudy"] ;
78 -> 88 ;
89 [label="GHI <= 54.5\ngini = 0.4681\nsamples = 372\nvalue = [233, 139]\nclass = cloudy"] ;
75 -> 89 ;
90 [label="Clearsky GHI <= 53.5\ngini = 0.4837\nsamples = 166\nvalue = [98, 68]\nclass = cloudy"] ;
89 -> 90 ;
91 [label="GHI <= 51.5\ngini = 0.4692\nsamples = 133\nvalue = [83, 50]\nclass = cloudy"] ;
90 -> 91 ;
92 [label="gini = 0.4913\nsamples = 53\nvalue = [30, 23]\nclass = cloudy"] ;
91 -> 92 ;
93 [label="Clearsky GHI <= 52.5\ngini = 0.4472\nsamples = 80\nvalue = [53, 27]\nclass = cloudy"] ;
91 -> 93 ;
94 [label="gini = 0.4392\nsamples = 43\nvalue = [29, 14]\nclass = cloudy"] ;
93 -> 94 ;
95 [label="gini = 0.4558\nsamples = 37\nvalue = [24, 13]\nclass = cloudy"] ;
93 -> 95 ;
96 [label="gini = 0.4959\nsamples = 33\nvalue = [15, 18]\nclass = clear"] ;
90 -> 96 ;
97 [label="GHI <= 58.5\ngini = 0.4517\nsamples = 206\nvalue = [135, 71]\nclass = cloudy"] ;
89 -> 97 ;
98 [label="Clearsky GHI <= 55.5\ngini = 0.4589\nsamples = 171\nvalue = [110, 61]\nclass = cloudy"] ;
97 -> 98 ;
99 [label="gini = 0.4163\nsamples = 44\nvalue = [31, 13]\nclass = cloudy"] ;
98 -> 99 ;
100 [label="Clearsky GHI <= 57.5\ngini = 0.4702\nsamples = 127\nvalue = [79, 48]\nclass = cloudy"] ;
98 -> 100 ;
101 [label="GHI <= 56.5\ngini = 0.4602\nsamples = 78\nvalue = [50, 28]\nclass = cloudy"] ;
100 -> 101 ;
102 [label="gini = 0.4726\nsamples = 47\nvalue = [29, 18]\nclass = cloudy"] ;
101 -> 102 ;
103 [label="gini = 0.437\nsamples = 31\nvalue = [21, 10]\nclass = cloudy"] ;
101 -> 103 ;
104 [label="gini = 0.4831\nsamples = 49\nvalue = [29, 20]\nclass = cloudy"] ;
100 -> 104 ;
105 [label="gini = 0.4082\nsamples = 35\nvalue = [25, 10]\nclass = cloudy"] ;
97 -> 105 ;
106 [label="Clearsky GHI <= 60.5\ngini = 0.4963\nsamples = 81\nvalue = [44, 37]\nclass = cloudy"] ;
74 -> 106 ;
107 [label="gini = 0.4967\nsamples = 37\nvalue = [20, 17]\nclass = cloudy"] ;
106 -> 107 ;
108 [label="gini = 0.4959\nsamples = 44\nvalue = [24, 20]\nclass = cloudy"] ;
106 -> 108 ;
109 [label="Clearsky GHI <= 245.5\ngini = 0.4872\nsamples = 12108\nvalue = [5086, 7022]\nclass = clear"] ;
3 -> 109 ;
110 [label="Clearsky GHI <= 114.5\ngini = 0.4937\nsamples = 8623\nvalue = [3829, 4794]\nclass = clear"] ;
109 -> 110 ;
111 [label="GHI <= 74.5\ngini = 0.4979\nsamples = 2990\nvalue = [1398, 1592]\nclass = clear"] ;
110 -> 111 ;
112 [label="Clearsky GHI <= 69.5\ngini = 0.4846\nsamples = 689\nvalue = [284, 405]\nclass = clear"] ;
111 -> 112 ;
113 [label="Clearsky GHI <= 63.5\ngini = 0.4975\nsamples = 366\nvalue = [170, 196]\nclass = clear"] ;
112 -> 113 ;
114 [label="GHI <= 62.5\ngini = 0.479\nsamples = 83\nvalue = [33, 50]\nclass = clear"] ;
113 -> 114 ;
115 [label="gini = 0.4976\nsamples = 43\nvalue = [20, 23]\nclass = clear"] ;
114 -> 115 ;
116 [label="gini = 0.4388\nsamples = 40\nvalue = [13, 27]\nclass = clear"] ;
114 -> 116 ;
117 [label="GHI <= 65.5\ngini = 0.4995\nsamples = 283\nvalue = [137, 146]\nclass = clear"] ;
113 -> 117 ;
118 [label="GHI <= 64.5\ngini = 0.4951\nsamples = 71\nvalue = [39, 32]\nclass = cloudy"] ;
117 -> 118 ;
119 [label="gini = 0.4851\nsamples = 29\nvalue = [17, 12]\nclass = cloudy"] ;
118 -> 119 ;
120 [label="gini = 0.4989\nsamples = 42\nvalue = [22, 20]\nclass = cloudy"] ;
118 -> 120 ;
121 [label="GHI <= 68.5\ngini = 0.4972\nsamples = 212\nvalue = [98, 114]\nclass = clear"] ;
117 -> 121 ;
122 [label="GHI <= 66.5\ngini = 0.4991\nsamples = 140\nvalue = [67, 73]\nclass = clear"] ;
121 -> 122 ;
123 [label="gini = 0.4867\nsamples = 43\nvalue = [18, 25]\nclass = clear"] ;
122 -> 123 ;
124 [label="Clearsky GHI <= 67.5\ngini = 0.4999\nsamples = 97\nvalue = [49, 48]\nclass = cloudy"] ;
122 -> 124 ;
125 [label="gini = 0.4998\nsamples = 47\nvalue = [23, 24]\nclass = clear"] ;
124 -> 125 ;
126 [label="gini = 0.4992\nsamples = 50\nvalue = [26, 24]\nclass = cloudy"] ;
124 -> 126 ;
127 [label="gini = 0.4904\nsamples = 72\nvalue = [31, 41]\nclass = clear"] ;
121 -> 127 ;
128 [label="GHI <= 70.5\ngini = 0.4567\nsamples = 323\nvalue = [114, 209]\nclass = clear"] ;
112 -> 128 ;
129 [label="gini = 0.393\nsamples = 67\nvalue = [18, 49]\nclass = clear"] ;
128 -> 129 ;
130 [label="GHI <= 73.5\ngini = 0.4688\nsamples = 256\nvalue = [96, 160]\nclass = clear"] ;
128 -> 130 ;
131 [label="Clearsky GHI <= 72.5\ngini = 0.4812\nsamples = 191\nvalue = [77, 114]\nclass = clear"] ;
130 -> 131 ;
132 [label="GHI <= 71.5\ngini = 0.4854\nsamples = 123\nvalue = [51, 72]\nclass = clear"] ;
131 -> 132 ;
133 [label="gini = 0.4824\nsamples = 64\nvalue = [26, 38]\nclass = clear"] ;
132 -> 133 ;
134 [label="gini = 0.4884\nsamples = 59\nvalue = [25, 34]\nclass = clear"] ;
132 -> 134 ;
135 [label="gini = 0.4723\nsamples = 68\nvalue = [26, 42]\nclass = clear"] ;
131 -> 135 ;
136 [label="gini = 0.4137\nsamples = 65\nvalue = [19, 46]\nclass = clear"] ;
130 -> 136 ;
137 [label="Clearsky GHI <= 113.5\ngini = 0.4995\nsamples = 2301\nvalue = [1114, 1187]\nclass = clear"] ;
111 -> 137 ;
138 [label="Clearsky GHI <= 112.5\ngini = 0.4993\nsamples = 2253\nvalue = [1085, 1168]\nclass = clear"] ;
137 -> 138 ;
139 [label="Clearsky GHI <= 103.5\ngini = 0.4995\nsamples = 2200\nvalue = [1065, 1135]\nclass = clear"] ;
138 -> 139 ;
140 [label="GHI <= 95.5\ngini = 0.4988\nsamples = 1720\nvalue = [817, 903]\nclass = clear"] ;
139 -> 140 ;
141 [label="GHI <= 85.5\ngini = 0.4996\nsamples = 1270\nvalue = [616, 654]\nclass = clear"] ;
140 -> 141 ;
142 [label="Clearsky GHI <= 78.5\ngini = 0.4974\nsamples = 692\nvalue = [321, 371]\nclass = clear"] ;
141 -> 142 ;
143 [label="GHI <= 75.5\ngini = 0.5\nsamples = 268\nvalue = [135, 133]\nclass = cloudy"] ;
142 -> 143 ;
144 [label="gini = 0.4985\nsamples = 74\nvalue = [35, 39]\nclass = clear"] ;
143 -> 144 ;
145 [label="Clearsky GHI <= 76.5\ngini = 0.4995\nsamples = 194\nvalue = [100, 94]\nclass = cloudy"] ;
143 -> 145 ;
146 [label="gini = 0.4948\nsamples = 49\nvalue = [27, 22]\nclass = cloudy"] ;
145 -> 146 ;
147 [label="Clearsky GHI <= 77.5\ngini = 0.5\nsamples = 145\nvalue = [73, 72]\nclass = cloudy"] ;
145 -> 147 ;
148 [label="gini = 0.4999\nsamples = 75\nvalue = [37, 38]\nclass = clear"] ;
147 -> 148 ;
149 [label="gini = 0.4996\nsamples = 70\nvalue = [36, 34]\nclass = cloudy"] ;
147 -> 149 ;
150 [label="Clearsky GHI <= 82.5\ngini = 0.4925\nsamples = 424\nvalue = [186, 238]\nclass = clear"] ;
142 -> 150 ;
151 [label="GHI <= 81.5\ngini = 0.4862\nsamples = 235\nvalue = [98, 137]\nclass = clear"] ;
150 -> 151 ;
152 [label="Clearsky GHI <= 80.5\ngini = 0.4959\nsamples = 176\nvalue = [80, 96]\nclass = clear"] ;
151 -> 152 ;
153 [label="Clearsky GHI <= 79.5\ngini = 0.4894\nsamples = 117\nvalue = [50, 67]\nclass = clear"] ;
152 -> 153 ;
154 [label="gini = 0.4851\nsamples = 58\nvalue = [24, 34]\nclass = clear"] ;
153 -> 154 ;
155 [label="gini = 0.493\nsamples = 59\nvalue = [26, 33]\nclass = clear"] ;
153 -> 155 ;
156 [label="gini = 0.4999\nsamples = 59\nvalue = [30, 29]\nclass = cloudy"] ;
152 -> 156 ;
157 [label="gini = 0.424\nsamples = 59\nvalue = [18, 41]\nclass = clear"] ;
151 -> 157 ;
158 [label="Clearsky GHI <= 84.5\ngini = 0.4976\nsamples = 189\nvalue = [88, 101]\nclass = clear"] ;
150 -> 158 ;
159 [label="GHI <= 83.5\ngini = 0.4995\nsamples = 126\nvalue = [61, 65]\nclass = clear"] ;
158 -> 159 ;
160 [label="gini = 0.4999\nsamples = 65\nvalue = [32, 33]\nclass = clear"] ;
159 -> 160 ;
161 [label="gini = 0.4988\nsamples = 61\nvalue = [29, 32]\nclass = clear"] ;
159 -> 161 ;
162 [label="gini = 0.4898\nsamples = 63\nvalue = [27, 36]\nclass = clear"] ;
158 -> 162 ;
163 [label="Clearsky GHI <= 94.5\ngini = 0.4998\nsamples = 578\nvalue = [295, 283]\nclass = cloudy"] ;
141 -> 163 ;
164 [label="GHI <= 88.5\ngini = 0.5\nsamples = 517\nvalue = [260, 257]\nclass = cloudy"] ;
163 -> 164 ;
165 [label="GHI <= 87.5\ngini = 0.4986\nsamples = 173\nvalue = [91, 82]\nclass = cloudy"] ;
164 -> 165 ;
166 [label="GHI <= 86.5\ngini = 0.5\nsamples = 109\nvalue = [55, 54]\nclass = cloudy"] ;
165 -> 166 ;
167 [label="gini = 0.5\nsamples = 60\nvalue = [30, 30]\nclass = cloudy"] ;
166 -> 167 ;
168 [label="gini = 0.4998\nsamples = 49\nvalue = [25, 24]\nclass = cloudy"] ;
166 -> 168 ;
169 [label="gini = 0.4922\nsamples = 64\nvalue = [36, 28]\nclass = cloudy"] ;
165 -> 169 ;
170 [label="Clearsky GHI <= 92.5\ngini = 0.4998\nsamples = 344\nvalue = [169, 175]\nclass = clear"] ;
164 -> 170 ;
171 [label="Clearsky GHI <= 91.5\ngini = 0.4991\nsamples = 236\nvalue = [113, 123]\nclass = clear"] ;
170 -> 171 ;
172 [label="GHI <= 90.5\ngini = 0.4998\nsamples = 171\nvalue = [84, 87]\nclass = clear"] ;
171 -> 172 ;
173 [label="GHI <= 89.5\ngini = 0.4983\nsamples = 121\nvalue = [57, 64]\nclass = clear"] ;
172 -> 173 ;
174 [label="gini = 0.4967\nsamples = 74\nvalue = [34, 40]\nclass = clear"] ;
173 -> 174 ;
175 [label="gini = 0.4998\nsamples = 47\nvalue = [23, 24]\nclass = clear"] ;
173 -> 175 ;
176 [label="gini = 0.4968\nsamples = 50\nvalue = [27, 23]\nclass = cloudy"] ;
172 -> 176 ;
177 [label="gini = 0.4942\nsamples = 65\nvalue = [29, 36]\nclass = clear"] ;
171 -> 177 ;
178 [label="GHI <= 93.5\ngini = 0.4993\nsamples = 108\nvalue = [56, 52]\nclass = cloudy"] ;
170 -> 178 ;
179 [label="gini = 0.4943\nsamples = 47\nvalue = [26, 21]\nclass = cloudy"] ;
178 -> 179 ;
180 [label="gini = 0.4999\nsamples = 61\nvalue = [30, 31]\nclass = clear"] ;
178 -> 180 ;
181 [label="gini = 0.4891\nsamples = 61\nvalue = [35, 26]\nclass = cloudy"] ;
163 -> 181 ;
182 [label="GHI <= 97.5\ngini = 0.4943\nsamples = 450\nvalue = [201, 249]\nclass = clear"] ;
140 -> 182 ;
183 [label="GHI <= 96.5\ngini = 0.4531\nsamples = 98\nvalue = [34, 64]\nclass = clear"] ;
182 -> 183 ;
184 [label="gini = 0.4688\nsamples = 48\nvalue = [18, 30]\nclass = clear"] ;
183 -> 184 ;
185 [label="gini = 0.4352\nsamples = 50\nvalue = [16, 34]\nclass = clear"] ;
183 -> 185 ;
186 [label="GHI <= 99.5\ngini = 0.4987\nsamples = 352\nvalue = [167, 185]\nclass = clear"] ;
182 -> 186 ;
187 [label="Clearsky GHI <= 98.5\ngini = 0.4998\nsamples = 106\nvalue = [54, 52]\nclass = cloudy"] ;
186 -> 187 ;
188 [label="gini = 0.4933\nsamples = 52\nvalue = [23, 29]\nclass = clear"] ;
187 -> 188 ;
189 [label="gini = 0.489\nsamples = 54\nvalue = [31, 23]\nclass = cloudy"] ;
187 -> 189 ;
190 [label="GHI <= 100.5\ngini = 0.4967\nsamples = 246\nvalue = [113, 133]\nclass = clear"] ;
186 -> 190 ;
191 [label="gini = 0.477\nsamples = 56\nvalue = [22, 34]\nclass = clear"] ;
190 -> 191 ;
192 [label="GHI <= 102.5\ngini = 0.4991\nsamples = 190\nvalue = [91, 99]\nclass = clear"] ;
190 -> 192 ;
193 [label="GHI <= 101.5\ngini = 0.4998\nsamples = 139\nvalue = [68, 71]\nclass = clear"] ;
192 -> 193 ;
194 [label="gini = 0.4972\nsamples = 67\nvalue = [31, 36]\nclass = clear"] ;
193 -> 194 ;
195 [label="gini = 0.4996\nsamples = 72\nvalue = [37, 35]\nclass = cloudy"] ;
193 -> 195 ;
196 [label="gini = 0.4952\nsamples = 51\nvalue = [23, 28]\nclass = clear"] ;
192 -> 196 ;
197 [label="GHI <= 105.5\ngini = 0.4994\nsamples = 480\nvalue = [248, 232]\nclass = cloudy"] ;
139 -> 197 ;
198 [label="GHI <= 104.5\ngini = 0.4965\nsamples = 107\nvalue = [58, 49]\nclass = cloudy"] ;
197 -> 198 ;
199 [label="gini = 0.4973\nsamples = 54\nvalue = [29, 25]\nclass = cloudy"] ;
198 -> 199 ;
200 [label="gini = 0.4956\nsamples = 53\nvalue = [29, 24]\nclass = cloudy"] ;
198 -> 200 ;
201 [label="Clearsky GHI <= 106.5\ngini = 0.4998\nsamples = 373\nvalue = [190, 183]\nclass = cloudy"] ;
197 -> 201 ;
202 [label="gini = 0.4964\nsamples = 59\nvalue = [27, 32]\nclass = clear"] ;
201 -> 202 ;
203 [label="Clearsky GHI <= 109.5\ngini = 0.4993\nsamples = 314\nvalue = [163, 151]\nclass = cloudy"] ;
201 -> 203 ;
204 [label="Clearsky GHI <= 108.5\ngini = 0.4972\nsamples = 160\nvalue = [86, 74]\nclass = cloudy"] ;
203 -> 204 ;
205 [label="GHI <= 107.5\ngini = 0.4993\nsamples = 104\nvalue = [54, 50]\nclass = cloudy"] ;
204 -> 205 ;
206 [label="gini = 0.498\nsamples = 47\nvalue = [25, 22]\nclass = cloudy"] ;
205 -> 206 ;
207 [label="gini = 0.4998\nsamples = 57\nvalue = [29, 28]\nclass = cloudy"] ;
205 -> 207 ;
208 [label="gini = 0.4898\nsamples = 56\nvalue = [32, 24]\nclass = cloudy"] ;
204 -> 208 ;
209 [label="GHI <= 111.5\ngini = 0.5\nsamples = 154\nvalue = [77, 77]\nclass = cloudy"] ;
203 -> 209 ;
210 [label="Clearsky GHI <= 110.5\ngini = 0.4996\nsamples = 101\nvalue = [49, 52]\nclass = clear"] ;
209 -> 210 ;
211 [label="gini = 0.4998\nsamples = 51\nvalue = [26, 25]\nclass = cloudy"] ;
210 -> 211 ;
212 [label="gini = 0.4968\nsamples = 50\nvalue = [23, 27]\nclass = clear"] ;
210 -> 212 ;
213 [label="gini = 0.4984\nsamples = 53\nvalue = [28, 25]\nclass = cloudy"] ;
209 -> 213 ;
214 [label="gini = 0.4699\nsamples = 53\nvalue = [20, 33]\nclass = clear"] ;
138 -> 214 ;
215 [label="gini = 0.4783\nsamples = 48\nvalue = [29, 19]\nclass = cloudy"] ;
137 -> 215 ;
216 [label="GHI <= 198.5\ngini = 0.4906\nsamples = 5633\nvalue = [2431, 3202]\nclass = clear"] ;
110 -> 216 ;
217 [label="Clearsky GHI <= 147.5\ngini = 0.4879\nsamples = 3575\nvalue = [1509, 2066]\nclass = clear"] ;
216 -> 217 ;
218 [label="Clearsky GHI <= 134.5\ngini = 0.493\nsamples = 1241\nvalue = [547, 694]\nclass = clear"] ;
217 -> 218 ;
219 [label="GHI <= 115.5\ngini = 0.4857\nsamples = 835\nvalue = [347, 488]\nclass = clear"] ;
218 -> 219 ;
220 [label="gini = 0.4567\nsamples = 51\nvalue = [18, 33]\nclass = clear"] ;
219 -> 220 ;
221 [label="GHI <= 120.5\ngini = 0.4871\nsamples = 784\nvalue = [329, 455]\nclass = clear"] ;
219 -> 221 ;
222 [label="GHI <= 118.5\ngini = 0.4947\nsamples = 252\nvalue = [113, 139]\nclass = clear"] ;
221 -> 222 ;
223 [label="Clearsky GHI <= 116.5\ngini = 0.4905\nsamples = 167\nvalue = [72, 95]\nclass = clear"] ;
222 -> 223 ;
224 [label="gini = 0.4998\nsamples = 47\nvalue = [23, 24]\nclass = clear"] ;
223 -> 224 ;
225 [label="Clearsky GHI <= 117.5\ngini = 0.4832\nsamples = 120\nvalue = [49, 71]\nclass = clear"] ;
223 -> 225 ;
226 [label="gini = 0.4878\nsamples = 64\nvalue = [27, 37]\nclass = clear"] ;
225 -> 226 ;
227 [label="gini = 0.477\nsamples = 56\nvalue = [22, 34]\nclass = clear"] ;
225 -> 227 ;
228 [label="Clearsky GHI <= 119.5\ngini = 0.4994\nsamples = 85\nvalue = [41, 44]\nclass = clear"] ;
222 -> 228 ;
229 [label="gini = 0.4973\nsamples = 41\nvalue = [19, 22]\nclass = clear"] ;
228 -> 229 ;
230 [label="gini = 0.5\nsamples = 44\nvalue = [22, 22]\nclass = cloudy"] ;
228 -> 230 ;
231 [label="GHI <= 121.5\ngini = 0.4823\nsamples = 532\nvalue = [216, 316]\nclass = clear"] ;
221 -> 231 ;
232 [label="gini = 0.355\nsamples = 39\nvalue = [9, 30]\nclass = clear"] ;
231 -> 232 ;
233 [label="Clearsky GHI <= 133.5\ngini = 0.4872\nsamples = 493\nvalue = [207, 286]\nclass = clear"] ;
231 -> 233 ;
234 [label="GHI <= 132.5\ngini = 0.4889\nsamples = 456\nvalue = [194, 262]\nclass = clear"] ;
233 -> 234 ;
235 [label="Clearsky GHI <= 125.5\ngini = 0.4858\nsamples = 421\nvalue = [175, 246]\nclass = clear"] ;
234 -> 235 ;
236 [label="Clearsky GHI <= 123.5\ngini = 0.4927\nsamples = 166\nvalue = [73, 93]\nclass = clear"] ;
235 -> 236 ;
237 [label="GHI <= 122.5\ngini = 0.4839\nsamples = 78\nvalue = [32, 46]\nclass = clear"] ;
236 -> 237 ;
238 [label="gini = 0.4888\nsamples = 40\nvalue = [17, 23]\nclass = clear"] ;
237 -> 238 ;
239 [label="gini = 0.4778\nsamples = 38\nvalue = [15, 23]\nclass = clear"] ;
237 -> 239 ;
240 [label="GHI <= 124.5\ngini = 0.4977\nsamples = 88\nvalue = [41, 47]\nclass = clear"] ;
236 -> 240 ;
241 [label="gini = 0.4988\nsamples = 40\nvalue = [19, 21]\nclass = clear"] ;
240 -> 241 ;
242 [label="gini = 0.4965\nsamples = 48\nvalue = [22, 26]\nclass = clear"] ;
240 -> 242 ;
243 [label="GHI <= 130.5\ngini = 0.48\nsamples = 255\nvalue = [102, 153]\nclass = clear"] ;
235 -> 243 ;
244 [label="Clearsky GHI <= 127.5\ngini = 0.4736\nsamples = 187\nvalue = [72, 115]\nclass = clear"] ;
243 -> 244 ;
245 [label="Clearsky GHI <= 126.5\ngini = 0.4854\nsamples = 82\nvalue = [34, 48]\nclass = clear"] ;
244 -> 245 ;
246 [label="gini = 0.4648\nsamples = 49\nvalue = [18, 31]\nclass = clear"] ;
245 -> 246 ;
247 [label="gini = 0.4995\nsamples = 33\nvalue = [16, 17]\nclass = clear"] ;
245 -> 247 ;
248 [label="Clearsky GHI <= 129.5\ngini = 0.4619\nsamples = 105\nvalue = [38, 67]\nclass = clear"] ;
244 -> 248 ;
249 [label="GHI <= 128.5\ngini = 0.4669\nsamples = 70\nvalue = [26, 44]\nclass = clear"] ;
248 -> 249 ;
250 [label="gini = 0.4664\nsamples = 27\nvalue = [10, 17]\nclass = clear"] ;
249 -> 250 ;
251 [label="gini = 0.4673\nsamples = 43\nvalue = [16, 27]\nclass = clear"] ;
249 -> 251 ;
252 [label="gini = 0.4506\nsamples = 35\nvalue = [12, 23]\nclass = clear"] ;
248 -> 252 ;
253 [label="GHI <= 131.5\ngini = 0.4931\nsamples = 68\nvalue = [30, 38]\nclass = clear"] ;
243 -> 253 ;
254 [label="gini = 0.4885\nsamples = 33\nvalue = [14, 19]\nclass = clear"] ;
253 -> 254 ;
255 [label="gini = 0.4963\nsamples = 35\nvalue = [16, 19]\nclass = clear"] ;
253 -> 255 ;
256 [label="gini = 0.4963\nsamples = 35\nvalue = [19, 16]\nclass = cloudy"] ;
234 -> 256 ;
257 [label="gini = 0.4558\nsamples = 37\nvalue = [13, 24]\nclass = clear"] ;
233 -> 257 ;
258 [label="GHI <= 136.5\ngini = 0.4999\nsamples = 406\nvalue = [200, 206]\nclass = clear"] ;
218 -> 258 ;
259 [label="Clearsky GHI <= 135.5\ngini = 0.4786\nsamples = 58\nvalue = [35, 23]\nclass = cloudy"] ;
258 -> 259 ;
260 [label="gini = 0.4644\nsamples = 30\nvalue = [19, 11]\nclass = cloudy"] ;
259 -> 260 ;
261 [label="gini = 0.4898\nsamples = 28\nvalue = [16, 12]\nclass = cloudy"] ;
259 -> 261 ;
262 [label="Clearsky GHI <= 141.5\ngini = 0.4987\nsamples = 348\nvalue = [165, 183]\nclass = clear"] ;
258 -> 262 ;
263 [label="GHI <= 140.5\ngini = 0.4914\nsamples = 145\nvalue = [63, 82]\nclass = clear"] ;
262 -> 263 ;
264 [label="Clearsky GHI <= 138.5\ngini = 0.4967\nsamples = 111\nvalue = [51, 60]\nclass = clear"] ;
263 -> 264 ;
265 [label="Clearsky GHI <= 137.5\ngini = 0.4851\nsamples = 58\nvalue = [24, 34]\nclass = clear"] ;
264 -> 265 ;
266 [label="gini = 0.4709\nsamples = 29\nvalue = [11, 18]\nclass = clear"] ;
265 -> 266 ;
267 [label="gini = 0.4946\nsamples = 29\nvalue = [13, 16]\nclass = clear"] ;
265 -> 267 ;
268 [label="GHI <= 139.5\ngini = 0.4998\nsamples = 53\nvalue = [27, 26]\nclass = cloudy"] ;
264 -> 268 ;
269 [label="gini = 0.4992\nsamples = 25\nvalue = [12, 13]\nclass = clear"] ;
268 -> 269 ;
270 [label="gini = 0.4974\nsamples = 28\nvalue = [15, 13]\nclass = cloudy"] ;
268 -> 270 ;
271 [label="gini = 0.4567\nsamples = 34\nvalue = [12, 22]\nclass = clear"] ;
263 -> 271 ;
272 [label="GHI <= 143.5\ngini = 0.5\nsamples = 203\nvalue = [102, 101]\nclass = cloudy"] ;
262 -> 272 ;
273 [label="GHI <= 142.5\ngini = 0.4664\nsamples = 54\nvalue = [34, 20]\nclass = cloudy"] ;
272 -> 273 ;
274 [label="gini = 0.48\nsamples = 35\nvalue = [21, 14]\nclass = cloudy"] ;
273 -> 274 ;
275 [label="gini = 0.4321\nsamples = 19\nvalue = [13, 6]\nclass = cloudy"] ;
273 -> 275 ;
276 [label="Clearsky GHI <= 146.5\ngini = 0.4962\nsamples = 149\nvalue = [68, 81]\nclass = clear"] ;
272 -> 276 ;
277 [label="GHI <= 145.5\ngini = 0.4838\nsamples = 100\nvalue = [41, 59]\nclass = clear"] ;
276 -> 277 ;
278 [label="GHI <= 144.5\ngini = 0.4994\nsamples = 58\nvalue = [28, 30]\nclass = clear"] ;
277 -> 278 ;
279 [label="gini = 0.4995\nsamples = 31\nvalue = [16, 15]\nclass = cloudy"] ;
278 -> 279 ;
280 [label="gini = 0.4938\nsamples = 27\nvalue = [12, 15]\nclass = clear"] ;
278 -> 280 ;
281 [label="gini = 0.4274\nsamples = 42\nvalue = [13, 29]\nclass = clear"] ;
277 -> 281 ;
282 [label="gini = 0.4948\nsamples = 49\nvalue = [27, 22]\nclass = cloudy"] ;
276 -> 282 ;
283 [label="Clearsky GHI <= 164.5\ngini = 0.4846\nsamples = 2334\nvalue = [962, 1372]\nclass = clear"] ;
217 -> 283 ;
284 [label="GHI <= 156.5\ngini = 0.4689\nsamples = 802\nvalue = [301, 501]\nclass = clear"] ;
283 -> 284 ;
285 [label="GHI <= 152.5\ngini = 0.4835\nsamples = 418\nvalue = [171, 247]\nclass = clear"] ;
284 -> 285 ;
286 [label="GHI <= 150.5\ngini = 0.472\nsamples = 228\nvalue = [87, 141]\nclass = clear"] ;
285 -> 286 ;
287 [label="Clearsky GHI <= 148.5\ngini = 0.4813\nsamples = 119\nvalue = [48, 71]\nclass = clear"] ;
286 -> 287 ;
288 [label="gini = 0.4444\nsamples = 39\nvalue = [13, 26]\nclass = clear"] ;
287 -> 288 ;
289 [label="Clearsky GHI <= 149.5\ngini = 0.4922\nsamples = 80\nvalue = [35, 45]\nclass = clear"] ;
287 -> 289 ;
290 [label="gini = 0.4861\nsamples = 48\nvalue = [20, 28]\nclass = clear"] ;
289 -> 290 ;
291 [label="gini = 0.498\nsamples = 32\nvalue = [15, 17]\nclass = clear"] ;
289 -> 291 ;
292 [label="Clearsky GHI <= 151.5\ngini = 0.4596\nsamples = 109\nvalue = [39, 70]\nclass = clear"] ;
286 -> 292 ;
293 [label="gini = 0.4444\nsamples = 54\nvalue = [18, 36]\nclass = clear"] ;
292 -> 293 ;
294 [label="gini = 0.4721\nsamples = 55\nvalue = [21, 34]\nclass = clear"] ;
292 -> 294 ;
295 [label="Clearsky GHI <= 153.5\ngini = 0.4933\nsamples = 190\nvalue = [84, 106]\nclass = clear"] ;
285 -> 295 ;
296 [label="gini = 0.4976\nsamples = 43\nvalue = [20, 23]\nclass = clear"] ;
295 -> 296 ;
297 [label="Clearsky GHI <= 155.5\ngini = 0.4916\nsamples = 147\nvalue = [64, 83]\nclass = clear"] ;
295 -> 297 ;
298 [label="Clearsky GHI <= 154.5\ngini = 0.488\nsamples = 97\nvalue = [41, 56]\nclass = clear"] ;
297 -> 298 ;
299 [label="gini = 0.4938\nsamples = 54\nvalue = [24, 30]\nclass = clear"] ;
298 -> 299 ;
300 [label="gini = 0.4781\nsamples = 43\nvalue = [17, 26]\nclass = clear"] ;
298 -> 300 ;
301 [label="gini = 0.4968\nsamples = 50\nvalue = [23, 27]\nclass = clear"] ;
297 -> 301 ;
302 [label="Clearsky GHI <= 157.5\ngini = 0.4479\nsamples = 384\nvalue = [130, 254]\nclass = clear"] ;
284 -> 302 ;
303 [label="gini = 0.4055\nsamples = 46\nvalue = [13, 33]\nclass = clear"] ;
302 -> 303 ;
304 [label="GHI <= 160.5\ngini = 0.4527\nsamples = 338\nvalue = [117, 221]\nclass = clear"] ;
302 -> 304 ;
305 [label="GHI <= 159.5\ngini = 0.4683\nsamples = 139\nvalue = [52, 87]\nclass = clear"] ;
304 -> 305 ;
306 [label="GHI <= 158.5\ngini = 0.4579\nsamples = 93\nvalue = [33, 60]\nclass = clear"] ;
305 -> 306 ;
307 [label="gini = 0.4688\nsamples = 40\nvalue = [15, 25]\nclass = clear"] ;
306 -> 307 ;
308 [label="gini = 0.4486\nsamples = 53\nvalue = [18, 35]\nclass = clear"] ;
306 -> 308 ;
309 [label="gini = 0.4849\nsamples = 46\nvalue = [19, 27]\nclass = clear"] ;
305 -> 309 ;
310 [label="GHI <= 163.5\ngini = 0.4399\nsamples = 199\nvalue = [65, 134]\nclass = clear"] ;
304 -> 310 ;
311 [label="GHI <= 161.5\ngini = 0.4264\nsamples = 146\nvalue = [45, 101]\nclass = clear"] ;
310 -> 311 ;
312 [label="gini = 0.4491\nsamples = 47\nvalue = [16, 31]\nclass = clear"] ;
311 -> 312 ;
313 [label="GHI <= 162.5\ngini = 0.4142\nsamples = 99\nvalue = [29, 70]\nclass = clear"] ;
311 -> 313 ;
314 [label="gini = 0.3988\nsamples = 40\nvalue = [11, 29]\nclass = clear"] ;
313 -> 314 ;
315 [label="gini = 0.424\nsamples = 59\nvalue = [18, 41]\nclass = clear"] ;
313 -> 315 ;
316 [label="gini = 0.4699\nsamples = 53\nvalue = [20, 33]\nclass = clear"] ;
310 -> 316 ;
317 [label="Clearsky GHI <= 186.5\ngini = 0.4906\nsamples = 1532\nvalue = [661, 871]\nclass = clear"] ;
283 -> 317 ;
318 [label="Clearsky GHI <= 185.5\ngini = 0.4955\nsamples = 990\nvalue = [448, 542]\nclass = clear"] ;
317 -> 318 ;
319 [label="GHI <= 170.5\ngini = 0.4944\nsamples = 955\nvalue = [427, 528]\nclass = clear"] ;
318 -> 319 ;
320 [label="Clearsky GHI <= 168.5\ngini = 0.4997\nsamples = 295\nvalue = [144, 151]\nclass = clear"] ;
319 -> 320 ;
321 [label="Clearsky GHI <= 167.5\ngini = 0.4972\nsamples = 199\nvalue = [92, 107]\nclass = clear"] ;
320 -> 321 ;
322 [label="Clearsky GHI <= 166.5\ngini = 0.5\nsamples = 143\nvalue = [71, 72]\nclass = clear"] ;
321 -> 322 ;
323 [label="GHI <= 165.5\ngini = 0.4964\nsamples = 94\nvalue = [43, 51]\nclass = clear"] ;
322 -> 323 ;
324 [label="gini = 0.5\nsamples = 52\nvalue = [26, 26]\nclass = cloudy"] ;
323 -> 324 ;
325 [label="gini = 0.4819\nsamples = 42\nvalue = [17, 25]\nclass = clear"] ;
323 -> 325 ;
326 [label="gini = 0.4898\nsamples = 49\nvalue = [28, 21]\nclass = cloudy"] ;
322 -> 326 ;
327 [label="gini = 0.4688\nsamples = 56\nvalue = [21, 35]\nclass = clear"] ;
321 -> 327 ;
328 [label="Clearsky GHI <= 169.5\ngini = 0.4965\nsamples = 96\nvalue = [52, 44]\nclass = cloudy"] ;
320 -> 328 ;
329 [label="gini = 0.4965\nsamples = 48\nvalue = [26, 22]\nclass = cloudy"] ;
328 -> 329 ;
330 [label="gini = 0.4965\nsamples = 48\nvalue = [26, 22]\nclass = cloudy"] ;
328 -> 330 ;
331 [label="GHI <= 178.5\ngini = 0.4899\nsamples = 660\nvalue = [283, 377]\nclass = clear"] ;
319 -> 331 ;
332 [label="Clearsky GHI <= 177.5\ngini = 0.4798\nsamples = 348\nvalue = [139, 209]\nclass = clear"] ;
331 -> 332 ;
333 [label="Clearsky GHI <= 173.5\ngini = 0.4846\nsamples = 308\nvalue = [127, 181]\nclass = clear"] ;
332 -> 333 ;
334 [label="GHI <= 171.5\ngini = 0.4781\nsamples = 129\nvalue = [51, 78]\nclass = clear"] ;
333 -> 334 ;
335 [label="gini = 0.4938\nsamples = 36\nvalue = [16, 20]\nclass = clear"] ;
334 -> 335 ;
336 [label="GHI <= 172.5\ngini = 0.4694\nsamples = 93\nvalue = [35, 58]\nclass = clear"] ;
334 -> 336 ;
337 [label="gini = 0.4742\nsamples = 44\nvalue = [17, 27]\nclass = clear"] ;
336 -> 337 ;
338 [label="gini = 0.4648\nsamples = 49\nvalue = [18, 31]\nclass = clear"] ;
336 -> 338 ;
339 [label="Clearsky GHI <= 176.5\ngini = 0.4886\nsamples = 179\nvalue = [76, 103]\nclass = clear"] ;
333 -> 339 ;
340 [label="GHI <= 175.5\ngini = 0.4909\nsamples = 141\nvalue = [61, 80]\nclass = clear"] ;
339 -> 340 ;
341 [label="GHI <= 174.5\ngini = 0.4884\nsamples = 92\nvalue = [39, 53]\nclass = clear"] ;
340 -> 341 ;
342 [label="gini = 0.4932\nsamples = 43\nvalue = [19, 24]\nclass = clear"] ;
341 -> 342 ;
343 [label="gini = 0.4831\nsamples = 49\nvalue = [20, 29]\nclass = clear"] ;
341 -> 343 ;
344 [label="gini = 0.4948\nsamples = 49\nvalue = [22, 27]\nclass = clear"] ;
340 -> 344 ;
345 [label="gini = 0.4778\nsamples = 38\nvalue = [15, 23]\nclass = clear"] ;
339 -> 345 ;
346 [label="gini = 0.42\nsamples = 40\nvalue = [12, 28]\nclass = clear"] ;
332 -> 346 ;
347 [label="GHI <= 182.5\ngini = 0.497\nsamples = 312\nvalue = [144, 168]\nclass = clear"] ;
331 -> 347 ;
348 [label="Clearsky GHI <= 181.5\ngini = 0.4999\nsamples = 172\nvalue = [85, 87]\nclass = clear"] ;
347 -> 348 ;
349 [label="GHI <= 179.5\ngini = 0.4976\nsamples = 131\nvalue = [61, 70]\nclass = clear"] ;
348 -> 349 ;
350 [label="gini = 0.5\nsamples = 54\nvalue = [27, 27]\nclass = cloudy"] ;
349 -> 350 ;
351 [label="Clearsky GHI <= 180.5\ngini = 0.4932\nsamples = 77\nvalue = [34, 43]\nclass = clear"] ;
349 -> 351 ;
352 [label="gini = 0.4943\nsamples = 47\nvalue = [21, 26]\nclass = clear"] ;
351 -> 352 ;
353 [label="gini = 0.4911\nsamples = 30\nvalue = [13, 17]\nclass = clear"] ;
351 -> 353 ;
354 [label="gini = 0.4854\nsamples = 41\nvalue = [24, 17]\nclass = cloudy"] ;
348 -> 354 ;
355 [label="GHI <= 183.5\ngini = 0.4877\nsamples = 140\nvalue = [59, 81]\nclass = clear"] ;
347 -> 355 ;
356 [label="gini = 0.4537\nsamples = 46\nvalue = [16, 30]\nclass = clear"] ;
355 -> 356 ;
357 [label="GHI <= 184.5\ngini = 0.4964\nsamples = 94\nvalue = [43, 51]\nclass = clear"] ;
355 -> 357 ;
358 [label="gini = 0.498\nsamples = 47\nvalue = [22, 25]\nclass = clear"] ;
357 -> 358 ;
359 [label="gini = 0.4943\nsamples = 47\nvalue = [21, 26]\nclass = clear"] ;
357 -> 359 ;
360 [label="gini = 0.48\nsamples = 35\nvalue = [21, 14]\nclass = cloudy"] ;
318 -> 360 ;
361 [label="Clearsky GHI <= 189.5\ngini = 0.4771\nsamples = 542\nvalue = [213, 329]\nclass = clear"] ;
317 -> 361 ;
362 [label="GHI <= 187.5\ngini = 0.4342\nsamples = 113\nvalue = [36, 77]\nclass = clear"] ;
361 -> 362 ;
363 [label="gini = 0.4501\nsamples = 38\nvalue = [13, 25]\nclass = clear"] ;
362 -> 363 ;
364 [label="Clearsky GHI <= 188.5\ngini = 0.4252\nsamples = 75\nvalue = [23, 52]\nclass = clear"] ;
362 -> 364 ;
365 [label="gini = 0.3967\nsamples = 33\nvalue = [9, 24]\nclass = clear"] ;
364 -> 365 ;
366 [label="gini = 0.4444\nsamples = 42\nvalue = [14, 28]\nclass = clear"] ;
364 -> 366 ;
367 [label="GHI <= 192.5\ngini = 0.4847\nsamples = 429\nvalue = [177, 252]\nclass = clear"] ;
361 -> 367 ;
368 [label="Clearsky GHI <= 190.5\ngini = 0.4762\nsamples = 156\nvalue = [61, 95]\nclass = clear"] ;
367 -> 368 ;
369 [label="gini = 0.4753\nsamples = 54\nvalue = [21, 33]\nclass = clear"] ;
368 -> 369 ;
370 [label="GHI <= 191.5\ngini = 0.4767\nsamples = 102\nvalue = [40, 62]\nclass = clear"] ;
368 -> 370 ;
371 [label="gini = 0.4783\nsamples = 48\nvalue = [19, 29]\nclass = clear"] ;
370 -> 371 ;
372 [label="gini = 0.4753\nsamples = 54\nvalue = [21, 33]\nclass = clear"] ;
370 -> 372 ;
373 [label="Clearsky GHI <= 194.5\ngini = 0.4887\nsamples = 273\nvalue = [116, 157]\nclass = clear"] ;
367 -> 373 ;
374 [label="GHI <= 193.5\ngini = 0.4993\nsamples = 79\nvalue = [38, 41]\nclass = clear"] ;
373 -> 374 ;
375 [label="gini = 0.4963\nsamples = 35\nvalue = [16, 19]\nclass = clear"] ;
374 -> 375 ;
376 [label="gini = 0.5\nsamples = 44\nvalue = [22, 22]\nclass = cloudy"] ;
374 -> 376 ;
377 [label="GHI <= 195.5\ngini = 0.4808\nsamples = 194\nvalue = [78, 116]\nclass = clear"] ;
373 -> 377 ;
378 [label="gini = 0.4444\nsamples = 48\nvalue = [16, 32]\nclass = clear"] ;
377 -> 378 ;
379 [label="GHI <= 196.5\ngini = 0.4886\nsamples = 146\nvalue = [62, 84]\nclass = clear"] ;
377 -> 379 ;
380 [label="gini = 0.498\nsamples = 32\nvalue = [15, 17]\nclass = clear"] ;
379 -> 380 ;
381 [label="GHI <= 197.5\ngini = 0.4846\nsamples = 114\nvalue = [47, 67]\nclass = clear"] ;
379 -> 381 ;
382 [label="gini = 0.4788\nsamples = 68\nvalue = [27, 41]\nclass = clear"] ;
381 -> 382 ;
383 [label="gini = 0.4915\nsamples = 46\nvalue = [20, 26]\nclass = clear"] ;
381 -> 383 ;
384 [label="Clearsky GHI <= 215.5\ngini = 0.4946\nsamples = 2058\nvalue = [922, 1136]\nclass = clear"] ;
216 -> 384 ;
385 [label="Clearsky GHI <= 210.5\ngini = 0.4994\nsamples = 765\nvalue = [369, 396]\nclass = clear"] ;
384 -> 385 ;
386 [label="Clearsky GHI <= 209.5\ngini = 0.4999\nsamples = 543\nvalue = [267, 276]\nclass = clear"] ;
385 -> 386 ;
387 [label="Clearsky GHI <= 204.5\ngini = 0.4994\nsamples = 497\nvalue = [240, 257]\nclass = clear"] ;
386 -> 387 ;
388 [label="GHI <= 201.5\ngini = 0.5\nsamples = 270\nvalue = [135, 135]\nclass = cloudy"] ;
387 -> 388 ;
389 [label="Clearsky GHI <= 199.5\ngini = 0.4982\nsamples = 132\nvalue = [62, 70]\nclass = clear"] ;
388 -> 389 ;
390 [label="gini = 0.5\nsamples = 42\nvalue = [21, 21]\nclass = cloudy"] ;
389 -> 390 ;
391 [label="GHI <= 200.5\ngini = 0.496\nsamples = 90\nvalue = [41, 49]\nclass = clear"] ;
389 -> 391 ;
392 [label="gini = 0.4915\nsamples = 46\nvalue = [20, 26]\nclass = clear"] ;
391 -> 392 ;
393 [label="gini = 0.499\nsamples = 44\nvalue = [21, 23]\nclass = clear"] ;
391 -> 393 ;
394 [label="GHI <= 203.5\ngini = 0.4983\nsamples = 138\nvalue = [73, 65]\nclass = cloudy"] ;
388 -> 394 ;
395 [label="Clearsky GHI <= 202.5\ngini = 0.4959\nsamples = 88\nvalue = [48, 40]\nclass = cloudy"] ;
394 -> 395 ;
396 [label="gini = 0.4986\nsamples = 38\nvalue = [20, 18]\nclass = cloudy"] ;
395 -> 396 ;
397 [label="gini = 0.4928\nsamples = 50\nvalue = [28, 22]\nclass = cloudy"] ;
395 -> 397 ;
398 [label="gini = 0.5\nsamples = 50\nvalue = [25, 25]\nclass = cloudy"] ;
394 -> 398 ;
399 [label="Clearsky GHI <= 207.5\ngini = 0.4972\nsamples = 227\nvalue = [105, 122]\nclass = clear"] ;
387 -> 399 ;
400 [label="GHI <= 205.5\ngini = 0.491\nsamples = 134\nvalue = [58, 76]\nclass = clear"] ;
399 -> 400 ;
401 [label="gini = 0.4959\nsamples = 44\nvalue = [20, 24]\nclass = clear"] ;
400 -> 401 ;
402 [label="GHI <= 206.5\ngini = 0.4879\nsamples = 90\nvalue = [38, 52]\nclass = clear"] ;
400 -> 402 ;
403 [label="gini = 0.4861\nsamples = 48\nvalue = [20, 28]\nclass = clear"] ;
402 -> 403 ;
404 [label="gini = 0.4898\nsamples = 42\nvalue = [18, 24]\nclass = clear"] ;
402 -> 404 ;
405 [label="GHI <= 208.5\ngini = 0.4999\nsamples = 93\nvalue = [47, 46]\nclass = cloudy"] ;
399 -> 405 ;
406 [label="gini = 0.5\nsamples = 42\nvalue = [21, 21]\nclass = cloudy"] ;
405 -> 406 ;
407 [label="gini = 0.4998\nsamples = 51\nvalue = [26, 25]\nclass = cloudy"] ;
405 -> 407 ;
408 [label="gini = 0.4849\nsamples = 46\nvalue = [27, 19]\nclass = cloudy"] ;
386 -> 408 ;
409 [label="GHI <= 211.5\ngini = 0.4967\nsamples = 222\nvalue = [102, 120]\nclass = clear"] ;
385 -> 409 ;
410 [label="gini = 0.4839\nsamples = 39\nvalue = [16, 23]\nclass = clear"] ;
409 -> 410 ;
411 [label="GHI <= 212.5\ngini = 0.4982\nsamples = 183\nvalue = [86, 97]\nclass = clear"] ;
409 -> 411 ;
412 [label="gini = 0.4959\nsamples = 44\nvalue = [20, 24]\nclass = clear"] ;
411 -> 412 ;
413 [label="Clearsky GHI <= 213.5\ngini = 0.4987\nsamples = 139\nvalue = [66, 73]\nclass = clear"] ;
411 -> 413 ;
414 [label="gini = 0.4998\nsamples = 53\nvalue = [26, 27]\nclass = clear"] ;
413 -> 414 ;
415 [label="Clearsky GHI <= 214.5\ngini = 0.4976\nsamples = 86\nvalue = [40, 46]\nclass = clear"] ;
413 -> 415 ;
416 [label="gini = 0.495\nsamples = 40\nvalue = [18, 22]\nclass = clear"] ;
415 -> 416 ;
417 [label="gini = 0.4991\nsamples = 46\nvalue = [22, 24]\nclass = clear"] ;
415 -> 417 ;
418 [label="GHI <= 218.5\ngini = 0.4895\nsamples = 1293\nvalue = [553, 740]\nclass = clear"] ;
384 -> 418 ;
419 [label="Clearsky GHI <= 216.5\ngini = 0.4586\nsamples = 132\nvalue = [47, 85]\nclass = clear"] ;
418 -> 419 ;
420 [label="gini = 0.4854\nsamples = 41\nvalue = [17, 24]\nclass = clear"] ;
419 -> 420 ;
421 [label="GHI <= 217.5\ngini = 0.442\nsamples = 91\nvalue = [30, 61]\nclass = clear"] ;
419 -> 421 ;
422 [label="gini = 0.4494\nsamples = 44\nvalue = [15, 29]\nclass = clear"] ;
421 -> 422 ;
423 [label="gini = 0.4346\nsamples = 47\nvalue = [15, 32]\nclass = clear"] ;
421 -> 423 ;
424 [label="GHI <= 228.5\ngini = 0.4918\nsamples = 1161\nvalue = [506, 655]\nclass = clear"] ;
418 -> 424 ;
425 [label="GHI <= 226.5\ngini = 0.499\nsamples = 360\nvalue = [172, 188]\nclass = clear"] ;
424 -> 425 ;
426 [label="Clearsky GHI <= 224.5\ngini = 0.4968\nsamples = 276\nvalue = [127, 149]\nclass = clear"] ;
425 -> 426 ;
427 [label="Clearsky GHI <= 222.5\ngini = 0.4987\nsamples = 219\nvalue = [104, 115]\nclass = clear"] ;
426 -> 427 ;
428 [label="Clearsky GHI <= 221.5\ngini = 0.4954\nsamples = 157\nvalue = [71, 86]\nclass = clear"] ;
427 -> 428 ;
429 [label="GHI <= 219.5\ngini = 0.4977\nsamples = 118\nvalue = [55, 63]\nclass = clear"] ;
428 -> 429 ;
430 [label="gini = 0.4985\nsamples = 36\nvalue = [17, 19]\nclass = clear"] ;
429 -> 430 ;
431 [label="Clearsky GHI <= 220.5\ngini = 0.4973\nsamples = 82\nvalue = [38, 44]\nclass = clear"] ;
429 -> 431 ;
432 [label="gini = 0.497\nsamples = 52\nvalue = [24, 28]\nclass = clear"] ;
431 -> 432 ;
433 [label="gini = 0.4978\nsamples = 30\nvalue = [14, 16]\nclass = clear"] ;
431 -> 433 ;
434 [label="gini = 0.4839\nsamples = 39\nvalue = [16, 23]\nclass = clear"] ;
428 -> 434 ;
435 [label="Clearsky GHI <= 223.5\ngini = 0.4979\nsamples = 62\nvalue = [33, 29]\nclass = cloudy"] ;
427 -> 435 ;
436 [label="gini = 0.4844\nsamples = 34\nvalue = [20, 14]\nclass = cloudy"] ;
435 -> 436 ;
437 [label="gini = 0.4974\nsamples = 28\nvalue = [13, 15]\nclass = clear"] ;
435 -> 437 ;
438 [label="GHI <= 225.5\ngini = 0.4814\nsamples = 57\nvalue = [23, 34]\nclass = clear"] ;
426 -> 438 ;
439 [label="gini = 0.4882\nsamples = 26\nvalue = [11, 15]\nclass = clear"] ;
438 -> 439 ;
440 [label="gini = 0.4745\nsamples = 31\nvalue = [12, 19]\nclass = clear"] ;
438 -> 440 ;
441 [label="GHI <= 227.5\ngini = 0.4974\nsamples = 84\nvalue = [45, 39]\nclass = cloudy"] ;
425 -> 441 ;
442 [label="gini = 0.4973\nsamples = 41\nvalue = [22, 19]\nclass = cloudy"] ;
441 -> 442 ;
443 [label="gini = 0.4976\nsamples = 43\nvalue = [23, 20]\nclass = cloudy"] ;
441 -> 443 ;
444 [label="Clearsky GHI <= 237.5\ngini = 0.4862\nsamples = 801\nvalue = [334, 467]\nclass = clear"] ;
424 -> 444 ;
445 [label="Clearsky GHI <= 233.5\ngini = 0.4773\nsamples = 394\nvalue = [155, 239]\nclass = clear"] ;
444 -> 445 ;
446 [label="Clearsky GHI <= 231.5\ngini = 0.4907\nsamples = 227\nvalue = [98, 129]\nclass = clear"] ;
445 -> 446 ;
447 [label="GHI <= 230.5\ngini = 0.4742\nsamples = 132\nvalue = [51, 81]\nclass = clear"] ;
446 -> 447 ;
448 [label="Clearsky GHI <= 229.5\ngini = 0.4888\nsamples = 80\nvalue = [34, 46]\nclass = clear"] ;
447 -> 448 ;
449 [label="gini = 0.437\nsamples = 31\nvalue = [10, 21]\nclass = clear"] ;
448 -> 449 ;
450 [label="gini = 0.4998\nsamples = 49\nvalue = [24, 25]\nclass = clear"] ;
448 -> 450 ;
451 [label="gini = 0.4401\nsamples = 52\nvalue = [17, 35]\nclass = clear"] ;
447 -> 451 ;
452 [label="GHI <= 232.5\ngini = 0.4999\nsamples = 95\nvalue = [47, 48]\nclass = clear"] ;
446 -> 452 ;
453 [label="gini = 0.4963\nsamples = 35\nvalue = [16, 19]\nclass = clear"] ;
452 -> 453 ;
454 [label="gini = 0.4994\nsamples = 60\nvalue = [31, 29]\nclass = cloudy"] ;
452 -> 454 ;
455 [label="Clearsky GHI <= 234.5\ngini = 0.4496\nsamples = 167\nvalue = [57, 110]\nclass = clear"] ;
445 -> 455 ;
456 [label="gini = 0.4002\nsamples = 47\nvalue = [13, 34]\nclass = clear"] ;
455 -> 456 ;
457 [label="Clearsky GHI <= 236.5\ngini = 0.4644\nsamples = 120\nvalue = [44, 76]\nclass = clear"] ;
455 -> 457 ;
458 [label="Clearsky GHI <= 235.5\ngini = 0.4789\nsamples = 73\nvalue = [29, 44]\nclass = clear"] ;
457 -> 458 ;
459 [label="gini = 0.4592\nsamples = 42\nvalue = [15, 27]\nclass = clear"] ;
458 -> 459 ;
460 [label="gini = 0.4953\nsamples = 31\nvalue = [14, 17]\nclass = clear"] ;
458 -> 460 ;
461 [label="gini = 0.4346\nsamples = 47\nvalue = [15, 32]\nclass = clear"] ;
457 -> 461 ;
462 [label="GHI <= 239.5\ngini = 0.4928\nsamples = 407\nvalue = [179, 228]\nclass = clear"] ;
444 -> 462 ;
463 [label="Clearsky GHI <= 238.5\ngini = 0.4988\nsamples = 103\nvalue = [49, 54]\nclass = clear"] ;
462 -> 463 ;
464 [label="gini = 0.4973\nsamples = 54\nvalue = [25, 29]\nclass = clear"] ;
463 -> 464 ;
465 [label="gini = 0.4998\nsamples = 49\nvalue = [24, 25]\nclass = clear"] ;
463 -> 465 ;
466 [label="Clearsky GHI <= 240.5\ngini = 0.4895\nsamples = 304\nvalue = [130, 174]\nclass = clear"] ;
462 -> 466 ;
467 [label="gini = 0.4561\nsamples = 54\nvalue = [19, 35]\nclass = clear"] ;
466 -> 467 ;
468 [label="GHI <= 242.5\ngini = 0.4937\nsamples = 250\nvalue = [111, 139]\nclass = clear"] ;
466 -> 468 ;
469 [label="GHI <= 241.5\ngini = 0.4998\nsamples = 94\nvalue = [46, 48]\nclass = clear"] ;
468 -> 469 ;
470 [label="gini = 0.4976\nsamples = 43\nvalue = [20, 23]\nclass = clear"] ;
469 -> 470 ;
471 [label="gini = 0.4998\nsamples = 51\nvalue = [26, 25]\nclass = cloudy"] ;
469 -> 471 ;
472 [label="Clearsky GHI <= 244.5\ngini = 0.4861\nsamples = 156\nvalue = [65, 91]\nclass = clear"] ;
468 -> 472 ;
473 [label="GHI <= 243.5\ngini = 0.4807\nsamples = 107\nvalue = [43, 64]\nclass = clear"] ;
472 -> 473 ;
474 [label="gini = 0.4844\nsamples = 51\nvalue = [21, 30]\nclass = clear"] ;
473 -> 474 ;
475 [label="gini = 0.477\nsamples = 56\nvalue = [22, 34]\nclass = clear"] ;
473 -> 475 ;
476 [label="gini = 0.4948\nsamples = 49\nvalue = [22, 27]\nclass = clear"] ;
472 -> 476 ;
477 [label="Clearsky GHI <= 289.5\ngini = 0.4612\nsamples = 3485\nvalue = [1257, 2228]\nclass = clear"] ;
109 -> 477 ;
478 [label="GHI <= 276.5\ngini = 0.4462\nsamples = 1845\nvalue = [620, 1225]\nclass = clear"] ;
477 -> 478 ;
479 [label="GHI <= 270.5\ngini = 0.4534\nsamples = 1278\nvalue = [444, 834]\nclass = clear"] ;
478 -> 479 ;
480 [label="Clearsky GHI <= 246.5\ngini = 0.4425\nsamples = 1053\nvalue = [348, 705]\nclass = clear"] ;
479 -> 480 ;
481 [label="gini = 0.3682\nsamples = 37\nvalue = [9, 28]\nclass = clear"] ;
480 -> 481 ;
482 [label="GHI <= 248.5\ngini = 0.4447\nsamples = 1016\nvalue = [339, 677]\nclass = clear"] ;
480 -> 482 ;
483 [label="Clearsky GHI <= 247.5\ngini = 0.4722\nsamples = 89\nvalue = [34, 55]\nclass = clear"] ;
482 -> 483 ;
484 [label="gini = 0.4764\nsamples = 46\nvalue = [18, 28]\nclass = clear"] ;
483 -> 484 ;
485 [label="gini = 0.4673\nsamples = 43\nvalue = [16, 27]\nclass = clear"] ;
483 -> 485 ;
486 [label="GHI <= 249.5\ngini = 0.4415\nsamples = 927\nvalue = [305, 622]\nclass = clear"] ;
482 -> 486 ;
487 [label="gini = 0.355\nsamples = 39\nvalue = [9, 30]\nclass = clear"] ;
486 -> 487 ;
488 [label="GHI <= 251.5\ngini = 0.4444\nsamples = 888\nvalue = [296, 592]\nclass = clear"] ;
486 -> 488 ;
489 [label="Clearsky GHI <= 250.5\ngini = 0.4778\nsamples = 76\nvalue = [30, 46]\nclass = clear"] ;
488 -> 489 ;
490 [label="gini = 0.48\nsamples = 35\nvalue = [14, 21]\nclass = clear"] ;
489 -> 490 ;
491 [label="gini = 0.4759\nsamples = 41\nvalue = [16, 25]\nclass = clear"] ;
489 -> 491 ;
492 [label="GHI <= 253.5\ngini = 0.4405\nsamples = 812\nvalue = [266, 546]\nclass = clear"] ;
488 -> 492 ;
493 [label="GHI <= 252.5\ngini = 0.4157\nsamples = 95\nvalue = [28, 67]\nclass = clear"] ;
492 -> 493 ;
494 [label="gini = 0.4488\nsamples = 50\nvalue = [17, 33]\nclass = clear"] ;
493 -> 494 ;
495 [label="gini = 0.3694\nsamples = 45\nvalue = [11, 34]\nclass = clear"] ;
493 -> 495 ;
496 [label="GHI <= 258.5\ngini = 0.4435\nsamples = 717\nvalue = [238, 479]\nclass = clear"] ;
492 -> 496 ;
497 [label="GHI <= 257.5\ngini = 0.4607\nsamples = 214\nvalue = [77, 137]\nclass = clear"] ;
496 -> 497 ;
498 [label="Clearsky GHI <= 254.5\ngini = 0.4531\nsamples = 173\nvalue = [60, 113]\nclass = clear"] ;
497 -> 498 ;
499 [label="gini = 0.4352\nsamples = 50\nvalue = [16, 34]\nclass = clear"] ;
498 -> 499 ;
500 [label="GHI <= 255.5\ngini = 0.4595\nsamples = 123\nvalue = [44, 79]\nclass = clear"] ;
498 -> 500 ;
501 [label="gini = 0.4734\nsamples = 39\nvalue = [15, 24]\nclass = clear"] ;
500 -> 501 ;
502 [label="Clearsky GHI <= 256.5\ngini = 0.4521\nsamples = 84\nvalue = [29, 55]\nclass = clear"] ;
500 -> 502 ;
503 [label="gini = 0.4583\nsamples = 45\nvalue = [16, 29]\nclass = clear"] ;
502 -> 503 ;
504 [label="gini = 0.4444\nsamples = 39\nvalue = [13, 26]\nclass = clear"] ;
502 -> 504 ;
505 [label="gini = 0.4854\nsamples = 41\nvalue = [17, 24]\nclass = clear"] ;
497 -> 505 ;
506 [label="GHI <= 261.5\ngini = 0.4353\nsamples = 503\nvalue = [161, 342]\nclass = clear"] ;
496 -> 506 ;
507 [label="GHI <= 260.5\ngini = 0.4102\nsamples = 118\nvalue = [34, 84]\nclass = clear"] ;
506 -> 507 ;
508 [label="GHI <= 259.5\ngini = 0.4221\nsamples = 76\nvalue = [23, 53]\nclass = clear"] ;
507 -> 508 ;
509 [label="gini = 0.4082\nsamples = 35\nvalue = [10, 25]\nclass = clear"] ;
508 -> 509 ;
510 [label="gini = 0.4331\nsamples = 41\nvalue = [13, 28]\nclass = clear"] ;
508 -> 510 ;
511 [label="gini = 0.3866\nsamples = 42\nvalue = [11, 31]\nclass = clear"] ;
507 -> 511 ;
512 [label="Clearsky GHI <= 262.5\ngini = 0.4421\nsamples = 385\nvalue = [127, 258]\nclass = clear"] ;
506 -> 512 ;
513 [label="gini = 0.4781\nsamples = 43\nvalue = [17, 26]\nclass = clear"] ;
512 -> 513 ;
514 [label="Clearsky GHI <= 265.5\ngini = 0.4364\nsamples = 342\nvalue = [110, 232]\nclass = clear"] ;
512 -> 514 ;
515 [label="Clearsky GHI <= 263.5\ngini = 0.418\nsamples = 121\nvalue = [36, 85]\nclass = clear"] ;
514 -> 515 ;
516 [label="gini = 0.4444\nsamples = 48\nvalue = [16, 32]\nclass = clear"] ;
515 -> 516 ;
517 [label="Clearsky GHI <= 264.5\ngini = 0.3978\nsamples = 73\nvalue = [20, 53]\nclass = clear"] ;
515 -> 517 ;
518 [label="gini = 0.375\nsamples = 44\nvalue = [11, 33]\nclass = clear"] ;
517 -> 518 ;
519 [label="gini = 0.4281\nsamples = 29\nvalue = [9, 20]\nclass = clear"] ;
517 -> 519 ;
520 [label="Clearsky GHI <= 266.5\ngini = 0.4454\nsamples = 221\nvalue = [74, 147]\nclass = clear"] ;
514 -> 520 ;
521 [label="gini = 0.4346\nsamples = 47\nvalue = [15, 32]\nclass = clear"] ;
520 -> 521 ;
522 [label="GHI <= 267.5\ngini = 0.4482\nsamples = 174\nvalue = [59, 115]\nclass = clear"] ;
520 -> 522 ;
523 [label="gini = 0.4575\nsamples = 48\nvalue = [17, 31]\nclass = clear"] ;
522 -> 523 ;
524 [label="Clearsky GHI <= 269.5\ngini = 0.4444\nsamples = 126\nvalue = [42, 84]\nclass = clear"] ;
522 -> 524 ;
525 [label="GHI <= 268.5\ngini = 0.4417\nsamples = 82\nvalue = [27, 55]\nclass = clear"] ;
524 -> 525 ;
526 [label="gini = 0.4444\nsamples = 42\nvalue = [14, 28]\nclass = clear"] ;
525 -> 526 ;
527 [label="gini = 0.4388\nsamples = 40\nvalue = [13, 27]\nclass = clear"] ;
525 -> 527 ;
528 [label="gini = 0.4494\nsamples = 44\nvalue = [15, 29]\nclass = clear"] ;
524 -> 528 ;
529 [label="Clearsky GHI <= 272.5\ngini = 0.4892\nsamples = 225\nvalue = [96, 129]\nclass = clear"] ;
479 -> 529 ;
530 [label="Clearsky GHI <= 271.5\ngini = 0.4979\nsamples = 77\nvalue = [36, 41]\nclass = clear"] ;
529 -> 530 ;
531 [label="gini = 0.4932\nsamples = 43\nvalue = [19, 24]\nclass = clear"] ;
530 -> 531 ;
532 [label="gini = 0.5\nsamples = 34\nvalue = [17, 17]\nclass = cloudy"] ;
530 -> 532 ;
533 [label="GHI <= 273.5\ngini = 0.4821\nsamples = 148\nvalue = [60, 88]\nclass = clear"] ;
529 -> 533 ;
534 [label="gini = 0.3578\nsamples = 30\nvalue = [7, 23]\nclass = clear"] ;
533 -> 534 ;
535 [label="Clearsky GHI <= 275.5\ngini = 0.4948\nsamples = 118\nvalue = [53, 65]\nclass = clear"] ;
533 -> 535 ;
536 [label="GHI <= 274.5\ngini = 0.4898\nsamples = 77\nvalue = [33, 44]\nclass = clear"] ;
535 -> 536 ;
537 [label="gini = 0.4907\nsamples = 44\nvalue = [19, 25]\nclass = clear"] ;
536 -> 537 ;
538 [label="gini = 0.4885\nsamples = 33\nvalue = [14, 19]\nclass = clear"] ;
536 -> 538 ;
539 [label="gini = 0.4997\nsamples = 41\nvalue = [20, 21]\nclass = clear"] ;
535 -> 539 ;
540 [label="Clearsky GHI <= 279.5\ngini = 0.4281\nsamples = 567\nvalue = [176, 391]\nclass = clear"] ;
478 -> 540 ;
541 [label="Clearsky GHI <= 277.5\ngini = 0.3621\nsamples = 139\nvalue = [33, 106]\nclass = clear"] ;
540 -> 541 ;
542 [label="gini = 0.3807\nsamples = 43\nvalue = [11, 32]\nclass = clear"] ;
541 -> 542 ;
543 [label="Clearsky GHI <= 278.5\ngini = 0.3533\nsamples = 96\nvalue = [22, 74]\nclass = clear"] ;
541 -> 543 ;
544 [label="gini = 0.3403\nsamples = 46\nvalue = [10, 36]\nclass = clear"] ;
543 -> 544 ;
545 [label="gini = 0.3648\nsamples = 50\nvalue = [12, 38]\nclass = clear"] ;
543 -> 545 ;
546 [label="GHI <= 280.5\ngini = 0.445\nsamples = 428\nvalue = [143, 285]\nclass = clear"] ;
540 -> 546 ;
547 [label="gini = 0.4888\nsamples = 40\nvalue = [17, 23]\nclass = clear"] ;
546 -> 547 ;
548 [label="GHI <= 281.5\ngini = 0.4386\nsamples = 388\nvalue = [126, 262]\nclass = clear"] ;
546 -> 548 ;
549 [label="gini = 0.3427\nsamples = 41\nvalue = [9, 32]\nclass = clear"] ;
548 -> 549 ;
550 [label="Clearsky GHI <= 284.5\ngini = 0.447\nsamples = 347\nvalue = [117, 230]\nclass = clear"] ;
548 -> 550 ;
551 [label="GHI <= 283.5\ngini = 0.4698\nsamples = 122\nvalue = [46, 76]\nclass = clear"] ;
550 -> 551 ;
552 [label="Clearsky GHI <= 282.5\ngini = 0.4444\nsamples = 84\nvalue = [28, 56]\nclass = clear"] ;
551 -> 552 ;
553 [label="gini = 0.4395\nsamples = 46\nvalue = [15, 31]\nclass = clear"] ;
552 -> 553 ;
554 [label="gini = 0.4501\nsamples = 38\nvalue = [13, 25]\nclass = clear"] ;
552 -> 554 ;
555 [label="gini = 0.4986\nsamples = 38\nvalue = [18, 20]\nclass = clear"] ;
551 -> 555 ;
556 [label="GHI <= 288.5\ngini = 0.432\nsamples = 225\nvalue = [71, 154]\nclass = clear"] ;
550 -> 556 ;
557 [label="Clearsky GHI <= 287.5\ngini = 0.4244\nsamples = 180\nvalue = [55, 125]\nclass = clear"] ;
556 -> 557 ;
558 [label="Clearsky GHI <= 286.5\ngini = 0.4392\nsamples = 129\nvalue = [42, 87]\nclass = clear"] ;
557 -> 558 ;
559 [label="Clearsky GHI <= 285.5\ngini = 0.4444\nsamples = 84\nvalue = [28, 56]\nclass = clear"] ;
558 -> 559 ;
560 [label="gini = 0.4444\nsamples = 48\nvalue = [16, 32]\nclass = clear"] ;
559 -> 560 ;
561 [label="gini = 0.4444\nsamples = 36\nvalue = [12, 24]\nclass = clear"] ;
559 -> 561 ;
562 [label="gini = 0.4286\nsamples = 45\nvalue = [14, 31]\nclass = clear"] ;
558 -> 562 ;
563 [label="gini = 0.3799\nsamples = 51\nvalue = [13, 38]\nclass = clear"] ;
557 -> 563 ;
564 [label="gini = 0.4583\nsamples = 45\nvalue = [16, 29]\nclass = clear"] ;
556 -> 564 ;
565 [label="GHI <= 310.5\ngini = 0.4751\nsamples = 1640\nvalue = [637, 1003]\nclass = clear"] ;
477 -> 565 ;
566 [label="GHI <= 309.5\ngini = 0.4838\nsamples = 995\nvalue = [408, 587]\nclass = clear"] ;
565 -> 566 ;
567 [label="GHI <= 303.5\ngini = 0.4817\nsamples = 940\nvalue = [380, 560]\nclass = clear"] ;
566 -> 567 ;
568 [label="Clearsky GHI <= 302.5\ngini = 0.488\nsamples = 601\nvalue = [254, 347]\nclass = clear"] ;
567 -> 568 ;
569 [label="Clearsky GHI <= 301.5\ngini = 0.4851\nsamples = 551\nvalue = [228, 323]\nclass = clear"] ;
568 -> 569 ;
570 [label="Clearsky GHI <= 298.5\ngini = 0.4881\nsamples = 506\nvalue = [214, 292]\nclass = clear"] ;
569 -> 570 ;
571 [label="GHI <= 291.5\ngini = 0.4802\nsamples = 377\nvalue = [151, 226]\nclass = clear"] ;
570 -> 571 ;
572 [label="Clearsky GHI <= 290.5\ngini = 0.4987\nsamples = 78\nvalue = [37, 41]\nclass = clear"] ;
571 -> 572 ;
573 [label="gini = 0.4945\nsamples = 38\nvalue = [17, 21]\nclass = clear"] ;
572 -> 573 ;
574 [label="gini = 0.5\nsamples = 40\nvalue = [20, 20]\nclass = cloudy"] ;
572 -> 574 ;
575 [label="Clearsky GHI <= 293.5\ngini = 0.4718\nsamples = 299\nvalue = [114, 185]\nclass = clear"] ;
571 -> 575 ;
576 [label="GHI <= 292.5\ngini = 0.4082\nsamples = 84\nvalue = [24, 60]\nclass = clear"] ;
575 -> 576 ;
577 [label="gini = 0.4395\nsamples = 46\nvalue = [15, 31]\nclass = clear"] ;
576 -> 577 ;
578 [label="gini = 0.3615\nsamples = 38\nvalue = [9, 29]\nclass = clear"] ;
576 -> 578 ;
579 [label="Clearsky GHI <= 296.5\ngini = 0.4867\nsamples = 215\nvalue = [90, 125]\nclass = clear"] ;
575 -> 579 ;
580 [label="GHI <= 294.5\ngini = 0.4992\nsamples = 123\nvalue = [59, 64]\nclass = clear"] ;
579 -> 580 ;
581 [label="gini = 0.4918\nsamples = 39\nvalue = [22, 17]\nclass = cloudy"] ;
580 -> 581 ;
582 [label="GHI <= 295.5\ngini = 0.4929\nsamples = 84\nvalue = [37, 47]\nclass = clear"] ;
580 -> 582 ;
583 [label="gini = 0.48\nsamples = 45\nvalue = [18, 27]\nclass = clear"] ;
582 -> 583 ;
584 [label="gini = 0.4997\nsamples = 39\nvalue = [19, 20]\nclass = clear"] ;
582 -> 584 ;
585 [label="Clearsky GHI <= 297.5\ngini = 0.4468\nsamples = 92\nvalue = [31, 61]\nclass = clear"] ;
579 -> 585 ;
586 [label="gini = 0.4567\nsamples = 51\nvalue = [18, 33]\nclass = clear"] ;
585 -> 586 ;
587 [label="gini = 0.4331\nsamples = 41\nvalue = [13, 28]\nclass = clear"] ;
585 -> 587 ;
588 [label="GHI <= 299.5\ngini = 0.4997\nsamples = 129\nvalue = [63, 66]\nclass = clear"] ;
570 -> 588 ;
589 [label="gini = 0.497\nsamples = 39\nvalue = [18, 21]\nclass = clear"] ;
588 -> 589 ;
590 [label="GHI <= 300.5\ngini = 0.5\nsamples = 90\nvalue = [45, 45]\nclass = cloudy"] ;
588 -> 590 ;
591 [label="gini = 0.4996\nsamples = 37\nvalue = [18, 19]\nclass = clear"] ;
590 -> 591 ;
592 [label="gini = 0.4998\nsamples = 53\nvalue = [27, 26]\nclass = cloudy"] ;
590 -> 592 ;
593 [label="gini = 0.4286\nsamples = 45\nvalue = [14, 31]\nclass = clear"] ;
569 -> 593 ;
594 [label="gini = 0.4992\nsamples = 50\nvalue = [26, 24]\nclass = cloudy"] ;
568 -> 594 ;
595 [label="GHI <= 306.5\ngini = 0.4671\nsamples = 339\nvalue = [126, 213]\nclass = clear"] ;
567 -> 595 ;
596 [label="GHI <= 305.5\ngini = 0.4548\nsamples = 163\nvalue = [57, 106]\nclass = clear"] ;
595 -> 596 ;
597 [label="Clearsky GHI <= 304.5\ngini = 0.4671\nsamples = 113\nvalue = [42, 71]\nclass = clear"] ;
596 -> 597 ;
598 [label="gini = 0.4604\nsamples = 64\nvalue = [23, 41]\nclass = clear"] ;
597 -> 598 ;
599 [label="gini = 0.4748\nsamples = 49\nvalue = [19, 30]\nclass = clear"] ;
597 -> 599 ;
600 [label="gini = 0.42\nsamples = 50\nvalue = [15, 35]\nclass = clear"] ;
596 -> 600 ;
601 [label="GHI <= 307.5\ngini = 0.4767\nsamples = 176\nvalue = [69, 107]\nclass = clear"] ;
595 -> 601 ;
602 [label="gini = 0.4986\nsamples = 57\nvalue = [27, 30]\nclass = clear"] ;
601 -> 602 ;
603 [label="Clearsky GHI <= 308.5\ngini = 0.4567\nsamples = 119\nvalue = [42, 77]\nclass = clear"] ;
601 -> 603 ;
604 [label="gini = 0.4561\nsamples = 54\nvalue = [19, 35]\nclass = clear"] ;
603 -> 604 ;
605 [label="gini = 0.4573\nsamples = 65\nvalue = [23, 42]\nclass = clear"] ;
603 -> 605 ;
606 [label="gini = 0.4998\nsamples = 55\nvalue = [28, 27]\nclass = cloudy"] ;
566 -> 606 ;
607 [label="Clearsky GHI <= 315.5\ngini = 0.458\nsamples = 645\nvalue = [229, 416]\nclass = clear"] ;
565 -> 607 ;
608 [label="GHI <= 314.5\ngini = 0.4332\nsamples = 312\nvalue = [99, 213]\nclass = clear"] ;
607 -> 608 ;
609 [label="Clearsky GHI <= 313.5\ngini = 0.4541\nsamples = 241\nvalue = [84, 157]\nclass = clear"] ;
608 -> 609 ;
610 [label="Clearsky GHI <= 311.5\ngini = 0.4182\nsamples = 178\nvalue = [53, 125]\nclass = clear"] ;
609 -> 610 ;
611 [label="gini = 0.4281\nsamples = 58\nvalue = [18, 40]\nclass = clear"] ;
610 -> 611 ;
612 [label="GHI <= 312.5\ngini = 0.4132\nsamples = 120\nvalue = [35, 85]\nclass = clear"] ;
610 -> 612 ;
613 [label="gini = 0.4175\nsamples = 64\nvalue = [19, 45]\nclass = clear"] ;
612 -> 613 ;
614 [label="gini = 0.4082\nsamples = 56\nvalue = [16, 40]\nclass = clear"] ;
612 -> 614 ;
615 [label="gini = 0.4999\nsamples = 63\nvalue = [31, 32]\nclass = clear"] ;
609 -> 615 ;
616 [label="gini = 0.3333\nsamples = 71\nvalue = [15, 56]\nclass = clear"] ;
608 -> 616 ;
617 [label="Clearsky GHI <= 320.5\ngini = 0.476\nsamples = 333\nvalue = [130, 203]\nclass = clear"] ;
607 -> 617 ;
618 [label="GHI <= 316.5\ngini = 0.4789\nsamples = 287\nvalue = [114, 173]\nclass = clear"] ;
617 -> 618 ;
619 [label="gini = 0.4878\nsamples = 64\nvalue = [27, 37]\nclass = clear"] ;
618 -> 619 ;
620 [label="Clearsky GHI <= 317.5\ngini = 0.4759\nsamples = 223\nvalue = [87, 136]\nclass = clear"] ;
618 -> 620 ;
621 [label="gini = 0.4598\nsamples = 67\nvalue = [24, 43]\nclass = clear"] ;
620 -> 621 ;
622 [label="Clearsky GHI <= 318.5\ngini = 0.4815\nsamples = 156\nvalue = [63, 93]\nclass = clear"] ;
620 -> 622 ;
623 [label="gini = 0.4905\nsamples = 58\nvalue = [25, 33]\nclass = clear"] ;
622 -> 623 ;
624 [label="Clearsky GHI <= 319.5\ngini = 0.4748\nsamples = 98\nvalue = [38, 60]\nclass = clear"] ;
622 -> 624 ;
625 [label="gini = 0.4781\nsamples = 43\nvalue = [17, 26]\nclass = clear"] ;
624 -> 625 ;
626 [label="gini = 0.4721\nsamples = 55\nvalue = [21, 34]\nclass = clear"] ;
624 -> 626 ;
627 [label="gini = 0.4537\nsamples = 46\nvalue = [16, 30]\nclass = clear"] ;
617 -> 627 ;
628 [label="Clearsky GHI <= 501.5\ngini = 0.3401\nsamples = 34300\nvalue = [7452, 26848]\nclass = clear"] ;
2 -> 628 ;
629 [label="GHI <= 402.5\ngini = 0.4055\nsamples = 9464\nvalue = [2675, 6789]\nclass = clear"] ;
628 -> 629 ;
630 [label="GHI <= 396.5\ngini = 0.4298\nsamples = 3716\nvalue = [1162, 2554]\nclass = clear"] ;
629 -> 630 ;
631 [label="GHI <= 389.5\ngini = 0.4282\nsamples = 3391\nvalue = [1053, 2338]\nclass = clear"] ;
630 -> 631 ;
632 [label="GHI <= 384.5\ngini = 0.4313\nsamples = 3007\nvalue = [946, 2061]\nclass = clear"] ;
631 -> 632 ;
633 [label="GHI <= 372.5\ngini = 0.4282\nsamples = 2715\nvalue = [843, 1872]\nclass = clear"] ;
632 -> 633 ;
634 [label="GHI <= 347.5\ngini = 0.4329\nsamples = 2108\nvalue = [668, 1440]\nclass = clear"] ;
633 -> 634 ;
635 [label="Clearsky GHI <= 346.5\ngini = 0.4252\nsamples = 1099\nvalue = [337, 762]\nclass = clear"] ;
634 -> 635 ;
636 [label="GHI <= 327.5\ngini = 0.4291\nsamples = 1062\nvalue = [331, 731]\nclass = clear"] ;
635 -> 636 ;
637 [label="Clearsky GHI <= 326.5\ngini = 0.4444\nsamples = 282\nvalue = [94, 188]\nclass = clear"] ;
636 -> 637 ;
638 [label="GHI <= 325.5\ngini = 0.4333\nsamples = 230\nvalue = [73, 157]\nclass = clear"] ;
637 -> 638 ;
639 [label="Clearsky GHI <= 324.5\ngini = 0.4469\nsamples = 178\nvalue = [60, 118]\nclass = clear"] ;
638 -> 639 ;
640 [label="GHI <= 323.5\ngini = 0.4265\nsamples = 133\nvalue = [41, 92]\nclass = clear"] ;
639 -> 640 ;
641 [label="GHI <= 322.5\ngini = 0.42\nsamples = 100\nvalue = [30, 70]\nclass = clear"] ;
640 -> 641 ;
642 [label="gini = 0.4367\nsamples = 59\nvalue = [19, 40]\nclass = clear"] ;
641 -> 642 ;
643 [label="gini = 0.3926\nsamples = 41\nvalue = [11, 30]\nclass = clear"] ;
641 -> 643 ;
644 [label="gini = 0.4444\nsamples = 33\nvalue = [11, 22]\nclass = clear"] ;
640 -> 644 ;
645 [label="gini = 0.4879\nsamples = 45\nvalue = [19, 26]\nclass = clear"] ;
639 -> 645 ;
646 [label="gini = 0.375\nsamples = 52\nvalue = [13, 39]\nclass = clear"] ;
638 -> 646 ;
647 [label="gini = 0.4815\nsamples = 52\nvalue = [21, 31]\nclass = clear"] ;
637 -> 647 ;
648 [label="GHI <= 330.5\ngini = 0.423\nsamples = 780\nvalue = [237, 543]\nclass = clear"] ;
636 -> 648 ;
649 [label="GHI <= 329.5\ngini = 0.3859\nsamples = 134\nvalue = [35, 99]\nclass = clear"] ;
648 -> 649 ;
650 [label="Clearsky GHI <= 328.5\ngini = 0.3803\nsamples = 94\nvalue = [24, 70]\nclass = clear"] ;
649 -> 650 ;
651 [label="gini = 0.375\nsamples = 44\nvalue = [11, 33]\nclass = clear"] ;
650 -> 651 ;
652 [label="gini = 0.3848\nsamples = 50\nvalue = [13, 37]\nclass = clear"] ;
650 -> 652 ;
653 [label="gini = 0.3988\nsamples = 40\nvalue = [11, 29]\nclass = clear"] ;
649 -> 653 ;
654 [label="GHI <= 336.5\ngini = 0.4298\nsamples = 646\nvalue = [202, 444]\nclass = clear"] ;
648 -> 654 ;
655 [label="GHI <= 334.5\ngini = 0.4487\nsamples = 256\nvalue = [87, 169]\nclass = clear"] ;
654 -> 655 ;
656 [label="GHI <= 333.5\ngini = 0.4365\nsamples = 174\nvalue = [56, 118]\nclass = clear"] ;
655 -> 656 ;
657 [label="Clearsky GHI <= 331.5\ngini = 0.4462\nsamples = 125\nvalue = [42, 83]\nclass = clear"] ;
656 -> 657 ;
658 [label="gini = 0.4543\nsamples = 43\nvalue = [15, 28]\nclass = clear"] ;
657 -> 658 ;
659 [label="Clearsky GHI <= 332.5\ngini = 0.4417\nsamples = 82\nvalue = [27, 55]\nclass = clear"] ;
657 -> 659 ;
660 [label="gini = 0.4444\nsamples = 36\nvalue = [12, 24]\nclass = clear"] ;
659 -> 660 ;
661 [label="gini = 0.4395\nsamples = 46\nvalue = [15, 31]\nclass = clear"] ;
659 -> 661 ;
662 [label="gini = 0.4082\nsamples = 49\nvalue = [14, 35]\nclass = clear"] ;
656 -> 662 ;
663 [label="GHI <= 335.5\ngini = 0.4703\nsamples = 82\nvalue = [31, 51]\nclass = clear"] ;
655 -> 663 ;
664 [label="gini = 0.4819\nsamples = 42\nvalue = [17, 25]\nclass = clear"] ;
663 -> 664 ;
665 [label="gini = 0.455\nsamples = 40\nvalue = [14, 26]\nclass = clear"] ;
663 -> 665 ;
666 [label="GHI <= 339.5\ngini = 0.4158\nsamples = 390\nvalue = [115, 275]\nclass = clear"] ;
654 -> 666 ;
667 [label="Clearsky GHI <= 338.5\ngini = 0.373\nsamples = 125\nvalue = [31, 94]\nclass = clear"] ;
666 -> 667 ;
668 [label="GHI <= 337.5\ngini = 0.3866\nsamples = 84\nvalue = [22, 62]\nclass = clear"] ;
667 -> 668 ;
669 [label="gini = 0.3803\nsamples = 47\nvalue = [12, 35]\nclass = clear"] ;
668 -> 669 ;
670 [label="gini = 0.3944\nsamples = 37\nvalue = [10, 27]\nclass = clear"] ;
668 -> 670 ;
671 [label="gini = 0.3427\nsamples = 41\nvalue = [9, 32]\nclass = clear"] ;
667 -> 671 ;
672 [label="Clearsky GHI <= 341.5\ngini = 0.433\nsamples = 265\nvalue = [84, 181]\nclass = clear"] ;
666 -> 672 ;
673 [label="GHI <= 340.5\ngini = 0.4688\nsamples = 80\nvalue = [30, 50]\nclass = clear"] ;
672 -> 673 ;
674 [label="gini = 0.4781\nsamples = 43\nvalue = [17, 26]\nclass = clear"] ;
673 -> 674 ;
675 [label="gini = 0.4558\nsamples = 37\nvalue = [13, 24]\nclass = clear"] ;
673 -> 675 ;
676 [label="Clearsky GHI <= 344.5\ngini = 0.4134\nsamples = 185\nvalue = [54, 131]\nclass = clear"] ;
672 -> 676 ;
677 [label="Clearsky GHI <= 343.5\ngini = 0.3772\nsamples = 115\nvalue = [29, 86]\nclass = clear"] ;
676 -> 677 ;
678 [label="GHI <= 342.5\ngini = 0.3648\nsamples = 75\nvalue = [18, 57]\nclass = clear"] ;
677 -> 678 ;
679 [label="gini = 0.3628\nsamples = 42\nvalue = [10, 32]\nclass = clear"] ;
678 -> 679 ;
680 [label="gini = 0.3673\nsamples = 33\nvalue = [8, 25]\nclass = clear"] ;
678 -> 680 ;
681 [label="gini = 0.3988\nsamples = 40\nvalue = [11, 29]\nclass = clear"] ;
677 -> 681 ;
682 [label="GHI <= 345.5\ngini = 0.4592\nsamples = 70\nvalue = [25, 45]\nclass = clear"] ;
676 -> 682 ;
683 [label="gini = 0.4558\nsamples = 37\nvalue = [13, 24]\nclass = clear"] ;
682 -> 683 ;
684 [label="gini = 0.4628\nsamples = 33\nvalue = [12, 21]\nclass = clear"] ;
682 -> 684 ;
685 [label="gini = 0.2717\nsamples = 37\nvalue = [6, 31]\nclass = clear"] ;
635 -> 685 ;
686 [label="GHI <= 351.5\ngini = 0.4409\nsamples = 1009\nvalue = [331, 678]\nclass = clear"] ;
634 -> 686 ;
687 [label="GHI <= 350.5\ngini = 0.4892\nsamples = 143\nvalue = [61, 82]\nclass = clear"] ;
686 -> 687 ;
688 [label="GHI <= 349.5\ngini = 0.4925\nsamples = 114\nvalue = [50, 64]\nclass = clear"] ;
687 -> 688 ;
689 [label="GHI <= 348.5\ngini = 0.4875\nsamples = 76\nvalue = [32, 44]\nclass = clear"] ;
688 -> 689 ;
690 [label="gini = 0.4959\nsamples = 44\nvalue = [20, 24]\nclass = clear"] ;
689 -> 690 ;
691 [label="gini = 0.4688\nsamples = 32\nvalue = [12, 20]\nclass = clear"] ;
689 -> 691 ;
692 [label="gini = 0.4986\nsamples = 38\nvalue = [18, 20]\nclass = clear"] ;
688 -> 692 ;
693 [label="gini = 0.4709\nsamples = 29\nvalue = [11, 18]\nclass = clear"] ;
687 -> 693 ;
694 [label="GHI <= 352.5\ngini = 0.4291\nsamples = 866\nvalue = [270, 596]\nclass = clear"] ;
686 -> 694 ;
695 [label="gini = 0.2509\nsamples = 34\nvalue = [5, 29]\nclass = clear"] ;
694 -> 695 ;
696 [label="GHI <= 360.5\ngini = 0.4341\nsamples = 832\nvalue = [265, 567]\nclass = clear"] ;
694 -> 696 ;
697 [label="GHI <= 357.5\ngini = 0.4163\nsamples = 308\nvalue = [91, 217]\nclass = clear"] ;
696 -> 697 ;
698 [label="Clearsky GHI <= 356.5\ngini = 0.4444\nsamples = 192\nvalue = [64, 128]\nclass = clear"] ;
697 -> 698 ;
699 [label="Clearsky GHI <= 354.5\ngini = 0.4159\nsamples = 139\nvalue = [41, 98]\nclass = clear"] ;
698 -> 699 ;
700 [label="GHI <= 353.5\ngini = 0.4348\nsamples = 72\nvalue = [23, 49]\nclass = clear"] ;
699 -> 700 ;
701 [label="gini = 0.42\nsamples = 30\nvalue = [9, 21]\nclass = clear"] ;
700 -> 701 ;
702 [label="gini = 0.4444\nsamples = 42\nvalue = [14, 28]\nclass = clear"] ;
700 -> 702 ;
703 [label="Clearsky GHI <= 355.5\ngini = 0.393\nsamples = 67\nvalue = [18, 49]\nclass = clear"] ;
699 -> 703 ;
704 [label="gini = 0.4043\nsamples = 32\nvalue = [9, 23]\nclass = clear"] ;
703 -> 704 ;
705 [label="gini = 0.382\nsamples = 35\nvalue = [9, 26]\nclass = clear"] ;
703 -> 705 ;
706 [label="gini = 0.4913\nsamples = 53\nvalue = [23, 30]\nclass = clear"] ;
698 -> 706 ;
707 [label="Clearsky GHI <= 358.5\ngini = 0.3572\nsamples = 116\nvalue = [27, 89]\nclass = clear"] ;
697 -> 707 ;
708 [label="gini = 0.3389\nsamples = 37\nvalue = [8, 29]\nclass = clear"] ;
707 -> 708 ;
709 [label="GHI <= 359.5\ngini = 0.3653\nsamples = 79\nvalue = [19, 60]\nclass = clear"] ;
707 -> 709 ;
710 [label="gini = 0.375\nsamples = 48\nvalue = [12, 36]\nclass = clear"] ;
709 -> 710 ;
711 [label="gini = 0.3496\nsamples = 31\nvalue = [7, 24]\nclass = clear"] ;
709 -> 711 ;
712 [label="GHI <= 362.5\ngini = 0.4436\nsamples = 524\nvalue = [174, 350]\nclass = clear"] ;
696 -> 712 ;
713 [label="Clearsky GHI <= 361.5\ngini = 0.4734\nsamples = 91\nvalue = [35, 56]\nclass = clear"] ;
712 -> 713 ;
714 [label="gini = 0.4628\nsamples = 44\nvalue = [16, 28]\nclass = clear"] ;
713 -> 714 ;
715 [label="gini = 0.4817\nsamples = 47\nvalue = [19, 28]\nclass = clear"] ;
713 -> 715 ;
716 [label="GHI <= 363.5\ngini = 0.4359\nsamples = 433\nvalue = [139, 294]\nclass = clear"] ;
712 -> 716 ;
717 [label="gini = 0.3496\nsamples = 31\nvalue = [7, 24]\nclass = clear"] ;
716 -> 717 ;
718 [label="GHI <= 371.5\ngini = 0.4411\nsamples = 402\nvalue = [132, 270]\nclass = clear"] ;
716 -> 718 ;
719 [label="GHI <= 366.5\ngini = 0.4361\nsamples = 358\nvalue = [115, 243]\nclass = clear"] ;
718 -> 719 ;
720 [label="GHI <= 365.5\ngini = 0.4548\nsamples = 123\nvalue = [43, 80]\nclass = clear"] ;
719 -> 720 ;
721 [label="GHI <= 364.5\ngini = 0.4504\nsamples = 73\nvalue = [25, 48]\nclass = clear"] ;
720 -> 721 ;
722 [label="gini = 0.4567\nsamples = 34\nvalue = [12, 22]\nclass = clear"] ;
721 -> 722 ;
723 [label="gini = 0.4444\nsamples = 39\nvalue = [13, 26]\nclass = clear"] ;
721 -> 723 ;
724 [label="gini = 0.4608\nsamples = 50\nvalue = [18, 32]\nclass = clear"] ;
720 -> 724 ;
725 [label="Clearsky GHI <= 370.5\ngini = 0.425\nsamples = 235\nvalue = [72, 163]\nclass = clear"] ;
719 -> 725 ;
726 [label="Clearsky GHI <= 369.5\ngini = 0.4168\nsamples = 179\nvalue = [53, 126]\nclass = clear"] ;
725 -> 726 ;
727 [label="Clearsky GHI <= 368.5\ngini = 0.429\nsamples = 138\nvalue = [43, 95]\nclass = clear"] ;
726 -> 727 ;
728 [label="Clearsky GHI <= 367.5\ngini = 0.4109\nsamples = 90\nvalue = [26, 64]\nclass = clear"] ;
727 -> 728 ;
729 [label="gini = 0.4163\nsamples = 44\nvalue = [13, 31]\nclass = clear"] ;
728 -> 729 ;
730 [label="gini = 0.4055\nsamples = 46\nvalue = [13, 33]\nclass = clear"] ;
728 -> 730 ;
731 [label="gini = 0.4575\nsamples = 48\nvalue = [17, 31]\nclass = clear"] ;
727 -> 731 ;
732 [label="gini = 0.3688\nsamples = 41\nvalue = [10, 31]\nclass = clear"] ;
726 -> 732 ;
733 [label="gini = 0.4483\nsamples = 56\nvalue = [19, 37]\nclass = clear"] ;
725 -> 733 ;
734 [label="gini = 0.4742\nsamples = 44\nvalue = [17, 27]\nclass = clear"] ;
718 -> 734 ;
735 [label="Clearsky GHI <= 378.5\ngini = 0.4104\nsamples = 607\nvalue = [175, 432]\nclass = clear"] ;
633 -> 735 ;
736 [label="Clearsky GHI <= 376.5\ngini = 0.3913\nsamples = 296\nvalue = [79, 217]\nclass = clear"] ;
735 -> 736 ;
737 [label="GHI <= 375.5\ngini = 0.4057\nsamples = 198\nvalue = [56, 142]\nclass = clear"] ;
736 -> 737 ;
738 [label="GHI <= 374.5\ngini = 0.3767\nsamples = 143\nvalue = [36, 107]\nclass = clear"] ;
737 -> 738 ;
739 [label="GHI <= 373.5\ngini = 0.4136\nsamples = 89\nvalue = [26, 63]\nclass = clear"] ;
738 -> 739 ;
740 [label="gini = 0.4082\nsamples = 42\nvalue = [12, 30]\nclass = clear"] ;
739 -> 740 ;
741 [label="gini = 0.4183\nsamples = 47\nvalue = [14, 33]\nclass = clear"] ;
739 -> 741 ;
742 [label="gini = 0.3018\nsamples = 54\nvalue = [10, 44]\nclass = clear"] ;
738 -> 742 ;
743 [label="gini = 0.4628\nsamples = 55\nvalue = [20, 35]\nclass = clear"] ;
737 -> 743 ;
744 [label="Clearsky GHI <= 377.5\ngini = 0.3592\nsamples = 98\nvalue = [23, 75]\nclass = clear"] ;
736 -> 744 ;
745 [label="gini = 0.3585\nsamples = 47\nvalue = [11, 36]\nclass = clear"] ;
744 -> 745 ;
746 [label="gini = 0.3599\nsamples = 51\nvalue = [12, 39]\nclass = clear"] ;
744 -> 746 ;
747 [label="GHI <= 383.5\ngini = 0.4268\nsamples = 311\nvalue = [96, 215]\nclass = clear"] ;
735 -> 747 ;
748 [label="Clearsky GHI <= 380.5\ngini = 0.4313\nsamples = 267\nvalue = [84, 183]\nclass = clear"] ;
747 -> 748 ;
749 [label="GHI <= 379.5\ngini = 0.4185\nsamples = 104\nvalue = [31, 73]\nclass = clear"] ;
748 -> 749 ;
750 [label="gini = 0.424\nsamples = 59\nvalue = [18, 41]\nclass = clear"] ;
749 -> 750 ;
751 [label="gini = 0.4109\nsamples = 45\nvalue = [13, 32]\nclass = clear"] ;
749 -> 751 ;
752 [label="GHI <= 381.5\ngini = 0.4389\nsamples = 163\nvalue = [53, 110]\nclass = clear"] ;
748 -> 752 ;
753 [label="gini = 0.4477\nsamples = 68\nvalue = [23, 45]\nclass = clear"] ;
752 -> 753 ;
754 [label="GHI <= 382.5\ngini = 0.4321\nsamples = 95\nvalue = [30, 65]\nclass = clear"] ;
752 -> 754 ;
755 [label="gini = 0.4271\nsamples = 55\nvalue = [17, 38]\nclass = clear"] ;
754 -> 755 ;
756 [label="gini = 0.4388\nsamples = 40\nvalue = [13, 27]\nclass = clear"] ;
754 -> 756 ;
757 [label="gini = 0.3967\nsamples = 44\nvalue = [12, 32]\nclass = clear"] ;
747 -> 757 ;
758 [label="GHI <= 385.5\ngini = 0.4566\nsamples = 292\nvalue = [103, 189]\nclass = clear"] ;
632 -> 758 ;
759 [label="gini = 0.495\nsamples = 60\nvalue = [27, 33]\nclass = clear"] ;
758 -> 759 ;
760 [label="Clearsky GHI <= 387.5\ngini = 0.4405\nsamples = 232\nvalue = [76, 156]\nclass = clear"] ;
758 -> 760 ;
761 [label="GHI <= 386.5\ngini = 0.4553\nsamples = 117\nvalue = [41, 76]\nclass = clear"] ;
760 -> 761 ;
762 [label="gini = 0.4321\nsamples = 57\nvalue = [18, 39]\nclass = clear"] ;
761 -> 762 ;
763 [label="gini = 0.4728\nsamples = 60\nvalue = [23, 37]\nclass = clear"] ;
761 -> 763 ;
764 [label="GHI <= 388.5\ngini = 0.4234\nsamples = 115\nvalue = [35, 80]\nclass = clear"] ;
760 -> 764 ;
765 [label="gini = 0.4038\nsamples = 57\nvalue = [16, 41]\nclass = clear"] ;
764 -> 765 ;
766 [label="gini = 0.4405\nsamples = 58\nvalue = [19, 39]\nclass = clear"] ;
764 -> 766 ;
767 [label="GHI <= 394.5\ngini = 0.402\nsamples = 384\nvalue = [107, 277]\nclass = clear"] ;
631 -> 767 ;
768 [label="GHI <= 393.5\ngini = 0.392\nsamples = 269\nvalue = [72, 197]\nclass = clear"] ;
767 -> 768 ;
769 [label="Clearsky GHI <= 391.5\ngini = 0.3982\nsamples = 226\nvalue = [62, 164]\nclass = clear"] ;
768 -> 769 ;
770 [label="GHI <= 390.5\ngini = 0.406\nsamples = 113\nvalue = [32, 81]\nclass = clear"] ;
769 -> 770 ;
771 [label="gini = 0.3878\nsamples = 57\nvalue = [15, 42]\nclass = clear"] ;
770 -> 771 ;
772 [label="gini = 0.4228\nsamples = 56\nvalue = [17, 39]\nclass = clear"] ;
770 -> 772 ;
773 [label="Clearsky GHI <= 392.5\ngini = 0.39\nsamples = 113\nvalue = [30, 83]\nclass = clear"] ;
769 -> 773 ;
774 [label="gini = 0.3922\nsamples = 56\nvalue = [15, 41]\nclass = clear"] ;
773 -> 774 ;
775 [label="gini = 0.3878\nsamples = 57\nvalue = [15, 42]\nclass = clear"] ;
773 -> 775 ;
776 [label="gini = 0.3569\nsamples = 43\nvalue = [10, 33]\nclass = clear"] ;
768 -> 776 ;
777 [label="GHI <= 395.5\ngini = 0.4234\nsamples = 115\nvalue = [35, 80]\nclass = clear"] ;
767 -> 777 ;
778 [label="gini = 0.4144\nsamples = 58\nvalue = [17, 41]\nclass = clear"] ;
777 -> 778 ;
779 [label="gini = 0.4321\nsamples = 57\nvalue = [18, 39]\nclass = clear"] ;
777 -> 779 ;
780 [label="Clearsky GHI <= 398.5\ngini = 0.4458\nsamples = 325\nvalue = [109, 216]\nclass = clear"] ;
630 -> 780 ;
781 [label="GHI <= 397.5\ngini = 0.4792\nsamples = 103\nvalue = [41, 62]\nclass = clear"] ;
780 -> 781 ;
782 [label="gini = 0.4829\nsamples = 54\nvalue = [22, 32]\nclass = clear"] ;
781 -> 782 ;
783 [label="gini = 0.4748\nsamples = 49\nvalue = [19, 30]\nclass = clear"] ;
781 -> 783 ;
784 [label="GHI <= 401.5\ngini = 0.425\nsamples = 222\nvalue = [68, 154]\nclass = clear"] ;
780 -> 784 ;
785 [label="GHI <= 399.5\ngini = 0.4097\nsamples = 160\nvalue = [46, 114]\nclass = clear"] ;
784 -> 785 ;
786 [label="gini = 0.4444\nsamples = 54\nvalue = [18, 36]\nclass = clear"] ;
785 -> 786 ;
787 [label="Clearsky GHI <= 400.5\ngini = 0.3888\nsamples = 106\nvalue = [28, 78]\nclass = clear"] ;
785 -> 787 ;
788 [label="gini = 0.361\nsamples = 55\nvalue = [13, 42]\nclass = clear"] ;
787 -> 788 ;
789 [label="gini = 0.4152\nsamples = 51\nvalue = [15, 36]\nclass = clear"] ;
787 -> 789 ;
790 [label="gini = 0.4579\nsamples = 62\nvalue = [22, 40]\nclass = clear"] ;
784 -> 790 ;
791 [label="GHI <= 495.5\ngini = 0.3879\nsamples = 5748\nvalue = [1513, 4235]\nclass = clear"] ;
629 -> 791 ;
792 [label="Clearsky GHI <= 424.5\ngini = 0.3845\nsamples = 5272\nvalue = [1369, 3903]\nclass = clear"] ;
791 -> 792 ;
793 [label="GHI <= 421.5\ngini = 0.3992\nsamples = 1176\nvalue = [324, 852]\nclass = clear"] ;
792 -> 793 ;
794 [label="Clearsky GHI <= 420.5\ngini = 0.3941\nsamples = 1019\nvalue = [275, 744]\nclass = clear"] ;
793 -> 794 ;
795 [label="Clearsky GHI <= 415.5\ngini = 0.3994\nsamples = 972\nvalue = [268, 704]\nclass = clear"] ;
794 -> 795 ;
796 [label="GHI <= 413.5\ngini = 0.3885\nsamples = 667\nvalue = [176, 491]\nclass = clear"] ;
795 -> 796 ;
797 [label="GHI <= 411.5\ngini = 0.3951\nsamples = 561\nvalue = [152, 409]\nclass = clear"] ;
796 -> 797 ;
798 [label="Clearsky GHI <= 409.5\ngini = 0.3837\nsamples = 452\nvalue = [117, 335]\nclass = clear"] ;
797 -> 798 ;
799 [label="GHI <= 404.5\ngini = 0.3997\nsamples = 355\nvalue = [98, 257]\nclass = clear"] ;
798 -> 799 ;
800 [label="GHI <= 403.5\ngini = 0.3772\nsamples = 111\nvalue = [28, 83]\nclass = clear"] ;
799 -> 800 ;
801 [label="gini = 0.375\nsamples = 52\nvalue = [13, 39]\nclass = clear"] ;
800 -> 801 ;
802 [label="gini = 0.3792\nsamples = 59\nvalue = [15, 44]\nclass = clear"] ;
800 -> 802 ;
803 [label="Clearsky GHI <= 407.5\ngini = 0.4092\nsamples = 244\nvalue = [70, 174]\nclass = clear"] ;
799 -> 803 ;
804 [label="Clearsky GHI <= 406.5\ngini = 0.42\nsamples = 150\nvalue = [45, 105]\nclass = clear"] ;
803 -> 804 ;
805 [label="Clearsky GHI <= 405.5\ngini = 0.4107\nsamples = 97\nvalue = [28, 69]\nclass = clear"] ;
804 -> 805 ;
806 [label="gini = 0.417\nsamples = 54\nvalue = [16, 38]\nclass = clear"] ;
805 -> 806 ;
807 [label="gini = 0.4024\nsamples = 43\nvalue = [12, 31]\nclass = clear"] ;
805 -> 807 ;
808 [label="gini = 0.4357\nsamples = 53\nvalue = [17, 36]\nclass = clear"] ;
804 -> 808 ;
809 [label="GHI <= 408.5\ngini = 0.3904\nsamples = 94\nvalue = [25, 69]\nclass = clear"] ;
803 -> 809 ;
810 [label="gini = 0.3615\nsamples = 38\nvalue = [9, 29]\nclass = clear"] ;
809 -> 810 ;
811 [label="gini = 0.4082\nsamples = 56\nvalue = [16, 40]\nclass = clear"] ;
809 -> 811 ;
812 [label="Clearsky GHI <= 410.5\ngini = 0.315\nsamples = 97\nvalue = [19, 78]\nclass = clear"] ;
798 -> 812 ;
813 [label="gini = 0.3096\nsamples = 47\nvalue = [9, 38]\nclass = clear"] ;
812 -> 813 ;
814 [label="gini = 0.32\nsamples = 50\nvalue = [10, 40]\nclass = clear"] ;
812 -> 814 ;
815 [label="Clearsky GHI <= 412.5\ngini = 0.436\nsamples = 109\nvalue = [35, 74]\nclass = clear"] ;
797 -> 815 ;
816 [label="gini = 0.4321\nsamples = 57\nvalue = [18, 39]\nclass = clear"] ;
815 -> 816 ;
817 [label="gini = 0.4401\nsamples = 52\nvalue = [17, 35]\nclass = clear"] ;
815 -> 817 ;
818 [label="Clearsky GHI <= 414.5\ngini = 0.3503\nsamples = 106\nvalue = [24, 82]\nclass = clear"] ;
796 -> 818 ;
819 [label="gini = 0.3389\nsamples = 37\nvalue = [8, 29]\nclass = clear"] ;
818 -> 819 ;
820 [label="gini = 0.3562\nsamples = 69\nvalue = [16, 53]\nclass = clear"] ;
818 -> 820 ;
821 [label="Clearsky GHI <= 416.5\ngini = 0.4213\nsamples = 305\nvalue = [92, 213]\nclass = clear"] ;
795 -> 821 ;
822 [label="gini = 0.4709\nsamples = 58\nvalue = [22, 36]\nclass = clear"] ;
821 -> 822 ;
823 [label="Clearsky GHI <= 419.5\ngini = 0.4062\nsamples = 247\nvalue = [70, 177]\nclass = clear"] ;
821 -> 823 ;
824 [label="Clearsky GHI <= 418.5\ngini = 0.415\nsamples = 177\nvalue = [52, 125]\nclass = clear"] ;
823 -> 824 ;
825 [label="GHI <= 417.5\ngini = 0.4116\nsamples = 107\nvalue = [31, 76]\nclass = clear"] ;
824 -> 825 ;
826 [label="gini = 0.4105\nsamples = 52\nvalue = [15, 37]\nclass = clear"] ;
825 -> 826 ;
827 [label="gini = 0.4126\nsamples = 55\nvalue = [16, 39]\nclass = clear"] ;
825 -> 827 ;
828 [label="gini = 0.42\nsamples = 70\nvalue = [21, 49]\nclass = clear"] ;
824 -> 828 ;
829 [label="gini = 0.382\nsamples = 70\nvalue = [18, 52]\nclass = clear"] ;
823 -> 829 ;
830 [label="gini = 0.2535\nsamples = 47\nvalue = [7, 40]\nclass = clear"] ;
794 -> 830 ;
831 [label="Clearsky GHI <= 423.5\ngini = 0.4294\nsamples = 157\nvalue = [49, 108]\nclass = clear"] ;
793 -> 831 ;
832 [label="Clearsky GHI <= 422.5\ngini = 0.4352\nsamples = 100\nvalue = [32, 68]\nclass = clear"] ;
831 -> 832 ;
833 [label="gini = 0.4398\nsamples = 49\nvalue = [16, 33]\nclass = clear"] ;
832 -> 833 ;
834 [label="gini = 0.4306\nsamples = 51\nvalue = [16, 35]\nclass = clear"] ;
832 -> 834 ;
835 [label="gini = 0.4186\nsamples = 57\nvalue = [17, 40]\nclass = clear"] ;
831 -> 835 ;
836 [label="GHI <= 434.5\ngini = 0.3801\nsamples = 4096\nvalue = [1045, 3051]\nclass = clear"] ;
792 -> 836 ;
837 [label="GHI <= 431.5\ngini = 0.3461\nsamples = 530\nvalue = [118, 412]\nclass = clear"] ;
836 -> 837 ;
838 [label="Clearsky GHI <= 428.5\ngini = 0.364\nsamples = 347\nvalue = [83, 264]\nclass = clear"] ;
837 -> 838 ;
839 [label="Clearsky GHI <= 426.5\ngini = 0.3346\nsamples = 193\nvalue = [41, 152]\nclass = clear"] ;
838 -> 839 ;
840 [label="GHI <= 425.5\ngini = 0.3096\nsamples = 94\nvalue = [18, 76]\nclass = clear"] ;
839 -> 840 ;
841 [label="gini = 0.3254\nsamples = 44\nvalue = [9, 35]\nclass = clear"] ;
840 -> 841 ;
842 [label="gini = 0.2952\nsamples = 50\nvalue = [9, 41]\nclass = clear"] ;
840 -> 842 ;
843 [label="GHI <= 427.5\ngini = 0.3567\nsamples = 99\nvalue = [23, 76]\nclass = clear"] ;
839 -> 843 ;
844 [label="gini = 0.3639\nsamples = 46\nvalue = [11, 35]\nclass = clear"] ;
843 -> 844 ;
845 [label="gini = 0.3503\nsamples = 53\nvalue = [12, 41]\nclass = clear"] ;
843 -> 845 ;
846 [label="Clearsky GHI <= 429.5\ngini = 0.3967\nsamples = 154\nvalue = [42, 112]\nclass = clear"] ;
838 -> 846 ;
847 [label="gini = 0.4481\nsamples = 59\nvalue = [20, 39]\nclass = clear"] ;
846 -> 847 ;
848 [label="GHI <= 430.5\ngini = 0.3559\nsamples = 95\nvalue = [22, 73]\nclass = clear"] ;
846 -> 848 ;
849 [label="gini = 0.331\nsamples = 43\nvalue = [9, 34]\nclass = clear"] ;
848 -> 849 ;
850 [label="gini = 0.375\nsamples = 52\nvalue = [13, 39]\nclass = clear"] ;
848 -> 850 ;
851 [label="Clearsky GHI <= 433.5\ngini = 0.3094\nsamples = 183\nvalue = [35, 148]\nclass = clear"] ;
837 -> 851 ;
852 [label="GHI <= 432.5\ngini = 0.3236\nsamples = 133\nvalue = [27, 106]\nclass = clear"] ;
851 -> 852 ;
853 [label="gini = 0.3137\nsamples = 77\nvalue = [15, 62]\nclass = clear"] ;
852 -> 853 ;
854 [label="gini = 0.3367\nsamples = 56\nvalue = [12, 44]\nclass = clear"] ;
852 -> 854 ;
855 [label="gini = 0.2688\nsamples = 50\nvalue = [8, 42]\nclass = clear"] ;
851 -> 855 ;
856 [label="Clearsky GHI <= 467.5\ngini = 0.3848\nsamples = 3566\nvalue = [927, 2639]\nclass = clear"] ;
836 -> 856 ;
857 [label="Clearsky GHI <= 460.5\ngini = 0.3968\nsamples = 1664\nvalue = [454, 1210]\nclass = clear"] ;
856 -> 857 ;
858 [label="Clearsky GHI <= 437.5\ngini = 0.3859\nsamples = 1260\nvalue = [329, 931]\nclass = clear"] ;
857 -> 858 ;
859 [label="Clearsky GHI <= 435.5\ngini = 0.4158\nsamples = 156\nvalue = [46, 110]\nclass = clear"] ;
858 -> 859 ;
860 [label="gini = 0.398\nsamples = 62\nvalue = [17, 45]\nclass = clear"] ;
859 -> 860 ;
861 [label="GHI <= 436.5\ngini = 0.4267\nsamples = 94\nvalue = [29, 65]\nclass = clear"] ;
859 -> 861 ;
862 [label="gini = 0.42\nsamples = 40\nvalue = [12, 28]\nclass = clear"] ;
861 -> 862 ;
863 [label="gini = 0.4314\nsamples = 54\nvalue = [17, 37]\nclass = clear"] ;
861 -> 863 ;
864 [label="GHI <= 453.5\ngini = 0.3813\nsamples = 1104\nvalue = [283, 821]\nclass = clear"] ;
858 -> 864 ;
865 [label="GHI <= 450.5\ngini = 0.3705\nsamples = 729\nvalue = [179, 550]\nclass = clear"] ;
864 -> 865 ;
866 [label="Clearsky GHI <= 439.5\ngini = 0.3767\nsamples = 584\nvalue = [147, 437]\nclass = clear"] ;
865 -> 866 ;
867 [label="GHI <= 438.5\ngini = 0.3432\nsamples = 100\nvalue = [22, 78]\nclass = clear"] ;
866 -> 867 ;
868 [label="gini = 0.3432\nsamples = 50\nvalue = [11, 39]\nclass = clear"] ;
867 -> 868 ;
869 [label="gini = 0.3432\nsamples = 50\nvalue = [11, 39]\nclass = clear"] ;
867 -> 869 ;
870 [label="Clearsky GHI <= 441.5\ngini = 0.3831\nsamples = 484\nvalue = [125, 359]\nclass = clear"] ;
866 -> 870 ;
871 [label="Clearsky GHI <= 440.5\ngini = 0.4273\nsamples = 97\nvalue = [30, 67]\nclass = clear"] ;
870 -> 871 ;
872 [label="gini = 0.4215\nsamples = 53\nvalue = [16, 37]\nclass = clear"] ;
871 -> 872 ;
873 [label="gini = 0.4339\nsamples = 44\nvalue = [14, 30]\nclass = clear"] ;
871 -> 873 ;
874 [label="Clearsky GHI <= 443.5\ngini = 0.3704\nsamples = 387\nvalue = [95, 292]\nclass = clear"] ;
870 -> 874 ;
875 [label="GHI <= 442.5\ngini = 0.3175\nsamples = 96\nvalue = [19, 77]\nclass = clear"] ;
874 -> 875 ;
876 [label="gini = 0.3457\nsamples = 54\nvalue = [12, 42]\nclass = clear"] ;
875 -> 876 ;
877 [label="gini = 0.2778\nsamples = 42\nvalue = [7, 35]\nclass = clear"] ;
875 -> 877 ;
878 [label="GHI <= 444.5\ngini = 0.3859\nsamples = 291\nvalue = [76, 215]\nclass = clear"] ;
874 -> 878 ;
879 [label="gini = 0.4383\nsamples = 37\nvalue = [12, 25]\nclass = clear"] ;
878 -> 879 ;
880 [label="GHI <= 449.5\ngini = 0.377\nsamples = 254\nvalue = [64, 190]\nclass = clear"] ;
878 -> 880 ;
881 [label="Clearsky GHI <= 448.5\ngini = 0.3702\nsamples = 212\nvalue = [52, 160]\nclass = clear"] ;
880 -> 881 ;
882 [label="GHI <= 447.5\ngini = 0.3822\nsamples = 171\nvalue = [44, 127]\nclass = clear"] ;
881 -> 882 ;
883 [label="GHI <= 446.5\ngini = 0.3654\nsamples = 133\nvalue = [32, 101]\nclass = clear"] ;
882 -> 883 ;
884 [label="GHI <= 445.5\ngini = 0.375\nsamples = 88\nvalue = [22, 66]\nclass = clear"] ;
883 -> 884 ;
885 [label="gini = 0.3482\nsamples = 49\nvalue = [11, 38]\nclass = clear"] ;
884 -> 885 ;
886 [label="gini = 0.405\nsamples = 39\nvalue = [11, 28]\nclass = clear"] ;
884 -> 886 ;
887 [label="gini = 0.3457\nsamples = 45\nvalue = [10, 35]\nclass = clear"] ;
883 -> 887 ;
888 [label="gini = 0.4321\nsamples = 38\nvalue = [12, 26]\nclass = clear"] ;
882 -> 888 ;
889 [label="gini = 0.3141\nsamples = 41\nvalue = [8, 33]\nclass = clear"] ;
881 -> 889 ;
890 [label="gini = 0.4082\nsamples = 42\nvalue = [12, 30]\nclass = clear"] ;
880 -> 890 ;
891 [label="GHI <= 452.5\ngini = 0.344\nsamples = 145\nvalue = [32, 113]\nclass = clear"] ;
865 -> 891 ;
892 [label="GHI <= 451.5\ngini = 0.335\nsamples = 94\nvalue = [20, 74]\nclass = clear"] ;
891 -> 892 ;
893 [label="gini = 0.355\nsamples = 52\nvalue = [12, 40]\nclass = clear"] ;
892 -> 893 ;
894 [label="gini = 0.3084\nsamples = 42\nvalue = [8, 34]\nclass = clear"] ;
892 -> 894 ;
895 [label="gini = 0.3599\nsamples = 51\nvalue = [12, 39]\nclass = clear"] ;
891 -> 895 ;
896 [label="Clearsky GHI <= 454.5\ngini = 0.4008\nsamples = 375\nvalue = [104, 271]\nclass = clear"] ;
864 -> 896 ;
897 [label="gini = 0.4875\nsamples = 38\nvalue = [16, 22]\nclass = clear"] ;
896 -> 897 ;
898 [label="GHI <= 455.5\ngini = 0.3859\nsamples = 337\nvalue = [88, 249]\nclass = clear"] ;
896 -> 898 ;
899 [label="gini = 0.3457\nsamples = 45\nvalue = [10, 35]\nclass = clear"] ;
898 -> 899 ;
900 [label="Clearsky GHI <= 456.5\ngini = 0.3915\nsamples = 292\nvalue = [78, 214]\nclass = clear"] ;
898 -> 900 ;
901 [label="gini = 0.42\nsamples = 60\nvalue = [18, 42]\nclass = clear"] ;
900 -> 901 ;
902 [label="Clearsky GHI <= 458.5\ngini = 0.3835\nsamples = 232\nvalue = [60, 172]\nclass = clear"] ;
900 -> 902 ;
903 [label="GHI <= 457.5\ngini = 0.3628\nsamples = 105\nvalue = [25, 80]\nclass = clear"] ;
902 -> 903 ;
904 [label="gini = 0.3935\nsamples = 52\nvalue = [14, 38]\nclass = clear"] ;
903 -> 904 ;
905 [label="gini = 0.3289\nsamples = 53\nvalue = [11, 42]\nclass = clear"] ;
903 -> 905 ;
906 [label="Clearsky GHI <= 459.5\ngini = 0.3993\nsamples = 127\nvalue = [35, 92]\nclass = clear"] ;
902 -> 906 ;
907 [label="gini = 0.398\nsamples = 62\nvalue = [17, 45]\nclass = clear"] ;
906 -> 907 ;
908 [label="gini = 0.4005\nsamples = 65\nvalue = [18, 47]\nclass = clear"] ;
906 -> 908 ;
909 [label="GHI <= 465.5\ngini = 0.4273\nsamples = 404\nvalue = [125, 279]\nclass = clear"] ;
857 -> 909 ;
910 [label="Clearsky GHI <= 463.5\ngini = 0.4166\nsamples = 284\nvalue = [84, 200]\nclass = clear"] ;
909 -> 910 ;
911 [label="Clearsky GHI <= 462.5\ngini = 0.4274\nsamples = 168\nvalue = [52, 116]\nclass = clear"] ;
910 -> 911 ;
912 [label="Clearsky GHI <= 461.5\ngini = 0.4178\nsamples = 111\nvalue = [33, 78]\nclass = clear"] ;
911 -> 912 ;
913 [label="gini = 0.4271\nsamples = 55\nvalue = [17, 38]\nclass = clear"] ;
912 -> 913 ;
914 [label="gini = 0.4082\nsamples = 56\nvalue = [16, 40]\nclass = clear"] ;
912 -> 914 ;
915 [label="gini = 0.4444\nsamples = 57\nvalue = [19, 38]\nclass = clear"] ;
911 -> 915 ;
916 [label="Clearsky GHI <= 464.5\ngini = 0.3995\nsamples = 116\nvalue = [32, 84]\nclass = clear"] ;
910 -> 916 ;
917 [label="gini = 0.3803\nsamples = 47\nvalue = [12, 35]\nclass = clear"] ;
916 -> 917 ;
918 [label="gini = 0.4117\nsamples = 69\nvalue = [20, 49]\nclass = clear"] ;
916 -> 918 ;
919 [label="GHI <= 466.5\ngini = 0.4499\nsamples = 120\nvalue = [41, 79]\nclass = clear"] ;
909 -> 919 ;
920 [label="gini = 0.4486\nsamples = 53\nvalue = [18, 35]\nclass = clear"] ;
919 -> 920 ;
921 [label="gini = 0.4509\nsamples = 67\nvalue = [23, 44]\nclass = clear"] ;
919 -> 921 ;
922 [label="Clearsky GHI <= 483.5\ngini = 0.3737\nsamples = 1902\nvalue = [473, 1429]\nclass = clear"] ;
856 -> 922 ;
923 [label="Clearsky GHI <= 476.5\ngini = 0.3613\nsamples = 1010\nvalue = [239, 771]\nclass = clear"] ;
922 -> 923 ;
924 [label="Clearsky GHI <= 474.5\ngini = 0.3714\nsamples = 552\nvalue = [136, 416]\nclass = clear"] ;
923 -> 924 ;
925 [label="Clearsky GHI <= 469.5\ngini = 0.3531\nsamples = 428\nvalue = [98, 330]\nclass = clear"] ;
924 -> 925 ;
926 [label="Clearsky GHI <= 468.5\ngini = 0.3797\nsamples = 106\nvalue = [27, 79]\nclass = clear"] ;
925 -> 926 ;
927 [label="gini = 0.3478\nsamples = 58\nvalue = [13, 45]\nclass = clear"] ;
926 -> 927 ;
928 [label="gini = 0.4132\nsamples = 48\nvalue = [14, 34]\nclass = clear"] ;
926 -> 928 ;
929 [label="GHI <= 470.5\ngini = 0.3438\nsamples = 322\nvalue = [71, 251]\nclass = clear"] ;
925 -> 929 ;
930 [label="gini = 0.2882\nsamples = 63\nvalue = [11, 52]\nclass = clear"] ;
929 -> 930 ;
931 [label="GHI <= 472.5\ngini = 0.356\nsamples = 259\nvalue = [60, 199]\nclass = clear"] ;
929 -> 931 ;
932 [label="Clearsky GHI <= 471.5\ngini = 0.3769\nsamples = 131\nvalue = [33, 98]\nclass = clear"] ;
931 -> 932 ;
933 [label="gini = 0.3475\nsamples = 67\nvalue = [15, 52]\nclass = clear"] ;
932 -> 933 ;
934 [label="gini = 0.4043\nsamples = 64\nvalue = [18, 46]\nclass = clear"] ;
932 -> 934 ;
935 [label="Clearsky GHI <= 473.5\ngini = 0.3329\nsamples = 128\nvalue = [27, 101]\nclass = clear"] ;
931 -> 935 ;
936 [label="gini = 0.2812\nsamples = 65\nvalue = [11, 54]\nclass = clear"] ;
935 -> 936 ;
937 [label="gini = 0.3789\nsamples = 63\nvalue = [16, 47]\nclass = clear"] ;
935 -> 937 ;
938 [label="GHI <= 475.5\ngini = 0.4251\nsamples = 124\nvalue = [38, 86]\nclass = clear"] ;
924 -> 938 ;
939 [label="gini = 0.4573\nsamples = 65\nvalue = [23, 42]\nclass = clear"] ;
938 -> 939 ;
940 [label="gini = 0.3792\nsamples = 59\nvalue = [15, 44]\nclass = clear"] ;
938 -> 940 ;
941 [label="GHI <= 477.5\ngini = 0.3486\nsamples = 458\nvalue = [103, 355]\nclass = clear"] ;
923 -> 941 ;
942 [label="gini = 0.2907\nsamples = 68\nvalue = [12, 56]\nclass = clear"] ;
941 -> 942 ;
943 [label="GHI <= 481.5\ngini = 0.3578\nsamples = 390\nvalue = [91, 299]\nclass = clear"] ;
941 -> 943 ;
944 [label="Clearsky GHI <= 479.5\ngini = 0.3669\nsamples = 252\nvalue = [61, 191]\nclass = clear"] ;
943 -> 944 ;
945 [label="Clearsky GHI <= 478.5\ngini = 0.375\nsamples = 116\nvalue = [29, 87]\nclass = clear"] ;
944 -> 945 ;
946 [label="gini = 0.3706\nsamples = 57\nvalue = [14, 43]\nclass = clear"] ;
945 -> 946 ;
947 [label="gini = 0.3792\nsamples = 59\nvalue = [15, 44]\nclass = clear"] ;
945 -> 947 ;
948 [label="Clearsky GHI <= 480.5\ngini = 0.3599\nsamples = 136\nvalue = [32, 104]\nclass = clear"] ;
944 -> 948 ;
949 [label="gini = 0.3473\nsamples = 76\nvalue = [17, 59]\nclass = clear"] ;
948 -> 949 ;
950 [label="gini = 0.375\nsamples = 60\nvalue = [15, 45]\nclass = clear"] ;
948 -> 950 ;
951 [label="GHI <= 482.5\ngini = 0.3403\nsamples = 138\nvalue = [30, 108]\nclass = clear"] ;
943 -> 951 ;
952 [label="gini = 0.3473\nsamples = 76\nvalue = [17, 59]\nclass = clear"] ;
951 -> 952 ;
953 [label="gini = 0.3314\nsamples = 62\nvalue = [13, 49]\nclass = clear"] ;
951 -> 953 ;
954 [label="Clearsky GHI <= 489.5\ngini = 0.387\nsamples = 892\nvalue = [234, 658]\nclass = clear"] ;
922 -> 954 ;
955 [label="GHI <= 486.5\ngini = 0.4116\nsamples = 428\nvalue = [124, 304]\nclass = clear"] ;
954 -> 955 ;
956 [label="Clearsky GHI <= 485.5\ngini = 0.3911\nsamples = 210\nvalue = [56, 154]\nclass = clear"] ;
955 -> 956 ;
957 [label="GHI <= 484.5\ngini = 0.3836\nsamples = 143\nvalue = [37, 106]\nclass = clear"] ;
956 -> 957 ;
958 [label="gini = 0.3872\nsamples = 80\nvalue = [21, 59]\nclass = clear"] ;
957 -> 958 ;
959 [label="gini = 0.3789\nsamples = 63\nvalue = [16, 47]\nclass = clear"] ;
957 -> 959 ;
960 [label="gini = 0.4063\nsamples = 67\nvalue = [19, 48]\nclass = clear"] ;
956 -> 960 ;
961 [label="Clearsky GHI <= 488.5\ngini = 0.4293\nsamples = 218\nvalue = [68, 150]\nclass = clear"] ;
955 -> 961 ;
962 [label="GHI <= 487.5\ngini = 0.4206\nsamples = 133\nvalue = [40, 93]\nclass = clear"] ;
961 -> 962 ;
963 [label="gini = 0.4213\nsamples = 63\nvalue = [19, 44]\nclass = clear"] ;
962 -> 963 ;
964 [label="gini = 0.42\nsamples = 70\nvalue = [21, 49]\nclass = clear"] ;
962 -> 964 ;
965 [label="gini = 0.4418\nsamples = 85\nvalue = [28, 57]\nclass = clear"] ;
961 -> 965 ;
966 [label="Clearsky GHI <= 494.5\ngini = 0.3617\nsamples = 464\nvalue = [110, 354]\nclass = clear"] ;
954 -> 966 ;
967 [label="GHI <= 493.5\ngini = 0.3584\nsamples = 372\nvalue = [87, 285]\nclass = clear"] ;
966 -> 967 ;
968 [label="GHI <= 492.5\ngini = 0.366\nsamples = 311\nvalue = [75, 236]\nclass = clear"] ;
967 -> 968 ;
969 [label="GHI <= 490.5\ngini = 0.3588\nsamples = 239\nvalue = [56, 183]\nclass = clear"] ;
968 -> 969 ;
970 [label="gini = 0.3714\nsamples = 69\nvalue = [17, 52]\nclass = clear"] ;
969 -> 970 ;
971 [label="Clearsky GHI <= 491.5\ngini = 0.3536\nsamples = 170\nvalue = [39, 131]\nclass = clear"] ;
969 -> 971 ;
972 [label="gini = 0.3457\nsamples = 90\nvalue = [20, 70]\nclass = clear"] ;
971 -> 972 ;
973 [label="gini = 0.3622\nsamples = 80\nvalue = [19, 61]\nclass = clear"] ;
971 -> 973 ;
974 [label="gini = 0.3885\nsamples = 72\nvalue = [19, 53]\nclass = clear"] ;
968 -> 974 ;
975 [label="gini = 0.316\nsamples = 61\nvalue = [12, 49]\nclass = clear"] ;
967 -> 975 ;
976 [label="gini = 0.375\nsamples = 92\nvalue = [23, 69]\nclass = clear"] ;
966 -> 976 ;
977 [label="Clearsky GHI <= 496.5\ngini = 0.422\nsamples = 476\nvalue = [144, 332]\nclass = clear"] ;
791 -> 977 ;
978 [label="gini = 0.4671\nsamples = 78\nvalue = [29, 49]\nclass = clear"] ;
977 -> 978 ;
979 [label="Clearsky GHI <= 500.5\ngini = 0.4109\nsamples = 398\nvalue = [115, 283]\nclass = clear"] ;
977 -> 979 ;
980 [label="GHI <= 499.5\ngini = 0.4193\nsamples = 321\nvalue = [96, 225]\nclass = clear"] ;
979 -> 980 ;
981 [label="GHI <= 497.5\ngini = 0.402\nsamples = 244\nvalue = [68, 176]\nclass = clear"] ;
980 -> 981 ;
982 [label="gini = 0.3813\nsamples = 78\nvalue = [20, 58]\nclass = clear"] ;
981 -> 982 ;
983 [label="GHI <= 498.5\ngini = 0.4111\nsamples = 166\nvalue = [48, 118]\nclass = clear"] ;
981 -> 983 ;
984 [label="gini = 0.4152\nsamples = 85\nvalue = [25, 60]\nclass = clear"] ;
983 -> 984 ;
985 [label="gini = 0.4066\nsamples = 81\nvalue = [23, 58]\nclass = clear"] ;
983 -> 985 ;
986 [label="gini = 0.4628\nsamples = 77\nvalue = [28, 49]\nclass = clear"] ;
980 -> 986 ;
987 [label="gini = 0.3717\nsamples = 77\nvalue = [19, 58]\nclass = clear"] ;
979 -> 987 ;
988 [label="GHI <= 549.5\ngini = 0.3107\nsamples = 24836\nvalue = [4777, 20059]\nclass = clear"] ;
628 -> 988 ;
989 [label="GHI <= 502.5\ngini = 0.3518\nsamples = 3011\nvalue = [686, 2325]\nclass = clear"] ;
988 -> 989 ;
990 [label="gini = 0.2695\nsamples = 81\nvalue = [13, 68]\nclass = clear"] ;
989 -> 990 ;
991 [label="GHI <= 503.5\ngini = 0.3539\nsamples = 2930\nvalue = [673, 2257]\nclass = clear"] ;
989 -> 991 ;
992 [label="gini = 0.437\nsamples = 62\nvalue = [20, 42]\nclass = clear"] ;
991 -> 992 ;
993 [label="GHI <= 506.5\ngini = 0.3517\nsamples = 2868\nvalue = [653, 2215]\nclass = clear"] ;
991 -> 993 ;
994 [label="GHI <= 504.5\ngini = 0.3024\nsamples = 237\nvalue = [44, 193]\nclass = clear"] ;
993 -> 994 ;
995 [label="gini = 0.3719\nsamples = 81\nvalue = [20, 61]\nclass = clear"] ;
994 -> 995 ;
996 [label="Clearsky GHI <= 505.5\ngini = 0.2604\nsamples = 156\nvalue = [24, 132]\nclass = clear"] ;
994 -> 996 ;
997 [label="gini = 0.2807\nsamples = 77\nvalue = [13, 64]\nclass = clear"] ;
996 -> 997 ;
998 [label="gini = 0.2397\nsamples = 79\nvalue = [11, 68]\nclass = clear"] ;
996 -> 998 ;
999 [label="Clearsky GHI <= 508.5\ngini = 0.3558\nsamples = 2631\nvalue = [609, 2022]\nclass = clear"] ;
993 -> 999 ;
1000 [label="GHI <= 507.5\ngini = 0.409\nsamples = 150\nvalue = [43, 107]\nclass = clear"] ;
999 -> 1000 ;
