digraph Tree {
node [shape=box] ;
0 [label="ratio stat <= 0.8997\ngini = 0.399\nsamples = 236664\nvalue = [171521, 65143]\nclass = cloudy"] ;
1 [label="ratio stat <= 0.8085\ngini = 0.0474\nsamples = 163635\nvalue = [159658, 3977]\nclass = cloudy"] ;
0 -> 1 [labeldistance=2.5, labelangle=45, headlabel="True"] ;
2 [label="ratio stat <= 0.5782\ngini = 0.0179\nsamples = 153589\nvalue = [152205, 1384]\nclass = cloudy"] ;
1 -> 2 ;
3 [label="ratio stat <= 0.458\ngini = 0.0017\nsamples = 137457\nvalue = [137340, 117]\nclass = cloudy"] ;
2 -> 3 ;
4 [label="ratio stat <= 0.4217\ngini = 0.0002\nsamples = 132824\nvalue = [132813, 11]\nclass = cloudy"] ;
3 -> 4 ;
5 [label="ratio stat <= 0.3845\ngini = 0.0\nsamples = 131652\nvalue = [131651, 1]\nclass = cloudy"] ;
4 -> 5 ;
6 [label="gini = 0.0\nsamples = 130460\nvalue = [130460, 0]\nclass = cloudy"] ;
5 -> 6 ;
7 [label="ratio stat <= 0.3847\ngini = 0.0017\nsamples = 1192\nvalue = [1191, 1]\nclass = cloudy"] ;
5 -> 7 ;
8 [label="Clearsky GHI stat <= 40.3\ngini = 0.0799\nsamples = 24\nvalue = [23, 1]\nclass = cloudy"] ;
7 -> 8 ;
9 [label="GHI <= 11.5\ngini = 0.2778\nsamples = 6\nvalue = [5, 1]\nclass = cloudy"] ;
8 -> 9 ;
10 [label="gini = 0.0\nsamples = 3\nvalue = [3, 0]\nclass = cloudy"] ;
9 -> 10 ;
11 [label="gini = 0.4444\nsamples = 3\nvalue = [2, 1]\nclass = cloudy"] ;
9 -> 11 ;
12 [label="gini = 0.0\nsamples = 18\nvalue = [18, 0]\nclass = cloudy"] ;
8 -> 12 ;
13 [label="gini = 0.0\nsamples = 1168\nvalue = [1168, 0]\nclass = cloudy"] ;
7 -> 13 ;
14 [label="GHI <= 15.5\ngini = 0.0169\nsamples = 1172\nvalue = [1162, 10]\nclass = cloudy"] ;
4 -> 14 ;
15 [label="ratio stat <= 0.4231\ngini = 0.2311\nsamples = 75\nvalue = [65, 10]\nclass = cloudy"] ;
14 -> 15 ;
16 [label="Clearsky GHI stat <= 32.0\ngini = 0.4444\nsamples = 3\nvalue = [1, 2]\nclass = clear"] ;
15 -> 16 ;
17 [label="gini = 0.0\nsamples = 1\nvalue = [1, 0]\nclass = cloudy"] ;
16 -> 17 ;
18 [label="gini = 0.0\nsamples = 2\nvalue = [0, 2]\nclass = clear"] ;
16 -> 18 ;
19 [label="Clearsky GHI stat <= 26.85\ngini = 0.1975\nsamples = 72\nvalue = [64, 8]\nclass = cloudy"] ;
15 -> 19 ;
20 [label="gini = 0.0\nsamples = 21\nvalue = [21, 0]\nclass = cloudy"] ;
19 -> 20 ;
21 [label="Clearsky GHI stat <= 26.95\ngini = 0.2645\nsamples = 51\nvalue = [43, 8]\nclass = cloudy"] ;
19 -> 21 ;
22 [label="gini = 0.0\nsamples = 1\nvalue = [0, 1]\nclass = clear"] ;
21 -> 22 ;
23 [label="ratio stat <= 0.429\ngini = 0.2408\nsamples = 50\nvalue = [43, 7]\nclass = cloudy"] ;
21 -> 23 ;
24 [label="gini = 0.0\nsamples = 12\nvalue = [12, 0]\nclass = cloudy"] ;
23 -> 24 ;
25 [label="ratio stat <= 0.4301\ngini = 0.3006\nsamples = 38\nvalue = [31, 7]\nclass = cloudy"] ;
23 -> 25 ;
26 [label="gini = 0.0\nsamples = 2\nvalue = [0, 2]\nclass = clear"] ;
25 -> 26 ;
27 [label="Clearsky GHI stat <= 32.65\ngini = 0.2392\nsamples = 36\nvalue = [31, 5]\nclass = cloudy"] ;
25 -> 27 ;
28 [label="Clearsky GHI stat <= 32.15\ngini = 0.3299\nsamples = 24\nvalue = [19, 5]\nclass = cloudy"] ;
27 -> 28 ;
29 [label="Clearsky GHI stat <= 29.1\ngini = 0.2873\nsamples = 23\nvalue = [19, 4]\nclass = cloudy"] ;
28 -> 29 ;
30 [label="gini = 0.0\nsamples = 6\nvalue = [6, 0]\nclass = cloudy"] ;
29 -> 30 ;
31 [label="Clearsky GHI stat <= 29.4\ngini = 0.3599\nsamples = 17\nvalue = [13, 4]\nclass = cloudy"] ;
29 -> 31 ;
32 [label="gini = 0.0\nsamples = 1\nvalue = [0, 1]\nclass = clear"] ;
31 -> 32 ;
33 [label="Clearsky GHI stat <= 31.55\ngini = 0.3047\nsamples = 16\nvalue = [13, 3]\nclass = cloudy"] ;
31 -> 33 ;
34 [label="Clearsky GHI stat <= 31.45\ngini = 0.3967\nsamples = 11\nvalue = [8, 3]\nclass = cloudy"] ;
33 -> 34 ;
35 [label="Clearsky GHI stat <= 30.9\ngini = 0.32\nsamples = 10\nvalue = [8, 2]\nclass = cloudy"] ;
34 -> 35 ;
36 [label="Clearsky GHI stat <= 29.75\ngini = 0.4444\nsamples = 6\nvalue = [4, 2]\nclass = cloudy"] ;
35 -> 36 ;
37 [label="gini = 0.0\nsamples = 1\nvalue = [1, 0]\nclass = cloudy"] ;
36 -> 37 ;
38 [label="ratio stat <= 0.4326\ngini = 0.48\nsamples = 5\nvalue = [3, 2]\nclass = cloudy"] ;
36 -> 38 ;
39 [label="gini = 0.0\nsamples = 1\nvalue = [1, 0]\nclass = cloudy"] ;
38 -> 39 ;
40 [label="GHI <= 13.5\ngini = 0.5\nsamples = 4\nvalue = [2, 2]\nclass = cloudy"] ;
38 -> 40 ;
41 [label="gini = 0.5\nsamples = 2\nvalue = [1, 1]\nclass = cloudy"] ;
40 -> 41 ;
42 [label="gini = 0.5\nsamples = 2\nvalue = [1, 1]\nclass = cloudy"] ;
40 -> 42 ;
43 [label="gini = 0.0\nsamples = 4\nvalue = [4, 0]\nclass = cloudy"] ;
35 -> 43 ;
44 [label="gini = 0.0\nsamples = 1\nvalue = [0, 1]\nclass = clear"] ;
34 -> 44 ;
45 [label="gini = 0.0\nsamples = 5\nvalue = [5, 0]\nclass = cloudy"] ;
33 -> 45 ;
46 [label="gini = 0.0\nsamples = 1\nvalue = [0, 1]\nclass = clear"] ;
28 -> 46 ;
47 [label="gini = 0.0\nsamples = 12\nvalue = [12, 0]\nclass = cloudy"] ;
27 -> 47 ;
48 [label="gini = 0.0\nsamples = 1097\nvalue = [1097, 0]\nclass = cloudy"] ;
14 -> 48 ;
49 [label="Clearsky GHI stat <= 47.55\ngini = 0.0447\nsamples = 4633\nvalue = [4527, 106]\nclass = cloudy"] ;
3 -> 49 ;
50 [label="ratio stat <= 0.5418\ngini = 0.3499\nsamples = 460\nvalue = [356, 104]\nclass = cloudy"] ;
49 -> 50 ;
51 [label="Clearsky GHI stat <= 41.55\ngini = 0.296\nsamples = 299\nvalue = [245, 54]\nclass = cloudy"] ;
50 -> 51 ;
52 [label="GHI <= 20.5\ngini = 0.3218\nsamples = 263\nvalue = [210, 53]\nclass = cloudy"] ;
51 -> 52 ;
53 [label="Clearsky GHI stat <= 22.25\ngini = 0.3025\nsamples = 253\nvalue = [206, 47]\nclass = cloudy"] ;
52 -> 53 ;
54 [label="gini = 0.0\nsamples = 18\nvalue = [18, 0]\nclass = cloudy"] ;
53 -> 54 ;
55 [label="ratio stat <= 0.5382\ngini = 0.32\nsamples = 235\nvalue = [188, 47]\nclass = cloudy"] ;
53 -> 55 ;
56 [label="Clearsky GHI stat <= 39.1\ngini = 0.3349\nsamples = 221\nvalue = [174, 47]\nclass = cloudy"] ;
55 -> 56 ;
57 [label="Clearsky GHI stat <= 38.9\ngini = 0.3474\nsamples = 210\nvalue = [163, 47]\nclass = cloudy"] ;
56 -> 57 ;
58 [label="ratio stat <= 0.4611\ngini = 0.3391\nsamples = 208\nvalue = [163, 45]\nclass = cloudy"] ;
57 -> 58 ;
59 [label="ratio stat <= 0.4606\ngini = 0.5\nsamples = 8\nvalue = [4, 4]\nclass = cloudy"] ;
58 -> 59 ;
60 [label="GHI <= 14.5\ngini = 0.4898\nsamples = 7\nvalue = [4, 3]\nclass = cloudy"] ;
59 -> 60 ;
61 [label="ratio stat <= 0.4593\ngini = 0.5\nsamples = 4\nvalue = [2, 2]\nclass = cloudy"] ;
60 -> 61 ;
62 [label="gini = 0.5\nsamples = 2\nvalue = [1, 1]\nclass = cloudy"] ;
61 -> 62 ;
63 [label="gini = 0.5\nsamples = 2\nvalue = [1, 1]\nclass = cloudy"] ;
61 -> 63 ;
64 [label="GHI <= 16.0\ngini = 0.4444\nsamples = 3\nvalue = [2, 1]\nclass = cloudy"] ;
60 -> 64 ;
65 [label="gini = 0.0\nsamples = 1\nvalue = [1, 0]\nclass = cloudy"] ;
64 -> 65 ;
66 [label="gini = 0.5\nsamples = 2\nvalue = [1, 1]\nclass = cloudy"] ;
64 -> 66 ;
67 [label="gini = 0.0\nsamples = 1\nvalue = [0, 1]\nclass = clear"] ;
59 -> 67 ;
68 [label="Clearsky GHI stat <= 23.0\ngini = 0.3259\nsamples = 200\nvalue = [159, 41]\nclass = cloudy"] ;
58 -> 68 ;
69 [label="Clearsky GHI stat <= 22.8\ngini = 0.5\nsamples = 6\nvalue = [3, 3]\nclass = cloudy"] ;
68 -> 69 ;
70 [label="Clearsky GHI stat <= 22.65\ngini = 0.48\nsamples = 5\nvalue = [3, 2]\nclass = cloudy"] ;
69 -> 70 ;
71 [label="ratio stat <= 0.5088\ngini = 0.5\nsamples = 4\nvalue = [2, 2]\nclass = cloudy"] ;
70 -> 71 ;
72 [label="gini = 0.5\nsamples = 2\nvalue = [1, 1]\nclass = cloudy"] ;
71 -> 72 ;
73 [label="gini = 0.5\nsamples = 2\nvalue = [1, 1]\nclass = cloudy"] ;
71 -> 73 ;
74 [label="gini = 0.0\nsamples = 1\nvalue = [1, 0]\nclass = cloudy"] ;
70 -> 74 ;
75 [label="gini = 0.0\nsamples = 1\nvalue = [0, 1]\nclass = clear"] ;
69 -> 75 ;
76 [label="Clearsky GHI stat <= 24.5\ngini = 0.315\nsamples = 194\nvalue = [156, 38]\nclass = cloudy"] ;
68 -> 76 ;
77 [label="gini = 0.0\nsamples = 12\nvalue = [12, 0]\nclass = cloudy"] ;
76 -> 77 ;
78 [label="Clearsky GHI stat <= 24.65\ngini = 0.3304\nsamples = 182\nvalue = [144, 38]\nclass = cloudy"] ;
76 -> 78 ;
79 [label="GHI <= 12.5\ngini = 0.4444\nsamples = 3\nvalue = [1, 2]\nclass = clear"] ;
78 -> 79 ;
80 [label="gini = 0.0\nsamples = 1\nvalue = [1, 0]\nclass = cloudy"] ;
79 -> 80 ;
81 [label="gini = 0.0\nsamples = 2\nvalue = [0, 2]\nclass = clear"] ;
79 -> 81 ;
82 [label="GHI <= 13.5\ngini = 0.3213\nsamples = 179\nvalue = [143, 36]\nclass = cloudy"] ;
78 -> 82 ;
83 [label="Clearsky GHI stat <= 25.95\ngini = 0.1472\nsamples = 25\nvalue = [23, 2]\nclass = cloudy"] ;
82 -> 83 ;
84 [label="ratio stat <= 0.4744\ngini = 0.2604\nsamples = 13\nvalue = [11, 2]\nclass = cloudy"] ;
83 -> 84 ;
85 [label="gini = 0.0\nsamples = 1\nvalue = [0, 1]\nclass = clear"] ;
84 -> 85 ;
86 [label="Clearsky GHI stat <= 25.8\ngini = 0.1528\nsamples = 12\nvalue = [11, 1]\nclass = cloudy"] ;
84 -> 86 ;
87 [label="gini = 0.0\nsamples = 11\nvalue = [11, 0]\nclass = cloudy"] ;
86 -> 87 ;
88 [label="gini = 0.0\nsamples = 1\nvalue = [0, 1]\nclass = clear"] ;
86 -> 88 ;
89 [label="gini = 0.0\nsamples = 12\nvalue = [12, 0]\nclass = cloudy"] ;
83 -> 89 ;
90 [label="Clearsky GHI stat <= 31.95\ngini = 0.3441\nsamples = 154\nvalue = [120, 34]\nclass = cloudy"] ;
82 -> 90 ;
91 [label="Clearsky GHI stat <= 30.3\ngini = 0.4047\nsamples = 71\nvalue = [51, 20]\nclass = cloudy"] ;
90 -> 91 ;
92 [label="ratio stat <= 0.5054\ngini = 0.2999\nsamples = 49\nvalue = [40, 9]\nclass = cloudy"] ;
91 -> 92 ;
93 [label="ratio stat <= 0.4803\ngini = 0.1172\nsamples = 16\nvalue = [15, 1]\nclass = cloudy"] ;
92 -> 93 ;
94 [label="Clearsky GHI stat <= 29.3\ngini = 0.32\nsamples = 5\nvalue = [4, 1]\nclass = cloudy"] ;
93 -> 94 ;
95 [label="gini = 0.0\nsamples = 1\nvalue = [0, 1]\nclass = clear"] ;
94 -> 95 ;
96 [label="gini = 0.0\nsamples = 4\nvalue = [4, 0]\nclass = cloudy"] ;
94 -> 96 ;
97 [label="gini = 0.0\nsamples = 11\nvalue = [11, 0]\nclass = cloudy"] ;
93 -> 97 ;
98 [label="ratio stat <= 0.5313\ngini = 0.3673\nsamples = 33\nvalue = [25, 8]\nclass = cloudy"] ;
92 -> 98 ;
99 [label="ratio stat <= 0.5299\ngini = 0.426\nsamples = 26\nvalue = [18, 8]\nclass = cloudy"] ;
98 -> 99 ;
100 [label="ratio stat <= 0.5254\ngini = 0.375\nsamples = 24\nvalue = [18, 6]\nclass = cloudy"] ;
99 -> 100 ;
101 [label="Clearsky GHI stat <= 26.95\ngini = 0.4444\nsamples = 18\nvalue = [12, 6]\nclass = cloudy"] ;
100 -> 101 ;
102 [label="gini = 0.0\nsamples = 2\nvalue = [0, 2]\nclass = clear"] ;
101 -> 102 ;
103 [label="Clearsky GHI stat <= 28.95\ngini = 0.375\nsamples = 16\nvalue = [12, 4]\nclass = cloudy"] ;
101 -> 103 ;
104 [label="Clearsky GHI stat <= 27.15\ngini = 0.426\nsamples = 13\nvalue = [9, 4]\nclass = cloudy"] ;
103 -> 104 ;
105 [label="gini = 0.0\nsamples = 1\nvalue = [1, 0]\nclass = cloudy"] ;
104 -> 105 ;
106 [label="Clearsky GHI stat <= 27.35\ngini = 0.4444\nsamples = 12\nvalue = [8, 4]\nclass = cloudy"] ;
104 -> 106 ;
107 [label="gini = 0.0\nsamples = 1\nvalue = [0, 1]\nclass = clear"] ;
106 -> 107 ;
108 [label="Clearsky GHI stat <= 28.75\ngini = 0.3967\nsamples = 11\nvalue = [8, 3]\nclass = cloudy"] ;
106 -> 108 ;
109 [label="Clearsky GHI stat <= 27.5\ngini = 0.3457\nsamples = 9\nvalue = [7, 2]\nclass = cloudy"] ;
108 -> 109 ;
110 [label="gini = 0.0\nsamples = 1\nvalue = [1, 0]\nclass = cloudy"] ;
109 -> 110 ;
111 [label="ratio stat <= 0.5159\ngini = 0.375\nsamples = 8\nvalue = [6, 2]\nclass = cloudy"] ;
109 -> 111 ;
112 [label="gini = 0.375\nsamples = 4\nvalue = [3, 1]\nclass = cloudy"] ;
111 -> 112 ;
113 [label="gini = 0.375\nsamples = 4\nvalue = [3, 1]\nclass = cloudy"] ;
111 -> 113 ;
114 [label="gini = 0.5\nsamples = 2\nvalue = [1, 1]\nclass = cloudy"] ;
108 -> 114 ;
115 [label="gini = 0.0\nsamples = 3\nvalue = [3, 0]\nclass = cloudy"] ;
103 -> 115 ;
116 [label="gini = 0.0\nsamples = 6\nvalue = [6, 0]\nclass = cloudy"] ;
100 -> 116 ;
117 [label="gini = 0.0\nsamples = 2\nvalue = [0, 2]\nclass = clear"] ;
99 -> 117 ;
118 [label="gini = 0.0\nsamples = 7\nvalue = [7, 0]\nclass = cloudy"] ;
98 -> 118 ;
119 [label="Clearsky GHI stat <= 30.5\ngini = 0.5\nsamples = 22\nvalue = [11, 11]\nclass = cloudy"] ;
91 -> 119 ;
120 [label="gini = 0.0\nsamples = 2\nvalue = [0, 2]\nclass = clear"] ;
119 -> 120 ;
121 [label="ratio stat <= 0.471\ngini = 0.495\nsamples = 20\nvalue = [11, 9]\nclass = cloudy"] ;
119 -> 121 ;
122 [label="gini = 0.0\nsamples = 1\nvalue = [0, 1]\nclass = clear"] ;
121 -> 122 ;
123 [label="ratio stat <= 0.487\ngini = 0.4875\nsamples = 19\nvalue = [11, 8]\nclass = cloudy"] ;
121 -> 123 ;
124 [label="Clearsky GHI stat <= 31.4\ngini = 0.32\nsamples = 5\nvalue = [4, 1]\nclass = cloudy"] ;
123 -> 124 ;
125 [label="gini = 0.0\nsamples = 2\nvalue = [2, 0]\nclass = cloudy"] ;
124 -> 125 ;
126 [label="Clearsky GHI stat <= 31.7\ngini = 0.4444\nsamples = 3\nvalue = [2, 1]\nclass = cloudy"] ;
124 -> 126 ;
127 [label="gini = 0.5\nsamples = 2\nvalue = [1, 1]\nclass = cloudy"] ;
126 -> 127 ;
128 [label="gini = 0.0\nsamples = 1\nvalue = [1, 0]\nclass = cloudy"] ;
126 -> 128 ;
129 [label="ratio stat <= 0.5186\ngini = 0.5\nsamples = 14\nvalue = [7, 7]\nclass = cloudy"] ;
123 -> 129 ;
130 [label="Clearsky GHI stat <= 30.95\ngini = 0.4444\nsamples = 6\nvalue = [2, 4]\nclass = clear"] ;
129 -> 130 ;
131 [label="gini = 0.0\nsamples = 2\nvalue = [0, 2]\nclass = clear"] ;
130 -> 131 ;
132 [label="ratio stat <= 0.5112\ngini = 0.5\nsamples = 4\nvalue = [2, 2]\nclass = cloudy"] ;
130 -> 132 ;
133 [label="gini = 0.5\nsamples = 2\nvalue = [1, 1]\nclass = cloudy"] ;
132 -> 133 ;
134 [label="gini = 0.5\nsamples = 2\nvalue = [1, 1]\nclass = cloudy"] ;
132 -> 134 ;
135 [label="ratio stat <= 0.5212\ngini = 0.4688\nsamples = 8\nvalue = [5, 3]\nclass = cloudy"] ;
129 -> 135 ;
136 [label="gini = 0.0\nsamples = 1\nvalue = [1, 0]\nclass = cloudy"] ;
135 -> 136 ;
137 [label="ratio stat <= 0.5304\ngini = 0.4898\nsamples = 7\nvalue = [4, 3]\nclass = cloudy"] ;
135 -> 137 ;
138 [label="gini = 0.4444\nsamples = 3\nvalue = [2, 1]\nclass = cloudy"] ;
137 -> 138 ;
139 [label="gini = 0.5\nsamples = 4\nvalue = [2, 2]\nclass = cloudy"] ;
137 -> 139 ;
140 [label="ratio stat <= 0.5349\ngini = 0.2804\nsamples = 83\nvalue = [69, 14]\nclass = cloudy"] ;
90 -> 140 ;
141 [label="ratio stat <= 0.4882\ngini = 0.2668\nsamples = 82\nvalue = [69, 13]\nclass = cloudy"] ;
140 -> 141 ;
142 [label="ratio stat <= 0.4755\ngini = 0.3967\nsamples = 33\nvalue = [24, 9]\nclass = cloudy"] ;
141 -> 142 ;
143 [label="ratio stat <= 0.4622\ngini = 0.1327\nsamples = 14\nvalue = [13, 1]\nclass = cloudy"] ;
142 -> 143 ;
144 [label="GHI <= 16.0\ngini = 0.4444\nsamples = 3\nvalue = [2, 1]\nclass = cloudy"] ;
143 -> 144 ;
145 [label="gini = 0.0\nsamples = 1\nvalue = [1, 0]\nclass = cloudy"] ;
144 -> 145 ;
146 [label="gini = 0.5\nsamples = 2\nvalue = [1, 1]\nclass = cloudy"] ;
144 -> 146 ;
147 [label="gini = 0.0\nsamples = 11\nvalue = [11, 0]\nclass = cloudy"] ;
143 -> 147 ;
148 [label="ratio stat <= 0.4871\ngini = 0.4875\nsamples = 19\nvalue = [11, 8]\nclass = cloudy"] ;
142 -> 148 ;
149 [label="Clearsky GHI stat <= 37.7\ngini = 0.4753\nsamples = 18\nvalue = [11, 7]\nclass = cloudy"] ;
148 -> 149 ;
150 [label="ratio stat <= 0.4834\ngini = 0.4567\nsamples = 17\nvalue = [11, 6]\nclass = cloudy"] ;
149 -> 150 ;
151 [label="ratio stat <= 0.4815\ngini = 0.48\nsamples = 15\nvalue = [9, 6]\nclass = cloudy"] ;
150 -> 151 ;
152 [label="ratio stat <= 0.4769\ngini = 0.426\nsamples = 13\nvalue = [9, 4]\nclass = cloudy"] ;
151 -> 152 ;
153 [label="gini = 0.0\nsamples = 1\nvalue = [1, 0]\nclass = cloudy"] ;
152 -> 153 ;
154 [label="ratio stat <= 0.4781\ngini = 0.4444\nsamples = 12\nvalue = [8, 4]\nclass = cloudy"] ;
152 -> 154 ;
155 [label="gini = 0.5\nsamples = 4\nvalue = [2, 2]\nclass = cloudy"] ;
154 -> 155 ;
156 [label="GHI <= 17.5\ngini = 0.375\nsamples = 8\nvalue = [6, 2]\nclass = cloudy"] ;
154 -> 156 ;
157 [label="ratio stat <= 0.4796\ngini = 0.4082\nsamples = 7\nvalue = [5, 2]\nclass = cloudy"] ;
156 -> 157 ;
158 [label="gini = 0.5\nsamples = 2\nvalue = [1, 1]\nclass = cloudy"] ;
157 -> 158 ;
159 [label="GHI <= 16.5\ngini = 0.32\nsamples = 5\nvalue = [4, 1]\nclass = cloudy"] ;
157 -> 159 ;
160 [label="gini = 0.0\nsamples = 1\nvalue = [1, 0]\nclass = cloudy"] ;
159 -> 160 ;
161 [label="gini = 0.375\nsamples = 4\nvalue = [3, 1]\nclass = cloudy"] ;
159 -> 161 ;
162 [label="gini = 0.0\nsamples = 1\nvalue = [1, 0]\nclass = cloudy"] ;
156 -> 162 ;
163 [label="gini = 0.0\nsamples = 2\nvalue = [0, 2]\nclass = clear"] ;
151 -> 163 ;
164 [label="gini = 0.0\nsamples = 2\nvalue = [2, 0]\nclass = cloudy"] ;
150 -> 164 ;
165 [label="gini = 0.0\nsamples = 1\nvalue = [0, 1]\nclass = clear"] ;
149 -> 165 ;
166 [label="gini = 0.0\nsamples = 1\nvalue = [0, 1]\nclass = clear"] ;
148 -> 166 ;
167 [label="Clearsky GHI stat <= 35.1\ngini = 0.1499\nsamples = 49\nvalue = [45, 4]\nclass = cloudy"] ;
141 -> 167 ;
168 [label="Clearsky GHI stat <= 32.45\ngini = 0.0689\nsamples = 28\nvalue = [27, 1]\nclass = cloudy"] ;
167 -> 168 ;
169 [label="GHI <= 16.5\ngini = 0.2188\nsamples = 8\nvalue = [7, 1]\nclass = cloudy"] ;
168 -> 169 ;
170 [label="gini = 0.0\nsamples = 5\nvalue = [5, 0]\nclass = cloudy"] ;
169 -> 170 ;
171 [label="ratio stat <= 0.5263\ngini = 0.4444\nsamples = 3\nvalue = [2, 1]\nclass = cloudy"] ;
169 -> 171 ;
172 [label="gini = 0.5\nsamples = 2\nvalue = [1, 1]\nclass = cloudy"] ;
171 -> 172 ;
173 [label="gini = 0.0\nsamples = 1\nvalue = [1, 0]\nclass = cloudy"] ;
171 -> 173 ;
174 [label="gini = 0.0\nsamples = 20\nvalue = [20, 0]\nclass = cloudy"] ;
168 -> 174 ;
175 [label="GHI <= 18.5\ngini = 0.2449\nsamples = 21\nvalue = [18, 3]\nclass = cloudy"] ;
167 -> 175 ;
176 [label="ratio stat <= 0.4946\ngini = 0.4444\nsamples = 6\nvalue = [4, 2]\nclass = cloudy"] ;
175 -> 176 ;
177 [label="gini = 0.0\nsamples = 1\nvalue = [1, 0]\nclass = cloudy"] ;
176 -> 177 ;
178 [label="ratio stat <= 0.5021\ngini = 0.48\nsamples = 5\nvalue = [3, 2]\nclass = cloudy"] ;
176 -> 178 ;
179 [label="gini = 0.5\nsamples = 2\nvalue = [1, 1]\nclass = cloudy"] ;
178 -> 179 ;
180 [label="Clearsky GHI stat <= 35.45\ngini = 0.4444\nsamples = 3\nvalue = [2, 1]\nclass = cloudy"] ;
178 -> 180 ;
181 [label="gini = 0.5\nsamples = 2\nvalue = [1, 1]\nclass = cloudy"] ;
180 -> 181 ;
182 [label="gini = 0.0\nsamples = 1\nvalue = [1, 0]\nclass = cloudy"] ;
180 -> 182 ;
183 [label="ratio stat <= 0.4961\ngini = 0.1244\nsamples = 15\nvalue = [14, 1]\nclass = cloudy"] ;
175 -> 183 ;
184 [label="Clearsky GHI stat <= 38.5\ngini = 0.375\nsamples = 4\nvalue = [3, 1]\nclass = cloudy"] ;
183 -> 184 ;
185 [label="gini = 0.5\nsamples = 2\nvalue = [1, 1]\nclass = cloudy"] ;
184 -> 185 ;
186 [label="gini = 0.0\nsamples = 2\nvalue = [2, 0]\nclass = cloudy"] ;
184 -> 186 ;
187 [label="gini = 0.0\nsamples = 11\nvalue = [11, 0]\nclass = cloudy"] ;
183 -> 187 ;
188 [label="gini = 0.0\nsamples = 1\nvalue = [0, 1]\nclass = clear"] ;
140 -> 188 ;
189 [label="gini = 0.0\nsamples = 2\nvalue = [0, 2]\nclass = clear"] ;
57 -> 189 ;
190 [label="gini = 0.0\nsamples = 11\nvalue = [11, 0]\nclass = cloudy"] ;
56 -> 190 ;
191 [label="gini = 0.0\nsamples = 14\nvalue = [14, 0]\nclass = cloudy"] ;
55 -> 191 ;
192 [label="ratio stat <= 0.5348\ngini = 0.48\nsamples = 10\nvalue = [4, 6]\nclass = clear"] ;
52 -> 192 ;
193 [label="Clearsky GHI stat <= 41.05\ngini = 0.4898\nsamples = 7\nvalue = [4, 3]\nclass = cloudy"] ;
192 -> 193 ;
194 [label="Clearsky GHI stat <= 40.1\ngini = 0.32\nsamples = 5\nvalue = [4, 1]\nclass = cloudy"] ;
193 -> 194 ;
195 [label="ratio stat <= 0.529\ngini = 0.4444\nsamples = 3\nvalue = [2, 1]\nclass = cloudy"] ;
194 -> 195 ;
196 [label="gini = 0.5\nsamples = 2\nvalue = [1, 1]\nclass = cloudy"] ;
195 -> 196 ;
197 [label="gini = 0.0\nsamples = 1\nvalue = [1, 0]\nclass = cloudy"] ;
195 -> 197 ;
198 [label="gini = 0.0\nsamples = 2\nvalue = [2, 0]\nclass = cloudy"] ;
194 -> 198 ;
199 [label="gini = 0.0\nsamples = 2\nvalue = [0, 2]\nclass = clear"] ;
193 -> 199 ;
200 [label="gini = 0.0\nsamples = 3\nvalue = [0, 3]\nclass = clear"] ;
192 -> 200 ;
201 [label="Clearsky GHI stat <= 47.25\ngini = 0.054\nsamples = 36\nvalue = [35, 1]\nclass = cloudy"] ;
51 -> 201 ;
202 [label="gini = 0.0\nsamples = 35\nvalue = [35, 0]\nclass = cloudy"] ;
201 -> 202 ;
203 [label="gini = 0.0\nsamples = 1\nvalue = [0, 1]\nclass = clear"] ;
201 -> 203 ;
204 [label="ratio stat <= 0.5703\ngini = 0.4282\nsamples = 161\nvalue = [111, 50]\nclass = cloudy"] ;
50 -> 204 ;
205 [label="Clearsky GHI stat <= 40.8\ngini = 0.4543\nsamples = 129\nvalue = [84, 45]\nclass = cloudy"] ;
204 -> 205 ;
206 [label="ratio stat <= 0.5531\ngini = 0.4339\nsamples = 110\nvalue = [75, 35]\nclass = cloudy"] ;
205 -> 206 ;
207 [label="ratio stat <= 0.5458\ngini = 0.3585\nsamples = 47\nvalue = [36, 11]\nclass = cloudy"] ;
206 -> 207 ;
208 [label="Clearsky GHI stat <= 29.45\ngini = 0.4978\nsamples = 15\nvalue = [8, 7]\nclass = cloudy"] ;
207 -> 208 ;
209 [label="ratio stat <= 0.5438\ngini = 0.375\nsamples = 4\nvalue = [1, 3]\nclass = clear"] ;
208 -> 209 ;
210 [label="gini = 0.5\nsamples = 2\nvalue = [1, 1]\nclass = cloudy"] ;
209 -> 210 ;
211 [label="gini = 0.0\nsamples = 2\nvalue = [0, 2]\nclass = clear"] ;
209 -> 211 ;
212 [label="GHI <= 17.5\ngini = 0.4628\nsamples = 11\nvalue = [7, 4]\nclass = cloudy"] ;
208 -> 212 ;
213 [label="gini = 0.0\nsamples = 2\nvalue = [2, 0]\nclass = cloudy"] ;
212 -> 213 ;
214 [label="Clearsky GHI stat <= 36.85\ngini = 0.4938\nsamples = 9\nvalue = [5, 4]\nclass = cloudy"] ;
212 -> 214 ;
215 [label="GHI <= 18.5\ngini = 0.5\nsamples = 6\nvalue = [3, 3]\nclass = cloudy"] ;
214 -> 215 ;
216 [label="ratio stat <= 0.5446\ngini = 0.5\nsamples = 4\nvalue = [2, 2]\nclass = cloudy"] ;
215 -> 216 ;
217 [label="gini = 0.5\nsamples = 2\nvalue = [1, 1]\nclass = cloudy"] ;
216 -> 217 ;
218 [label="gini = 0.5\nsamples = 2\nvalue = [1, 1]\nclass = cloudy"] ;
216 -> 218 ;
219 [label="gini = 0.5\nsamples = 2\nvalue = [1, 1]\nclass = cloudy"] ;
215 -> 219 ;
220 [label="ratio stat <= 0.5423\ngini = 0.4444\nsamples = 3\nvalue = [2, 1]\nclass = cloudy"] ;
214 -> 220 ;
221 [label="gini = 0.5\nsamples = 2\nvalue = [1, 1]\nclass = cloudy"] ;
220 -> 221 ;
222 [label="gini = 0.0\nsamples = 1\nvalue = [1, 0]\nclass = cloudy"] ;
220 -> 222 ;
223 [label="GHI <= 16.5\ngini = 0.2188\nsamples = 32\nvalue = [28, 4]\nclass = cloudy"] ;
207 -> 223 ;
224 [label="GHI <= 13.5\ngini = 0.32\nsamples = 20\nvalue = [16, 4]\nclass = cloudy"] ;
223 -> 224 ;
225 [label="gini = 0.0\nsamples = 5\nvalue = [5, 0]\nclass = cloudy"] ;
224 -> 225 ;
226 [label="Clearsky GHI stat <= 27.25\ngini = 0.3911\nsamples = 15\nvalue = [11, 4]\nclass = cloudy"] ;
224 -> 226 ;
227 [label="Clearsky GHI stat <= 25.5\ngini = 0.4898\nsamples = 7\nvalue = [4, 3]\nclass = cloudy"] ;
226 -> 227 ;
228 [label="gini = 0.4444\nsamples = 3\nvalue = [2, 1]\nclass = cloudy"] ;
227 -> 228 ;
229 [label="GHI <= 14.5\ngini = 0.5\nsamples = 4\nvalue = [2, 2]\nclass = cloudy"] ;
227 -> 229 ;
230 [label="gini = 0.5\nsamples = 2\nvalue = [1, 1]\nclass = cloudy"] ;
229 -> 230 ;
231 [label="gini = 0.5\nsamples = 2\nvalue = [1, 1]\nclass = cloudy"] ;
229 -> 231 ;
232 [label="Clearsky GHI stat <= 29.15\ngini = 0.2188\nsamples = 8\nvalue = [7, 1]\nclass = cloudy"] ;
226 -> 232 ;
233 [label="gini = 0.0\nsamples = 6\nvalue = [6, 0]\nclass = cloudy"] ;
232 -> 233 ;
234 [label="gini = 0.5\nsamples = 2\nvalue = [1, 1]\nclass = cloudy"] ;
232 -> 234 ;
235 [label="gini = 0.0\nsamples = 12\nvalue = [12, 0]\nclass = cloudy"] ;
223 -> 235 ;
236 [label="ratio stat <= 0.5596\ngini = 0.4717\nsamples = 63\nvalue = [39, 24]\nclass = cloudy"] ;
206 -> 236 ;
237 [label="Clearsky GHI stat <= 21.55\ngini = 0.375\nsamples = 16\nvalue = [4, 12]\nclass = clear"] ;
236 -> 237 ;
238 [label="ratio stat <= 0.5568\ngini = 0.4444\nsamples = 3\nvalue = [2, 1]\nclass = cloudy"] ;
237 -> 238 ;
239 [label="gini = 0.0\nsamples = 1\nvalue = [0, 1]\nclass = clear"] ;
238 -> 239 ;
240 [label="gini = 0.0\nsamples = 2\nvalue = [2, 0]\nclass = cloudy"] ;
238 -> 240 ;
241 [label="Clearsky GHI stat <= 37.8\ngini = 0.2604\nsamples = 13\nvalue = [2, 11]\nclass = clear"] ;
237 -> 241 ;
242 [label="Clearsky GHI stat <= 27.05\ngini = 0.1528\nsamples = 12\nvalue = [1, 11]\nclass = clear"] ;
241 -> 242 ;
243 [label="GHI <= 13.5\ngini = 0.375\nsamples = 4\nvalue = [1, 3]\nclass = clear"] ;
242 -> 243 ;
244 [label="gini = 0.0\nsamples = 1\nvalue = [0, 1]\nclass = clear"] ;
243 -> 244 ;
245 [label="gini = 0.4444\nsamples = 3\nvalue = [1, 2]\nclass = clear"] ;
243 -> 245 ;
246 [label="gini = 0.0\nsamples = 8\nvalue = [0, 8]\nclass = clear"] ;
242 -> 246 ;
247 [label="gini = 0.0\nsamples = 1\nvalue = [1, 0]\nclass = cloudy"] ;
241 -> 247 ;
248 [label="ratio stat <= 0.5671\ngini = 0.3803\nsamples = 47\nvalue = [35, 12]\nclass = cloudy"] ;
236 -> 248 ;
249 [label="Clearsky GHI stat <= 24.8\ngini = 0.3047\nsamples = 32\nvalue = [26, 6]\nclass = cloudy"] ;
248 -> 249 ;
250 [label="gini = 0.0\nsamples = 7\nvalue = [7, 0]\nclass = cloudy"] ;
249 -> 250 ;
251 [label="Clearsky GHI stat <= 31.95\ngini = 0.3648\nsamples = 25\nvalue = [19, 6]\nclass = cloudy"] ;
249 -> 251 ;
252 [label="GHI <= 17.5\ngini = 0.4444\nsamples = 18\nvalue = [12, 6]\nclass = cloudy"] ;
251 -> 252 ;
253 [label="ratio stat <= 0.5636\ngini = 0.4152\nsamples = 17\nvalue = [12, 5]\nclass = cloudy"] ;
252 -> 253 ;
254 [label="ratio stat <= 0.5618\ngini = 0.4444\nsamples = 15\nvalue = [10, 5]\nclass = cloudy"] ;
253 -> 254 ;
255 [label="Clearsky GHI stat <= 25.9\ngini = 0.32\nsamples = 5\nvalue = [4, 1]\nclass = cloudy"] ;
254 -> 255 ;
256 [label="gini = 0.4444\nsamples = 3\nvalue = [2, 1]\nclass = cloudy"] ;
255 -> 256 ;
257 [label="gini = 0.0\nsamples = 2\nvalue = [2, 0]\nclass = cloudy"] ;
255 -> 257 ;
258 [label="ratio stat <= 0.5626\ngini = 0.48\nsamples = 10\nvalue = [6, 4]\nclass = cloudy"] ;
254 -> 258 ;
259 [label="gini = 0.5\nsamples = 2\nvalue = [1, 1]\nclass = cloudy"] ;
258 -> 259 ;
260 [label="Clearsky GHI stat <= 29.3\ngini = 0.4688\nsamples = 8\nvalue = [5, 3]\nclass = cloudy"] ;
258 -> 260 ;
261 [label="gini = 0.48\nsamples = 5\nvalue = [3, 2]\nclass = cloudy"] ;
260 -> 261 ;
262 [label="gini = 0.4444\nsamples = 3\nvalue = [2, 1]\nclass = cloudy"] ;
260 -> 262 ;
263 [label="gini = 0.0\nsamples = 2\nvalue = [2, 0]\nclass = cloudy"] ;
253 -> 263 ;
264 [label="gini = 0.0\nsamples = 1\nvalue = [0, 1]\nclass = clear"] ;
252 -> 264 ;
265 [label="gini = 0.0\nsamples = 7\nvalue = [7, 0]\nclass = cloudy"] ;
251 -> 265 ;
266 [label="ratio stat <= 0.5693\ngini = 0.48\nsamples = 15\nvalue = [9, 6]\nclass = cloudy"] ;
248 -> 266 ;
267 [label="Clearsky GHI stat <= 22.0\ngini = 0.497\nsamples = 13\nvalue = [7, 6]\nclass = cloudy"] ;
266 -> 267 ;
268 [label="gini = 0.0\nsamples = 1\nvalue = [1, 0]\nclass = cloudy"] ;
267 -> 268 ;
269 [label="ratio stat <= 0.5675\ngini = 0.5\nsamples = 12\nvalue = [6, 6]\nclass = cloudy"] ;
267 -> 269 ;
270 [label="gini = 0.4444\nsamples = 3\nvalue = [1, 2]\nclass = clear"] ;
269 -> 270 ;
271 [label="ratio stat <= 0.5683\ngini = 0.4938\nsamples = 9\nvalue = [5, 4]\nclass = cloudy"] ;
269 -> 271 ;
272 [label="ratio stat <= 0.5678\ngini = 0.4444\nsamples = 6\nvalue = [4, 2]\nclass = cloudy"] ;
271 -> 272 ;
273 [label="Clearsky GHI stat <= 29.95\ngini = 0.48\nsamples = 5\nvalue = [3, 2]\nclass = cloudy"] ;
272 -> 273 ;
274 [label="gini = 0.5\nsamples = 2\nvalue = [1, 1]\nclass = cloudy"] ;
273 -> 274 ;
275 [label="gini = 0.4444\nsamples = 3\nvalue = [2, 1]\nclass = cloudy"] ;
273 -> 275 ;
276 [label="gini = 0.0\nsamples = 1\nvalue = [1, 0]\nclass = cloudy"] ;
272 -> 276 ;
277 [label="GHI <= 16.5\ngini = 0.4444\nsamples = 3\nvalue = [1, 2]\nclass = clear"] ;
271 -> 277 ;
278 [label="gini = 0.5\nsamples = 2\nvalue = [1, 1]\nclass = cloudy"] ;
277 -> 278 ;
279 [label="gini = 0.0\nsamples = 1\nvalue = [0, 1]\nclass = clear"] ;
277 -> 279 ;
280 [label="gini = 0.0\nsamples = 2\nvalue = [2, 0]\nclass = cloudy"] ;
266 -> 280 ;
281 [label="ratio stat <= 0.5506\ngini = 0.4986\nsamples = 19\nvalue = [9, 10]\nclass = clear"] ;
205 -> 281 ;
282 [label="gini = 0.0\nsamples = 3\nvalue = [0, 3]\nclass = clear"] ;
281 -> 282 ;
283 [label="Clearsky GHI stat <= 45.7\ngini = 0.4922\nsamples = 16\nvalue = [9, 7]\nclass = cloudy"] ;
281 -> 283 ;
284 [label="ratio stat <= 0.5624\ngini = 0.4861\nsamples = 12\nvalue = [5, 7]\nclass = clear"] ;
283 -> 284 ;
285 [label="Clearsky GHI stat <= 44.95\ngini = 0.4082\nsamples = 7\nvalue = [2, 5]\nclass = clear"] ;
284 -> 285 ;
286 [label="Clearsky GHI stat <= 41.2\ngini = 0.32\nsamples = 5\nvalue = [1, 4]\nclass = clear"] ;
285 -> 286 ;
287 [label="gini = 0.4444\nsamples = 3\nvalue = [1, 2]\nclass = clear"] ;
286 -> 287 ;
288 [label="gini = 0.0\nsamples = 2\nvalue = [0, 2]\nclass = clear"] ;
286 -> 288 ;
289 [label="gini = 0.5\nsamples = 2\nvalue = [1, 1]\nclass = cloudy"] ;
285 -> 289 ;
290 [label="ratio stat <= 0.5656\ngini = 0.48\nsamples = 5\nvalue = [3, 2]\nclass = cloudy"] ;
284 -> 290 ;
291 [label="gini = 0.0\nsamples = 2\nvalue = [2, 0]\nclass = cloudy"] ;
290 -> 291 ;
292 [label="Clearsky GHI stat <= 43.1\ngini = 0.4444\nsamples = 3\nvalue = [1, 2]\nclass = clear"] ;
290 -> 292 ;
293 [label="gini = 0.0\nsamples = 1\nvalue = [1, 0]\nclass = cloudy"] ;
292 -> 293 ;
294 [label="gini = 0.0\nsamples = 2\nvalue = [0, 2]\nclass = clear"] ;
292 -> 294 ;
295 [label="gini = 0.0\nsamples = 4\nvalue = [4, 0]\nclass = cloudy"] ;
283 -> 295 ;
296 [label="ratio stat <= 0.5731\ngini = 0.2637\nsamples = 32\nvalue = [27, 5]\nclass = cloudy"] ;
204 -> 296 ;
297 [label="gini = 0.0\nsamples = 6\nvalue = [6, 0]\nclass = cloudy"] ;
296 -> 297 ;
298 [label="ratio stat <= 0.5767\ngini = 0.3107\nsamples = 26\nvalue = [21, 5]\nclass = cloudy"] ;
296 -> 298 ;
299 [label="ratio stat <= 0.5764\ngini = 0.375\nsamples = 20\nvalue = [15, 5]\nclass = cloudy"] ;
298 -> 299 ;
300 [label="GHI <= 18.5\ngini = 0.3324\nsamples = 19\nvalue = [15, 4]\nclass = cloudy"] ;
299 -> 300 ;
301 [label="GHI <= 16.5\ngini = 0.4688\nsamples = 8\nvalue = [5, 3]\nclass = cloudy"] ;
300 -> 301 ;
302 [label="gini = 0.0\nsamples = 1\nvalue = [1, 0]\nclass = cloudy"] ;
301 -> 302 ;
303 [label="ratio stat <= 0.5738\ngini = 0.4898\nsamples = 7\nvalue = [4, 3]\nclass = cloudy"] ;
301 -> 303 ;
304 [label="gini = 0.4444\nsamples = 3\nvalue = [2, 1]\nclass = cloudy"] ;
303 -> 304 ;
305 [label="Clearsky GHI stat <= 30.45\ngini = 0.5\nsamples = 4\nvalue = [2, 2]\nclass = cloudy"] ;
303 -> 305 ;
306 [label="gini = 0.5\nsamples = 2\nvalue = [1, 1]\nclass = cloudy"] ;
305 -> 306 ;
307 [label="gini = 0.5\nsamples = 2\nvalue = [1, 1]\nclass = cloudy"] ;
305 -> 307 ;
308 [label="ratio stat <= 0.5739\ngini = 0.1653\nsamples = 11\nvalue = [10, 1]\nclass = cloudy"] ;
300 -> 308 ;
309 [label="gini = 0.0\nsamples = 1\nvalue = [0, 1]\nclass = clear"] ;
308 -> 309 ;
310 [label="gini = 0.0\nsamples = 10\nvalue = [10, 0]\nclass = cloudy"] ;
308 -> 310 ;
311 [label="gini = 0.0\nsamples = 1\nvalue = [0, 1]\nclass = clear"] ;
299 -> 311 ;
312 [label="gini = 0.0\nsamples = 6\nvalue = [6, 0]\nclass = cloudy"] ;
298 -> 312 ;
313 [label="Clearsky GHI stat <= 51.55\ngini = 0.001\nsamples = 4173\nvalue = [4171, 2]\nclass = cloudy"] ;
49 -> 313 ;
314 [label="Clearsky GHI stat <= 51.45\ngini = 0.0907\nsamples = 42\nvalue = [40, 2]\nclass = cloudy"] ;
313 -> 314 ;
315 [label="GHI <= 28.5\ngini = 0.0476\nsamples = 41\nvalue = [40, 1]\nclass = cloudy"] ;
314 -> 315 ;
316 [label="gini = 0.0\nsamples = 38\nvalue = [38, 0]\nclass = cloudy"] ;
315 -> 316 ;
317 [label="ratio stat <= 0.572\ngini = 0.4444\nsamples = 3\nvalue = [2, 1]\nclass = cloudy"] ;
315 -> 317 ;
318 [label="gini = 0.0\nsamples = 1\nvalue = [0, 1]\nclass = clear"] ;
317 -> 318 ;
319 [label="gini = 0.0\nsamples = 2\nvalue = [2, 0]\nclass = cloudy"] ;
317 -> 319 ;
320 [label="gini = 0.0\nsamples = 1\nvalue = [0, 1]\nclass = clear"] ;
314 -> 320 ;
321 [label="gini = 0.0\nsamples = 4131\nvalue = [4131, 0]\nclass = cloudy"] ;
313 -> 321 ;
322 [label="Clearsky GHI stat <= 99.3\ngini = 0.1447\nsamples = 16132\nvalue = [14865, 1267]\nclass = cloudy"] ;
2 -> 322 ;
323 [label="ratio stat <= 0.7115\ngini = 0.4764\nsamples = 3002\nvalue = [1827, 1175]\nclass = cloudy"] ;
322 -> 323 ;
324 [label="Clearsky GHI stat <= 52.9\ngini = 0.4294\nsamples = 1429\nvalue = [983, 446]\nclass = cloudy"] ;
323 -> 324 ;
325 [label="Clearsky GHI stat <= 35.95\ngini = 0.4764\nsamples = 948\nvalue = [577, 371]\nclass = cloudy"] ;
324 -> 325 ;
326 [label="GHI <= 11.5\ngini = 0.4903\nsamples = 581\nvalue = [331, 250]\nclass = cloudy"] ;
325 -> 326 ;
327 [label="ratio stat <= 0.7074\ngini = 0.2378\nsamples = 29\nvalue = [25, 4]\nclass = cloudy"] ;
326 -> 327 ;
328 [label="Clearsky GHI stat <= 18.35\ngini = 0.1913\nsamples = 28\nvalue = [25, 3]\nclass = cloudy"] ;
327 -> 328 ;
329 [label="Clearsky GHI stat <= 15.95\ngini = 0.0832\nsamples = 23\nvalue = [22, 1]\nclass = cloudy"] ;
328 -> 329 ;
330 [label="Clearsky GHI stat <= 15.75\ngini = 0.4444\nsamples = 3\nvalue = [2, 1]\nclass = cloudy"] ;
329 -> 330 ;
331 [label="gini = 0.0\nsamples = 2\nvalue = [2, 0]\nclass = cloudy"] ;
330 -> 331 ;
332 [label="gini = 0.0\nsamples = 1\nvalue = [0, 1]\nclass = clear"] ;
330 -> 332 ;
333 [label="gini = 0.0\nsamples = 20\nvalue = [20, 0]\nclass = cloudy"] ;
329 -> 333 ;
334 [label="Clearsky GHI stat <= 18.75\ngini = 0.48\nsamples = 5\nvalue = [3, 2]\nclass = cloudy"] ;
328 -> 334 ;
335 [label="ratio stat <= 0.5946\ngini = 0.4444\nsamples = 3\nvalue = [1, 2]\nclass = clear"] ;
334 -> 335 ;
336 [label="gini = 0.5\nsamples = 2\nvalue = [1, 1]\nclass = cloudy"] ;
335 -> 336 ;
337 [label="gini = 0.0\nsamples = 1\nvalue = [0, 1]\nclass = clear"] ;
335 -> 337 ;
338 [label="gini = 0.0\nsamples = 2\nvalue = [2, 0]\nclass = cloudy"] ;
334 -> 338 ;
339 [label="gini = 0.0\nsamples = 1\nvalue = [0, 1]\nclass = clear"] ;
327 -> 339 ;
340 [label="ratio stat <= 0.6527\ngini = 0.4941\nsamples = 552\nvalue = [306, 246]\nclass = cloudy"] ;
326 -> 340 ;
341 [label="ratio stat <= 0.5808\ngini = 0.4792\nsamples = 309\nvalue = [186, 123]\nclass = cloudy"] ;
340 -> 341 ;
342 [label="Clearsky GHI stat <= 31.05\ngini = 0.2975\nsamples = 11\nvalue = [2, 9]\nclass = clear"] ;
341 -> 342 ;
343 [label="Clearsky GHI stat <= 23.3\ngini = 0.18\nsamples = 10\nvalue = [1, 9]\nclass = clear"] ;
342 -> 343 ;
344 [label="gini = 0.5\nsamples = 2\nvalue = [1, 1]\nclass = cloudy"] ;
343 -> 344 ;
345 [label="gini = 0.0\nsamples = 8\nvalue = [0, 8]\nclass = clear"] ;
343 -> 345 ;
346 [label="gini = 0.0\nsamples = 1\nvalue = [1, 0]\nclass = cloudy"] ;
342 -> 346 ;
347 [label="Clearsky GHI stat <= 35.05\ngini = 0.4724\nsamples = 298\nvalue = [184, 114]\nclass = cloudy"] ;
341 -> 347 ;
348 [label="ratio stat <= 0.6505\ngini = 0.4649\nsamples = 283\nvalue = [179, 104]\nclass = cloudy"] ;
347 -> 348 ;
349 [label="ratio stat <= 0.5829\ngini = 0.4696\nsamples = 276\nvalue = [172, 104]\nclass = cloudy"] ;
348 -> 349 ;
350 [label="gini = 0.0\nsamples = 6\nvalue = [6, 0]\nclass = cloudy"] ;
349 -> 350 ;
351 [label="GHI <= 19.5\ngini = 0.4736\nsamples = 270\nvalue = [166, 104]\nclass = cloudy"] ;
349 -> 351 ;
352 [label="ratio stat <= 0.6482\ngini = 0.4841\nsamples = 219\nvalue = [129, 90]\nclass = cloudy"] ;
351 -> 352 ;
353 [label="Clearsky GHI stat <= 29.9\ngini = 0.4818\nsamples = 215\nvalue = [128, 87]\nclass = cloudy"] ;
352 -> 353 ;
354 [label="Clearsky GHI stat <= 23.75\ngini = 0.4719\nsamples = 173\nvalue = [107, 66]\nclass = cloudy"] ;
353 -> 354 ;
355 [label="ratio stat <= 0.6068\ngini = 0.4966\nsamples = 61\nvalue = [33, 28]\nclass = cloudy"] ;
354 -> 355 ;
356 [label="ratio stat <= 0.5869\ngini = 0.3911\nsamples = 15\nvalue = [11, 4]\nclass = cloudy"] ;
355 -> 356 ;
357 [label="gini = 0.0\nsamples = 1\nvalue = [0, 1]\nclass = clear"] ;
356 -> 357 ;
358 [label="ratio stat <= 0.595\ngini = 0.3367\nsamples = 14\nvalue = [11, 3]\nclass = cloudy"] ;
356 -> 358 ;
359 [label="gini = 0.0\nsamples = 5\nvalue = [5, 0]\nclass = cloudy"] ;
358 -> 359 ;
360 [label="ratio stat <= 0.5973\ngini = 0.4444\nsamples = 9\nvalue = [6, 3]\nclass = cloudy"] ;
358 -> 360 ;
361 [label="gini = 0.0\nsamples = 1\nvalue = [0, 1]\nclass = clear"] ;
360 -> 361 ;
362 [label="ratio stat <= 0.6027\ngini = 0.375\nsamples = 8\nvalue = [6, 2]\nclass = cloudy"] ;
360 -> 362 ;
363 [label="Clearsky GHI stat <= 23.35\ngini = 0.4444\nsamples = 6\nvalue = [4, 2]\nclass = cloudy"] ;
362 -> 363 ;
364 [label="ratio stat <= 0.6014\ngini = 0.375\nsamples = 4\nvalue = [3, 1]\nclass = cloudy"] ;
363 -> 364 ;
365 [label="gini = 0.0\nsamples = 1\nvalue = [1, 0]\nclass = cloudy"] ;
364 -> 365 ;
366 [label="gini = 0.4444\nsamples = 3\nvalue = [2, 1]\nclass = cloudy"] ;
364 -> 366 ;
367 [label="gini = 0.5\nsamples = 2\nvalue = [1, 1]\nclass = cloudy"] ;
363 -> 367 ;
368 [label="gini = 0.0\nsamples = 2\nvalue = [2, 0]\nclass = cloudy"] ;
362 -> 368 ;
369 [label="Clearsky GHI stat <= 20.25\ngini = 0.4991\nsamples = 46\nvalue = [22, 24]\nclass = clear"] ;
355 -> 369 ;
370 [label="Clearsky GHI stat <= 19.5\ngini = 0.42\nsamples = 10\nvalue = [7, 3]\nclass = cloudy"] ;
369 -> 370 ;
371 [label="ratio stat <= 0.6218\ngini = 0.4688\nsamples = 8\nvalue = [5, 3]\nclass = cloudy"] ;
370 -> 371 ;
372 [label="gini = 0.0\nsamples = 1\nvalue = [0, 1]\nclass = clear"] ;
371 -> 372 ;
373 [label="ratio stat <= 0.6283\ngini = 0.4082\nsamples = 7\nvalue = [5, 2]\nclass = cloudy"] ;
371 -> 373 ;
374 [label="gini = 0.0\nsamples = 2\nvalue = [2, 0]\nclass = cloudy"] ;
373 -> 374 ;
375 [label="Clearsky GHI stat <= 18.8\ngini = 0.48\nsamples = 5\nvalue = [3, 2]\nclass = cloudy"] ;
373 -> 375 ;
376 [label="gini = 0.5\nsamples = 2\nvalue = [1, 1]\nclass = cloudy"] ;
375 -> 376 ;
377 [label="gini = 0.4444\nsamples = 3\nvalue = [2, 1]\nclass = cloudy"] ;
375 -> 377 ;
378 [label="gini = 0.0\nsamples = 2\nvalue = [2, 0]\nclass = cloudy"] ;
370 -> 378 ;
379 [label="ratio stat <= 0.6343\ngini = 0.4861\nsamples = 36\nvalue = [15, 21]\nclass = clear"] ;
369 -> 379 ;
380 [label="ratio stat <= 0.6221\ngini = 0.4234\nsamples = 23\nvalue = [7, 16]\nclass = clear"] ;
379 -> 380 ;
381 [label="ratio stat <= 0.6207\ngini = 0.4844\nsamples = 17\nvalue = [7, 10]\nclass = clear"] ;
380 -> 381 ;
382 [label="Clearsky GHI stat <= 21.25\ngini = 0.4688\nsamples = 16\nvalue = [6, 10]\nclass = clear"] ;
381 -> 382 ;
383 [label="gini = 0.0\nsamples = 2\nvalue = [0, 2]\nclass = clear"] ;
382 -> 383 ;
384 [label="ratio stat <= 0.6081\ngini = 0.4898\nsamples = 14\nvalue = [6, 8]\nclass = clear"] ;
382 -> 384 ;
385 [label="gini = 0.4444\nsamples = 3\nvalue = [1, 2]\nclass = clear"] ;
384 -> 385 ;
386 [label="Clearsky GHI stat <= 22.65\ngini = 0.4959\nsamples = 11\nvalue = [5, 6]\nclass = clear"] ;
384 -> 386 ;
387 [label="Clearsky GHI stat <= 21.95\ngini = 0.5\nsamples = 8\nvalue = [4, 4]\nclass = cloudy"] ;
386 -> 387 ;
388 [label="gini = 0.5\nsamples = 4\nvalue = [2, 2]\nclass = cloudy"] ;
387 -> 388 ;
389 [label="gini = 0.5\nsamples = 4\nvalue = [2, 2]\nclass = cloudy"] ;
387 -> 389 ;
390 [label="Clearsky GHI stat <= 22.85\ngini = 0.4444\nsamples = 3\nvalue = [1, 2]\nclass = clear"] ;
386 -> 390 ;
391 [label="gini = 0.0\nsamples = 1\nvalue = [0, 1]\nclass = clear"] ;
390 -> 391 ;
392 [label="gini = 0.5\nsamples = 2\nvalue = [1, 1]\nclass = cloudy"] ;
390 -> 392 ;
393 [label="gini = 0.0\nsamples = 1\nvalue = [1, 0]\nclass = cloudy"] ;
381 -> 393 ;
394 [label="gini = 0.0\nsamples = 6\nvalue = [0, 6]\nclass = clear"] ;
380 -> 394 ;
395 [label="Clearsky GHI stat <= 21.15\ngini = 0.4734\nsamples = 13\nvalue = [8, 5]\nclass = cloudy"] ;
379 -> 395 ;
396 [label="gini = 0.0\nsamples = 1\nvalue = [0, 1]\nclass = clear"] ;
395 -> 396 ;
397 [label="Clearsky GHI stat <= 23.25\ngini = 0.4444\nsamples = 12\nvalue = [8, 4]\nclass = cloudy"] ;
395 -> 397 ;
398 [label="ratio stat <= 0.6429\ngini = 0.3457\nsamples = 9\nvalue = [7, 2]\nclass = cloudy"] ;
397 -> 398 ;
399 [label="Clearsky GHI stat <= 21.95\ngini = 0.2778\nsamples = 6\nvalue = [5, 1]\nclass = cloudy"] ;
398 -> 399 ;
400 [label="gini = 0.0\nsamples = 1\nvalue = [1, 0]\nclass = cloudy"] ;
399 -> 400 ;
401 [label="gini = 0.32\nsamples = 5\nvalue = [4, 1]\nclass = cloudy"] ;
399 -> 401 ;
402 [label="gini = 0.4444\nsamples = 3\nvalue = [2, 1]\nclass = cloudy"] ;
398 -> 402 ;
403 [label="Clearsky GHI stat <= 23.45\ngini = 0.4444\nsamples = 3\nvalue = [1, 2]\nclass = clear"] ;
397 -> 403 ;
404 [label="gini = 0.0\nsamples = 1\nvalue = [0, 1]\nclass = clear"] ;
403 -> 404 ;
405 [label="gini = 0.5\nsamples = 2\nvalue = [1, 1]\nclass = cloudy"] ;
403 -> 405 ;
406 [label="Clearsky GHI stat <= 24.3\ngini = 0.4483\nsamples = 112\nvalue = [74, 38]\nclass = cloudy"] ;
354 -> 406 ;
407 [label="ratio stat <= 0.5858\ngini = 0.2604\nsamples = 13\nvalue = [11, 2]\nclass = cloudy"] ;
406 -> 407 ;
408 [label="gini = 0.0\nsamples = 2\nvalue = [2, 0]\nclass = cloudy"] ;
407 -> 408 ;
409 [label="ratio stat <= 0.604\ngini = 0.2975\nsamples = 11\nvalue = [9, 2]\nclass = cloudy"] ;
407 -> 409 ;
410 [label="gini = 0.5\nsamples = 2\nvalue = [1, 1]\nclass = cloudy"] ;
409 -> 410 ;
411 [label="ratio stat <= 0.6237\ngini = 0.1975\nsamples = 9\nvalue = [8, 1]\nclass = cloudy"] ;
409 -> 411 ;
412 [label="gini = 0.0\nsamples = 2\nvalue = [2, 0]\nclass = cloudy"] ;
411 -> 412 ;
413 [label="ratio stat <= 0.6276\ngini = 0.2449\nsamples = 7\nvalue = [6, 1]\nclass = cloudy"] ;
411 -> 413 ;
414 [label="gini = 0.32\nsamples = 5\nvalue = [4, 1]\nclass = cloudy"] ;
413 -> 414 ;
415 [label="gini = 0.0\nsamples = 2\nvalue = [2, 0]\nclass = cloudy"] ;
413 -> 415 ;
416 [label="Clearsky GHI stat <= 24.5\ngini = 0.4628\nsamples = 99\nvalue = [63, 36]\nclass = cloudy"] ;
406 -> 416 ;
417 [label="gini = 0.0\nsamples = 2\nvalue = [0, 2]\nclass = clear"] ;
416 -> 417 ;
418 [label="ratio stat <= 0.6011\ngini = 0.4553\nsamples = 97\nvalue = [63, 34]\nclass = cloudy"] ;
416 -> 418 ;
419 [label="Clearsky GHI stat <= 28.45\ngini = 0.4974\nsamples = 28\nvalue = [15, 13]\nclass = cloudy"] ;
418 -> 419 ;
420 [label="ratio stat <= 0.5849\ngini = 0.4835\nsamples = 22\nvalue = [9, 13]\nclass = clear"] ;
419 -> 420 ;
421 [label="GHI <= 15.5\ngini = 0.375\nsamples = 4\nvalue = [3, 1]\nclass = cloudy"] ;
420 -> 421 ;
422 [label="gini = 0.0\nsamples = 1\nvalue = [1, 0]\nclass = cloudy"] ;
421 -> 422 ;
423 [label="gini = 0.4444\nsamples = 3\nvalue = [2, 1]\nclass = cloudy"] ;
421 -> 423 ;
424 [label="Clearsky GHI stat <= 25.3\ngini = 0.4444\nsamples = 18\nvalue = [6, 12]\nclass = clear"] ;
420 -> 424 ;
425 [label="gini = 0.0\nsamples = 2\nvalue = [0, 2]\nclass = clear"] ;
424 -> 425 ;
426 [label="ratio stat <= 0.5894\ngini = 0.4688\nsamples = 16\nvalue = [6, 10]\nclass = clear"] ;
424 -> 426 ;
427 [label="ratio stat <= 0.586\ngini = 0.2778\nsamples = 6\nvalue = [1, 5]\nclass = clear"] ;
426 -> 427 ;
428 [label="gini = 0.4444\nsamples = 3\nvalue = [1, 2]\nclass = clear"] ;
427 -> 428 ;
429 [label="gini = 0.0\nsamples = 3\nvalue = [0, 3]\nclass = clear"] ;
427 -> 429 ;
430 [label="Clearsky GHI stat <= 26.85\ngini = 0.5\nsamples = 10\nvalue = [5, 5]\nclass = cloudy"] ;
426 -> 430 ;
431 [label="GHI <= 15.5\ngini = 0.4444\nsamples = 3\nvalue = [1, 2]\nclass = clear"] ;
430 -> 431 ;
432 [label="gini = 0.5\nsamples = 2\nvalue = [1, 1]\nclass = cloudy"] ;
431 -> 432 ;
433 [label="gini = 0.0\nsamples = 1\nvalue = [0, 1]\nclass = clear"] ;
431 -> 433 ;
434 [label="Clearsky GHI stat <= 26.95\ngini = 0.4898\nsamples = 7\nvalue = [4, 3]\nclass = cloudy"] ;
430 -> 434 ;
435 [label="gini = 0.0\nsamples = 1\nvalue = [1, 0]\nclass = cloudy"] ;
434 -> 435 ;
436 [label="Clearsky GHI stat <= 27.65\ngini = 0.5\nsamples = 6\nvalue = [3, 3]\nclass = cloudy"] ;
434 -> 436 ;
437 [label="gini = 0.5\nsamples = 4\nvalue = [2, 2]\nclass = cloudy"] ;
436 -> 437 ;
438 [label="gini = 0.5\nsamples = 2\nvalue = [1, 1]\nclass = cloudy"] ;
436 -> 438 ;
439 [label="gini = 0.0\nsamples = 6\nvalue = [6, 0]\nclass = cloudy"] ;
419 -> 439 ;
440 [label="Clearsky GHI stat <= 27.15\ngini = 0.4234\nsamples = 69\nvalue = [48, 21]\nclass = cloudy"] ;
418 -> 440 ;
441 [label="ratio stat <= 0.642\ngini = 0.32\nsamples = 35\nvalue = [28, 7]\nclass = cloudy"] ;
440 -> 441 ;
442 [label="Clearsky GHI stat <= 26.45\ngini = 0.2188\nsamples = 32\nvalue = [28, 4]\nclass = cloudy"] ;
441 -> 442 ;
443 [label="Clearsky GHI stat <= 25.3\ngini = 0.2975\nsamples = 22\nvalue = [18, 4]\nclass = cloudy"] ;
442 -> 443 ;
444 [label="gini = 0.0\nsamples = 8\nvalue = [8, 0]\nclass = cloudy"] ;
443 -> 444 ;
445 [label="Clearsky GHI stat <= 25.5\ngini = 0.4082\nsamples = 14\nvalue = [10, 4]\nclass = cloudy"] ;
443 -> 445 ;
446 [label="gini = 0.0\nsamples = 1\nvalue = [0, 1]\nclass = clear"] ;
445 -> 446 ;
447 [label="ratio stat <= 0.6084\ngini = 0.355\nsamples = 13\nvalue = [10, 3]\nclass = cloudy"] ;
445 -> 447 ;
448 [label="gini = 0.5\nsamples = 2\nvalue = [1, 1]\nclass = cloudy"] ;
447 -> 448 ;
449 [label="Clearsky GHI stat <= 26.05\ngini = 0.2975\nsamples = 11\nvalue = [9, 2]\nclass = cloudy"] ;
447 -> 449 ;
450 [label="Clearsky GHI stat <= 25.8\ngini = 0.4082\nsamples = 7\nvalue = [5, 2]\nclass = cloudy"] ;
449 -> 450 ;
451 [label="gini = 0.375\nsamples = 4\nvalue = [3, 1]\nclass = cloudy"] ;
450 -> 451 ;
452 [label="gini = 0.4444\nsamples = 3\nvalue = [2, 1]\nclass = cloudy"] ;
450 -> 452 ;
453 [label="gini = 0.0\nsamples = 4\nvalue = [4, 0]\nclass = cloudy"] ;
449 -> 453 ;
454 [label="gini = 0.0\nsamples = 10\nvalue = [10, 0]\nclass = cloudy"] ;
442 -> 454 ;
455 [label="gini = 0.0\nsamples = 3\nvalue = [0, 3]\nclass = clear"] ;
441 -> 455 ;
456 [label="Clearsky GHI stat <= 29.45\ngini = 0.4844\nsamples = 34\nvalue = [20, 14]\nclass = cloudy"] ;
440 -> 456 ;
457 [label="Clearsky GHI stat <= 28.85\ngini = 0.5\nsamples = 26\nvalue = [13, 13]\nclass = cloudy"] ;
456 -> 457 ;
458 [label="ratio stat <= 0.6417\ngini = 0.48\nsamples = 20\nvalue = [12, 8]\nclass = cloudy"] ;
457 -> 458 ;
459 [label="Clearsky GHI stat <= 28.7\ngini = 0.4983\nsamples = 17\nvalue = [9, 8]\nclass = cloudy"] ;
458 -> 459 ;
460 [label="ratio stat <= 0.6239\ngini = 0.4978\nsamples = 15\nvalue = [7, 8]\nclass = clear"] ;
459 -> 460 ;
461 [label="ratio stat <= 0.6216\ngini = 0.4688\nsamples = 8\nvalue = [5, 3]\nclass = cloudy"] ;
460 -> 461 ;
462 [label="ratio stat <= 0.6182\ngini = 0.4898\nsamples = 7\nvalue = [4, 3]\nclass = cloudy"] ;
461 -> 462 ;
463 [label="ratio stat <= 0.6115\ngini = 0.4444\nsamples = 6\nvalue = [4, 2]\nclass = cloudy"] ;
462 -> 463 ;
464 [label="Clearsky GHI stat <= 28.1\ngini = 0.48\nsamples = 5\nvalue = [3, 2]\nclass = cloudy"] ;
463 -> 464 ;
465 [label="gini = 0.5\nsamples = 2\nvalue = [1, 1]\nclass = cloudy"] ;
464 -> 465 ;
466 [label="gini = 0.4444\nsamples = 3\nvalue = [2, 1]\nclass = cloudy"] ;
464 -> 466 ;
467 [label="gini = 0.0\nsamples = 1\nvalue = [1, 0]\nclass = cloudy"] ;
463 -> 467 ;
468 [label="gini = 0.0\nsamples = 1\nvalue = [0, 1]\nclass = clear"] ;
462 -> 468 ;
469 [label="gini = 0.0\nsamples = 1\nvalue = [1, 0]\nclass = cloudy"] ;
461 -> 469 ;
470 [label="Clearsky GHI stat <= 28.2\ngini = 0.4082\nsamples = 7\nvalue = [2, 5]\nclass = clear"] ;
460 -> 470 ;
471 [label="gini = 0.0\nsamples = 2\nvalue = [0, 2]\nclass = clear"] ;
470 -> 471 ;
472 [label="ratio stat <= 0.6316\ngini = 0.48\nsamples = 5\nvalue = [2, 3]\nclass = clear"] ;
470 -> 472 ;
473 [label="gini = 0.0\nsamples = 1\nvalue = [0, 1]\nclass = clear"] ;
472 -> 473 ;
474 [label="Clearsky GHI stat <= 28.35\ngini = 0.5\nsamples = 4\nvalue = [2, 2]\nclass = cloudy"] ;
472 -> 474 ;
475 [label="gini = 0.5\nsamples = 2\nvalue = [1, 1]\nclass = cloudy"] ;
474 -> 475 ;
476 [label="gini = 0.5\nsamples = 2\nvalue = [1, 1]\nclass = cloudy"] ;
474 -> 476 ;
477 [label="gini = 0.0\nsamples = 2\nvalue = [2, 0]\nclass = cloudy"] ;
459 -> 477 ;
478 [label="gini = 0.0\nsamples = 3\nvalue = [3, 0]\nclass = cloudy"] ;
458 -> 478 ;
479 [label="Clearsky GHI stat <= 29.1\ngini = 0.2778\nsamples = 6\nvalue = [1, 5]\nclass = clear"] ;
457 -> 479 ;
480 [label="gini = 0.0\nsamples = 2\nvalue = [0, 2]\nclass = clear"] ;
479 -> 480 ;
481 [label="Clearsky GHI stat <= 29.3\ngini = 0.375\nsamples = 4\nvalue = [1, 3]\nclass = clear"] ;
479 -> 481 ;
482 [label="gini = 0.5\nsamples = 2\nvalue = [1, 1]\nclass = cloudy"] ;
481 -> 482 ;
483 [label="gini = 0.0\nsamples = 2\nvalue = [0, 2]\nclass = clear"] ;
481 -> 483 ;
484 [label="ratio stat <= 0.6397\ngini = 0.2188\nsamples = 8\nvalue = [7, 1]\nclass = cloudy"] ;
456 -> 484 ;
485 [label="gini = 0.0\nsamples = 5\nvalue = [5, 0]\nclass = cloudy"] ;
484 -> 485 ;
486 [label="gini = 0.4444\nsamples = 3\nvalue = [2, 1]\nclass = cloudy"] ;
484 -> 486 ;
487 [label="GHI <= 18.5\ngini = 0.5\nsamples = 42\nvalue = [21, 21]\nclass = cloudy"] ;
353 -> 487 ;
488 [label="ratio stat <= 0.5902\ngini = 0.4297\nsamples = 16\nvalue = [5, 11]\nclass = clear"] ;
487 -> 488 ;
489 [label="ratio stat <= 0.5863\ngini = 0.5\nsamples = 4\nvalue = [2, 2]\nclass = cloudy"] ;
488 -> 489 ;
490 [label="gini = 0.5\nsamples = 2\nvalue = [1, 1]\nclass = cloudy"] ;
489 -> 490 ;
491 [label="gini = 0.5\nsamples = 2\nvalue = [1, 1]\nclass = cloudy"] ;
489 -> 491 ;
492 [label="Clearsky GHI stat <= 30.35\ngini = 0.375\nsamples = 12\nvalue = [3, 9]\nclass = clear"] ;
488 -> 492 ;
493 [label="ratio stat <= 0.595\ngini = 0.3967\nsamples = 11\nvalue = [3, 8]\nclass = clear"] ;
492 -> 493 ;
494 [label="gini = 0.5\nsamples = 2\nvalue = [1, 1]\nclass = cloudy"] ;
493 -> 494 ;
495 [label="Clearsky GHI stat <= 30.05\ngini = 0.3457\nsamples = 9\nvalue = [2, 7]\nclass = clear"] ;
493 -> 495 ;
496 [label="gini = 0.375\nsamples = 4\nvalue = [1, 3]\nclass = clear"] ;
495 -> 496 ;
497 [label="Clearsky GHI stat <= 30.15\ngini = 0.32\nsamples = 5\nvalue = [1, 4]\nclass = clear"] ;
495 -> 497 ;
498 [label="gini = 0.0\nsamples = 1\nvalue = [0, 1]\nclass = clear"] ;
497 -> 498 ;
499 [label="gini = 0.375\nsamples = 4\nvalue = [1, 3]\nclass = clear"] ;
497 -> 499 ;
500 [label="gini = 0.0\nsamples = 1\nvalue = [0, 1]\nclass = clear"] ;
492 -> 500 ;
501 [label="Clearsky GHI stat <= 32.15\ngini = 0.4734\nsamples = 26\nvalue = [16, 10]\nclass = cloudy"] ;
487 -> 501 ;
502 [label="Clearsky GHI stat <= 31.5\ngini = 0.4608\nsamples = 25\nvalue = [16, 9]\nclass = cloudy"] ;
501 -> 502 ;
503 [label="Clearsky GHI stat <= 30.15\ngini = 0.4938\nsamples = 18\nvalue = [10, 8]\nclass = cloudy"] ;
502 -> 503 ;
504 [label="ratio stat <= 0.6323\ngini = 0.4444\nsamples = 9\nvalue = [6, 3]\nclass = cloudy"] ;
503 -> 504 ;
505 [label="gini = 0.0\nsamples = 1\nvalue = [1, 0]\nclass = cloudy"] ;
504 -> 505 ;
506 [label="gini = 0.4688\nsamples = 8\nvalue = [5, 3]\nclass = cloudy"] ;
504 -> 506 ;
507 [label="ratio stat <= 0.625\ngini = 0.4938\nsamples = 9\nvalue = [4, 5]\nclass = clear"] ;
503 -> 507 ;
508 [label="Clearsky GHI stat <= 30.65\ngini = 0.5\nsamples = 8\nvalue = [4, 4]\nclass = cloudy"] ;
507 -> 508 ;
509 [label="gini = 0.0\nsamples = 1\nvalue = [1, 0]\nclass = cloudy"] ;
508 -> 509 ;
510 [label="ratio stat <= 0.6179\ngini = 0.4898\nsamples = 7\nvalue = [3, 4]\nclass = clear"] ;
508 -> 510 ;
511 [label="ratio stat <= 0.6149\ngini = 0.5\nsamples = 6\nvalue = [3, 3]\nclass = cloudy"] ;
510 -> 511 ;
512 [label="ratio stat <= 0.608\ngini = 0.48\nsamples = 5\nvalue = [2, 3]\nclass = clear"] ;
511 -> 512 ;
513 [label="gini = 0.5\nsamples = 2\nvalue = [1, 1]\nclass = cloudy"] ;
512 -> 513 ;
514 [label="ratio stat <= 0.6119\ngini = 0.4444\nsamples = 3\nvalue = [1, 2]\nclass = clear"] ;
512 -> 514 ;
515 [label="gini = 0.0\nsamples = 1\nvalue = [0, 1]\nclass = clear"] ;
514 -> 515 ;
516 [label="gini = 0.5\nsamples = 2\nvalue = [1, 1]\nclass = cloudy"] ;
514 -> 516 ;
517 [label="gini = 0.0\nsamples = 1\nvalue = [1, 0]\nclass = cloudy"] ;
511 -> 517 ;
518 [label="gini = 0.0\nsamples = 1\nvalue = [0, 1]\nclass = clear"] ;
510 -> 518 ;
519 [label="gini = 0.0\nsamples = 1\nvalue = [0, 1]\nclass = clear"] ;
507 -> 519 ;
520 [label="ratio stat <= 0.5966\ngini = 0.2449\nsamples = 7\nvalue = [6, 1]\nclass = cloudy"] ;
502 -> 520 ;
521 [label="gini = 0.375\nsamples = 4\nvalue = [3, 1]\nclass = cloudy"] ;
520 -> 521 ;
522 [label="gini = 0.0\nsamples = 3\nvalue = [3, 0]\nclass = cloudy"] ;
520 -> 522 ;
523 [label="gini = 0.0\nsamples = 1\nvalue = [0, 1]\nclass = clear"] ;
501 -> 523 ;
524 [label="ratio stat <= 0.6502\ngini = 0.375\nsamples = 4\nvalue = [1, 3]\nclass = clear"] ;
352 -> 524 ;
525 [label="gini = 0.0\nsamples = 2\nvalue = [0, 2]\nclass = clear"] ;
524 -> 525 ;
526 [label="gini = 0.5\nsamples = 2\nvalue = [1, 1]\nclass = cloudy"] ;
524 -> 526 ;
527 [label="Clearsky GHI stat <= 32.2\ngini = 0.3983\nsamples = 51\nvalue = [37, 14]\nclass = cloudy"] ;
351 -> 527 ;
528 [label="Clearsky GHI stat <= 31.55\ngini = 0.1528\nsamples = 12\nvalue = [11, 1]\nclass = cloudy"] ;
527 -> 528 ;
529 [label="gini = 0.0\nsamples = 6\nvalue = [6, 0]\nclass = cloudy"] ;
528 -> 529 ;
530 [label="ratio stat <= 0.6319\ngini = 0.2778\nsamples = 6\nvalue = [5, 1]\nclass = cloudy"] ;
528 -> 530 ;
531 [label="gini = 0.0\nsamples = 4\nvalue = [4, 0]\nclass = cloudy"] ;
530 -> 531 ;
532 [label="gini = 0.5\nsamples = 2\nvalue = [1, 1]\nclass = cloudy"] ;
530 -> 532 ;
533 [label="ratio stat <= 0.634\ngini = 0.4444\nsamples = 39\nvalue = [26, 13]\nclass = cloudy"] ;
527 -> 533 ;
534 [label="Clearsky GHI stat <= 34.9\ngini = 0.3841\nsamples = 27\nvalue = [20, 7]\nclass = cloudy"] ;
533 -> 534 ;
535 [label="ratio stat <= 0.6195\ngini = 0.3084\nsamples = 21\nvalue = [17, 4]\nclass = cloudy"] ;
534 -> 535 ;
536 [label="Clearsky GHI stat <= 34.05\ngini = 0.375\nsamples = 16\nvalue = [12, 4]\nclass = cloudy"] ;
535 -> 536 ;
537 [label="ratio stat <= 0.5891\ngini = 0.426\nsamples = 13\nvalue = [9, 4]\nclass = cloudy"] ;
536 -> 537 ;
538 [label="gini = 0.0\nsamples = 2\nvalue = [2, 0]\nclass = cloudy"] ;
537 -> 538 ;
539 [label="ratio stat <= 0.5944\ngini = 0.4628\nsamples = 11\nvalue = [7, 4]\nclass = cloudy"] ;
537 -> 539 ;
540 [label="gini = 0.0\nsamples = 1\nvalue = [0, 1]\nclass = clear"] ;
539 -> 540 ;
541 [label="ratio stat <= 0.6107\ngini = 0.42\nsamples = 10\nvalue = [7, 3]\nclass = cloudy"] ;
539 -> 541 ;
542 [label="Clearsky GHI stat <= 32.9\ngini = 0.32\nsamples = 5\nvalue = [4, 1]\nclass = cloudy"] ;
541 -> 542 ;
543 [label="gini = 0.0\nsamples = 1\nvalue = [1, 0]\nclass = cloudy"] ;
542 -> 543 ;
544 [label="Clearsky GHI stat <= 33.2\ngini = 0.375\nsamples = 4\nvalue = [3, 1]\nclass = cloudy"] ;
542 -> 544 ;
545 [label="gini = 0.4444\nsamples = 3\nvalue = [2, 1]\nclass = cloudy"] ;
544 -> 545 ;
546 [label="gini = 0.0\nsamples = 1\nvalue = [1, 0]\nclass = cloudy"] ;
544 -> 546 ;
547 [label="Clearsky GHI stat <= 32.6\ngini = 0.48\nsamples = 5\nvalue = [3, 2]\nclass = cloudy"] ;
541 -> 547 ;
548 [label="gini = 0.0\nsamples = 1\nvalue = [1, 0]\nclass = cloudy"] ;
547 -> 548 ;
549 [label="GHI <= 20.5\ngini = 0.5\nsamples = 4\nvalue = [2, 2]\nclass = cloudy"] ;
547 -> 549 ;
550 [label="gini = 0.5\nsamples = 2\nvalue = [1, 1]\nclass = cloudy"] ;
549 -> 550 ;
551 [label="gini = 0.5\nsamples = 2\nvalue = [1, 1]\nclass = cloudy"] ;
549 -> 551 ;
552 [label="gini = 0.0\nsamples = 3\nvalue = [3, 0]\nclass = cloudy"] ;
536 -> 552 ;
553 [label="gini = 0.0\nsamples = 5\nvalue = [5, 0]\nclass = cloudy"] ;
535 -> 553 ;
554 [label="GHI <= 21.5\ngini = 0.5\nsamples = 6\nvalue = [3, 3]\nclass = cloudy"] ;
534 -> 554 ;
555 [label="gini = 0.48\nsamples = 5\nvalue = [3, 2]\nclass = cloudy"] ;
554 -> 555 ;
556 [label="gini = 0.0\nsamples = 1\nvalue = [0, 1]\nclass = clear"] ;
554 -> 556 ;
557 [label="Clearsky GHI stat <= 32.6\ngini = 0.5\nsamples = 12\nvalue = [6, 6]\nclass = cloudy"] ;
533 -> 557 ;
558 [label="gini = 0.0\nsamples = 1\nvalue = [0, 1]\nclass = clear"] ;
557 -> 558 ;
559 [label="ratio stat <= 0.648\ngini = 0.4959\nsamples = 11\nvalue = [6, 5]\nclass = cloudy"] ;
557 -> 559 ;
560 [label="Clearsky GHI stat <= 34.3\ngini = 0.5\nsamples = 10\nvalue = [5, 5]\nclass = cloudy"] ;
559 -> 560 ;
561 [label="Clearsky GHI stat <= 34.1\ngini = 0.4898\nsamples = 7\nvalue = [4, 3]\nclass = cloudy"] ;
560 -> 561 ;
562 [label="Clearsky GHI stat <= 33.4\ngini = 0.5\nsamples = 6\nvalue = [3, 3]\nclass = cloudy"] ;
561 -> 562 ;
563 [label="gini = 0.5\nsamples = 2\nvalue = [1, 1]\nclass = cloudy"] ;
562 -> 563 ;
564 [label="gini = 0.5\nsamples = 4\nvalue = [2, 2]\nclass = cloudy"] ;
562 -> 564 ;
565 [label="gini = 0.0\nsamples = 1\nvalue = [1, 0]\nclass = cloudy"] ;
561 -> 565 ;
566 [label="Clearsky GHI stat <= 34.5\ngini = 0.4444\nsamples = 3\nvalue = [1, 2]\nclass = clear"] ;
560 -> 566 ;
567 [label="gini = 0.0\nsamples = 1\nvalue = [0, 1]\nclass = clear"] ;
566 -> 567 ;
568 [label="gini = 0.5\nsamples = 2\nvalue = [1, 1]\nclass = cloudy"] ;
566 -> 568 ;
569 [label="gini = 0.0\nsamples = 1\nvalue = [1, 0]\nclass = cloudy"] ;
559 -> 569 ;
570 [label="gini = 0.0\nsamples = 7\nvalue = [7, 0]\nclass = cloudy"] ;
348 -> 570 ;
571 [label="ratio stat <= 0.5858\ngini = 0.4444\nsamples = 15\nvalue = [5, 10]\nclass = clear"] ;
347 -> 571 ;
572 [label="gini = 0.0\nsamples = 1\nvalue = [1, 0]\nclass = cloudy"] ;
571 -> 572 ;
573 [label="ratio stat <= 0.6223\ngini = 0.4082\nsamples = 14\nvalue = [4, 10]\nclass = clear"] ;
571 -> 573 ;
574 [label="ratio stat <= 0.6145\ngini = 0.375\nsamples = 12\nvalue = [3, 9]\nclass = clear"] ;
573 -> 574 ;
575 [label="Clearsky GHI stat <= 35.25\ngini = 0.42\nsamples = 10\nvalue = [3, 7]\nclass = clear"] ;
574 -> 575 ;
576 [label="gini = 0.0\nsamples = 1\nvalue = [0, 1]\nclass = clear"] ;
575 -> 576 ;
577 [label="ratio stat <= 0.5874\ngini = 0.4444\nsamples = 9\nvalue = [3, 6]\nclass = clear"] ;
575 -> 577 ;
578 [label="gini = 0.0\nsamples = 1\nvalue = [0, 1]\nclass = clear"] ;
577 -> 578 ;
579 [label="ratio stat <= 0.5899\ngini = 0.4688\nsamples = 8\nvalue = [3, 5]\nclass = clear"] ;
577 -> 579 ;
580 [label="gini = 0.5\nsamples = 2\nvalue = [1, 1]\nclass = cloudy"] ;
579 -> 580 ;
581 [label="ratio stat <= 0.5924\ngini = 0.4444\nsamples = 6\nvalue = [2, 4]\nclass = clear"] ;
579 -> 581 ;
582 [label="gini = 0.0\nsamples = 1\nvalue = [0, 1]\nclass = clear"] ;
581 -> 582 ;
583 [label="Clearsky GHI stat <= 35.65\ngini = 0.48\nsamples = 5\nvalue = [2, 3]\nclass = clear"] ;
581 -> 583 ;
584 [label="gini = 0.5\nsamples = 2\nvalue = [1, 1]\nclass = cloudy"] ;
583 -> 584 ;
585 [label="gini = 0.4444\nsamples = 3\nvalue = [1, 2]\nclass = clear"] ;
583 -> 585 ;
586 [label="gini = 0.0\nsamples = 2\nvalue = [0, 2]\nclass = clear"] ;
574 -> 586 ;
587 [label="gini = 0.5\nsamples = 2\nvalue = [1, 1]\nclass = cloudy"] ;
573 -> 587 ;
588 [label="ratio stat <= 0.6676\ngini = 0.4999\nsamples = 243\nvalue = [120, 123]\nclass = clear"] ;
340 -> 588 ;
589 [label="Clearsky GHI stat <= 31.85\ngini = 0.4696\nsamples = 69\nvalue = [26, 43]\nclass = clear"] ;
588 -> 589 ;
590 [label="GHI <= 12.5\ngini = 0.487\nsamples = 62\nvalue = [26, 36]\nclass = clear"] ;
589 -> 590 ;
591 [label="Clearsky GHI stat <= 18.25\ngini = 0.4938\nsamples = 9\nvalue = [5, 4]\nclass = cloudy"] ;
590 -> 591 ;
592 [label="ratio stat <= 0.6612\ngini = 0.48\nsamples = 5\nvalue = [2, 3]\nclass = clear"] ;
591 -> 592 ;
593 [label="gini = 0.4444\nsamples = 3\nvalue = [1, 2]\nclass = clear"] ;
592 -> 593 ;
594 [label="gini = 0.5\nsamples = 2\nvalue = [1, 1]\nclass = cloudy"] ;
592 -> 594 ;
595 [label="gini = 0.375\nsamples = 4\nvalue = [3, 1]\nclass = cloudy"] ;
591 -> 595 ;
596 [label="ratio stat <= 0.6584\ngini = 0.4785\nsamples = 53\nvalue = [21, 32]\nclass = clear"] ;
590 -> 596 ;
597 [label="ratio stat <= 0.6561\ngini = 0.4012\nsamples = 18\nvalue = [5, 13]\nclass = clear"] ;
596 -> 597 ;
598 [label="GHI <= 13.5\ngini = 0.4444\nsamples = 15\nvalue = [5, 10]\nclass = clear"] ;
597 -> 598 ;
599 [label="gini = 0.0\nsamples = 1\nvalue = [0, 1]\nclass = clear"] ;
598 -> 599 ;
600 [label="ratio stat <= 0.6546\ngini = 0.4592\nsamples = 14\nvalue = [5, 9]\nclass = clear"] ;
598 -> 600 ;
601 [label="Clearsky GHI stat <= 23.7\ngini = 0.4898\nsamples = 7\nvalue = [3, 4]\nclass = clear"] ;
600 -> 601 ;
602 [label="gini = 0.5\nsamples = 2\nvalue = [1, 1]\nclass = cloudy"] ;
601 -> 602 ;
603 [label="GHI <= 18.5\ngini = 0.48\nsamples = 5\nvalue = [2, 3]\nclass = clear"] ;
601 -> 603 ;
604 [label="gini = 0.4444\nsamples = 3\nvalue = [1, 2]\nclass = clear"] ;
603 -> 604 ;
605 [label="gini = 0.5\nsamples = 2\nvalue = [1, 1]\nclass = cloudy"] ;
603 -> 605 ;
606 [label="Clearsky GHI stat <= 23.65\ngini = 0.4082\nsamples = 7\nvalue = [2, 5]\nclass = clear"] ;
600 -> 606 ;
607 [label="gini = 0.0\nsamples = 1\nvalue = [0, 1]\nclass = clear"] ;
606 -> 607 ;
608 [label="Clearsky GHI stat <= 29.75\ngini = 0.4444\nsamples = 6\nvalue = [2, 4]\nclass = clear"] ;
606 -> 608 ;
609 [label="GHI <= 17.5\ngini = 0.48\nsamples = 5\nvalue = [2, 3]\nclass = clear"] ;
608 -> 609 ;
610 [label="gini = 0.4444\nsamples = 3\nvalue = [1, 2]\nclass = clear"] ;
609 -> 610 ;
611 [label="gini = 0.5\nsamples = 2\nvalue = [1, 1]\nclass = cloudy"] ;
609 -> 611 ;
612 [label="gini = 0.0\nsamples = 1\nvalue = [0, 1]\nclass = clear"] ;
608 -> 612 ;
613 [label="gini = 0.0\nsamples = 3\nvalue = [0, 3]\nclass = clear"] ;
597 -> 613 ;
614 [label="ratio stat <= 0.6596\ngini = 0.4963\nsamples = 35\nvalue = [16, 19]\nclass = clear"] ;
596 -> 614 ;
615 [label="gini = 0.0\nsamples = 2\nvalue = [2, 0]\nclass = cloudy"] ;
614 -> 615 ;
616 [label="Clearsky GHI stat <= 27.15\ngini = 0.4885\nsamples = 33\nvalue = [14, 19]\nclass = clear"] ;
614 -> 616 ;
617 [label="GHI <= 17.0\ngini = 0.4444\nsamples = 15\nvalue = [5, 10]\nclass = clear"] ;
616 -> 617 ;
618 [label="Clearsky GHI stat <= 22.6\ngini = 0.4861\nsamples = 12\nvalue = [5, 7]\nclass = clear"] ;
617 -> 618 ;
619 [label="ratio stat <= 0.6619\ngini = 0.4688\nsamples = 8\nvalue = [3, 5]\nclass = clear"] ;
618 -> 619 ;
620 [label="gini = 0.4444\nsamples = 3\nvalue = [1, 2]\nclass = clear"] ;
619 -> 620 ;
621 [label="Clearsky GHI stat <= 21.05\ngini = 0.48\nsamples = 5\nvalue = [2, 3]\nclass = clear"] ;
619 -> 621 ;
622 [label="gini = 0.4444\nsamples = 3\nvalue = [1, 2]\nclass = clear"] ;
621 -> 622 ;
623 [label="gini = 0.5\nsamples = 2\nvalue = [1, 1]\nclass = cloudy"] ;
621 -> 623 ;
624 [label="ratio stat <= 0.6639\ngini = 0.5\nsamples = 4\nvalue = [2, 2]\nclass = cloudy"] ;
618 -> 624 ;
625 [label="gini = 0.5\nsamples = 2\nvalue = [1, 1]\nclass = cloudy"] ;
624 -> 625 ;
626 [label="gini = 0.5\nsamples = 2\nvalue = [1, 1]\nclass = cloudy"] ;
624 -> 626 ;
627 [label="gini = 0.0\nsamples = 3\nvalue = [0, 3]\nclass = clear"] ;
617 -> 627 ;
628 [label="GHI <= 19.5\ngini = 0.5\nsamples = 18\nvalue = [9, 9]\nclass = cloudy"] ;
616 -> 628 ;
629 [label="gini = 0.0\nsamples = 2\nvalue = [2, 0]\nclass = cloudy"] ;
628 -> 629 ;
630 [label="ratio stat <= 0.6634\ngini = 0.4922\nsamples = 16\nvalue = [7, 9]\nclass = clear"] ;
628 -> 630 ;
631 [label="Clearsky GHI stat <= 31.0\ngini = 0.4688\nsamples = 8\nvalue = [3, 5]\nclass = clear"] ;
630 -> 631 ;
632 [label="gini = 0.0\nsamples = 1\nvalue = [0, 1]\nclass = clear"] ;
631 -> 632 ;
633 [label="gini = 0.4898\nsamples = 7\nvalue = [3, 4]\nclass = clear"] ;
631 -> 633 ;
634 [label="Clearsky GHI stat <= 30.8\ngini = 0.5\nsamples = 8\nvalue = [4, 4]\nclass = cloudy"] ;
630 -> 634 ;
635 [label="gini = 0.5\nsamples = 6\nvalue = [3, 3]\nclass = cloudy"] ;
634 -> 635 ;
636 [label="gini = 0.5\nsamples = 2\nvalue = [1, 1]\nclass = cloudy"] ;
634 -> 636 ;
637 [label="gini = 0.0\nsamples = 7\nvalue = [0, 7]\nclass = clear"] ;
589 -> 637 ;
638 [label="Clearsky GHI stat <= 21.6\ngini = 0.4968\nsamples = 174\nvalue = [94, 80]\nclass = cloudy"] ;
588 -> 638 ;
639 [label="Clearsky GHI stat <= 19.8\ngini = 0.4821\nsamples = 37\nvalue = [15, 22]\nclass = clear"] ;
638 -> 639 ;
640 [label="ratio stat <= 0.7027\ngini = 0.4444\nsamples = 18\nvalue = [12, 6]\nclass = cloudy"] ;
639 -> 640 ;
641 [label="Clearsky GHI stat <= 17.3\ngini = 0.4898\nsamples = 14\nvalue = [8, 6]\nclass = cloudy"] ;
640 -> 641 ;
642 [label="gini = 0.0\nsamples = 1\nvalue = [0, 1]\nclass = clear"] ;
641 -> 642 ;
643 [label="ratio stat <= 0.6739\ngini = 0.4734\nsamples = 13\nvalue = [8, 5]\nclass = cloudy"] ;
641 -> 643 ;
644 [label="Clearsky GHI stat <= 19.35\ngini = 0.4444\nsamples = 3\nvalue = [1, 2]\nclass = clear"] ;
643 -> 644 ;
645 [label="gini = 0.0\nsamples = 1\nvalue = [0, 1]\nclass = clear"] ;
644 -> 645 ;
646 [label="gini = 0.5\nsamples = 2\nvalue = [1, 1]\nclass = cloudy"] ;
644 -> 646 ;
647 [label="ratio stat <= 0.6887\ngini = 0.42\nsamples = 10\nvalue = [7, 3]\nclass = cloudy"] ;
643 -> 647 ;
648 [label="ratio stat <= 0.6806\ngini = 0.2778\nsamples = 6\nvalue = [5, 1]\nclass = cloudy"] ;
647 -> 648 ;
649 [label="gini = 0.0\nsamples = 2\nvalue = [2, 0]\nclass = cloudy"] ;
648 -> 649 ;
650 [label="Clearsky GHI stat <= 18.95\ngini = 0.375\nsamples = 4\nvalue = [3, 1]\nclass = cloudy"] ;
648 -> 650 ;
651 [label="gini = 0.0\nsamples = 1\nvalue = [1, 0]\nclass = cloudy"] ;
650 -> 651 ;
652 [label="gini = 0.4444\nsamples = 3\nvalue = [2, 1]\nclass = cloudy"] ;
650 -> 652 ;
653 [label="ratio stat <= 0.6943\ngini = 0.5\nsamples = 4\nvalue = [2, 2]\nclass = cloudy"] ;
647 -> 653 ;
654 [label="gini = 0.5\nsamples = 2\nvalue = [1, 1]\nclass = cloudy"] ;
653 -> 654 ;
655 [label="gini = 0.5\nsamples = 2\nvalue = [1, 1]\nclass = cloudy"] ;
653 -> 655 ;
656 [label="gini = 0.0\nsamples = 4\nvalue = [4, 0]\nclass = cloudy"] ;
640 -> 656 ;
657 [label="Clearsky GHI stat <= 20.3\ngini = 0.2659\nsamples = 19\nvalue = [3, 16]\nclass = clear"] ;
639 -> 657 ;
658 [label="gini = 0.0\nsamples = 5\nvalue = [0, 5]\nclass = clear"] ;
657 -> 658 ;
659 [label="Clearsky GHI stat <= 20.5\ngini = 0.3367\nsamples = 14\nvalue = [3, 11]\nclass = clear"] ;
657 -> 659 ;
660 [label="gini = 0.5\nsamples = 2\nvalue = [1, 1]\nclass = cloudy"] ;
659 -> 660 ;
661 [label="ratio stat <= 0.6993\ngini = 0.2778\nsamples = 12\nvalue = [2, 10]\nclass = clear"] ;
659 -> 661 ;
662 [label="gini = 0.0\nsamples = 4\nvalue = [0, 4]\nclass = clear"] ;
661 -> 662 ;
663 [label="ratio stat <= 0.7092\ngini = 0.375\nsamples = 8\nvalue = [2, 6]\nclass = clear"] ;
661 -> 663 ;
664 [label="Clearsky GHI stat <= 21.3\ngini = 0.4444\nsamples = 6\nvalue = [2, 4]\nclass = clear"] ;
663 -> 664 ;
665 [label="gini = 0.375\nsamples = 4\nvalue = [1, 3]\nclass = clear"] ;
664 -> 665 ;
666 [label="gini = 0.5\nsamples = 2\nvalue = [1, 1]\nclass = cloudy"] ;
664 -> 666 ;
667 [label="gini = 0.0\nsamples = 2\nvalue = [0, 2]\nclass = clear"] ;
663 -> 667 ;
668 [label="Clearsky GHI stat <= 23.95\ngini = 0.4883\nsamples = 137\nvalue = [79, 58]\nclass = cloudy"] ;
638 -> 668 ;
669 [label="Clearsky GHI stat <= 22.15\ngini = 0.3457\nsamples = 18\nvalue = [14, 4]\nclass = cloudy"] ;
668 -> 669 ;
670 [label="Clearsky GHI stat <= 22.05\ngini = 0.4898\nsamples = 7\nvalue = [4, 3]\nclass = cloudy"] ;
669 -> 670 ;
671 [label="ratio stat <= 0.6897\ngini = 0.4444\nsamples = 6\nvalue = [4, 2]\nclass = cloudy"] ;
670 -> 671 ;
672 [label="ratio stat <= 0.6865\ngini = 0.48\nsamples = 5\nvalue = [3, 2]\nclass = cloudy"] ;
671 -> 672 ;
673 [label="ratio stat <= 0.6834\ngini = 0.375\nsamples = 4\nvalue = [3, 1]\nclass = cloudy"] ;
672 -> 673 ;
674 [label="gini = 0.4444\nsamples = 3\nvalue = [2, 1]\nclass = cloudy"] ;
673 -> 674 ;
675 [label="gini = 0.0\nsamples = 1\nvalue = [1, 0]\nclass = cloudy"] ;
673 -> 675 ;
676 [label="gini = 0.0\nsamples = 1\nvalue = [0, 1]\nclass = clear"] ;
672 -> 676 ;
677 [label="gini = 0.0\nsamples = 1\nvalue = [1, 0]\nclass = cloudy"] ;
671 -> 677 ;
678 [label="gini = 0.0\nsamples = 1\nvalue = [0, 1]\nclass = clear"] ;
670 -> 678 ;
679 [label="ratio stat <= 0.6941\ngini = 0.1653\nsamples = 11\nvalue = [10, 1]\nclass = cloudy"] ;
669 -> 679 ;
680 [label="gini = 0.0\nsamples = 8\nvalue = [8, 0]\nclass = cloudy"] ;
679 -> 680 ;
681 [label="ratio stat <= 0.7002\ngini = 0.4444\nsamples = 3\nvalue = [2, 1]\nclass = cloudy"] ;
679 -> 681 ;
682 [label="gini = 0.0\nsamples = 1\nvalue = [0, 1]\nclass = clear"] ;
681 -> 682 ;
683 [label="gini = 0.0\nsamples = 2\nvalue = [2, 0]\nclass = cloudy"] ;
681 -> 683 ;
684 [label="ratio stat <= 0.6689\ngini = 0.4957\nsamples = 119\nvalue = [65, 54]\nclass = cloudy"] ;
668 -> 684 ;
685 [label="gini = 0.0\nsamples = 3\nvalue = [3, 0]\nclass = cloudy"] ;
684 -> 685 ;
686 [label="ratio stat <= 0.671\ngini = 0.4976\nsamples = 116\nvalue = [62, 54]\nclass = cloudy"] ;
684 -> 686 ;
687 [label="gini = 0.0\nsamples = 3\nvalue = [0, 3]\nclass = clear"] ;
686 -> 687 ;
688 [label="Clearsky GHI stat <= 32.9\ngini = 0.4953\nsamples = 113\nvalue = [62, 51]\nclass = cloudy"] ;
686 -> 688 ;
689 [label="Clearsky GHI stat <= 32.65\ngini = 0.4854\nsamples = 82\nvalue = [48, 34]\nclass = cloudy"] ;
688 -> 689 ;
690 [label="ratio stat <= 0.678\ngini = 0.4903\nsamples = 79\nvalue = [45, 34]\nclass = cloudy"] ;
689 -> 690 ;
691 [label="GHI <= 19.0\ngini = 0.4861\nsamples = 12\nvalue = [5, 7]\nclass = clear"] ;
690 -> 691 ;
692 [label="gini = 0.0\nsamples = 1\nvalue = [1, 0]\nclass = cloudy"] ;
691 -> 692 ;
693 [label="GHI <= 20.5\ngini = 0.4628\nsamples = 11\nvalue = [4, 7]\nclass = clear"] ;
691 -> 693 ;
694 [label="Clearsky GHI stat <= 29.7\ngini = 0.5\nsamples = 4\nvalue = [2, 2]\nclass = cloudy"] ;
693 -> 694 ;
695 [label="gini = 0.5\nsamples = 2\nvalue = [1, 1]\nclass = cloudy"] ;
694 -> 695 ;
696 [label="gini = 0.5\nsamples = 2\nvalue = [1, 1]\nclass = cloudy"] ;
694 -> 696 ;
697 [label="ratio stat <= 0.6761\ngini = 0.4082\nsamples = 7\nvalue = [2, 5]\nclass = clear"] ;
693 -> 697 ;
698 [label="gini = 0.4444\nsamples = 3\nvalue = [1, 2]\nclass = clear"] ;
697 -> 698 ;
699 [label="gini = 0.375\nsamples = 4\nvalue = [1, 3]\nclass = clear"] ;
697 -> 699 ;
700 [label="Clearsky GHI stat <= 27.7\ngini = 0.4812\nsamples = 67\nvalue = [40, 27]\nclass = cloudy"] ;
690 -> 700 ;
701 [label="Clearsky GHI stat <= 26.85\ngini = 0.4995\nsamples = 31\nvalue = [15, 16]\nclass = clear"] ;
700 -> 701 ;
702 [label="ratio stat <= 0.6827\ngini = 0.4882\nsamples = 26\nvalue = [15, 11]\nclass = cloudy"] ;
701 -> 702 ;
703 [label="gini = 0.0\nsamples = 2\nvalue = [0, 2]\nclass = clear"] ;
702 -> 703 ;
704 [label="ratio stat <= 0.6904\ngini = 0.4688\nsamples = 24\nvalue = [15, 9]\nclass = cloudy"] ;
702 -> 704 ;
705 [label="Clearsky GHI stat <= 26.15\ngini = 0.2778\nsamples = 6\nvalue = [5, 1]\nclass = cloudy"] ;
704 -> 705 ;
706 [label="gini = 0.0\nsamples = 4\nvalue = [4, 0]\nclass = cloudy"] ;
705 -> 706 ;
707 [label="gini = 0.5\nsamples = 2\nvalue = [1, 1]\nclass = cloudy"] ;
705 -> 707 ;
708 [label="ratio stat <= 0.699\ngini = 0.4938\nsamples = 18\nvalue = [10, 8]\nclass = cloudy"] ;
704 -> 708 ;
709 [label="ratio stat <= 0.6944\ngini = 0.4688\nsamples = 8\nvalue = [3, 5]\nclass = clear"] ;
708 -> 709 ;
710 [label="ratio stat <= 0.6917\ngini = 0.48\nsamples = 5\nvalue = [3, 2]\nclass = cloudy"] ;
709 -> 710 ;
711 [label="gini = 0.0\nsamples = 1\nvalue = [0, 1]\nclass = clear"] ;
710 -> 711 ;
712 [label="GHI <= 17.5\ngini = 0.375\nsamples = 4\nvalue = [3, 1]\nclass = cloudy"] ;
710 -> 712 ;
713 [label="gini = 0.0\nsamples = 1\nvalue = [1, 0]\nclass = cloudy"] ;
712 -> 713 ;
714 [label="gini = 0.4444\nsamples = 3\nvalue = [2, 1]\nclass = cloudy"] ;
712 -> 714 ;
715 [label="gini = 0.0\nsamples = 3\nvalue = [0, 3]\nclass = clear"] ;
709 -> 715 ;
716 [label="Clearsky GHI stat <= 25.55\ngini = 0.42\nsamples = 10\nvalue = [7, 3]\nclass = cloudy"] ;
708 -> 716 ;
717 [label="ratio stat <= 0.7071\ngini = 0.4898\nsamples = 7\nvalue = [4, 3]\nclass = cloudy"] ;
716 -> 717 ;
718 [label="gini = 0.0\nsamples = 1\nvalue = [0, 1]\nclass = clear"] ;
717 -> 718 ;
719 [label="Clearsky GHI stat <= 24.7\ngini = 0.4444\nsamples = 6\nvalue = [4, 2]\nclass = cloudy"] ;
717 -> 719 ;
720 [label="gini = 0.5\nsamples = 2\nvalue = [1, 1]\nclass = cloudy"] ;
719 -> 720 ;
721 [label="gini = 0.375\nsamples = 4\nvalue = [3, 1]\nclass = cloudy"] ;
719 -> 721 ;
722 [label="gini = 0.0\nsamples = 3\nvalue = [3, 0]\nclass = cloudy"] ;
716 -> 722 ;
723 [label="gini = 0.0\nsamples = 5\nvalue = [0, 5]\nclass = clear"] ;
701 -> 723 ;
724 [label="ratio stat <= 0.6836\ngini = 0.4244\nsamples = 36\nvalue = [25, 11]\nclass = cloudy"] ;
700 -> 724 ;
725 [label="gini = 0.0\nsamples = 6\nvalue = [6, 0]\nclass = cloudy"] ;
724 -> 725 ;
726 [label="ratio stat <= 0.6907\ngini = 0.4644\nsamples = 30\nvalue = [19, 11]\nclass = cloudy"] ;
724 -> 726 ;
727 [label="Clearsky GHI stat <= 32.05\ngini = 0.4688\nsamples = 8\nvalue = [3, 5]\nclass = clear"] ;
726 -> 727 ;
728 [label="ratio stat <= 0.6845\ngini = 0.4898\nsamples = 7\nvalue = [3, 4]\nclass = clear"] ;
727 -> 728 ;
729 [label="gini = 0.0\nsamples = 1\nvalue = [0, 1]\nclass = clear"] ;
728 -> 729 ;
730 [label="ratio stat <= 0.6861\ngini = 0.5\nsamples = 6\nvalue = [3, 3]\nclass = cloudy"] ;
728 -> 730 ;
731 [label="gini = 0.0\nsamples = 1\nvalue = [1, 0]\nclass = cloudy"] ;
730 -> 731 ;
732 [label="ratio stat <= 0.6874\ngini = 0.48\nsamples = 5\nvalue = [2, 3]\nclass = clear"] ;
730 -> 732 ;
733 [label="gini = 0.0\nsamples = 1\nvalue = [0, 1]\nclass = clear"] ;
732 -> 733 ;
734 [label="GHI <= 21.0\ngini = 0.5\nsamples = 4\nvalue = [2, 2]\nclass = cloudy"] ;
732 -> 734 ;
735 [label="gini = 0.5\nsamples = 2\nvalue = [1, 1]\nclass = cloudy"] ;
734 -> 735 ;
736 [label="gini = 0.5\nsamples = 2\nvalue = [1, 1]\nclass = cloudy"] ;
734 -> 736 ;
737 [label="gini = 0.0\nsamples = 1\nvalue = [0, 1]\nclass = clear"] ;
727 -> 737 ;
738 [label="ratio stat <= 0.7049\ngini = 0.3967\nsamples = 22\nvalue = [16, 6]\nclass = cloudy"] ;
726 -> 738 ;
739 [label="gini = 0.0\nsamples = 9\nvalue = [9, 0]\nclass = cloudy"] ;
738 -> 739 ;
740 [label="Clearsky GHI stat <= 30.3\ngini = 0.497\nsamples = 13\nvalue = [7, 6]\nclass = cloudy"] ;
738 -> 740 ;
741 [label="gini = 0.0\nsamples = 1\nvalue = [0, 1]\nclass = clear"] ;
740 -> 741 ;
742 [label="ratio stat <= 0.7053\ngini = 0.4861\nsamples = 12\nvalue = [7, 5]\nclass = cloudy"] ;
740 -> 742 ;
743 [label="gini = 0.0\nsamples = 1\nvalue = [0, 1]\nclass = clear"] ;
742 -> 743 ;
744 [label="ratio stat <= 0.7085\ngini = 0.4628\nsamples = 11\nvalue = [7, 4]\nclass = cloudy"] ;
742 -> 744 ;
745 [label="GHI <= 22.5\ngini = 0.4082\nsamples = 7\nvalue = [5, 2]\nclass = cloudy"] ;
744 -> 745 ;
746 [label="gini = 0.0\nsamples = 1\nvalue = [1, 0]\nclass = cloudy"] ;
745 -> 746 ;
747 [label="gini = 0.4444\nsamples = 6\nvalue = [4, 2]\nclass = cloudy"] ;
745 -> 747 ;
748 [label="Clearsky GHI stat <= 31.7\ngini = 0.5\nsamples = 4\nvalue = [2, 2]\nclass = cloudy"] ;
744 -> 748 ;
749 [label="gini = 0.5\nsamples = 2\nvalue = [1, 1]\nclass = cloudy"] ;
748 -> 749 ;
750 [label="gini = 0.5\nsamples = 2\nvalue = [1, 1]\nclass = cloudy"] ;
748 -> 750 ;
751 [label="gini = 0.0\nsamples = 3\nvalue = [3, 0]\nclass = cloudy"] ;
689 -> 751 ;
752 [label="Clearsky GHI stat <= 33.9\ngini = 0.4953\nsamples = 31\nvalue = [14, 17]\nclass = clear"] ;
688 -> 752 ;
753 [label="gini = 0.0\nsamples = 7\nvalue = [0, 7]\nclass = clear"] ;
752 -> 753 ;
754 [label="ratio stat <= 0.6957\ngini = 0.4861\nsamples = 24\nvalue = [14, 10]\nclass = cloudy"] ;
752 -> 754 ;
755 [label="gini = 0.0\nsamples = 7\nvalue = [7, 0]\nclass = cloudy"] ;
754 -> 755 ;
756 [label="ratio stat <= 0.7092\ngini = 0.4844\nsamples = 17\nvalue = [7, 10]\nclass = clear"] ;
754 -> 756 ;
757 [label="ratio stat <= 0.7013\ngini = 0.426\nsamples = 13\nvalue = [4, 9]\nclass = clear"] ;
756 -> 757 ;
758 [label="ratio stat <= 0.698\ngini = 0.5\nsamples = 8\nvalue = [4, 4]\nclass = cloudy"] ;
757 -> 758 ;
759 [label="gini = 0.4444\nsamples = 3\nvalue = [1, 2]\nclass = clear"] ;
758 -> 759 ;
760 [label="ratio stat <= 0.6993\ngini = 0.48\nsamples = 5\nvalue = [3, 2]\nclass = cloudy"] ;
758 -> 760 ;
761 [label="gini = 0.5\nsamples = 2\nvalue = [1, 1]\nclass = cloudy"] ;
760 -> 761 ;
762 [label="gini = 0.4444\nsamples = 3\nvalue = [2, 1]\nclass = cloudy"] ;
760 -> 762 ;
763 [label="gini = 0.0\nsamples = 5\nvalue = [0, 5]\nclass = clear"] ;
757 -> 763 ;
764 [label="gini = 0.375\nsamples = 4\nvalue = [3, 1]\nclass = cloudy"] ;
756 -> 764 ;
765 [label="ratio stat <= 0.7071\ngini = 0.442\nsamples = 367\nvalue = [246, 121]\nclass = cloudy"] ;
325 -> 765 ;
766 [label="ratio stat <= 0.7052\ngini = 0.4501\nsamples = 345\nvalue = [227, 118]\nclass = cloudy"] ;
765 -> 766 ;
767 [label="GHI <= 25.5\ngini = 0.4431\nsamples = 338\nvalue = [226, 112]\nclass = cloudy"] ;
766 -> 767 ;
768 [label="ratio stat <= 0.5854\ngini = 0.3688\nsamples = 82\nvalue = [62, 20]\nclass = cloudy"] ;
767 -> 768 ;
769 [label="ratio stat <= 0.5805\ngini = 0.5\nsamples = 8\nvalue = [4, 4]\nclass = cloudy"] ;
768 -> 769 ;
770 [label="gini = 0.0\nsamples = 2\nvalue = [2, 0]\nclass = cloudy"] ;
769 -> 770 ;
771 [label="Clearsky GHI stat <= 36.9\ngini = 0.4444\nsamples = 6\nvalue = [2, 4]\nclass = clear"] ;
769 -> 771 ;
772 [label="gini = 0.0\nsamples = 1\nvalue = [1, 0]\nclass = cloudy"] ;
771 -> 772 ;
773 [label="GHI <= 23.5\ngini = 0.32\nsamples = 5\nvalue = [1, 4]\nclass = clear"] ;
771 -> 773 ;
774 [label="Clearsky GHI stat <= 38.6\ngini = 0.4444\nsamples = 3\nvalue = [1, 2]\nclass = clear"] ;
773 -> 774 ;
775 [label="gini = 0.0\nsamples = 1\nvalue = [0, 1]\nclass = clear"] ;
774 -> 775 ;
776 [label="gini = 0.5\nsamples = 2\nvalue = [1, 1]\nclass = cloudy"] ;
774 -> 776 ;
777 [label="gini = 0.0\nsamples = 2\nvalue = [0, 2]\nclass = clear"] ;
773 -> 777 ;
778 [label="ratio stat <= 0.6057\ngini = 0.3389\nsamples = 74\nvalue = [58, 16]\nclass = cloudy"] ;
768 -> 778 ;
779 [label="Clearsky GHI stat <= 41.55\ngini = 0.1107\nsamples = 17\nvalue = [16, 1]\nclass = cloudy"] ;
778 -> 779 ;
780 [label="gini = 0.0\nsamples = 14\nvalue = [14, 0]\nclass = cloudy"] ;
779 -> 780 ;
781 [label="ratio stat <= 0.5946\ngini = 0.4444\nsamples = 3\nvalue = [2, 1]\nclass = cloudy"] ;
779 -> 781 ;
782 [label="gini = 0.0\nsamples = 2\nvalue = [2, 0]\nclass = cloudy"] ;
781 -> 782 ;
783 [label="gini = 0.0\nsamples = 1\nvalue = [0, 1]\nclass = clear"] ;
781 -> 783 ;
784 [label="ratio stat <= 0.6088\ngini = 0.3878\nsamples = 57\nvalue = [42, 15]\nclass = cloudy"] ;
778 -> 784 ;
785 [label="Clearsky GHI stat <= 39.55\ngini = 0.48\nsamples = 5\nvalue = [2, 3]\nclass = clear"] ;
784 -> 785 ;
786 [label="gini = 0.0\nsamples = 3\nvalue = [0, 3]\nclass = clear"] ;
785 -> 786 ;
787 [label="gini = 0.0\nsamples = 2\nvalue = [2, 0]\nclass = cloudy"] ;
785 -> 787 ;
788 [label="Clearsky GHI stat <= 39.3\ngini = 0.355\nsamples = 52\nvalue = [40, 12]\nclass = cloudy"] ;
784 -> 788 ;
789 [label="Clearsky GHI stat <= 38.35\ngini = 0.3856\nsamples = 46\nvalue = [34, 12]\nclass = cloudy"] ;
788 -> 789 ;
790 [label="Clearsky GHI stat <= 37.65\ngini = 0.3324\nsamples = 38\nvalue = [30, 8]\nclass = cloudy"] ;
789 -> 790 ;
791 [label="Clearsky GHI stat <= 36.65\ngini = 0.3599\nsamples = 34\nvalue = [26, 8]\nclass = cloudy"] ;
790 -> 791 ;
792 [label="GHI <= 22.5\ngini = 0.2449\nsamples = 14\nvalue = [12, 2]\nclass = cloudy"] ;
791 -> 792 ;
793 [label="gini = 0.4444\nsamples = 3\nvalue = [2, 1]\nclass = cloudy"] ;
792 -> 793 ;
794 [label="ratio stat <= 0.6888\ngini = 0.1653\nsamples = 11\nvalue = [10, 1]\nclass = cloudy"] ;
792 -> 794 ;
795 [label="gini = 0.0\nsamples = 6\nvalue = [6, 0]\nclass = cloudy"] ;
794 -> 795 ;
796 [label="gini = 0.32\nsamples = 5\nvalue = [4, 1]\nclass = cloudy"] ;
794 -> 796 ;
797 [label="ratio stat <= 0.6513\ngini = 0.42\nsamples = 20\nvalue = [14, 6]\nclass = cloudy"] ;
791 -> 797 ;
798 [label="Clearsky GHI stat <= 37.5\ngini = 0.2449\nsamples = 7\nvalue = [6, 1]\nclass = cloudy"] ;
797 -> 798 ;
799 [label="gini = 0.0\nsamples = 5\nvalue = [5, 0]\nclass = cloudy"] ;
798 -> 799 ;
800 [label="gini = 0.5\nsamples = 2\nvalue = [1, 1]\nclass = cloudy"] ;
798 -> 800 ;
801 [label="Clearsky GHI stat <= 37.5\ngini = 0.4734\nsamples = 13\nvalue = [8, 5]\nclass = cloudy"] ;
797 -> 801 ;
802 [label="ratio stat <= 0.6748\ngini = 0.4861\nsamples = 12\nvalue = [7, 5]\nclass = cloudy"] ;
801 -> 802 ;
803 [label="Clearsky GHI stat <= 37.25\ngini = 0.4959\nsamples = 11\nvalue = [6, 5]\nclass = cloudy"] ;
802 -> 803 ;
804 [label="GHI <= 24.5\ngini = 0.5\nsamples = 8\nvalue = [4, 4]\nclass = cloudy"] ;
803 -> 804 ;
805 [label="Clearsky GHI stat <= 36.75\ngini = 0.5\nsamples = 6\nvalue = [3, 3]\nclass = cloudy"] ;
804 -> 805 ;
806 [label="gini = 0.5\nsamples = 2\nvalue = [1, 1]\nclass = cloudy"] ;
805 -> 806 ;
807 [label="gini = 0.5\nsamples = 4\nvalue = [2, 2]\nclass = cloudy"] ;
805 -> 807 ;
808 [label="gini = 0.5\nsamples = 2\nvalue = [1, 1]\nclass = cloudy"] ;
804 -> 808 ;
809 [label="gini = 0.4444\nsamples = 3\nvalue = [2, 1]\nclass = cloudy"] ;
803 -> 809 ;
810 [label="gini = 0.0\nsamples = 1\nvalue = [1, 0]\nclass = cloudy"] ;
802 -> 810 ;
811 [label="gini = 0.0\nsamples = 1\nvalue = [1, 0]\nclass = cloudy"] ;
801 -> 811 ;
812 [label="gini = 0.0\nsamples = 4\nvalue = [4, 0]\nclass = cloudy"] ;
790 -> 812 ;
813 [label="ratio stat <= 0.6194\ngini = 0.5\nsamples = 8\nvalue = [4, 4]\nclass = cloudy"] ;
789 -> 813 ;
814 [label="gini = 0.0\nsamples = 2\nvalue = [0, 2]\nclass = clear"] ;
813 -> 814 ;
815 [label="Clearsky GHI stat <= 38.9\ngini = 0.4444\nsamples = 6\nvalue = [4, 2]\nclass = cloudy"] ;
813 -> 815 ;
816 [label="ratio stat <= 0.6339\ngini = 0.5\nsamples = 4\nvalue = [2, 2]\nclass = cloudy"] ;
815 -> 816 ;
817 [label="gini = 0.5\nsamples = 2\nvalue = [1, 1]\nclass = cloudy"] ;
816 -> 817 ;
818 [label="gini = 0.5\nsamples = 2\nvalue = [1, 1]\nclass = cloudy"] ;
816 -> 818 ;
819 [label="gini = 0.0\nsamples = 2\nvalue = [2, 0]\nclass = cloudy"] ;
815 -> 819 ;
820 [label="gini = 0.0\nsamples = 6\nvalue = [6, 0]\nclass = cloudy"] ;
788 -> 820 ;
821 [label="Clearsky GHI stat <= 40.5\ngini = 0.4604\nsamples = 256\nvalue = [164, 92]\nclass = cloudy"] ;
767 -> 821 ;
822 [label="Clearsky GHI stat <= 39.95\ngini = 0.4986\nsamples = 38\nvalue = [18, 20]\nclass = clear"] ;
821 -> 822 ;
823 [label="Clearsky GHI stat <= 38.75\ngini = 0.4953\nsamples = 31\nvalue = [17, 14]\nclass = cloudy"] ;
822 -> 823 ;
824 [label="Clearsky GHI stat <= 38.3\ngini = 0.4592\nsamples = 14\nvalue = [5, 9]\nclass = clear"] ;
823 -> 824 ;
825 [label="Clearsky GHI stat <= 37.9\ngini = 0.4938\nsamples = 9\nvalue = [5, 4]\nclass = cloudy"] ;
824 -> 825 ;
826 [label="Clearsky GHI stat <= 37.45\ngini = 0.4898\nsamples = 7\nvalue = [3, 4]\nclass = clear"] ;
825 -> 826 ;
827 [label="ratio stat <= 0.698\ngini = 0.375\nsamples = 4\nvalue = [3, 1]\nclass = cloudy"] ;
826 -> 827 ;
828 [label="gini = 0.0\nsamples = 1\nvalue = [1, 0]\nclass = cloudy"] ;
827 -> 828 ;
829 [label="gini = 0.4444\nsamples = 3\nvalue = [2, 1]\nclass = cloudy"] ;
827 -> 829 ;
830 [label="gini = 0.0\nsamples = 3\nvalue = [0, 3]\nclass = clear"] ;
826 -> 830 ;
831 [label="gini = 0.0\nsamples = 2\nvalue = [2, 0]\nclass = cloudy"] ;
825 -> 831 ;
832 [label="gini = 0.0\nsamples = 5\nvalue = [0, 5]\nclass = clear"] ;
824 -> 832 ;
833 [label="ratio stat <= 0.6675\ngini = 0.4152\nsamples = 17\nvalue = [12, 5]\nclass = cloudy"] ;
823 -> 833 ;
834 [label="ratio stat <= 0.6582\ngini = 0.4444\nsamples = 3\nvalue = [1, 2]\nclass = clear"] ;
833 -> 834 ;
835 [label="gini = 0.0\nsamples = 1\nvalue = [1, 0]\nclass = cloudy"] ;
834 -> 835 ;
836 [label="gini = 0.0\nsamples = 2\nvalue = [0, 2]\nclass = clear"] ;
834 -> 836 ;
837 [label="GHI <= 27.5\ngini = 0.3367\nsamples = 14\nvalue = [11, 3]\nclass = cloudy"] ;
833 -> 837 ;
838 [label="ratio stat <= 0.6853\ngini = 0.2778\nsamples = 12\nvalue = [10, 2]\nclass = cloudy"] ;
837 -> 838 ;
839 [label="gini = 0.0\nsamples = 2\nvalue = [2, 0]\nclass = cloudy"] ;
838 -> 839 ;
840 [label="Clearsky GHI stat <= 39.1\ngini = 0.32\nsamples = 10\nvalue = [8, 2]\nclass = cloudy"] ;
838 -> 840 ;
841 [label="ratio stat <= 0.6941\ngini = 0.2778\nsamples = 6\nvalue = [5, 1]\nclass = cloudy"] ;
840 -> 841 ;
842 [label="gini = 0.0\nsamples = 1\nvalue = [1, 0]\nclass = cloudy"] ;
841 -> 842 ;
843 [label="gini = 0.32\nsamples = 5\nvalue = [4, 1]\nclass = cloudy"] ;
841 -> 843 ;
844 [label="gini = 0.375\nsamples = 4\nvalue = [3, 1]\nclass = cloudy"] ;
840 -> 844 ;
845 [label="gini = 0.5\nsamples = 2\nvalue = [1, 1]\nclass = cloudy"] ;
837 -> 845 ;
846 [label="ratio stat <= 0.6832\ngini = 0.2449\nsamples = 7\nvalue = [1, 6]\nclass = clear"] ;
822 -> 846 ;
847 [label="gini = 0.0\nsamples = 4\nvalue = [0, 4]\nclass = clear"] ;
846 -> 847 ;
848 [label="Clearsky GHI stat <= 40.3\ngini = 0.4444\nsamples = 3\nvalue = [1, 2]\nclass = clear"] ;
846 -> 848 ;
849 [label="gini = 0.0\nsamples = 1\nvalue = [0, 1]\nclass = clear"] ;
848 -> 849 ;
850 [label="gini = 0.5\nsamples = 2\nvalue = [1, 1]\nclass = cloudy"] ;
848 -> 850 ;
851 [label="ratio stat <= 0.6965\ngini = 0.4424\nsamples = 218\nvalue = [146, 72]\nclass = cloudy"] ;
821 -> 851 ;
852 [label="ratio stat <= 0.6948\ngini = 0.4578\nsamples = 203\nvalue = [131, 72]\nclass = cloudy"] ;
851 -> 852 ;
853 [label="ratio stat <= 0.608\ngini = 0.4499\nsamples = 199\nvalue = [131, 68]\nclass = cloudy"] ;
852 -> 853 ;
854 [label="Clearsky GHI stat <= 43.4\ngini = 0.498\nsamples = 32\nvalue = [17, 15]\nclass = cloudy"] ;
853 -> 854 ;
855 [label="gini = 0.0\nsamples = 2\nvalue = [0, 2]\nclass = clear"] ;
854 -> 855 ;
856 [label="Clearsky GHI stat <= 47.55\ngini = 0.4911\nsamples = 30\nvalue = [17, 13]\nclass = cloudy"] ;
854 -> 856 ;
857 [label="Clearsky GHI stat <= 46.15\ngini = 0.355\nsamples = 13\nvalue = [10, 3]\nclass = cloudy"] ;
856 -> 857 ;
858 [label="ratio stat <= 0.5968\ngini = 0.5\nsamples = 6\nvalue = [3, 3]\nclass = cloudy"] ;
857 -> 858 ;
859 [label="Clearsky GHI stat <= 45.75\ngini = 0.375\nsamples = 4\nvalue = [3, 1]\nclass = cloudy"] ;
858 -> 859 ;
860 [label="gini = 0.0\nsamples = 3\nvalue = [3, 0]\nclass = cloudy"] ;
859 -> 860 ;
861 [label="gini = 0.0\nsamples = 1\nvalue = [0, 1]\nclass = clear"] ;
859 -> 861 ;
862 [label="gini = 0.0\nsamples = 2\nvalue = [0, 2]\nclass = clear"] ;
858 -> 862 ;
863 [label="gini = 0.0\nsamples = 7\nvalue = [7, 0]\nclass = cloudy"] ;
857 -> 863 ;
864 [label="Clearsky GHI stat <= 49.75\ngini = 0.4844\nsamples = 17\nvalue = [7, 10]\nclass = clear"] ;
856 -> 864 ;
865 [label="ratio stat <= 0.584\ngini = 0.2449\nsamples = 7\nvalue = [1, 6]\nclass = clear"] ;
864 -> 865 ;
866 [label="ratio stat <= 0.5821\ngini = 0.5\nsamples = 2\nvalue = [1, 1]\nclass = cloudy"] ;
865 -> 866 ;
867 [label="gini = 0.0\nsamples = 1\nvalue = [0, 1]\nclass = clear"] ;
866 -> 867 ;
868 [label="gini = 0.0\nsamples = 1\nvalue = [1, 0]\nclass = cloudy"] ;
866 -> 868 ;
869 [label="gini = 0.0\nsamples = 5\nvalue = [0, 5]\nclass = clear"] ;
865 -> 869 ;
870 [label="ratio stat <= 0.5807\ngini = 0.48\nsamples = 10\nvalue = [6, 4]\nclass = cloudy"] ;
864 -> 870 ;
871 [label="gini = 0.0\nsamples = 1\nvalue = [0, 1]\nclass = clear"] ;
870 -> 871 ;
872 [label="ratio stat <= 0.6018\ngini = 0.4444\nsamples = 9\nvalue = [6, 3]\nclass = cloudy"] ;
870 -> 872 ;
873 [label="Clearsky GHI stat <= 50.45\ngini = 0.2778\nsamples = 6\nvalue = [5, 1]\nclass = cloudy"] ;
872 -> 873 ;
874 [label="gini = 0.0\nsamples = 3\nvalue = [3, 0]\nclass = cloudy"] ;
873 -> 874 ;
875 [label="Clearsky GHI stat <= 51.05\ngini = 0.4444\nsamples = 3\nvalue = [2, 1]\nclass = cloudy"] ;
873 -> 875 ;
876 [label="gini = 0.0\nsamples = 1\nvalue = [0, 1]\nclass = clear"] ;
875 -> 876 ;
877 [label="gini = 0.0\nsamples = 2\nvalue = [2, 0]\nclass = cloudy"] ;
875 -> 877 ;
878 [label="GHI <= 30.5\ngini = 0.4444\nsamples = 3\nvalue = [1, 2]\nclass = clear"] ;
872 -> 878 ;
879 [label="gini = 0.0\nsamples = 1\nvalue = [0, 1]\nclass = clear"] ;
878 -> 879 ;
880 [label="gini = 0.5\nsamples = 2\nvalue = [1, 1]\nclass = cloudy"] ;
878 -> 880 ;
881 [label="ratio stat <= 0.6325\ngini = 0.4333\nsamples = 167\nvalue = [114, 53]\nclass = cloudy"] ;
853 -> 881 ;
882 [label="Clearsky GHI stat <= 43.3\ngini = 0.32\nsamples = 50\nvalue = [40, 10]\nclass = cloudy"] ;
881 -> 882 ;
883 [label="gini = 0.0\nsamples = 9\nvalue = [9, 0]\nclass = cloudy"] ;
882 -> 883 ;
884 [label="Clearsky GHI stat <= 43.5\ngini = 0.3688\nsamples = 41\nvalue = [31, 10]\nclass = cloudy"] ;
882 -> 884 ;
885 [label="gini = 0.0\nsamples = 2\nvalue = [0, 2]\nclass = clear"] ;
884 -> 885 ;
886 [label="ratio stat <= 0.6113\ngini = 0.3261\nsamples = 39\nvalue = [31, 8]\nclass = cloudy"] ;
884 -> 886 ;
887 [label="gini = 0.0\nsamples = 6\nvalue = [6, 0]\nclass = cloudy"] ;
886 -> 887 ;
888 [label="ratio stat <= 0.6138\ngini = 0.3673\nsamples = 33\nvalue = [25, 8]\nclass = cloudy"] ;
886 -> 888 ;
889 [label="GHI <= 30.5\ngini = 0.5\nsamples = 6\nvalue = [3, 3]\nclass = cloudy"] ;
888 -> 889 ;
890 [label="Clearsky GHI stat <= 48.2\ngini = 0.48\nsamples = 5\nvalue = [3, 2]\nclass = cloudy"] ;
889 -> 890 ;
891 [label="GHI <= 28.0\ngini = 0.5\nsamples = 4\nvalue = [2, 2]\nclass = cloudy"] ;
890 -> 891 ;
892 [label="gini = 0.5\nsamples = 2\nvalue = [1, 1]\nclass = cloudy"] ;
891 -> 892 ;
893 [label="gini = 0.5\nsamples = 2\nvalue = [1, 1]\nclass = cloudy"] ;
891 -> 893 ;
894 [label="gini = 0.0\nsamples = 1\nvalue = [1, 0]\nclass = cloudy"] ;
890 -> 894 ;
895 [label="gini = 0.0\nsamples = 1\nvalue = [0, 1]\nclass = clear"] ;
889 -> 895 ;
896 [label="Clearsky GHI stat <= 43.75\ngini = 0.3018\nsamples = 27\nvalue = [22, 5]\nclass = cloudy"] ;
888 -> 896 ;
897 [label="ratio stat <= 0.6186\ngini = 0.5\nsamples = 2\nvalue = [1, 1]\nclass = cloudy"] ;
896 -> 897 ;
898 [label="gini = 0.0\nsamples = 1\nvalue = [0, 1]\nclass = clear"] ;
897 -> 898 ;
899 [label="gini = 0.0\nsamples = 1\nvalue = [1, 0]\nclass = cloudy"] ;
897 -> 899 ;
900 [label="ratio stat <= 0.6231\ngini = 0.2688\nsamples = 25\nvalue = [21, 4]\nclass = cloudy"] ;
896 -> 900 ;
901 [label="gini = 0.0\nsamples = 9\nvalue = [9, 0]\nclass = cloudy"] ;
900 -> 901 ;
902 [label="ratio stat <= 0.6244\ngini = 0.375\nsamples = 16\nvalue = [12, 4]\nclass = cloudy"] ;
900 -> 902 ;
903 [label="gini = 0.0\nsamples = 1\nvalue = [0, 1]\nclass = clear"] ;
902 -> 903 ;
904 [label="ratio stat <= 0.6302\ngini = 0.32\nsamples = 15\nvalue = [12, 3]\nclass = cloudy"] ;
902 -> 904 ;
905 [label="Clearsky GHI stat <= 49.35\ngini = 0.3967\nsamples = 11\nvalue = [8, 3]\nclass = cloudy"] ;
904 -> 905 ;
906 [label="ratio stat <= 0.6275\ngini = 0.4444\nsamples = 3\nvalue = [1, 2]\nclass = clear"] ;
905 -> 906 ;
907 [label="gini = 0.5\nsamples = 2\nvalue = [1, 1]\nclass = cloudy"] ;
906 -> 907 ;
908 [label="gini = 0.0\nsamples = 1\nvalue = [0, 1]\nclass = clear"] ;
906 -> 908 ;
909 [label="Clearsky GHI stat <= 51.8\ngini = 0.2188\nsamples = 8\nvalue = [7, 1]\nclass = cloudy"] ;
905 -> 909 ;
910 [label="gini = 0.0\nsamples = 5\nvalue = [5, 0]\nclass = cloudy"] ;
909 -> 910 ;
911 [label="ratio stat <= 0.6286\ngini = 0.4444\nsamples = 3\nvalue = [2, 1]\nclass = cloudy"] ;
909 -> 911 ;
912 [label="gini = 0.0\nsamples = 2\nvalue = [2, 0]\nclass = cloudy"] ;
911 -> 912 ;
913 [label="gini = 0.0\nsamples = 1\nvalue = [0, 1]\nclass = clear"] ;
911 -> 913 ;
914 [label="gini = 0.0\nsamples = 4\nvalue = [4, 0]\nclass = cloudy"] ;
904 -> 914 ;
915 [label="GHI <= 29.5\ngini = 0.4649\nsamples = 117\nvalue = [74, 43]\nclass = cloudy"] ;
881 -> 915 ;
916 [label="Clearsky GHI stat <= 44.15\ngini = 0.5\nsamples = 34\nvalue = [17, 17]\nclass = cloudy"] ;
915 -> 916 ;
917 [label="ratio stat <= 0.6444\ngini = 0.477\nsamples = 28\nvalue = [17, 11]\nclass = cloudy"] ;
916 -> 917 ;
918 [label="gini = 0.0\nsamples = 7\nvalue = [7, 0]\nclass = cloudy"] ;
917 -> 918 ;
919 [label="Clearsky GHI stat <= 43.75\ngini = 0.4989\nsamples = 21\nvalue = [10, 11]\nclass = clear"] ;
917 -> 919 ;
920 [label="ratio stat <= 0.661\ngini = 0.495\nsamples = 20\nvalue = [9, 11]\nclass = clear"] ;
919 -> 920 ;
921 [label="Clearsky GHI stat <= 41.7\ngini = 0.32\nsamples = 5\nvalue = [1, 4]\nclass = clear"] ;
920 -> 921 ;
922 [label="gini = 0.0\nsamples = 3\nvalue = [0, 3]\nclass = clear"] ;
921 -> 922 ;
923 [label="gini = 0.5\nsamples = 2\nvalue = [1, 1]\nclass = cloudy"] ;
921 -> 923 ;
924 [label="ratio stat <= 0.6651\ngini = 0.4978\nsamples = 15\nvalue = [8, 7]\nclass = cloudy"] ;
920 -> 924 ;
925 [label="gini = 0.0\nsamples = 2\nvalue = [2, 0]\nclass = cloudy"] ;
924 -> 925 ;
926 [label="Clearsky GHI stat <= 42.5\ngini = 0.497\nsamples = 13\nvalue = [6, 7]\nclass = clear"] ;
924 -> 926 ;
927 [label="ratio stat <= 0.6675\ngini = 0.4938\nsamples = 9\nvalue = [5, 4]\nclass = cloudy"] ;
926 -> 927 ;
928 [label="gini = 0.0\nsamples = 1\nvalue = [0, 1]\nclass = clear"] ;
927 -> 928 ;
929 [label="ratio stat <= 0.6917\ngini = 0.4688\nsamples = 8\nvalue = [5, 3]\nclass = cloudy"] ;
927 -> 929 ;
930 [label="ratio stat <= 0.6785\ngini = 0.4082\nsamples = 7\nvalue = [5, 2]\nclass = cloudy"] ;
929 -> 930 ;
931 [label="gini = 0.0\nsamples = 2\nvalue = [2, 0]\nclass = cloudy"] ;
930 -> 931 ;
932 [label="Clearsky GHI stat <= 41.35\ngini = 0.48\nsamples = 5\nvalue = [3, 2]\nclass = cloudy"] ;
930 -> 932 ;
933 [label="gini = 0.5\nsamples = 2\nvalue = [1, 1]\nclass = cloudy"] ;
932 -> 933 ;
934 [label="Clearsky GHI stat <= 42.15\ngini = 0.4444\nsamples = 3\nvalue = [2, 1]\nclass = cloudy"] ;
932 -> 934 ;
935 [label="gini = 0.0\nsamples = 1\nvalue = [1, 0]\nclass = cloudy"] ;
934 -> 935 ;
936 [label="gini = 0.5\nsamples = 2\nvalue = [1, 1]\nclass = cloudy"] ;
934 -> 936 ;
937 [label="gini = 0.0\nsamples = 1\nvalue = [0, 1]\nclass = clear"] ;
929 -> 937 ;
938 [label="ratio stat <= 0.6697\ngini = 0.375\nsamples = 4\nvalue = [1, 3]\nclass = clear"] ;
926 -> 938 ;
939 [label="gini = 0.5\nsamples = 2\nvalue = [1, 1]\nclass = cloudy"] ;
938 -> 939 ;
940 [label="gini = 0.0\nsamples = 2\nvalue = [0, 2]\nclass = clear"] ;
938 -> 940 ;
941 [label="gini = 0.0\nsamples = 1\nvalue = [1, 0]\nclass = cloudy"] ;
919 -> 941 ;
942 [label="gini = 0.0\nsamples = 6\nvalue = [0, 6]\nclass = clear"] ;
916 -> 942 ;
943 [label="ratio stat <= 0.6354\ngini = 0.4303\nsamples = 83\nvalue = [57, 26]\nclass = cloudy"] ;
915 -> 943 ;
944 [label="gini = 0.0\nsamples = 3\nvalue = [0, 3]\nclass = clear"] ;
943 -> 944 ;
945 [label="Clearsky GHI stat <= 52.7\ngini = 0.4097\nsamples = 80\nvalue = [57, 23]\nclass = cloudy"] ;
943 -> 945 ;
946 [label="Clearsky GHI stat <= 45.1\ngini = 0.3935\nsamples = 78\nvalue = [57, 21]\nclass = cloudy"] ;
945 -> 946 ;
947 [label="Clearsky GHI stat <= 44.35\ngini = 0.1975\nsamples = 18\nvalue = [16, 2]\nclass = cloudy"] ;
946 -> 947 ;
948 [label="Clearsky GHI stat <= 44.1\ngini = 0.32\nsamples = 10\nvalue = [8, 2]\nclass = cloudy"] ;
947 -> 948 ;
949 [label="Clearsky GHI stat <= 43.3\ngini = 0.2188\nsamples = 8\nvalue = [7, 1]\nclass = cloudy"] ;
948 -> 949 ;
950 [label="gini = 0.4444\nsamples = 3\nvalue = [2, 1]\nclass = cloudy"] ;
949 -> 950 ;
951 [label="gini = 0.0\nsamples = 5\nvalue = [5, 0]\nclass = cloudy"] ;
949 -> 951 ;
952 [label="gini = 0.5\nsamples = 2\nvalue = [1, 1]\nclass = cloudy"] ;
948 -> 952 ;
953 [label="gini = 0.0\nsamples = 8\nvalue = [8, 0]\nclass = cloudy"] ;
947 -> 953 ;
954 [label="Clearsky GHI stat <= 47.9\ngini = 0.4328\nsamples = 60\nvalue = [41, 19]\nclass = cloudy"] ;
946 -> 954 ;
955 [label="ratio stat <= 0.6833\ngini = 0.497\nsamples = 26\nvalue = [14, 12]\nclass = cloudy"] ;
954 -> 955 ;
956 [label="Clearsky GHI stat <= 47.7\ngini = 0.4152\nsamples = 17\nvalue = [12, 5]\nclass = cloudy"] ;
955 -> 956 ;
957 [label="ratio stat <= 0.6459\ngini = 0.375\nsamples = 16\nvalue = [12, 4]\nclass = cloudy"] ;
956 -> 957 ;
958 [label="ratio stat <= 0.6363\ngini = 0.5\nsamples = 4\nvalue = [2, 2]\nclass = cloudy"] ;
957 -> 958 ;
959 [label="gini = 0.0\nsamples = 1\nvalue = [1, 0]\nclass = cloudy"] ;
958 -> 959 ;
960 [label="Clearsky GHI stat <= 46.9\ngini = 0.4444\nsamples = 3\nvalue = [1, 2]\nclass = clear"] ;
958 -> 960 ;
961 [label="gini = 0.0\nsamples = 1\nvalue = [0, 1]\nclass = clear"] ;
960 -> 961 ;
962 [label="Clearsky GHI stat <= 47.05\ngini = 0.5\nsamples = 2\nvalue = [1, 1]\nclass = cloudy"] ;
960 -> 962 ;
963 [label="gini = 0.0\nsamples = 1\nvalue = [1, 0]\nclass = cloudy"] ;
962 -> 963 ;
964 [label="gini = 0.0\nsamples = 1\nvalue = [0, 1]\nclass = clear"] ;
962 -> 964 ;
965 [label="ratio stat <= 0.6526\ngini = 0.2778\nsamples = 12\nvalue = [10, 2]\nclass = cloudy"] ;
957 -> 965 ;
966 [label="gini = 0.0\nsamples = 3\nvalue = [3, 0]\nclass = cloudy"] ;
965 -> 966 ;
967 [label="Clearsky GHI stat <= 47.2\ngini = 0.3457\nsamples = 9\nvalue = [7, 2]\nclass = cloudy"] ;
965 -> 967 ;
968 [label="ratio stat <= 0.6754\ngini = 0.2188\nsamples = 8\nvalue = [7, 1]\nclass = cloudy"] ;
967 -> 968 ;
969 [label="gini = 0.0\nsamples = 4\nvalue = [4, 0]\nclass = cloudy"] ;
968 -> 969 ;
970 [label="ratio stat <= 0.6783\ngini = 0.375\nsamples = 4\nvalue = [3, 1]\nclass = cloudy"] ;
968 -> 970 ;
971 [label="gini = 0.0\nsamples = 1\nvalue = [0, 1]\nclass = clear"] ;
970 -> 971 ;
972 [label="gini = 0.0\nsamples = 3\nvalue = [3, 0]\nclass = cloudy"] ;
970 -> 972 ;
973 [label="gini = 0.0\nsamples = 1\nvalue = [0, 1]\nclass = clear"] ;
967 -> 973 ;
974 [label="gini = 0.0\nsamples = 1\nvalue = [0, 1]\nclass = clear"] ;
956 -> 974 ;
975 [label="Clearsky GHI stat <= 46.3\ngini = 0.3457\nsamples = 9\nvalue = [2, 7]\nclass = clear"] ;
955 -> 975 ;
976 [label="Clearsky GHI stat <= 46.15\ngini = 0.48\nsamples = 5\nvalue = [2, 3]\nclass = clear"] ;
975 -> 976 ;
977 [label="GHI <= 31.5\ngini = 0.375\nsamples = 4\nvalue = [1, 3]\nclass = clear"] ;
976 -> 977 ;
978 [label="gini = 0.4444\nsamples = 3\nvalue = [1, 2]\nclass = clear"] ;
977 -> 978 ;
979 [label="gini = 0.0\nsamples = 1\nvalue = [0, 1]\nclass = clear"] ;
977 -> 979 ;
980 [label="gini = 0.0\nsamples = 1\nvalue = [1, 0]\nclass = cloudy"] ;
976 -> 980 ;
981 [label="gini = 0.0\nsamples = 4\nvalue = [0, 4]\nclass = clear"] ;
975 -> 981 ;
982 [label="Clearsky GHI stat <= 50.8\ngini = 0.327\nsamples = 34\nvalue = [27, 7]\nclass = cloudy"] ;
954 -> 982 ;
983 [label="ratio stat <= 0.6727\ngini = 0.2268\nsamples = 23\nvalue = [20, 3]\nclass = cloudy"] ;
982 -> 983 ;
984 [label="gini = 0.0\nsamples = 12\nvalue = [12, 0]\nclass = cloudy"] ;
983 -> 984 ;
985 [label="ratio stat <= 0.6782\ngini = 0.3967\nsamples = 11\nvalue = [8, 3]\nclass = cloudy"] ;
983 -> 985 ;
986 [label="gini = 0.0\nsamples = 2\nvalue = [0, 2]\nclass = clear"] ;
985 -> 986 ;
987 [label="Clearsky GHI stat <= 48.5\ngini = 0.1975\nsamples = 9\nvalue = [8, 1]\nclass = cloudy"] ;
985 -> 987 ;
988 [label="ratio stat <= 0.6847\ngini = 0.5\nsamples = 2\nvalue = [1, 1]\nclass = cloudy"] ;
987 -> 988 ;
989 [label="gini = 0.0\nsamples = 1\nvalue = [0, 1]\nclass = clear"] ;
988 -> 989 ;
990 [label="gini = 0.0\nsamples = 1\nvalue = [1, 0]\nclass = cloudy"] ;
988 -> 990 ;
991 [label="gini = 0.0\nsamples = 7\nvalue = [7, 0]\nclass = cloudy"] ;
987 -> 991 ;
992 [label="ratio stat <= 0.6583\ngini = 0.4628\nsamples = 11\nvalue = [7, 4]\nclass = cloudy"] ;
982 -> 992 ;
993 [label="gini = 0.0\nsamples = 2\nvalue = [0, 2]\nclass = clear"] ;
992 -> 993 ;
994 [label="Clearsky GHI stat <= 51.1\ngini = 0.3457\nsamples = 9\nvalue = [7, 2]\nclass = cloudy"] ;
992 -> 994 ;
995 [label="gini = 0.0\nsamples = 1\nvalue = [0, 1]\nclass = clear"] ;
994 -> 995 ;
996 [label="ratio stat <= 0.6897\ngini = 0.2188\nsamples = 8\nvalue = [7, 1]\nclass = cloudy"] ;
994 -> 996 ;
997 [label="gini = 0.0\nsamples = 6\nvalue = [6, 0]\nclass = cloudy"] ;
996 -> 997 ;
998 [label="gini = 0.5\nsamples = 2\nvalue = [1, 1]\nclass = cloudy"] ;
996 -> 998 ;
999 [label="gini = 0.0\nsamples = 2\nvalue = [0, 2]\nclass = clear"] ;
945 -> 999 ;
1000 [label="gini = 0.0\nsamples = 4\nvalue = [0, 4]\nclass = clear"] ;
852 -> 1000 ;
1001 [label="gini = 0.0\nsamples = 15\nvalue = [15, 0]\nclass = cloudy"] ;
851 -> 1001 ;
1002 [label="GHI <= 26.5\ngini = 0.2449\nsamples = 7\nvalue = [1, 6]\nclass = clear"] ;
766 -> 1002 ;
1003 [label="gini = 0.4444\nsamples = 3\nvalue = [1, 2]\nclass = clear"] ;
1002 -> 1003 ;
1004 [label="gini = 0.0\nsamples = 4\nvalue = [0, 4]\nclass = clear"] ;
1002 -> 1004 ;
1005 [label="Clearsky GHI stat <= 51.5\ngini = 0.2355\nsamples = 22\nvalue = [19, 3]\nclass = cloudy"] ;
765 -> 1005 ;
1006 [label="ratio stat <= 0.7108\ngini = 0.1723\nsamples = 21\nvalue = [19, 2]\nclass = cloudy"] ;
1005 -> 1006 ;
1007 [label="gini = 0.0\nsamples = 13\nvalue = [13, 0]\nclass = cloudy"] ;
1006 -> 1007 ;
1008 [label="GHI <= 34.0\ngini = 0.375\nsamples = 8\nvalue = [6, 2]\nclass = cloudy"] ;
1006 -> 1008 ;
1009 [label="Clearsky GHI stat <= 45.7\ngini = 0.4082\nsamples = 7\nvalue = [5, 2]\nclass = cloudy"] ;
1008 -> 1009 ;
1010 [label="GHI <= 30.5\ngini = 0.32\nsamples = 5\nvalue = [4, 1]\nclass = cloudy"] ;
1009 -> 1010 ;
1011 [label="gini = 0.4444\nsamples = 3\nvalue = [2, 1]\nclass = cloudy"] ;
1010 -> 1011 ;
1012 [label="gini = 0.0\nsamples = 2\nvalue = [2, 0]\nclass = cloudy"] ;
1010 -> 1012 ;
1013 [label="gini = 0.5\nsamples = 2\nvalue = [1, 1]\nclass = cloudy"] ;
1009 -> 1013 ;
1014 [label="gini = 0.0\nsamples = 1\nvalue = [1, 0]\nclass = cloudy"] ;
1008 -> 1014 ;
