digraph Tree {
node [shape=box] ;
0 [label="abs_diff_ratio stat <= 0.1006\ngini = 0.3992\nsamples = 236664\nvalue = [171468, 65196]\nclass = cloudy"] ;
1 [label="abs_diff_ratio stat <= 0.0582\ngini = 0.2733\nsamples = 73173\nvalue = [11950, 61223]\nclass = clear"] ;
0 -> 1 [labeldistance=2.5, labelangle=45, headlabel="True"] ;
2 [label="GHI <= 205.5\ngini = 0.2285\nsamples = 63632\nvalue = [8373, 55259]\nclass = clear"] ;
1 -> 2 ;
3 [label="GHI <= 34.5\ngini = 0.4252\nsamples = 4142\nvalue = [1270, 2872]\nclass = clear"] ;
2 -> 3 ;
4 [label="GHI <= 32.5\ngini = 0.4183\nsamples = 235\nvalue = [165, 70]\nclass = cloudy"] ;
3 -> 4 ;
5 [label="abs_diff_ratio stat <= 0.0429\ngini = 0.3694\nsamples = 180\nvalue = [136, 44]\nclass = cloudy"] ;
4 -> 5 ;
6 [label="abs_diff_ratio stat <= 0.0252\ngini = 0.4016\nsamples = 151\nvalue = [109, 42]\nclass = cloudy"] ;
5 -> 6 ;
7 [label="gini = 0.3541\nsamples = 87\nvalue = [67, 20]\nclass = cloudy"] ;
6 -> 7 ;
8 [label="gini = 0.4512\nsamples = 64\nvalue = [42, 22]\nclass = cloudy"] ;
6 -> 8 ;
9 [label="GHI <= 27.5\ngini = 0.1284\nsamples = 29\nvalue = [27, 2]\nclass = cloudy"] ;
5 -> 9 ;
10 [label="gini = 0.0\nsamples = 17\nvalue = [17, 0]\nclass = cloudy"] ;
9 -> 10 ;
11 [label="gini = 0.2778\nsamples = 12\nvalue = [10, 2]\nclass = cloudy"] ;
9 -> 11 ;
12 [label="abs_diff_ratio stat <= 0.0105\ngini = 0.4985\nsamples = 55\nvalue = [29, 26]\nclass = cloudy"] ;
4 -> 12 ;
13 [label="abs_diff_ratio stat <= 0.0046\ngini = 0.4688\nsamples = 16\nvalue = [6, 10]\nclass = clear"] ;
12 -> 13 ;
14 [label="gini = 0.48\nsamples = 15\nvalue = [6, 9]\nclass = clear"] ;
13 -> 14 ;
15 [label="gini = 0.0\nsamples = 1\nvalue = [0, 1]\nclass = clear"] ;
13 -> 15 ;
16 [label="abs_diff_ratio stat <= 0.0346\ngini = 0.4839\nsamples = 39\nvalue = [23, 16]\nclass = cloudy"] ;
12 -> 16 ;
17 [label="gini = 0.3367\nsamples = 14\nvalue = [11, 3]\nclass = cloudy"] ;
16 -> 17 ;
18 [label="gini = 0.4992\nsamples = 25\nvalue = [12, 13]\nclass = clear"] ;
16 -> 18 ;
19 [label="GHI <= 129.5\ngini = 0.4057\nsamples = 3907\nvalue = [1105, 2802]\nclass = clear"] ;
3 -> 19 ;
20 [label="GHI <= 77.5\ngini = 0.4363\nsamples = 1692\nvalue = [544, 1148]\nclass = clear"] ;
19 -> 20 ;
21 [label="GHI <= 70.5\ngini = 0.4018\nsamples = 650\nvalue = [181, 469]\nclass = clear"] ;
20 -> 21 ;
22 [label="gini = 0.4233\nsamples = 503\nvalue = [153, 350]\nclass = clear"] ;
21 -> 22 ;
23 [label="gini = 0.3084\nsamples = 147\nvalue = [28, 119]\nclass = clear"] ;
21 -> 23 ;
24 [label="GHI <= 111.5\ngini = 0.454\nsamples = 1042\nvalue = [363, 679]\nclass = clear"] ;
20 -> 24 ;
25 [label="gini = 0.4741\nsamples = 606\nvalue = [234, 372]\nclass = clear"] ;
24 -> 25 ;
26 [label="gini = 0.4167\nsamples = 436\nvalue = [129, 307]\nclass = clear"] ;
24 -> 26 ;
27 [label="abs_diff_ratio stat <= 0.0159\ngini = 0.3783\nsamples = 2215\nvalue = [561, 1654]\nclass = clear"] ;
19 -> 27 ;
28 [label="GHI <= 204.5\ngini = 0.3097\nsamples = 616\nvalue = [118, 498]\nclass = clear"] ;
27 -> 28 ;
29 [label="gini = 0.3025\nsamples = 603\nvalue = [112, 491]\nclass = clear"] ;
28 -> 29 ;
30 [label="gini = 0.497\nsamples = 13\nvalue = [6, 7]\nclass = clear"] ;
28 -> 30 ;
31 [label="abs_diff_ratio stat <= 0.0344\ngini = 0.4006\nsamples = 1599\nvalue = [443, 1156]\nclass = clear"] ;
27 -> 31 ;
32 [label="gini = 0.3742\nsamples = 662\nvalue = [165, 497]\nclass = clear"] ;
31 -> 32 ;
33 [label="gini = 0.4173\nsamples = 937\nvalue = [278, 659]\nclass = clear"] ;
31 -> 33 ;
34 [label="abs_diff_ratio stat <= 0.0253\ngini = 0.2103\nsamples = 59490\nvalue = [7103, 52387]\nclass = clear"] ;
2 -> 34 ;
35 [label="GHI <= 451.5\ngini = 0.1756\nsamples = 37210\nvalue = [3620, 33590]\nclass = clear"] ;
34 -> 35 ;
36 [label="GHI <= 319.5\ngini = 0.2583\nsamples = 5421\nvalue = [826, 4595]\nclass = clear"] ;
35 -> 36 ;
37 [label="GHI <= 286.5\ngini = 0.2872\nsamples = 2071\nvalue = [360, 1711]\nclass = clear"] ;
36 -> 37 ;
38 [label="gini = 0.2507\nsamples = 1354\nvalue = [199, 1155]\nclass = clear"] ;
37 -> 38 ;
39 [label="gini = 0.3483\nsamples = 717\nvalue = [161, 556]\nclass = clear"] ;
37 -> 39 ;
40 [label="GHI <= 331.5\ngini = 0.2395\nsamples = 3350\nvalue = [466, 2884]\nclass = clear"] ;
36 -> 40 ;
41 [label="gini = 0.1542\nsamples = 297\nvalue = [25, 272]\nclass = clear"] ;
40 -> 41 ;
42 [label="gini = 0.2472\nsamples = 3053\nvalue = [441, 2612]\nclass = clear"] ;
40 -> 42 ;
43 [label="abs_diff_ratio stat <= 0.01\ngini = 0.1603\nsamples = 31789\nvalue = [2794, 28995]\nclass = clear"] ;
35 -> 43 ;
44 [label="GHI <= 913.5\ngini = 0.1356\nsamples = 14726\nvalue = [1077, 13649]\nclass = clear"] ;
43 -> 44 ;
45 [label="gini = 0.1446\nsamples = 9611\nvalue = [754, 8857]\nclass = clear"] ;
44 -> 45 ;
46 [label="gini = 0.1183\nsamples = 5115\nvalue = [323, 4792]\nclass = clear"] ;
44 -> 46 ;
47 [label="GHI <= 978.5\ngini = 0.181\nsamples = 17063\nvalue = [1717, 15346]\nclass = clear"] ;
43 -> 47 ;
48 [label="gini = 0.1875\nsamples = 14330\nvalue = [1501, 12829]\nclass = clear"] ;
47 -> 48 ;
49 [label="gini = 0.1456\nsamples = 2733\nvalue = [216, 2517]\nclass = clear"] ;
47 -> 49 ;
50 [label="abs_diff_ratio stat <= 0.0486\ngini = 0.2638\nsamples = 22280\nvalue = [3483, 18797]\nclass = clear"] ;
34 -> 50 ;
51 [label="GHI <= 310.5\ngini = 0.2518\nsamples = 18457\nvalue = [2727, 15730]\nclass = clear"] ;
50 -> 51 ;
52 [label="GHI <= 309.5\ngini = 0.3424\nsamples = 1651\nvalue = [362, 1289]\nclass = clear"] ;
51 -> 52 ;
53 [label="gini = 0.3382\nsamples = 1628\nvalue = [351, 1277]\nclass = clear"] ;
52 -> 53 ;
54 [label="gini = 0.4991\nsamples = 23\nvalue = [11, 12]\nclass = clear"] ;
52 -> 54 ;
55 [label="abs_diff_ratio stat <= 0.0344\ngini = 0.2418\nsamples = 16806\nvalue = [2365, 14441]\nclass = clear"] ;
51 -> 55 ;
56 [label="gini = 0.2222\nsamples = 8272\nvalue = [1053, 7219]\nclass = clear"] ;
55 -> 56 ;
57 [label="gini = 0.2602\nsamples = 8534\nvalue = [1312, 7222]\nclass = clear"] ;
55 -> 57 ;
58 [label="GHI <= 845.5\ngini = 0.3173\nsamples = 3823\nvalue = [756, 3067]\nclass = clear"] ;
50 -> 58 ;
59 [label="abs_diff_ratio stat <= 0.058\ngini = 0.3091\nsamples = 3522\nvalue = [673, 2849]\nclass = clear"] ;
58 -> 59 ;
60 [label="gini = 0.3113\nsamples = 3485\nvalue = [672, 2813]\nclass = clear"] ;
59 -> 60 ;
61 [label="gini = 0.0526\nsamples = 37\nvalue = [1, 36]\nclass = clear"] ;
59 -> 61 ;
62 [label="abs_diff_ratio stat <= 0.0562\ngini = 0.3994\nsamples = 301\nvalue = [83, 218]\nclass = clear"] ;
58 -> 62 ;
63 [label="gini = 0.3582\nsamples = 261\nvalue = [61, 200]\nclass = clear"] ;
62 -> 63 ;
64 [label="gini = 0.495\nsamples = 40\nvalue = [22, 18]\nclass = cloudy"] ;
62 -> 64 ;
65 [label="GHI <= 768.5\ngini = 0.4687\nsamples = 9541\nvalue = [3577, 5964]\nclass = clear"] ;
1 -> 65 ;
66 [label="abs_diff_ratio stat <= 0.0841\ngini = 0.4439\nsamples = 8757\nvalue = [2912, 5845]\nclass = clear"] ;
65 -> 66 ;
67 [label="GHI <= 34.5\ngini = 0.4111\nsamples = 6360\nvalue = [1839, 4521]\nclass = clear"] ;
66 -> 67 ;
68 [label="abs_diff_ratio stat <= 0.0694\ngini = 0.4362\nsamples = 112\nvalue = [76, 36]\nclass = cloudy"] ;
67 -> 68 ;
69 [label="GHI <= 29.5\ngini = 0.255\nsamples = 40\nvalue = [34, 6]\nclass = cloudy"] ;
68 -> 69 ;
70 [label="gini = 0.1699\nsamples = 32\nvalue = [29, 3]\nclass = cloudy"] ;
69 -> 70 ;
71 [label="gini = 0.4688\nsamples = 8\nvalue = [5, 3]\nclass = cloudy"] ;
69 -> 71 ;
72 [label="abs_diff_ratio stat <= 0.0709\ngini = 0.4861\nsamples = 72\nvalue = [42, 30]\nclass = cloudy"] ;
68 -> 72 ;
73 [label="gini = 0.0\nsamples = 4\nvalue = [0, 4]\nclass = clear"] ;
72 -> 73 ;
74 [label="gini = 0.4723\nsamples = 68\nvalue = [42, 26]\nclass = cloudy"] ;
72 -> 74 ;
75 [label="GHI <= 539.5\ngini = 0.4051\nsamples = 6248\nvalue = [1763, 4485]\nclass = clear"] ;
67 -> 75 ;
76 [label="GHI <= 128.5\ngini = 0.3879\nsamples = 5075\nvalue = [1336, 3739]\nclass = clear"] ;
75 -> 76 ;
77 [label="gini = 0.4665\nsamples = 834\nvalue = [309, 525]\nclass = clear"] ;
76 -> 77 ;
78 [label="gini = 0.367\nsamples = 4241\nvalue = [1027, 3214]\nclass = clear"] ;
76 -> 78 ;
79 [label="abs_diff_ratio stat <= 0.07\ngini = 0.463\nsamples = 1173\nvalue = [427, 746]\nclass = clear"] ;
75 -> 79 ;
80 [label="gini = 0.4169\nsamples = 824\nvalue = [244, 580]\nclass = clear"] ;
79 -> 80 ;
81 [label="gini = 0.4988\nsamples = 349\nvalue = [183, 166]\nclass = cloudy"] ;
79 -> 81 ;
82 [label="GHI <= 394.5\ngini = 0.4945\nsamples = 2397\nvalue = [1073, 1324]\nclass = clear"] ;
66 -> 82 ;
83 [label="GHI <= 36.0\ngini = 0.4628\nsamples = 1884\nvalue = [685, 1199]\nclass = clear"] ;
82 -> 83 ;
84 [label="abs_diff_ratio stat <= 0.0847\ngini = 0.3668\nsamples = 62\nvalue = [47, 15]\nclass = cloudy"] ;
83 -> 84 ;
85 [label="gini = 0.0\nsamples = 1\nvalue = [0, 1]\nclass = clear"] ;
84 -> 85 ;
86 [label="gini = 0.3537\nsamples = 61\nvalue = [47, 14]\nclass = cloudy"] ;
84 -> 86 ;
87 [label="GHI <= 114.5\ngini = 0.4551\nsamples = 1822\nvalue = [638, 1184]\nclass = clear"] ;
83 -> 87 ;
88 [label="gini = 0.4822\nsamples = 466\nvalue = [189, 277]\nclass = clear"] ;
87 -> 88 ;
89 [label="gini = 0.443\nsamples = 1356\nvalue = [449, 907]\nclass = clear"] ;
87 -> 89 ;
90 [label="GHI <= 627.5\ngini = 0.3686\nsamples = 513\nvalue = [388, 125]\nclass = cloudy"] ;
82 -> 90 ;
91 [label="abs_diff_ratio stat <= 0.0921\ngini = 0.4399\nsamples = 346\nvalue = [233, 113]\nclass = cloudy"] ;
90 -> 91 ;
92 [label="gini = 0.4872\nsamples = 200\nvalue = [116, 84]\nclass = cloudy"] ;
91 -> 92 ;
93 [label="gini = 0.3184\nsamples = 146\nvalue = [117, 29]\nclass = cloudy"] ;
91 -> 93 ;
94 [label="abs_diff_ratio stat <= 0.0845\ngini = 0.1334\nsamples = 167\nvalue = [155, 12]\nclass = cloudy"] ;
90 -> 94 ;
95 [label="gini = 0.375\nsamples = 4\nvalue = [1, 3]\nclass = clear"] ;
94 -> 95 ;
96 [label="gini = 0.1043\nsamples = 163\nvalue = [154, 9]\nclass = cloudy"] ;
94 -> 96 ;
97 [label="abs_diff_ratio stat <= 0.0638\ngini = 0.2575\nsamples = 784\nvalue = [665, 119]\nclass = cloudy"] ;
65 -> 97 ;
98 [label="GHI <= 855.0\ngini = 0.4913\nsamples = 129\nvalue = [56, 73]\nclass = clear"] ;
97 -> 98 ;
99 [label="abs_diff_ratio stat <= 0.0587\ngini = 0.4012\nsamples = 72\nvalue = [20, 52]\nclass = clear"] ;
98 -> 99 ;
100 [label="GHI <= 798.0\ngini = 0.4734\nsamples = 13\nvalue = [8, 5]\nclass = cloudy"] ;
99 -> 100 ;
101 [label="gini = 0.0\nsamples = 5\nvalue = [5, 0]\nclass = cloudy"] ;
100 -> 101 ;
102 [label="gini = 0.4688\nsamples = 8\nvalue = [3, 5]\nclass = clear"] ;
100 -> 102 ;
103 [label="abs_diff_ratio stat <= 0.06\ngini = 0.324\nsamples = 59\nvalue = [12, 47]\nclass = clear"] ;
99 -> 103 ;
104 [label="gini = 0.0\nsamples = 15\nvalue = [0, 15]\nclass = clear"] ;
103 -> 104 ;
105 [label="gini = 0.3967\nsamples = 44\nvalue = [12, 32]\nclass = clear"] ;
103 -> 105 ;
106 [label="GHI <= 892.0\ngini = 0.4654\nsamples = 57\nvalue = [36, 21]\nclass = cloudy"] ;
98 -> 106 ;
107 [label="GHI <= 874.0\ngini = 0.2975\nsamples = 11\nvalue = [9, 2]\nclass = cloudy"] ;
106 -> 107 ;
108 [label="gini = 0.4444\nsamples = 6\nvalue = [4, 2]\nclass = cloudy"] ;
107 -> 108 ;
109 [label="gini = 0.0\nsamples = 5\nvalue = [5, 0]\nclass = cloudy"] ;
107 -> 109 ;
110 [label="GHI <= 900.5\ngini = 0.4849\nsamples = 46\nvalue = [27, 19]\nclass = cloudy"] ;
106 -> 110 ;
111 [label="gini = 0.4082\nsamples = 7\nvalue = [2, 5]\nclass = clear"] ;
110 -> 111 ;
112 [label="gini = 0.4602\nsamples = 39\nvalue = [25, 14]\nclass = cloudy"] ;
110 -> 112 ;
113 [label="GHI <= 799.5\ngini = 0.1306\nsamples = 655\nvalue = [609, 46]\nclass = cloudy"] ;
97 -> 113 ;
114 [label="abs_diff_ratio stat <= 0.0852\ngini = 0.3917\nsamples = 101\nvalue = [74, 27]\nclass = cloudy"] ;
113 -> 114 ;
115 [label="abs_diff_ratio stat <= 0.0716\ngini = 0.4857\nsamples = 65\nvalue = [38, 27]\nclass = cloudy"] ;
114 -> 115 ;
116 [label="gini = 0.4911\nsamples = 30\nvalue = [13, 17]\nclass = clear"] ;
115 -> 116 ;
117 [label="gini = 0.4082\nsamples = 35\nvalue = [25, 10]\nclass = cloudy"] ;
115 -> 117 ;
118 [label="gini = 0.0\nsamples = 36\nvalue = [36, 0]\nclass = cloudy"] ;
114 -> 118 ;
119 [label="abs_diff_ratio stat <= 0.0712\ngini = 0.0662\nsamples = 554\nvalue = [535, 19]\nclass = cloudy"] ;
113 -> 119 ;
120 [label="GHI <= 820.0\ngini = 0.2321\nsamples = 97\nvalue = [84, 13]\nclass = cloudy"] ;
119 -> 120 ;
121 [label="gini = 0.4753\nsamples = 18\nvalue = [11, 7]\nclass = cloudy"] ;
120 -> 121 ;
122 [label="gini = 0.1404\nsamples = 79\nvalue = [73, 6]\nclass = cloudy"] ;
120 -> 122 ;
123 [label="abs_diff_ratio stat <= 0.0807\ngini = 0.0259\nsamples = 457\nvalue = [451, 6]\nclass = cloudy"] ;
119 -> 123 ;
124 [label="gini = 0.0689\nsamples = 140\nvalue = [135, 5]\nclass = cloudy"] ;
123 -> 124 ;
125 [label="gini = 0.0063\nsamples = 317\nvalue = [316, 1]\nclass = cloudy"] ;
123 -> 125 ;
126 [label="abs_diff_ratio stat <= 0.2106\ngini = 0.0474\nsamples = 163491\nvalue = [159518, 3973]\nclass = cloudy"] ;
0 -> 126 [labeldistance=2.5, labelangle=-45, headlabel="False"] ;
127 [label="GHI <= 252.5\ngini = 0.3578\nsamples = 11940\nvalue = [9154, 2786]\nclass = cloudy"] ;
126 -> 127 ;
128 [label="abs_diff_ratio stat <= 0.1503\ngini = 0.4995\nsamples = 5478\nvalue = [2829, 2649]\nclass = cloudy"] ;
127 -> 128 ;
129 [label="GHI <= 33.5\ngini = 0.4946\nsamples = 3001\nvalue = [1344, 1657]\nclass = clear"] ;
128 -> 129 ;
130 [label="GHI <= 19.5\ngini = 0.4579\nsamples = 231\nvalue = [149, 82]\nclass = cloudy"] ;
129 -> 130 ;
131 [label="abs_diff_ratio stat <= 0.1334\ngini = 0.3967\nsamples = 22\nvalue = [6, 16]\nclass = clear"] ;
130 -> 131 ;
132 [label="gini = 0.4959\nsamples = 11\nvalue = [5, 6]\nclass = clear"] ;
131 -> 132 ;
133 [label="gini = 0.1653\nsamples = 11\nvalue = [1, 10]\nclass = clear"] ;
131 -> 133 ;
134 [label="GHI <= 24.5\ngini = 0.4321\nsamples = 209\nvalue = [143, 66]\nclass = cloudy"] ;
130 -> 134 ;
135 [label="gini = 0.3403\nsamples = 69\nvalue = [54, 15]\nclass = cloudy"] ;
134 -> 135 ;
136 [label="gini = 0.4632\nsamples = 140\nvalue = [89, 51]\nclass = cloudy"] ;
134 -> 136 ;
137 [label="abs_diff_ratio stat <= 0.1088\ngini = 0.4906\nsamples = 2770\nvalue = [1195, 1575]\nclass = clear"] ;
129 -> 137 ;
138 [label="abs_diff_ratio stat <= 0.1007\ngini = 0.4636\nsamples = 597\nvalue = [218, 379]\nclass = clear"] ;
137 -> 138 ;
139 [label="gini = 0.2778\nsamples = 6\nvalue = [5, 1]\nclass = cloudy"] ;
138 -> 139 ;
140 [label="gini = 0.461\nsamples = 591\nvalue = [213, 378]\nclass = clear"] ;
138 -> 140 ;
141 [label="GHI <= 229.5\ngini = 0.4949\nsamples = 2173\nvalue = [977, 1196]\nclass = clear"] ;
137 -> 141 ;
142 [label="gini = 0.4932\nsamples = 2069\nvalue = [914, 1155]\nclass = clear"] ;
141 -> 142 ;
143 [label="gini = 0.4776\nsamples = 104\nvalue = [63, 41]\nclass = cloudy"] ;
141 -> 143 ;
144 [label="GHI <= 142.5\ngini = 0.4802\nsamples = 2477\nvalue = [1485, 992]\nclass = cloudy"] ;
128 -> 144 ;
145 [label="GHI <= 88.5\ngini = 0.498\nsamples = 2012\nvalue = [1069, 943]\nclass = cloudy"] ;
144 -> 145 ;
146 [label="GHI <= 29.5\ngini = 0.4999\nsamples = 1487\nvalue = [755, 732]\nclass = cloudy"] ;
145 -> 146 ;
147 [label="gini = 0.483\nsamples = 260\nvalue = [154, 106]\nclass = cloudy"] ;
146 -> 147 ;
148 [label="gini = 0.4998\nsamples = 1227\nvalue = [601, 626]\nclass = clear"] ;
146 -> 148 ;
149 [label="abs_diff_ratio stat <= 0.1966\ngini = 0.4808\nsamples = 525\nvalue = [314, 211]\nclass = cloudy"] ;
145 -> 149 ;
150 [label="gini = 0.4889\nsamples = 449\nvalue = [258, 191]\nclass = cloudy"] ;
149 -> 150 ;
151 [label="gini = 0.3878\nsamples = 76\nvalue = [56, 20]\nclass = cloudy"] ;
149 -> 151 ;
152 [label="abs_diff_ratio stat <= 0.1721\ngini = 0.1885\nsamples = 465\nvalue = [416, 49]\nclass = cloudy"] ;
144 -> 152 ;
153 [label="GHI <= 173.5\ngini = 0.342\nsamples = 201\nvalue = [157, 44]\nclass = cloudy"] ;
152 -> 153 ;
154 [label="gini = 0.454\nsamples = 89\nvalue = [58, 31]\nclass = cloudy"] ;
153 -> 154 ;
155 [label="gini = 0.2052\nsamples = 112\nvalue = [99, 13]\nclass = cloudy"] ;
153 -> 155 ;
156 [label="GHI <= 187.5\ngini = 0.0372\nsamples = 264\nvalue = [259, 5]\nclass = cloudy"] ;
152 -> 156 ;
157 [label="gini = 0.0875\nsamples = 109\nvalue = [104, 5]\nclass = cloudy"] ;
156 -> 157 ;
158 [label="gini = 0.0\nsamples = 155\nvalue = [155, 0]\nclass = cloudy"] ;
156 -> 158 ;
159 [label="GHI <= 358.5\ngini = 0.0415\nsamples = 6462\nvalue = [6325, 137]\nclass = cloudy"] ;
127 -> 159 ;
160 [label="abs_diff_ratio stat <= 0.1213\ngini = 0.228\nsamples = 861\nvalue = [748, 113]\nclass = cloudy"] ;
159 -> 160 ;
161 [label="abs_diff_ratio stat <= 0.1142\ngini = 0.4967\nsamples = 220\nvalue = [119, 101]\nclass = cloudy"] ;
160 -> 161 ;
162 [label="abs_diff_ratio stat <= 0.1009\ngini = 0.499\nsamples = 155\nvalue = [74, 81]\nclass = clear"] ;
161 -> 162 ;
163 [label="gini = 0.0\nsamples = 4\nvalue = [4, 0]\nclass = cloudy"] ;
162 -> 163 ;
164 [label="gini = 0.4973\nsamples = 151\nvalue = [70, 81]\nclass = clear"] ;
162 -> 164 ;
165 [label="GHI <= 318.0\ngini = 0.426\nsamples = 65\nvalue = [45, 20]\nclass = cloudy"] ;
161 -> 165 ;
166 [label="gini = 0.4712\nsamples = 50\nvalue = [31, 19]\nclass = cloudy"] ;
165 -> 166 ;
167 [label="gini = 0.1244\nsamples = 15\nvalue = [14, 1]\nclass = cloudy"] ;
165 -> 167 ;
168 [label="abs_diff_ratio stat <= 0.1347\ngini = 0.0367\nsamples = 641\nvalue = [629, 12]\nclass = cloudy"] ;
160 -> 168 ;
169 [label="abs_diff_ratio stat <= 0.1347\ngini = 0.1866\nsamples = 96\nvalue = [86, 10]\nclass = cloudy"] ;
168 -> 169 ;
170 [label="gini = 0.1715\nsamples = 95\nvalue = [86, 9]\nclass = cloudy"] ;
169 -> 170 ;
171 [label="gini = 0.0\nsamples = 1\nvalue = [0, 1]\nclass = clear"] ;
169 -> 171 ;
172 [label="abs_diff_ratio stat <= 0.1493\ngini = 0.0073\nsamples = 545\nvalue = [543, 2]\nclass = cloudy"] ;
168 -> 172 ;
173 [label="gini = 0.0476\nsamples = 82\nvalue = [80, 2]\nclass = cloudy"] ;
172 -> 173 ;
174 [label="gini = 0.0\nsamples = 463\nvalue = [463, 0]\nclass = cloudy"] ;
172 -> 174 ;
175 [label="abs_diff_ratio stat <= 0.1053\ngini = 0.0085\nsamples = 5601\nvalue = [5577, 24]\nclass = cloudy"] ;
159 -> 175 ;
176 [label="GHI <= 437.5\ngini = 0.108\nsamples = 227\nvalue = [214, 13]\nclass = cloudy"] ;
175 -> 176 ;
177 [label="abs_diff_ratio stat <= 0.1024\ngini = 0.4506\nsamples = 35\nvalue = [23, 12]\nclass = cloudy"] ;
176 -> 177 ;
178 [label="gini = 0.4861\nsamples = 12\nvalue = [5, 7]\nclass = clear"] ;
177 -> 178 ;
179 [label="gini = 0.3403\nsamples = 23\nvalue = [18, 5]\nclass = cloudy"] ;
177 -> 179 ;
180 [label="abs_diff_ratio stat <= 0.1053\ngini = 0.0104\nsamples = 192\nvalue = [191, 1]\nclass = cloudy"] ;
176 -> 180 ;
181 [label="gini = 0.0\nsamples = 191\nvalue = [191, 0]\nclass = cloudy"] ;
180 -> 181 ;
182 [label="gini = 0.0\nsamples = 1\nvalue = [0, 1]\nclass = clear"] ;
180 -> 182 ;
183 [label="abs_diff_ratio stat <= 0.1199\ngini = 0.0041\nsamples = 5374\nvalue = [5363, 11]\nclass = cloudy"] ;
175 -> 183 ;
184 [label="abs_diff_ratio stat <= 0.1199\ngini = 0.0294\nsamples = 671\nvalue = [661, 10]\nclass = cloudy"] ;
183 -> 184 ;
185 [label="gini = 0.0265\nsamples = 670\nvalue = [661, 9]\nclass = cloudy"] ;
184 -> 185 ;
186 [label="gini = 0.0\nsamples = 1\nvalue = [0, 1]\nclass = clear"] ;
184 -> 186 ;
187 [label="abs_diff_ratio stat <= 0.2098\ngini = 0.0004\nsamples = 4703\nvalue = [4702, 1]\nclass = cloudy"] ;
183 -> 187 ;
188 [label="gini = 0.0\nsamples = 4661\nvalue = [4661, 0]\nclass = cloudy"] ;
187 -> 188 ;
189 [label="gini = 0.0465\nsamples = 42\nvalue = [41, 1]\nclass = cloudy"] ;
187 -> 189 ;
190 [label="abs_diff_ratio stat <= 0.4327\ngini = 0.0155\nsamples = 151551\nvalue = [150364, 1187]\nclass = cloudy"] ;
126 -> 190 ;
191 [label="GHI <= 65.5\ngini = 0.1368\nsamples = 14704\nvalue = [13618, 1086]\nclass = cloudy"] ;
190 -> 191 ;
192 [label="abs_diff_ratio stat <= 0.307\ngini = 0.4694\nsamples = 2665\nvalue = [1662, 1003]\nclass = cloudy"] ;
191 -> 192 ;
193 [label="GHI <= 20.5\ngini = 0.4971\nsamples = 1336\nvalue = [719, 617]\nclass = cloudy"] ;
192 -> 193 ;
194 [label="abs_diff_ratio stat <= 0.3017\ngini = 0.4963\nsamples = 197\nvalue = [90, 107]\nclass = clear"] ;
193 -> 194 ;
195 [label="gini = 0.4995\nsamples = 182\nvalue = [88, 94]\nclass = clear"] ;
194 -> 195 ;
196 [label="gini = 0.2311\nsamples = 15\nvalue = [2, 13]\nclass = clear"] ;
194 -> 196 ;
197 [label="abs_diff_ratio stat <= 0.2882\ngini = 0.4945\nsamples = 1139\nvalue = [629, 510]\nclass = cloudy"] ;
193 -> 197 ;
198 [label="gini = 0.4984\nsamples = 935\nvalue = [494, 441]\nclass = cloudy"] ;
197 -> 198 ;
199 [label="gini = 0.4477\nsamples = 204\nvalue = [135, 69]\nclass = cloudy"] ;
197 -> 199 ;
200 [label="GHI <= 38.5\ngini = 0.4122\nsamples = 1329\nvalue = [943, 386]\nclass = cloudy"] ;
192 -> 200 ;
201 [label="GHI <= 23.5\ngini = 0.4668\nsamples = 959\nvalue = [603, 356]\nclass = cloudy"] ;
200 -> 201 ;
202 [label="gini = 0.4871\nsamples = 586\nvalue = [340, 246]\nclass = cloudy"] ;
201 -> 202 ;
203 [label="gini = 0.4159\nsamples = 373\nvalue = [263, 110]\nclass = cloudy"] ;
201 -> 203 ;
204 [label="abs_diff_ratio stat <= 0.3461\ngini = 0.149\nsamples = 370\nvalue = [340, 30]\nclass = cloudy"] ;
200 -> 204 ;
205 [label="gini = 0.2838\nsamples = 146\nvalue = [121, 25]\nclass = cloudy"] ;
204 -> 205 ;
206 [label="gini = 0.0436\nsamples = 224\nvalue = [219, 5]\nclass = cloudy"] ;
204 -> 206 ;
207 [label="GHI <= 76.5\ngini = 0.0137\nsamples = 12039\nvalue = [11956, 83]\nclass = cloudy"] ;
191 -> 207 ;
208 [label="abs_diff_ratio stat <= 0.2684\ngini = 0.2927\nsamples = 292\nvalue = [240, 52]\nclass = cloudy"] ;
207 -> 208 ;
209 [label="GHI <= 75.5\ngini = 0.4952\nsamples = 102\nvalue = [56, 46]\nclass = cloudy"] ;
208 -> 209 ;
210 [label="gini = 0.4864\nsamples = 91\nvalue = [53, 38]\nclass = cloudy"] ;
209 -> 210 ;
211 [label="gini = 0.3967\nsamples = 11\nvalue = [3, 8]\nclass = clear"] ;
209 -> 211 ;
212 [label="abs_diff_ratio stat <= 0.2815\ngini = 0.0612\nsamples = 190\nvalue = [184, 6]\nclass = cloudy"] ;
208 -> 212 ;
213 [label="gini = 0.32\nsamples = 20\nvalue = [16, 4]\nclass = cloudy"] ;
212 -> 213 ;
214 [label="gini = 0.0233\nsamples = 170\nvalue = [168, 2]\nclass = cloudy"] ;
212 -> 214 ;
215 [label="GHI <= 98.5\ngini = 0.0053\nsamples = 11747\nvalue = [11716, 31]\nclass = cloudy"] ;
207 -> 215 ;
216 [label="abs_diff_ratio stat <= 0.2456\ngini = 0.1025\nsamples = 480\nvalue = [454, 26]\nclass = cloudy"] ;
215 -> 216 ;
217 [label="gini = 0.3133\nsamples = 108\nvalue = [87, 21]\nclass = cloudy"] ;
216 -> 217 ;
218 [label="gini = 0.0265\nsamples = 372\nvalue = [367, 5]\nclass = cloudy"] ;
216 -> 218 ;
219 [label="GHI <= 111.5\ngini = 0.0009\nsamples = 11267\nvalue = [11262, 5]\nclass = cloudy"] ;
215 -> 219 ;
220 [label="gini = 0.0317\nsamples = 248\nvalue = [244, 4]\nclass = cloudy"] ;
219 -> 220 ;
221 [label="gini = 0.0002\nsamples = 11019\nvalue = [11018, 1]\nclass = cloudy"] ;
219 -> 221 ;
222 [label="abs_diff_ratio stat <= 0.4822\ngini = 0.0015\nsamples = 136847\nvalue = [136746, 101]\nclass = cloudy"] ;
190 -> 222 ;
223 [label="GHI <= 26.5\ngini = 0.0606\nsamples = 1951\nvalue = [1890, 61]\nclass = cloudy"] ;
222 -> 223 ;
224 [label="GHI <= 11.5\ngini = 0.3925\nsamples = 220\nvalue = [161, 59]\nclass = cloudy"] ;
223 -> 224 ;
225 [label="abs_diff_ratio stat <= 0.446\ngini = 0.1107\nsamples = 17\nvalue = [16, 1]\nclass = cloudy"] ;
224 -> 225 ;
226 [label="gini = 0.375\nsamples = 4\nvalue = [3, 1]\nclass = cloudy"] ;
225 -> 226 ;
227 [label="gini = 0.0\nsamples = 13\nvalue = [13, 0]\nclass = cloudy"] ;
225 -> 227 ;
228 [label="abs_diff_ratio stat <= 0.4821\ngini = 0.4082\nsamples = 203\nvalue = [145, 58]\nclass = cloudy"] ;
224 -> 228 ;
229 [label="gini = 0.4051\nsamples = 202\nvalue = [145, 57]\nclass = cloudy"] ;
228 -> 229 ;
230 [label="gini = 0.0\nsamples = 1\nvalue = [0, 1]\nclass = clear"] ;
228 -> 230 ;
231 [label="GHI <= 29.5\ngini = 0.0023\nsamples = 1731\nvalue = [1729, 2]\nclass = cloudy"] ;
223 -> 231 ;
232 [label="abs_diff_ratio stat <= 0.4372\ngini = 0.1884\nsamples = 19\nvalue = [17, 2]\nclass = cloudy"] ;
231 -> 232 ;
233 [label="gini = 0.0\nsamples = 1\nvalue = [0, 1]\nclass = clear"] ;
232 -> 233 ;
234 [label="gini = 0.1049\nsamples = 18\nvalue = [17, 1]\nclass = cloudy"] ;
232 -> 234 ;
235 [label="gini = 0.0\nsamples = 1712\nvalue = [1712, 0]\nclass = cloudy"] ;
231 -> 235 ;
236 [label="abs_diff_ratio stat <= 0.5783\ngini = 0.0006\nsamples = 134896\nvalue = [134856, 40]\nclass = cloudy"] ;
222 -> 236 ;
237 [label="GHI <= 18.5\ngini = 0.0229\nsamples = 3360\nvalue = [3321, 39]\nclass = cloudy"] ;
236 -> 237 ;
238 [label="abs_diff_ratio stat <= 0.5781\ngini = 0.2457\nsamples = 244\nvalue = [209, 35]\nclass = cloudy"] ;
237 -> 238 ;
239 [label="gini = 0.2407\nsamples = 243\nvalue = [209, 34]\nclass = cloudy"] ;
238 -> 239 ;
240 [label="gini = 0.0\nsamples = 1\nvalue = [0, 1]\nclass = clear"] ;
238 -> 240 ;
241 [label="GHI <= 21.5\ngini = 0.0026\nsamples = 3116\nvalue = [3112, 4]\nclass = cloudy"] ;
237 -> 241 ;
242 [label="gini = 0.1068\nsamples = 53\nvalue = [50, 3]\nclass = cloudy"] ;
241 -> 242 ;
243 [label="gini = 0.0007\nsamples = 3063\nvalue = [3062, 1]\nclass = cloudy"] ;
241 -> 243 ;
244 [label="abs_diff_ratio stat <= 0.6155\ngini = 0.0\nsamples = 131536\nvalue = [131535, 1]\nclass = cloudy"] ;
236 -> 244 ;
245 [label="abs_diff_ratio stat <= 0.6153\ngini = 0.0017\nsamples = 1167\nvalue = [1166, 1]\nclass = cloudy"] ;
244 -> 245 ;
246 [label="gini = 0.0\nsamples = 1146\nvalue = [1146, 0]\nclass = cloudy"] ;
245 -> 246 ;
247 [label="gini = 0.0907\nsamples = 21\nvalue = [20, 1]\nclass = cloudy"] ;
245 -> 247 ;
248 [label="gini = 0.0\nsamples = 130369\nvalue = [130369, 0]\nclass = cloudy"] ;
244 -> 248 ;
}