digraph Tree {
node [shape=box] ;
0 [label="abs_diff_ratio stat <= 0.0796\ngini = 0.2529\nsamples = 236664\nvalue = [201522, 35142]\nclass = cloudy"] ;
1 [label="abs_diff_ratio stat <= 0.0483\ngini = 0.4313\nsamples = 46544\nvalue = [14646, 31898]\nclass = clear"] ;
0 -> 1 [labeldistance=2.5, labelangle=45, headlabel="True"] ;
2 [label="GHI <= 419.5\ngini = 0.4004\nsamples = 38777\nvalue = [10734, 28043]\nclass = clear"] ;
1 -> 2 ;
3 [label="GHI <= 233.5\ngini = 0.4851\nsamples = 10690\nvalue = [4422, 6268]\nclass = clear"] ;
2 -> 3 ;
4 [label="GHI <= 61.5\ngini = 0.4998\nsamples = 4134\nvalue = [2030, 2104]\nclass = clear"] ;
3 -> 4 ;
5 [label="GHI <= 31.5\ngini = 0.4408\nsamples = 500\nvalue = [336, 164]\nclass = cloudy"] ;
4 -> 5 ;
6 [label="gini = 0.255\nsamples = 100\nvalue = [85, 15]\nclass = cloudy"] ;
5 -> 6 ;
7 [label="gini = 0.4675\nsamples = 400\nvalue = [251, 149]\nclass = cloudy"] ;
5 -> 7 ;
8 [label="GHI <= 82.5\ngini = 0.4977\nsamples = 3634\nvalue = [1694, 1940]\nclass = clear"] ;
4 -> 8 ;
9 [label="gini = 0.4558\nsamples = 296\nvalue = [104, 192]\nclass = clear"] ;
8 -> 9 ;
10 [label="gini = 0.4989\nsamples = 3338\nvalue = [1590, 1748]\nclass = clear"] ;
8 -> 10 ;
11 [label="GHI <= 318.5\ngini = 0.4635\nsamples = 6556\nvalue = [2392, 4164]\nclass = clear"] ;
3 -> 11 ;
12 [label="GHI <= 281.5\ngini = 0.4774\nsamples = 2745\nvalue = [1081, 1664]\nclass = clear"] ;
11 -> 12 ;
13 [label="gini = 0.4666\nsamples = 1324\nvalue = [491, 833]\nclass = clear"] ;
12 -> 13 ;
14 [label="gini = 0.4856\nsamples = 1421\nvalue = [590, 831]\nclass = clear"] ;
12 -> 14 ;
15 [label="abs_diff_ratio stat <= 0.0124\ngini = 0.4513\nsamples = 3811\nvalue = [1311, 2500]\nclass = clear"] ;
11 -> 15 ;
16 [label="gini = 0.4339\nsamples = 1320\nvalue = [420, 900]\nclass = clear"] ;
15 -> 16 ;
17 [label="gini = 0.4595\nsamples = 2491\nvalue = [891, 1600]\nclass = clear"] ;
15 -> 17 ;
18 [label="abs_diff_ratio stat <= 0.0308\ngini = 0.3485\nsamples = 28087\nvalue = [6312, 21775]\nclass = clear"] ;
2 -> 18 ;
19 [label="GHI <= 581.5\ngini = 0.3337\nsamples = 22999\nvalue = [4867, 18132]\nclass = clear"] ;
18 -> 19 ;
20 [label="GHI <= 501.5\ngini = 0.3793\nsamples = 6306\nvalue = [1604, 4702]\nclass = clear"] ;
19 -> 20 ;
21 [label="gini = 0.4009\nsamples = 3126\nvalue = [867, 2259]\nclass = clear"] ;
20 -> 21 ;
22 [label="gini = 0.3561\nsamples = 3180\nvalue = [737, 2443]\nclass = clear"] ;
20 -> 22 ;
23 [label="GHI <= 870.5\ngini = 0.3145\nsamples = 16693\nvalue = [3263, 13430]\nclass = clear"] ;
19 -> 23 ;
24 [label="gini = 0.3032\nsamples = 10535\nvalue = [1963, 8572]\nclass = clear"] ;
23 -> 24 ;
25 [label="gini = 0.3331\nsamples = 6158\nvalue = [1300, 4858]\nclass = clear"] ;
23 -> 25 ;
26 [label="GHI <= 851.5\ngini = 0.4067\nsamples = 5088\nvalue = [1445, 3643]\nclass = clear"] ;
18 -> 26 ;
27 [label="GHI <= 534.5\ngini = 0.3945\nsamples = 4631\nvalue = [1252, 3379]\nclass = clear"] ;
26 -> 27 ;
28 [label="gini = 0.4298\nsamples = 1548\nvalue = [484, 1064]\nclass = clear"] ;
27 -> 28 ;
29 [label="gini = 0.3741\nsamples = 3083\nvalue = [768, 2315]\nclass = clear"] ;
27 -> 29 ;
30 [label="abs_diff_ratio stat <= 0.0382\ngini = 0.4879\nsamples = 457\nvalue = [193, 264]\nclass = clear"] ;
26 -> 30 ;
31 [label="gini = 0.4364\nsamples = 286\nvalue = [92, 194]\nclass = clear"] ;
30 -> 31 ;
32 [label="gini = 0.4836\nsamples = 171\nvalue = [101, 70]\nclass = cloudy"] ;
30 -> 32 ;
33 [label="GHI <= 766.5\ngini = 0.5\nsamples = 7767\nvalue = [3912, 3855]\nclass = cloudy"] ;
1 -> 33 ;
34 [label="GHI <= 65.5\ngini = 0.4976\nsamples = 6965\nvalue = [3240, 3725]\nclass = clear"] ;
33 -> 34 ;
35 [label="abs_diff_ratio stat <= 0.0505\ngini = 0.4264\nsamples = 292\nvalue = [202, 90]\nclass = cloudy"] ;
34 -> 35 ;
36 [label="GHI <= 36.5\ngini = 0.2854\nsamples = 29\nvalue = [24, 5]\nclass = cloudy"] ;
35 -> 36 ;
37 [label="gini = 0.0\nsamples = 8\nvalue = [8, 0]\nclass = cloudy"] ;
36 -> 37 ;
38 [label="gini = 0.3628\nsamples = 21\nvalue = [16, 5]\nclass = cloudy"] ;
36 -> 38 ;
39 [label="abs_diff_ratio stat <= 0.0508\ngini = 0.4375\nsamples = 263\nvalue = [178, 85]\nclass = cloudy"] ;
35 -> 39 ;
40 [label="gini = 0.0\nsamples = 3\nvalue = [0, 3]\nclass = clear"] ;
39 -> 40 ;
41 [label="gini = 0.4318\nsamples = 260\nvalue = [178, 82]\nclass = cloudy"] ;
39 -> 41 ;
42 [label="abs_diff_ratio stat <= 0.0603\ngini = 0.496\nsamples = 6673\nvalue = [3038, 3635]\nclass = clear"] ;
34 -> 42 ;
43 [label="GHI <= 300.5\ngini = 0.4843\nsamples = 3242\nvalue = [1334, 1908]\nclass = clear"] ;
42 -> 43 ;
44 [label="gini = 0.4997\nsamples = 1158\nvalue = [564, 594]\nclass = clear"] ;
43 -> 44 ;
45 [label="gini = 0.4659\nsamples = 2084\nvalue = [770, 1314]\nclass = clear"] ;
43 -> 45 ;
46 [label="GHI <= 555.0\ngini = 0.5\nsamples = 3431\nvalue = [1704, 1727]\nclass = clear"] ;
42 -> 46 ;
47 [label="gini = 0.4973\nsamples = 2859\nvalue = [1325, 1534]\nclass = clear"] ;
46 -> 47 ;
48 [label="gini = 0.4471\nsamples = 572\nvalue = [379, 193]\nclass = cloudy"] ;
46 -> 48 ;
49 [label="GHI <= 973.5\ngini = 0.2716\nsamples = 802\nvalue = [672, 130]\nclass = cloudy"] ;
33 -> 49 ;
50 [label="GHI <= 802.5\ngini = 0.2324\nsamples = 760\nvalue = [658, 102]\nclass = cloudy"] ;
49 -> 50 ;
51 [label="abs_diff_ratio stat <= 0.0666\ngini = 0.4329\nsamples = 142\nvalue = [97, 45]\nclass = cloudy"] ;
50 -> 51 ;
52 [label="gini = 0.491\nsamples = 97\nvalue = [55, 42]\nclass = cloudy"] ;
51 -> 52 ;
53 [label="gini = 0.1244\nsamples = 45\nvalue = [42, 3]\nclass = cloudy"] ;
51 -> 53 ;
54 [label="abs_diff_ratio stat <= 0.0528\ngini = 0.1675\nsamples = 618\nvalue = [561, 57]\nclass = cloudy"] ;
50 -> 54 ;
55 [label="gini = 0.3694\nsamples = 90\nvalue = [68, 22]\nclass = cloudy"] ;
54 -> 55 ;
56 [label="gini = 0.1238\nsamples = 528\nvalue = [493, 35]\nclass = cloudy"] ;
54 -> 56 ;
57 [label="GHI <= 1035.5\ngini = 0.4444\nsamples = 42\nvalue = [14, 28]\nclass = clear"] ;
49 -> 57 ;
58 [label="abs_diff_ratio stat <= 0.0496\ngini = 0.4753\nsamples = 36\nvalue = [14, 22]\nclass = clear"] ;
57 -> 58 ;
59 [label="gini = 0.0\nsamples = 4\nvalue = [0, 4]\nclass = clear"] ;
58 -> 59 ;
60 [label="gini = 0.4922\nsamples = 32\nvalue = [14, 18]\nclass = clear"] ;
58 -> 60 ;
61 [label="gini = 0.0\nsamples = 6\nvalue = [0, 6]\nclass = clear"] ;
57 -> 61 ;
62 [label="abs_diff_ratio stat <= 0.1391\ngini = 0.0335\nsamples = 190120\nvalue = [186876, 3244]\nclass = cloudy"] ;
0 -> 62 [labeldistance=2.5, labelangle=-45, headlabel="False"] ;
63 [label="GHI <= 341.5\ngini = 0.3448\nsamples = 8500\nvalue = [6618, 1882]\nclass = cloudy"] ;
62 -> 63 ;
64 [label="abs_diff_ratio stat <= 0.096\ngini = 0.4832\nsamples = 3983\nvalue = [2357, 1626]\nclass = cloudy"] ;
63 -> 64 ;
65 [label="GHI <= 19.5\ngini = 0.4991\nsamples = 1357\nvalue = [707, 650]\nclass = cloudy"] ;
64 -> 65 ;
66 [label="gini = 0.0\nsamples = 11\nvalue = [11, 0]\nclass = cloudy"] ;
65 -> 66 ;
67 [label="abs_diff_ratio stat <= 0.0957\ngini = 0.4994\nsamples = 1346\nvalue = [696, 650]\nclass = cloudy"] ;
65 -> 67 ;
68 [label="gini = 0.4989\nsamples = 1317\nvalue = [689, 628]\nclass = cloudy"] ;
67 -> 68 ;
69 [label="gini = 0.3662\nsamples = 29\nvalue = [7, 22]\nclass = clear"] ;
67 -> 69 ;
70 [label="GHI <= 233.5\ngini = 0.4671\nsamples = 2626\nvalue = [1650, 976]\nclass = cloudy"] ;
64 -> 70 ;
71 [label="abs_diff_ratio stat <= 0.1222\ngini = 0.4821\nsamples = 2126\nvalue = [1264, 862]\nclass = cloudy"] ;
70 -> 71 ;
72 [label="gini = 0.489\nsamples = 1341\nvalue = [770, 571]\nclass = cloudy"] ;
71 -> 72 ;
73 [label="gini = 0.4666\nsamples = 785\nvalue = [494, 291]\nclass = cloudy"] ;
71 -> 73 ;
74 [label="abs_diff_ratio stat <= 0.1049\ngini = 0.352\nsamples = 500\nvalue = [386, 114]\nclass = cloudy"] ;
70 -> 74 ;
75 [label="gini = 0.4844\nsamples = 153\nvalue = [90, 63]\nclass = cloudy"] ;
74 -> 75 ;
76 [label="gini = 0.2507\nsamples = 347\nvalue = [296, 51]\nclass = cloudy"] ;
74 -> 76 ;
77 [label="GHI <= 422.5\ngini = 0.1069\nsamples = 4517\nvalue = [4261, 256]\nclass = cloudy"] ;
63 -> 77 ;
78 [label="abs_diff_ratio stat <= 0.0936\ngini = 0.3031\nsamples = 580\nvalue = [472, 108]\nclass = cloudy"] ;
77 -> 78 ;
79 [label="abs_diff_ratio stat <= 0.0842\ngini = 0.4727\nsamples = 201\nvalue = [124, 77]\nclass = cloudy"] ;
78 -> 79 ;
80 [label="gini = 0.4991\nsamples = 69\nvalue = [33, 36]\nclass = clear"] ;
79 -> 80 ;
81 [label="gini = 0.4283\nsamples = 132\nvalue = [91, 41]\nclass = cloudy"] ;
79 -> 81 ;
82 [label="abs_diff_ratio stat <= 0.1154\ngini = 0.1502\nsamples = 379\nvalue = [348, 31]\nclass = cloudy"] ;
78 -> 82 ;
83 [label="gini = 0.2291\nsamples = 197\nvalue = [171, 26]\nclass = cloudy"] ;
82 -> 83 ;
84 [label="gini = 0.0534\nsamples = 182\nvalue = [177, 5]\nclass = cloudy"] ;
82 -> 84 ;
85 [label="GHI <= 963.5\ngini = 0.0724\nsamples = 3937\nvalue = [3789, 148]\nclass = cloudy"] ;
77 -> 85 ;
86 [label="GHI <= 619.5\ngini = 0.067\nsamples = 3919\nvalue = [3783, 136]\nclass = cloudy"] ;
85 -> 86 ;
87 [label="gini = 0.1465\nsamples = 1244\nvalue = [1145, 99]\nclass = cloudy"] ;
86 -> 87 ;
88 [label="gini = 0.0273\nsamples = 2675\nvalue = [2638, 37]\nclass = cloudy"] ;
86 -> 88 ;
89 [label="abs_diff_ratio stat <= 0.0995\ngini = 0.4444\nsamples = 18\nvalue = [6, 12]\nclass = clear"] ;
85 -> 89 ;
90 [label="gini = 0.497\nsamples = 13\nvalue = [6, 7]\nclass = clear"] ;
89 -> 90 ;
91 [label="gini = 0.0\nsamples = 5\nvalue = [0, 5]\nclass = clear"] ;
89 -> 91 ;
92 [label="abs_diff_ratio stat <= 0.3259\ngini = 0.0149\nsamples = 181620\nvalue = [180258, 1362]\nclass = cloudy"] ;
62 -> 92 ;
93 [label="GHI <= 103.5\ngini = 0.1019\nsamples = 21264\nvalue = [20119, 1145]\nclass = cloudy"] ;
92 -> 93 ;
94 [label="abs_diff_ratio stat <= 0.2087\ngini = 0.3841\nsamples = 3749\nvalue = [2777, 972]\nclass = cloudy"] ;
93 -> 94 ;
95 [label="abs_diff_ratio stat <= 0.1612\ngini = 0.4414\nsamples = 1551\nvalue = [1041, 510]\nclass = cloudy"] ;
94 -> 95 ;
96 [label="gini = 0.4657\nsamples = 504\nvalue = [318, 186]\nclass = cloudy"] ;
95 -> 96 ;
97 [label="gini = 0.4274\nsamples = 1047\nvalue = [723, 324]\nclass = cloudy"] ;
95 -> 97 ;
98 [label="GHI <= 49.5\ngini = 0.332\nsamples = 2198\nvalue = [1736, 462]\nclass = cloudy"] ;
94 -> 98 ;
99 [label="gini = 0.4163\nsamples = 1300\nvalue = [916, 384]\nclass = cloudy"] ;
98 -> 99 ;
100 [label="gini = 0.1586\nsamples = 898\nvalue = [820, 78]\nclass = cloudy"] ;
98 -> 100 ;
101 [label="GHI <= 150.5\ngini = 0.0196\nsamples = 17515\nvalue = [17342, 173]\nclass = cloudy"] ;
93 -> 101 ;
102 [label="abs_diff_ratio stat <= 0.1914\ngini = 0.1555\nsamples = 1036\nvalue = [948, 88]\nclass = cloudy"] ;
101 -> 102 ;
103 [label="gini = 0.3834\nsamples = 321\nvalue = [238, 83]\nclass = cloudy"] ;
102 -> 103 ;
104 [label="gini = 0.0139\nsamples = 715\nvalue = [710, 5]\nclass = cloudy"] ;
102 -> 104 ;
105 [label="GHI <= 907.0\ngini = 0.0103\nsamples = 16479\nvalue = [16394, 85]\nclass = cloudy"] ;
101 -> 105 ;
106 [label="gini = 0.0097\nsamples = 16474\nvalue = [16394, 80]\nclass = cloudy"] ;
105 -> 106 ;
107 [label="gini = 0.0\nsamples = 5\nvalue = [0, 5]\nclass = clear"] ;
105 -> 107 ;
108 [label="abs_diff_ratio stat <= 0.5036\ngini = 0.0027\nsamples = 160356\nvalue = [160139, 217]\nclass = cloudy"] ;
92 -> 108 ;
109 [label="GHI <= 30.5\ngini = 0.0323\nsamples = 11765\nvalue = [11572, 193]\nclass = cloudy"] ;
108 -> 109 ;
110 [label="abs_diff_ratio stat <= 0.4016\ngini = 0.2638\nsamples = 1068\nvalue = [901, 167]\nclass = cloudy"] ;
109 -> 110 ;
111 [label="gini = 0.3283\nsamples = 488\nvalue = [387, 101]\nclass = cloudy"] ;
110 -> 111 ;
112 [label="gini = 0.2017\nsamples = 580\nvalue = [514, 66]\nclass = cloudy"] ;
110 -> 112 ;
113 [label="GHI <= 771.5\ngini = 0.0048\nsamples = 10697\nvalue = [10671, 26]\nclass = cloudy"] ;
109 -> 113 ;
114 [label="gini = 0.0047\nsamples = 10696\nvalue = [10671, 25]\nclass = cloudy"] ;
113 -> 114 ;
115 [label="gini = 0.0\nsamples = 1\nvalue = [0, 1]\nclass = clear"] ;
113 -> 115 ;
116 [label="abs_diff_ratio stat <= 1.3328\ngini = 0.0003\nsamples = 148591\nvalue = [148567, 24]\nclass = cloudy"] ;
108 -> 116 ;
117 [label="abs_diff_ratio stat <= 0.5699\ngini = 0.0003\nsamples = 148590\nvalue = [148567, 23]\nclass = cloudy"] ;
116 -> 117 ;
118 [label="gini = 0.0096\nsamples = 3724\nvalue = [3706, 18]\nclass = cloudy"] ;
117 -> 118 ;
119 [label="gini = 0.0001\nsamples = 144866\nvalue = [144861, 5]\nclass = cloudy"] ;
117 -> 119 ;
120 [label="gini = 0.0\nsamples = 1\nvalue = [0, 1]\nclass = clear"] ;
116 -> 120 ;
}