digraph Tree {
node [shape=box] ;
0 [label="ratio stat <= 0.9219\ngini = 0.2532\nsamples = 236664\nvalue = [201476, 35188]\nclass = cloudy"] ;
1 [label="ratio stat <= 0.8611\ngini = 0.032\nsamples = 189881\nvalue = [186788, 3093]\nclass = cloudy"] ;
0 -> 1 [labeldistance=2.5, labelangle=45, headlabel="True"] ;
2 [label="ratio stat <= 0.6249\ngini = 0.0141\nsamples = 181439\nvalue = [180155, 1284]\nclass = cloudy"] ;
1 -> 2 ;
3 [label="ratio stat <= 0.4964\ngini = 0.0016\nsamples = 156461\nvalue = [156333, 128]\nclass = cloudy"] ;
2 -> 3 ;
4 [label="ratio stat <= 0.4301\ngini = 0.0003\nsamples = 148428\nvalue = [148406, 22]\nclass = cloudy"] ;
3 -> 4 ;
5 [label="ratio stat <= 0.3881\ngini = 0.0\nsamples = 144703\nvalue = [144701, 2]\nclass = cloudy"] ;
4 -> 5 ;
6 [label="gini = 0.0\nsamples = 142399\nvalue = [142399, 0]\nclass = cloudy"] ;
5 -> 6 ;
7 [label="gini = 0.0017\nsamples = 2304\nvalue = [2302, 2]\nclass = cloudy"] ;
5 -> 7 ;
8 [label="Clearsky GHI stat <= 46.1\ngini = 0.0107\nsamples = 3725\nvalue = [3705, 20]\nclass = cloudy"] ;
4 -> 8 ;
9 [label="gini = 0.144\nsamples = 256\nvalue = [236, 20]\nclass = cloudy"] ;
8 -> 9 ;
10 [label="gini = 0.0\nsamples = 3469\nvalue = [3469, 0]\nclass = cloudy"] ;
8 -> 10 ;
11 [label="Clearsky GHI stat <= 48.7\ngini = 0.026\nsamples = 8033\nvalue = [7927, 106]\nclass = cloudy"] ;
3 -> 11 ;
12 [label="ratio stat <= 0.5974\ngini = 0.2526\nsamples = 688\nvalue = [586, 102]\nclass = cloudy"] ;
11 -> 12 ;
13 [label="gini = 0.2291\nsamples = 523\nvalue = [454, 69]\nclass = cloudy"] ;
12 -> 13 ;
14 [label="gini = 0.32\nsamples = 165\nvalue = [132, 33]\nclass = cloudy"] ;
12 -> 14 ;
15 [label="Clearsky GHI stat <= 57.9\ngini = 0.0011\nsamples = 7345\nvalue = [7341, 4]\nclass = cloudy"] ;
11 -> 15 ;
16 [label="gini = 0.0644\nsamples = 120\nvalue = [116, 4]\nclass = cloudy"] ;
15 -> 16 ;
17 [label="gini = 0.0\nsamples = 7225\nvalue = [7225, 0]\nclass = cloudy"] ;
15 -> 17 ;
18 [label="Clearsky GHI stat <= 122.3\ngini = 0.0883\nsamples = 24978\nvalue = [23822, 1156]\nclass = cloudy"] ;
2 -> 18 ;
19 [label="ratio stat <= 0.7357\ngini = 0.371\nsamples = 4240\nvalue = [3197, 1043]\nclass = cloudy"] ;
18 -> 19 ;
20 [label="Clearsky GHI stat <= 69.9\ngini = 0.2795\nsamples = 1715\nvalue = [1427, 288]\nclass = cloudy"] ;
19 -> 20 ;
21 [label="gini = 0.3643\nsamples = 1140\nvalue = [867, 273]\nclass = cloudy"] ;
20 -> 21 ;
22 [label="gini = 0.0508\nsamples = 575\nvalue = [560, 15]\nclass = cloudy"] ;
20 -> 22 ;
23 [label="Clearsky GHI stat <= 32.85\ngini = 0.4192\nsamples = 2525\nvalue = [1770, 755]\nclass = cloudy"] ;
19 -> 23 ;
24 [label="gini = 0.4757\nsamples = 454\nvalue = [277, 177]\nclass = cloudy"] ;
23 -> 24 ;
25 [label="gini = 0.4024\nsamples = 2071\nvalue = [1493, 578]\nclass = cloudy"] ;
23 -> 25 ;
26 [label="Clearsky GHI stat <= 175.5\ngini = 0.0108\nsamples = 20738\nvalue = [20625, 113]\nclass = cloudy"] ;
18 -> 26 ;
27 [label="ratio stat <= 0.799\ngini = 0.1427\nsamples = 1112\nvalue = [1026, 86]\nclass = cloudy"] ;
26 -> 27 ;
28 [label="gini = 0.0229\nsamples = 778\nvalue = [769, 9]\nclass = cloudy"] ;
27 -> 28 ;
29 [label="gini = 0.3548\nsamples = 334\nvalue = [257, 77]\nclass = cloudy"] ;
27 -> 29 ;
30 [label="Clearsky GHI stat <= 243.7\ngini = 0.0027\nsamples = 19626\nvalue = [19599, 27]\nclass = cloudy"] ;
26 -> 30 ;
31 [label="gini = 0.0361\nsamples = 1304\nvalue = [1280, 24]\nclass = cloudy"] ;
30 -> 31 ;
32 [label="gini = 0.0003\nsamples = 18322\nvalue = [18319, 3]\nclass = cloudy"] ;
30 -> 32 ;
33 [label="Clearsky GHI stat <= 375.9\ngini = 0.3367\nsamples = 8442\nvalue = [6633, 1809]\nclass = cloudy"] ;
1 -> 33 ;
34 [label="ratio stat <= 0.904\ngini = 0.4848\nsamples = 3968\nvalue = [2330, 1638]\nclass = cloudy"] ;
33 -> 34 ;
35 [label="Clearsky GHI stat <= 248.3\ngini = 0.4689\nsamples = 2510\nvalue = [1568, 942]\nclass = cloudy"] ;
34 -> 35 ;
36 [label="ratio stat <= 0.8614\ngini = 0.4839\nsamples = 2004\nvalue = [1182, 822]\nclass = cloudy"] ;
35 -> 36 ;
37 [label="gini = 0.2449\nsamples = 7\nvalue = [1, 6]\nclass = clear"] ;
36 -> 37 ;
38 [label="gini = 0.4833\nsamples = 1997\nvalue = [1181, 816]\nclass = cloudy"] ;
36 -> 38 ;
39 [label="ratio stat <= 0.8919\ngini = 0.3618\nsamples = 506\nvalue = [386, 120]\nclass = cloudy"] ;
35 -> 39 ;
40 [label="gini = 0.2648\nsamples = 312\nvalue = [263, 49]\nclass = cloudy"] ;
39 -> 40 ;
41 [label="gini = 0.4641\nsamples = 194\nvalue = [123, 71]\nclass = cloudy"] ;
39 -> 41 ;
42 [label="Clearsky GHI stat <= 68.6\ngini = 0.499\nsamples = 1458\nvalue = [762, 696]\nclass = cloudy"] ;
34 -> 42 ;
43 [label="ratio stat <= 0.9172\ngini = 0.4414\nsamples = 149\nvalue = [100, 49]\nclass = cloudy"] ;
42 -> 43 ;
44 [label="gini = 0.4104\nsamples = 111\nvalue = [79, 32]\nclass = cloudy"] ;
43 -> 44 ;
45 [label="gini = 0.4945\nsamples = 38\nvalue = [21, 17]\nclass = cloudy"] ;
43 -> 45 ;
46 [label="Clearsky GHI stat <= 98.6\ngini = 0.4999\nsamples = 1309\nvalue = [662, 647]\nclass = cloudy"] ;
42 -> 46 ;
47 [label="gini = 0.4833\nsamples = 164\nvalue = [67, 97]\nclass = clear"] ;
46 -> 47 ;
48 [label="gini = 0.4992\nsamples = 1145\nvalue = [595, 550]\nclass = cloudy"] ;
46 -> 48 ;
49 [label="Clearsky GHI stat <= 464.7\ngini = 0.0735\nsamples = 4474\nvalue = [4303, 171]\nclass = cloudy"] ;
33 -> 49 ;
50 [label="ratio stat <= 0.9064\ngini = 0.305\nsamples = 554\nvalue = [450, 104]\nclass = cloudy"] ;
49 -> 50 ;
51 [label="ratio stat <= 0.889\ngini = 0.1301\nsamples = 343\nvalue = [319, 24]\nclass = cloudy"] ;
50 -> 51 ;
52 [label="gini = 0.0311\nsamples = 190\nvalue = [187, 3]\nclass = cloudy"] ;
51 -> 52 ;
53 [label="gini = 0.2368\nsamples = 153\nvalue = [132, 21]\nclass = cloudy"] ;
51 -> 53 ;
54 [label="ratio stat <= 0.9181\ngini = 0.4708\nsamples = 211\nvalue = [131, 80]\nclass = cloudy"] ;
50 -> 54 ;
55 [label="gini = 0.4381\nsamples = 145\nvalue = [98, 47]\nclass = cloudy"] ;
54 -> 55 ;
56 [label="gini = 0.5\nsamples = 66\nvalue = [33, 33]\nclass = cloudy"] ;
54 -> 56 ;
57 [label="Clearsky GHI stat <= 638.9\ngini = 0.0336\nsamples = 3920\nvalue = [3853, 67]\nclass = cloudy"] ;
49 -> 57 ;
58 [label="ratio stat <= 0.9054\ngini = 0.115\nsamples = 996\nvalue = [935, 61]\nclass = cloudy"] ;
57 -> 58 ;
59 [label="gini = 0.0245\nsamples = 725\nvalue = [716, 9]\nclass = cloudy"] ;
58 -> 59 ;
60 [label="gini = 0.3101\nsamples = 271\nvalue = [219, 52]\nclass = cloudy"] ;
58 -> 60 ;
61 [label="Clearsky GHI stat <= 678.5\ngini = 0.0041\nsamples = 2924\nvalue = [2918, 6]\nclass = cloudy"] ;
57 -> 61 ;
62 [label="gini = 0.0526\nsamples = 185\nvalue = [180, 5]\nclass = cloudy"] ;
61 -> 62 ;
63 [label="gini = 0.0007\nsamples = 2739\nvalue = [2738, 1]\nclass = cloudy"] ;
61 -> 63 ;
64 [label="GHI <= 336.5\ngini = 0.4308\nsamples = 46783\nvalue = [14688, 32095]\nclass = clear"] ;
0 -> 64 [labeldistance=2.5, labelangle=-45, headlabel="False"] ;
65 [label="Clearsky GHI stat <= 66.3\ngini = 0.4976\nsamples = 11002\nvalue = [5118, 5884]\nclass = clear"] ;
64 -> 65 ;
66 [label="Clearsky GHI stat <= 32.5\ngini = 0.4488\nsamples = 847\nvalue = [559, 288]\nclass = cloudy"] ;
65 -> 66 ;
67 [label="ratio stat <= 0.9256\ngini = 0.3213\nsamples = 179\nvalue = [143, 36]\nclass = cloudy"] ;
66 -> 67 ;
68 [label="gini = 0.0\nsamples = 2\nvalue = [0, 2]\nclass = clear"] ;
67 -> 68 ;
69 [label="ratio stat <= 0.9794\ngini = 0.3104\nsamples = 177\nvalue = [143, 34]\nclass = cloudy"] ;
67 -> 69 ;
70 [label="gini = 0.3903\nsamples = 79\nvalue = [58, 21]\nclass = cloudy"] ;
69 -> 70 ;
71 [label="gini = 0.2301\nsamples = 98\nvalue = [85, 13]\nclass = cloudy"] ;
69 -> 71 ;
72 [label="Clearsky GHI stat <= 42.75\ngini = 0.4699\nsamples = 668\nvalue = [416, 252]\nclass = cloudy"] ;
66 -> 72 ;
73 [label="ratio stat <= 0.9857\ngini = 0.4957\nsamples = 333\nvalue = [182, 151]\nclass = cloudy"] ;
72 -> 73 ;
74 [label="gini = 0.4988\nsamples = 221\nvalue = [105, 116]\nclass = clear"] ;
73 -> 74 ;
75 [label="gini = 0.4297\nsamples = 112\nvalue = [77, 35]\nclass = cloudy"] ;
73 -> 75 ;
76 [label="Clearsky GHI stat <= 51.7\ngini = 0.4212\nsamples = 335\nvalue = [234, 101]\nclass = cloudy"] ;
72 -> 76 ;
77 [label="gini = 0.3504\nsamples = 181\nvalue = [140, 41]\nclass = cloudy"] ;
76 -> 77 ;
78 [label="gini = 0.4756\nsamples = 154\nvalue = [94, 60]\nclass = cloudy"] ;
76 -> 78 ;
79 [label="GHI <= 236.5\ngini = 0.4948\nsamples = 10155\nvalue = [4559, 5596]\nclass = clear"] ;
65 -> 79 ;
80 [label="Clearsky GHI stat <= 80.1\ngini = 0.4996\nsamples = 5703\nvalue = [2773, 2930]\nclass = clear"] ;
79 -> 80 ;
81 [label="GHI <= 63.5\ngini = 0.4475\nsamples = 358\nvalue = [121, 237]\nclass = clear"] ;
80 -> 81 ;
82 [label="gini = 0.0\nsamples = 3\nvalue = [3, 0]\nclass = cloudy"] ;
81 -> 82 ;
83 [label="gini = 0.4438\nsamples = 355\nvalue = [118, 237]\nclass = clear"] ;
81 -> 83 ;
84 [label="ratio stat <= 0.9652\ngini = 0.5\nsamples = 5345\nvalue = [2652, 2693]\nclass = clear"] ;
80 -> 84 ;
85 [label="gini = 0.4989\nsamples = 2464\nvalue = [1290, 1174]\nclass = cloudy"] ;
84 -> 85 ;
86 [label="gini = 0.4985\nsamples = 2881\nvalue = [1362, 1519]\nclass = clear"] ;
84 -> 86 ;
87 [label="ratio stat <= 0.9931\ngini = 0.4805\nsamples = 4452\nvalue = [1786, 2666]\nclass = clear"] ;
79 -> 87 ;
88 [label="ratio stat <= 0.9929\ngini = 0.4845\nsamples = 3270\nvalue = [1347, 1923]\nclass = clear"] ;
87 -> 88 ;
89 [label="gini = 0.484\nsamples = 3258\nvalue = [1338, 1920]\nclass = clear"] ;
88 -> 89 ;
90 [label="gini = 0.375\nsamples = 12\nvalue = [9, 3]\nclass = cloudy"] ;
88 -> 90 ;
91 [label="ratio stat <= 1.0219\ngini = 0.4669\nsamples = 1182\nvalue = [439, 743]\nclass = clear"] ;
87 -> 91 ;
92 [label="gini = 0.4538\nsamples = 954\nvalue = [332, 622]\nclass = clear"] ;
91 -> 92 ;
93 [label="gini = 0.4981\nsamples = 228\nvalue = [107, 121]\nclass = clear"] ;
91 -> 93 ;
94 [label="ratio stat <= 0.9496\ngini = 0.3919\nsamples = 35781\nvalue = [9570, 26211]\nclass = clear"] ;
64 -> 94 ;
95 [label="Clearsky GHI stat <= 743.8\ngini = 0.4989\nsamples = 3444\nvalue = [1803, 1641]\nclass = cloudy"] ;
94 -> 95 ;
96 [label="ratio stat <= 0.9365\ngini = 0.4875\nsamples = 2599\nvalue = [1094, 1505]\nclass = clear"] ;
95 -> 96 ;
97 [label="GHI <= 554.5\ngini = 0.5\nsamples = 990\nvalue = [495, 495]\nclass = cloudy"] ;
96 -> 97 ;
98 [label="gini = 0.4949\nsamples = 734\nvalue = [330, 404]\nclass = clear"] ;
97 -> 98 ;
99 [label="gini = 0.4582\nsamples = 256\nvalue = [165, 91]\nclass = cloudy"] ;
97 -> 99 ;
100 [label="Clearsky GHI stat <= 359.7\ngini = 0.4674\nsamples = 1609\nvalue = [599, 1010]\nclass = clear"] ;
96 -> 100 ;
101 [label="gini = 0.0\nsamples = 11\nvalue = [0, 11]\nclass = clear"] ;
100 -> 101 ;
102 [label="gini = 0.4687\nsamples = 1598\nvalue = [599, 999]\nclass = clear"] ;
100 -> 102 ;
103 [label="Clearsky GHI stat <= 851.9\ngini = 0.2701\nsamples = 845\nvalue = [709, 136]\nclass = cloudy"] ;
95 -> 103 ;
104 [label="ratio stat <= 0.9324\ngini = 0.4392\nsamples = 344\nvalue = [232, 112]\nclass = cloudy"] ;
103 -> 104 ;
105 [label="gini = 0.1267\nsamples = 103\nvalue = [96, 7]\nclass = cloudy"] ;
104 -> 105 ;
106 [label="gini = 0.4917\nsamples = 241\nvalue = [136, 105]\nclass = cloudy"] ;
104 -> 106 ;
107 [label="ratio stat <= 0.9433\ngini = 0.0912\nsamples = 501\nvalue = [477, 24]\nclass = cloudy"] ;
103 -> 107 ;
108 [label="gini = 0.034\nsamples = 405\nvalue = [398, 7]\nclass = cloudy"] ;
107 -> 108 ;
109 [label="gini = 0.2914\nsamples = 96\nvalue = [79, 17]\nclass = cloudy"] ;
107 -> 109 ;
110 [label="Clearsky GHI stat <= 513.1\ngini = 0.365\nsamples = 32337\nvalue = [7767, 24570]\nclass = clear"] ;
94 -> 110 ;
111 [label="Clearsky GHI stat <= 423.9\ngini = 0.4285\nsamples = 8070\nvalue = [2509, 5561]\nclass = clear"] ;
110 -> 111 ;
112 [label="GHI <= 434.0\ngini = 0.4532\nsamples = 3348\nvalue = [1162, 2186]\nclass = clear"] ;
111 -> 112 ;
113 [label="gini = 0.4517\nsamples = 3326\nvalue = [1146, 2180]\nclass = clear"] ;
112 -> 113 ;
114 [label="gini = 0.3967\nsamples = 22\nvalue = [16, 6]\nclass = cloudy"] ;
112 -> 114 ;
115 [label="ratio stat <= 1.0238\ngini = 0.4078\nsamples = 4722\nvalue = [1347, 3375]\nclass = clear"] ;
111 -> 115 ;
116 [label="gini = 0.4017\nsamples = 4505\nvalue = [1254, 3251]\nclass = clear"] ;
115 -> 116 ;
117 [label="gini = 0.4898\nsamples = 217\nvalue = [93, 124]\nclass = clear"] ;
115 -> 117 ;
118 [label="ratio stat <= 0.9615\ngini = 0.3395\nsamples = 24267\nvalue = [5258, 19009]\nclass = clear"] ;
110 -> 118 ;
119 [label="GHI <= 835.5\ngini = 0.4325\nsamples = 2125\nvalue = [672, 1453]\nclass = clear"] ;
118 -> 119 ;
120 [label="gini = 0.4055\nsamples = 1946\nvalue = [550, 1396]\nclass = clear"] ;
119 -> 120 ;
121 [label="gini = 0.4341\nsamples = 179\nvalue = [122, 57]\nclass = cloudy"] ;
119 -> 121 ;
122 [label="ratio stat <= 1.0211\ngini = 0.3284\nsamples = 22142\nvalue = [4586, 17556]\nclass = clear"] ;
118 -> 122 ;
123 [label="gini = 0.3219\nsamples = 21211\nvalue = [4276, 16935]\nclass = clear"] ;
122 -> 123 ;
124 [label="gini = 0.4442\nsamples = 931\nvalue = [310, 621]\nclass = clear"] ;
122 -> 124 ;
}