digraph Tree {
node [shape=box, style="filled", color="black"] ;
0 [label="abs_diff_ratio stat <= 0.1088\ngini = 0.3989\nsamples = 236664\nvalue = [171539, 65125]\nclass = cloudy", fillcolor="#e581399e"] ;
1 [label="abs_diff_ratio stat window std <= 0.0251\ngini = 0.2815\nsamples = 74210\nvalue = [12575, 61635]\nclass = clear", fillcolor="#399de5cb"] ;
0 -> 1 [labeldistance=2.5, labelangle=45, headlabel="True"] ;
3 [label="abs_diff_ratio stat grad std <= 0.0003\ngini = 0.1582\nsamples = 58172\nvalue = [5038, 53134]\nclass = clear", fillcolor="#399de5e7"] ;
1 -> 3 ;
9 [label="gini = 0.112\nsamples = 47907\nvalue = [2852, 45055]\nclass = clear", fillcolor="#399de5ef"] ;
3 -> 9 ;
10 [label="GHI grad std <= 0.2849\ngini = 0.3352\nsamples = 10265\nvalue = [2186, 8079]\nclass = clear", fillcolor="#399de5ba"] ;
3 -> 10 ;
27 [label="gini = 0.2196\nsamples = 4062\nvalue = [510, 3552]\nclass = clear", fillcolor="#399de5da"] ;
10 -> 27 ;
28 [label="abs_diff_ratio stat <= 0.0773\ngini = 0.3944\nsamples = 6203\nvalue = [1676, 4527]\nclass = clear", fillcolor="#399de5a1"] ;
10 -> 28 ;
29 [label="gini = 0.3692\nsamples = 5878\nvalue = [1436, 4442]\nclass = clear", fillcolor="#399de5ad"] ;
28 -> 29 ;
30 [label="gini = 0.3863\nsamples = 325\nvalue = [240, 85]\nclass = cloudy", fillcolor="#e58139a5"] ;
28 -> 30 ;
4 [label="abs_diff_ratio stat grad std <= 0.0076\ngini = 0.4982\nsamples = 16038\nvalue = [7537, 8501]\nclass = clear", fillcolor="#399de51d"] ;
1 -> 4 ;
15 [label="GHI grad std <= 0.2705\ngini = 0.4982\nsamples = 10851\nvalue = [5751, 5100]\nclass = cloudy", fillcolor="#e581391d"] ;
4 -> 15 ;
17 [label="gini = 0.3699\nsamples = 1482\nvalue = [363, 1119]\nclass = clear", fillcolor="#399de5ac"] ;
15 -> 17 ;
18 [label="abs_diff_ratio stat <= 0.0704\ngini = 0.4887\nsamples = 9369\nvalue = [5388, 3981]\nclass = cloudy", fillcolor="#e5813943"] ;
15 -> 18 ;
19 [label="abs_diff_ratio stat grad min <= 0.0005\ngini = 0.4997\nsamples = 6984\nvalue = [3581, 3403]\nclass = cloudy", fillcolor="#e581390d"] ;
18 -> 19 ;
33 [label="GHI grad <= -2.1417\ngini = 0.4977\nsamples = 5221\nvalue = [2434, 2787]\nclass = clear", fillcolor="#399de520"] ;
19 -> 33 ;
37 [label="gini = 0.4906\nsamples = 1942\nvalue = [1104, 838]\nclass = cloudy", fillcolor="#e581393d"] ;
33 -> 37 ;
38 [label="gini = 0.4822\nsamples = 3279\nvalue = [1330, 1949]\nclass = clear", fillcolor="#399de551"] ;
33 -> 38 ;
34 [label="gini = 0.4546\nsamples = 1763\nvalue = [1147, 616]\nclass = cloudy", fillcolor="#e5813976"] ;
19 -> 34 ;
20 [label="abs_diff_ratio stat grad std <= 0.007\ngini = 0.3672\nsamples = 2385\nvalue = [1807, 578]\nclass = cloudy", fillcolor="#e58139ad"] ;
18 -> 20 ;
23 [label="gini = 0.2915\nsamples = 2049\nvalue = [1686, 363]\nclass = cloudy", fillcolor="#e58139c8"] ;
20 -> 23 ;
24 [label="gini = 0.4609\nsamples = 336\nvalue = [121, 215]\nclass = clear", fillcolor="#399de56f"] ;
20 -> 24 ;
16 [label="GHI grad min <= -2.9417\ngini = 0.4515\nsamples = 5187\nvalue = [1786, 3401]\nclass = clear", fillcolor="#399de579"] ;
4 -> 16 ;
31 [label="gini = 0.359\nsamples = 2179\nvalue = [511, 1668]\nclass = clear", fillcolor="#399de5b1"] ;
16 -> 31 ;
32 [label="GHI grad <= 2.175\ngini = 0.4884\nsamples = 3008\nvalue = [1275, 1733]\nclass = clear", fillcolor="#399de543"] ;
16 -> 32 ;
35 [label="gini = 0.4441\nsamples = 571\nvalue = [381, 190]\nclass = cloudy", fillcolor="#e5813980"] ;
32 -> 35 ;
36 [label="gini = 0.4645\nsamples = 2437\nvalue = [894, 1543]\nclass = clear", fillcolor="#399de56b"] ;
32 -> 36 ;
2 [label="abs_diff_ratio stat grad <= 0.014\ngini = 0.042\nsamples = 162454\nvalue = [158964, 3490]\nclass = cloudy", fillcolor="#e58139f9"] ;
0 -> 2 [labeldistance=2.5, labelangle=-45, headlabel="False"] ;
5 [label="abs_diff_ratio stat <= 0.1503\ngini = 0.0166\nsamples = 154945\nvalue = [153649, 1296]\nclass = cloudy", fillcolor="#e58139fd"] ;
2 -> 5 ;
11 [label="abs_diff_ratio stat grad max <= 0.0141\ngini = 0.3483\nsamples = 3691\nvalue = [2862, 829]\nclass = cloudy", fillcolor="#e58139b5"] ;
5 -> 11 ;
13 [label="GHI grad std <= 0.224\ngini = 0.1611\nsamples = 2614\nvalue = [2383, 231]\nclass = cloudy", fillcolor="#e58139e6"] ;
11 -> 13 ;
25 [label="gini = 0.4967\nsamples = 259\nvalue = [119, 140]\nclass = clear", fillcolor="#399de526"] ;
13 -> 25 ;
26 [label="gini = 0.0743\nsamples = 2355\nvalue = [2264, 91]\nclass = cloudy", fillcolor="#e58139f5"] ;
13 -> 26 ;
14 [label="gini = 0.4939\nsamples = 1077\nvalue = [479, 598]\nclass = clear", fillcolor="#399de533"] ;
11 -> 14 ;
12 [label="gini = 0.0062\nsamples = 151254\nvalue = [150787, 467]\nclass = cloudy", fillcolor="#e58139fe"] ;
5 -> 12 ;
6 [label="abs_diff_ratio stat <= 0.4831\ngini = 0.4136\nsamples = 7509\nvalue = [5315, 2194]\nclass = cloudy", fillcolor="#e5813996"] ;
2 -> 6 ;
7 [label="GHI grad min <= -2.8917\ngini = 0.4977\nsamples = 4089\nvalue = [1907, 2182]\nclass = clear", fillcolor="#399de520"] ;
6 -> 7 ;
21 [label="gini = 0.3945\nsamples = 1576\nvalue = [426, 1150]\nclass = clear", fillcolor="#399de5a1"] ;
7 -> 21 ;
22 [label="gini = 0.484\nsamples = 2513\nvalue = [1481, 1032]\nclass = cloudy", fillcolor="#e581394d"] ;
7 -> 22 ;
8 [label="gini = 0.007\nsamples = 3420\nvalue = [3408, 12]\nclass = cloudy", fillcolor="#e58139fe"] ;
6 -> 8 ;
}