digraph Tree {
node [shape=box, style="filled", color="black"] ;
0 [label="GHI max <= 92.5\ngini = 0.5\nsamples = 298018\nvalue = [149009.0, 149009.0]\nclass = clear", fillcolor="#399de500"] ;
1 [label="GHI std <= 42.7863\ngini = 0.0086\nsamples = 157963\nvalue = [106771.9341, 460.9669]\nclass = cloudy", fillcolor="#e58139fe"] ;
0 -> 1 [labeldistance=2.5, labelangle=45, headlabel="True"] ;
27 [label="gini = 0.0024\nsamples = 156253\nvalue = [105732.1191, 128.1526]\nclass = cloudy", fillcolor="#e58139ff"] ;
1 -> 27 ;
28 [label="abs_diff_ratio mean <= 0.6943\ngini = 0.3674\nsamples = 1710\nvalue = [1039.8149, 332.8143]\nclass = cloudy", fillcolor="#e58139ad"] ;
1 -> 28 ;
29 [label="abs_diff_ratio gradient <= 0.0115\ngini = 0.4986\nsamples = 581\nvalue = [282.2935, 313.6871]\nclass = clear", fillcolor="#399de51a"] ;
28 -> 29 ;
57 [label="gini = 0.2541\nsamples = 188\nvalue = [119.8224, 21.04]\nclass = cloudy", fillcolor="#e58139d2"] ;
29 -> 57 ;
58 [label="gini = 0.4591\nsamples = 393\nvalue = [162.4711, 292.6471]\nclass = clear", fillcolor="#399de571"] ;
29 -> 58 ;
30 [label="gini = 0.048\nsamples = 1129\nvalue = [757.5214, 19.1273]\nclass = cloudy", fillcolor="#e58139f9"] ;
28 -> 30 ;
2 [label="abs_ratio_diff line length <= 0.1201\ngini = 0.3447\nsamples = 140055\nvalue = [42237.0659, 148548.0331]\nclass = clear", fillcolor="#399de5b6"] ;
0 -> 2 [labeldistance=2.5, labelangle=-45, headlabel="False"] ;
3 [label="abs_diff_ratio <= 0.1383\ngini = 0.1732\nsamples = 94486\nvalue = [14729.3576, 139108.7306]\nclass = clear", fillcolor="#399de5e4"] ;
2 -> 3 ;
7 [label="abs_diff_ratio gradient std <= 0.0004\ngini = 0.0994\nsamples = 76805\nvalue = [7031.6131, 127039.4301]\nclass = clear", fillcolor="#399de5f1"] ;
3 -> 7 ;
15 [label="abs_diff_ratio <= 0.102\ngini = 0.0569\nsamples = 55039\nvalue = [2928.5413, 97000.0695]\nclass = clear", fillcolor="#399de5f7"] ;
7 -> 15 ;
47 [label="gini = 0.0553\nsamples = 54854\nvalue = [2839.1822, 96898.6951]\nclass = clear", fillcolor="#399de5f8"] ;
15 -> 47 ;
48 [label="Clearsky GHI stat smooth max <= 690.2755\ngini = 0.498\nsamples = 185\nvalue = [89.3591, 101.3745]\nclass = clear", fillcolor="#399de51e"] ;
15 -> 48 ;
61 [label="gini = 0.3364\nsamples = 92\nvalue = [27.0785, 99.4617]\nclass = clear", fillcolor="#399de5ba"] ;
48 -> 61 ;
62 [label="gini = 0.0578\nsamples = 93\nvalue = [62.2806, 1.9127]\nclass = cloudy", fillcolor="#e58139f7"] ;
48 -> 62 ;
16 [label="abs_diff_ratio min <= 0.1069\ngini = 0.2115\nsamples = 21766\nvalue = [4103.0718, 30039.3606]\nclass = clear", fillcolor="#399de5dc"] ;
7 -> 16 ;
25 [label="abs_diff_ratio gradient min <= 0.002\ngini = 0.205\nsamples = 21473\nvalue = [3929.7693, 29968.5897]\nclass = clear", fillcolor="#399de5de"] ;
16 -> 25 ;
49 [label="gini = 0.2004\nsamples = 21184\nvalue = [3795.0537, 29796.4444]\nclass = clear", fillcolor="#399de5df"] ;
25 -> 49 ;
50 [label="gini = 0.4926\nsamples = 289\nvalue = [134.7156, 172.1453]\nclass = clear", fillcolor="#399de537"] ;
25 -> 50 ;
26 [label="gini = 0.4118\nsamples = 293\nvalue = [173.3025, 70.7709]\nclass = cloudy", fillcolor="#e5813997"] ;
16 -> 26 ;
8 [label="abs_diff_ratio gradient max <= 0.0115\ngini = 0.4755\nsamples = 17681\nvalue = [7697.7445, 12069.3005]\nclass = clear", fillcolor="#399de55c"] ;
3 -> 8 ;
9 [label="abs_diff_ratio <= 0.192\ngini = 0.3568\nsamples = 7243\nvalue = [4428.6909, 1340.8209]\nclass = cloudy", fillcolor="#e58139b2"] ;
8 -> 9 ;
13 [label="Clearsky GHI stat smooth min <= 299.0007\ngini = 0.4824\nsamples = 1587\nvalue = [708.1031, 1034.7847]\nclass = clear", fillcolor="#399de551"] ;
9 -> 13 ;
17 [label="abs_diff_ratio min <= 0.078\ngini = 0.3177\nsamples = 905\nvalue = [251.8302, 1019.4829]\nclass = clear", fillcolor="#399de5c0"] ;
13 -> 17 ;
51 [label="gini = 0.0756\nsamples = 70\nvalue = [46.7104, 1.9127]\nclass = cloudy", fillcolor="#e58139f5"] ;
17 -> 51 ;
52 [label="abs_diff_ratio min <= 0.1488\ngini = 0.2792\nsamples = 835\nvalue = [205.1197, 1017.5702]\nclass = clear", fillcolor="#399de5cc"] ;
17 -> 52 ;
53 [label="gini = 0.2363\nsamples = 769\nvalue = [161.1172, 1015.6575]\nclass = clear", fillcolor="#399de5d7"] ;
52 -> 53 ;
54 [label="gini = 0.0798\nsamples = 66\nvalue = [44.0026, 1.9127]\nclass = cloudy", fillcolor="#e58139f4"] ;
52 -> 54 ;
18 [label="gini = 0.0628\nsamples = 682\nvalue = [456.273, 15.3018]\nclass = cloudy", fillcolor="#e58139f6"] ;
13 -> 18 ;
14 [label="abs_diff_ratio gradient std <= 0.0035\ngini = 0.1405\nsamples = 5656\nvalue = [3720.5878, 306.0361]\nclass = cloudy", fillcolor="#e58139ea"] ;
9 -> 14 ;
35 [label="gini = 0.0338\nsamples = 4711\nvalue = [3169.54, 55.4691]\nclass = cloudy", fillcolor="#e58139fb"] ;
14 -> 35 ;
36 [label="abs_diff_ratio min <= 0.2392\ngini = 0.4297\nsamples = 945\nvalue = [551.0478, 250.5671]\nclass = cloudy", fillcolor="#e581398b"] ;
14 -> 36 ;
41 [label="abs_ratio_diff line length <= 0.049\ngini = 0.5\nsamples = 488\nvalue = [243.0297, 246.7416]\nclass = clear", fillcolor="#399de504"] ;
36 -> 41 ;
55 [label="gini = 0.4538\nsamples = 301\nvalue = [122.5303, 229.5271]\nclass = clear", fillcolor="#399de577"] ;
41 -> 55 ;
56 [label="gini = 0.2188\nsamples = 187\nvalue = [120.4994, 17.2145]\nclass = cloudy", fillcolor="#e58139db"] ;
41 -> 56 ;
42 [label="gini = 0.0242\nsamples = 457\nvalue = [308.0181, 3.8255]\nclass = cloudy", fillcolor="#e58139fc"] ;
36 -> 42 ;
10 [label="abs_diff_ratio <= 0.7935\ngini = 0.358\nsamples = 10438\nvalue = [3269.0536, 10728.4797]\nclass = clear", fillcolor="#399de5b1"] ;
8 -> 10 ;
33 [label="abs_diff_ratio gradient min <= 0.0011\ngini = 0.3511\nsamples = 10266\nvalue = [3152.616, 10728.4797]\nclass = clear", fillcolor="#399de5b4"] ;
10 -> 33 ;
43 [label="gini = 0.4773\nsamples = 316\nvalue = [173.9795, 112.8508]\nclass = cloudy", fillcolor="#e581395a"] ;
33 -> 43 ;
44 [label="Clearsky GHI stat smooth gradient min <= -2.7005\ngini = 0.3422\nsamples = 9950\nvalue = [2978.6365, 10615.6289]\nclass = clear", fillcolor="#399de5b7"] ;
33 -> 44 ;
45 [label="gini = 0.2731\nsamples = 4287\nvalue = [1031.0144, 5286.7744]\nclass = clear", fillcolor="#399de5cd"] ;
44 -> 45 ;
46 [label="gini = 0.392\nsamples = 5663\nvalue = [1947.6221, 5328.8544]\nclass = clear", fillcolor="#399de5a2"] ;
44 -> 46 ;
34 [label="gini = -0.0\nsamples = 172\nvalue = [116.4376, 0.0]\nclass = cloudy", fillcolor="#e58139ff"] ;
10 -> 34 ;
4 [label="abs_diff_ratio <= 0.0902\ngini = 0.3804\nsamples = 45569\nvalue = [27507.7083, 9439.3024]\nclass = cloudy", fillcolor="#e58139a7"] ;
2 -> 4 ;
5 [label="Clearsky GHI stat smooth gradient mean <= -1.7816\ngini = 0.4488\nsamples = 9441\nvalue = [3788.2841, 7354.4312]\nclass = clear", fillcolor="#399de57c"] ;
4 -> 5 ;
31 [label="gini = 0.4984\nsamples = 3088\nvalue = [1497.4418, 1675.5479]\nclass = clear", fillcolor="#399de51b"] ;
5 -> 31 ;
32 [label="abs_diff_ratio <= 0.0556\ngini = 0.4096\nsamples = 6353\nvalue = [2290.8423, 5678.8833]\nclass = clear", fillcolor="#399de598"] ;
5 -> 32 ;
37 [label="gini = 0.3754\nsamples = 4945\nvalue = [1625.3878, 4865.9747]\nclass = clear", fillcolor="#399de5aa"] ;
32 -> 37 ;
38 [label="Clearsky GHI stat smooth max <= 834.3851\ngini = 0.495\nsamples = 1408\nvalue = [665.4545, 812.9085]\nclass = clear", fillcolor="#399de52e"] ;
32 -> 38 ;
39 [label="gini = 0.4182\nsamples = 910\nvalue = [335.7736, 791.8685]\nclass = clear", fillcolor="#399de593"] ;
38 -> 39 ;
40 [label="gini = 0.1128\nsamples = 498\nvalue = [329.6809, 21.04]\nclass = cloudy", fillcolor="#e58139ef"] ;
38 -> 40 ;
6 [label="GHI min <= 0.5\ngini = 0.1485\nsamples = 36128\nvalue = [23719.4242, 2084.8713]\nclass = cloudy", fillcolor="#e58139e9"] ;
4 -> 6 ;
11 [label="abs_diff_ratio gradient max <= 0.0111\ngini = 0.4842\nsamples = 1834\nvalue = [823.8638, 1180.1519]\nclass = clear", fillcolor="#399de54d"] ;
6 -> 11 ;
19 [label="gini = 0.2903\nsamples = 739\nvalue = [465.0735, 99.4617]\nclass = cloudy", fillcolor="#e58139c8"] ;
11 -> 19 ;
20 [label="abs_diff_ratio gradient mean <= 0.0099\ngini = 0.3742\nsamples = 1095\nvalue = [358.7903, 1080.6901]\nclass = clear", fillcolor="#399de5aa"] ;
11 -> 20 ;
63 [label="gini = 0.4908\nsamples = 444\nvalue = [205.1197, 269.6944]\nclass = clear", fillcolor="#399de53d"] ;
20 -> 63 ;
64 [label="gini = 0.2678\nsamples = 651\nvalue = [153.6706, 810.9958]\nclass = clear", fillcolor="#399de5cf"] ;
20 -> 64 ;
12 [label="abs_diff_ratio <= 0.15\ngini = 0.0731\nsamples = 34294\nvalue = [22895.5604, 904.7194]\nclass = cloudy", fillcolor="#e58139f5"] ;
6 -> 12 ;
21 [label="Clearsky GHI stat smooth max <= 527.5816\ngini = 0.3533\nsamples = 3561\nvalue = [2181.1743, 648.4141]\nclass = cloudy", fillcolor="#e58139b3"] ;
12 -> 21 ;
23 [label="GHI gradient mean <= -3.261\ngini = 0.4847\nsamples = 898\nvalue = [404.1468, 575.7305]\nclass = clear", fillcolor="#399de54c"] ;
21 -> 23 ;
59 [label="gini = 0.384\nsamples = 236\nvalue = [142.1622, 49.7309]\nclass = cloudy", fillcolor="#e58139a6"] ;
23 -> 59 ;
60 [label="gini = 0.4439\nsamples = 662\nvalue = [261.9846, 525.9996]\nclass = clear", fillcolor="#399de580"] ;
23 -> 60 ;
24 [label="gini = 0.0755\nsamples = 2663\nvalue = [1777.0275, 72.6836]\nclass = cloudy", fillcolor="#e58139f5"] ;
21 -> 24 ;
22 [label="gini = 0.0241\nsamples = 30733\nvalue = [20714.3861, 256.3053]\nclass = cloudy", fillcolor="#e58139fc"] ;
12 -> 22 ;
}