digraph Tree {
node [shape=box] ;
0 [label="ratio <= 0.9993\ngini = 0.2532\nsamples = 315552\nvalue = [268631, 46921]\nclass = cloudy"] ;
1 [label="gini = 0.0\nsamples = 248988\nvalue = [248988, 0]\nclass = cloudy"] ;
0 -> 1 [labeldistance=2.5, labelangle=45, headlabel="True"] ;
2 [label="GHI <= 327.5\ngini = 0.416\nsamples = 66564\nvalue = [19643, 46921]\nclass = clear"] ;
0 -> 2 [labeldistance=2.5, labelangle=-45, headlabel="False"] ;
3 [label="GHI <= 65.5\ngini = 0.4969\nsamples = 21121\nvalue = [9730, 11391]\nclass = clear"] ;
2 -> 3 ;
4 [label="gini = 0.4829\nsamples = 4760\nvalue = [2820, 1940]\nclass = cloudy"] ;
3 -> 4 ;
5 [label="gini = 0.4879\nsamples = 16361\nvalue = [6910, 9451]\nclass = clear"] ;
3 -> 5 ;
6 [label="Clearsky GHI <= 501.5\ngini = 0.3411\nsamples = 45443\nvalue = [9913, 35530]\nclass = clear"] ;
2 -> 6 ;
7 [label="gini = 0.4073\nsamples = 12257\nvalue = [3489, 8768]\nclass = clear"] ;
6 -> 7 ;
8 [label="gini = 0.3122\nsamples = 33186\nvalue = [6424, 26762]\nclass = clear"] ;
6 -> 8 ;
}