digraph Tree {
node [shape=box, style="filled", color="black"] ;
0 [label="GHI max <= 86.5\ngini = 0.5\nsamples = 298018\nvalue = [149009.0, 149009.0]\nclass = cloudy", fillcolor="#e5813900"] ;
1 [label="GHI std <= 37.0563\ngini = 0.0172\nsamples = 162741\nvalue = [95365.3374, 834.2072]\nclass = cloudy", fillcolor="#e58139fd"] ;
0 -> 1 [labeldistance=2.5, labelangle=45, headlabel="True"] ;
21 [label="gini = 0.0024\nsamples = 159799\nvalue = [93764.3144, 111.4528]\nclass = cloudy", fillcolor="#e58139ff"] ;
1 -> 21 ;
22 [label="abs_diff_ratio mean <= 0.6813\ngini = 0.4286\nsamples = 2942\nvalue = [1601.0231, 722.7544]\nclass = cloudy", fillcolor="#e581398c"] ;
1 -> 22 ;
23 [label="abs_diff_ratio min <= 0.3047\ngini = 0.4693\nsamples = 898\nvalue = [409.059, 678.8488]\nclass = clear", fillcolor="#399de565"] ;
22 -> 23 ;
35 [label="gini = 0.3965\nsamples = 628\nvalue = [251.7738, 672.0941]\nclass = clear", fillcolor="#399de59f"] ;
23 -> 35 ;
36 [label="gini = 0.079\nsamples = 270\nvalue = [157.2853, 6.7547]\nclass = cloudy", fillcolor="#e58139f4"] ;
23 -> 36 ;
24 [label="gini = 0.0685\nsamples = 2044\nvalue = [1191.964, 43.9056]\nclass = cloudy", fillcolor="#e58139f6"] ;
22 -> 24 ;
2 [label="abs_diff_ratio <= 0.1406\ngini = 0.3903\nsamples = 135277\nvalue = [53643.6626, 148174.7928]\nclass = clear", fillcolor="#399de5a3"] ;
0 -> 2 [labeldistance=2.5, labelangle=-45, headlabel="False"] ;
3 [label="abs_ratio_diff line length <= 0.159\ngini = 0.1748\nsamples = 64330\nvalue = [14399.8173, 134398.5527]\nclass = clear", fillcolor="#399de5e4"] ;
2 -> 3 ;
7 [label="abs_diff_ratio gradient std <= 0.0003\ngini = 0.1061\nsamples = 48358\nvalue = [7246.2726, 121622.0104]\nclass = clear", fillcolor="#399de5f0"] ;
3 -> 7 ;
19 [label="abs_diff_ratio std <= 0.0368\ngini = 0.0516\nsamples = 28881\nvalue = [2295.8952, 84329.2321]\nclass = clear", fillcolor="#399de5f8"] ;
7 -> 19 ;
51 [label="abs_diff_ratio min <= 0.1016\ngini = 0.0505\nsamples = 28788\nvalue = [2243.0756, 84319.1]\nclass = clear", fillcolor="#399de5f8"] ;
19 -> 51 ;
63 [label="gini = 0.0491\nsamples = 28655\nvalue = [2174.9969, 84261.685]\nclass = clear", fillcolor="#399de5f8"] ;
51 -> 63 ;
64 [label="gini = 0.4964\nsamples = 133\nvalue = [68.0787, 57.4151]\nclass = cloudy", fillcolor="#e5813928"] ;
51 -> 64 ;
52 [label="gini = 0.2701\nsamples = 93\nvalue = [52.8197, 10.1321]\nclass = cloudy", fillcolor="#e58139ce"] ;
19 -> 52 ;
20 [label="abs_diff_ratio min <= 0.1097\ngini = 0.2069\nsamples = 19477\nvalue = [4950.3774, 37292.7783]\nclass = clear", fillcolor="#399de5dd"] ;
7 -> 20 ;
27 [label="abs_diff_ratio std <= 0.0407\ngini = 0.1988\nsamples = 18950\nvalue = [4675.7151, 37093.5142]\nclass = clear", fillcolor="#399de5df"] ;
20 -> 27 ;
47 [label="gini = 0.1639\nsamples = 12171\nvalue = [2591.6854, 26191.4051]\nclass = clear", fillcolor="#399de5e6"] ;
27 -> 47 ;
48 [label="abs_diff_ratio gradient <= 0.0011\ngini = 0.2695\nsamples = 6779\nvalue = [2084.0296, 10902.1091]\nclass = clear", fillcolor="#399de5ce"] ;
27 -> 48 ;
49 [label="gini = 0.4905\nsamples = 447\nvalue = [231.8197, 175.6226]\nclass = cloudy", fillcolor="#e581393e"] ;
48 -> 49 ;
50 [label="Clearsky GHI stat smooth max <= 442.6225\ngini = 0.2511\nsamples = 6332\nvalue = [1852.21, 10726.4865]\nclass = clear", fillcolor="#399de5d3"] ;
48 -> 50 ;
61 [label="gini = 0.2242\nsamples = 5344\nvalue = [1440.8034, 9757.185]\nclass = clear", fillcolor="#399de5d9"] ;
50 -> 61 ;
62 [label="gini = 0.4184\nsamples = 988\nvalue = [411.4066, 969.3015]\nclass = clear", fillcolor="#399de593"] ;
50 -> 62 ;
28 [label="gini = 0.4873\nsamples = 527\nvalue = [274.6623, 199.2641]\nclass = cloudy", fillcolor="#e5813946"] ;
20 -> 28 ;
8 [label="abs_diff_ratio <= 0.0625\ngini = 0.4602\nsamples = 15972\nvalue = [7153.5447, 12776.5423]\nclass = clear", fillcolor="#399de570"] ;
3 -> 8 ;
11 [label="GHI gradient max <= 0.0841\ngini = 0.371\nsamples = 9130\nvalue = [3496.6625, 10712.9771]\nclass = clear", fillcolor="#399de5ac"] ;
8 -> 11 ;
37 [label="gini = 0.4427\nsamples = 4228\nvalue = [1835.7772, 3715.0929]\nclass = clear", fillcolor="#399de581"] ;
11 -> 37 ;
38 [label="gini = 0.31\nsamples = 4902\nvalue = [1660.8854, 6997.8841]\nclass = clear", fillcolor="#399de5c2"] ;
11 -> 38 ;
12 [label="Clearsky GHI stat smooth max <= 583.5975\ngini = 0.4612\nsamples = 6842\nvalue = [3656.8822, 2063.5653]\nclass = cloudy", fillcolor="#e581396f"] ;
8 -> 12 ;
15 [label="Clearsky GHI stat smooth max <= 350.4841\ngini = 0.4597\nsamples = 2109\nvalue = [943.7115, 1692.056]\nclass = clear", fillcolor="#399de571"] ;
12 -> 15 ;
53 [label="gini = 0.329\nsamples = 637\nvalue = [224.7771, 857.8487]\nclass = clear", fillcolor="#399de5bc"] ;
15 -> 53 ;
54 [label="abs_diff_ratio min <= 0.0364\ngini = 0.4972\nsamples = 1472\nvalue = [718.9345, 834.2072]\nclass = clear", fillcolor="#399de523"] ;
15 -> 54 ;
59 [label="gini = 0.1817\nsamples = 261\nvalue = [150.2426, 16.8868]\nclass = cloudy", fillcolor="#e58139e2"] ;
54 -> 59 ;
60 [label="gini = 0.4839\nsamples = 1211\nvalue = [568.6918, 817.3204]\nclass = clear", fillcolor="#399de54e"] ;
54 -> 60 ;
16 [label="abs_diff_ratio <= 0.0826\ngini = 0.2119\nsamples = 4733\nvalue = [2713.1707, 371.5093]\nclass = cloudy", fillcolor="#e58139dc"] ;
12 -> 16 ;
43 [label="Clearsky GHI stat smooth max <= 801.5715\ngini = 0.4223\nsamples = 1268\nvalue = [691.9378, 300.5848]\nclass = cloudy", fillcolor="#e5813990"] ;
16 -> 43 ;
45 [label="gini = 0.4962\nsamples = 437\nvalue = [212.4525, 253.3018]\nclass = clear", fillcolor="#399de529"] ;
43 -> 45 ;
46 [label="gini = 0.1634\nsamples = 831\nvalue = [479.4853, 47.283]\nclass = cloudy", fillcolor="#e58139e6"] ;
43 -> 46 ;
44 [label="gini = 0.0655\nsamples = 3465\nvalue = [2021.2329, 70.9245]\nclass = cloudy", fillcolor="#e58139f6"] ;
16 -> 44 ;
4 [label="abs_diff_ratio gradient max <= 0.0118\ngini = 0.3846\nsamples = 70947\nvalue = [39243.8452, 13776.24]\nclass = cloudy", fillcolor="#e58139a5"] ;
2 -> 4 ;
5 [label="abs_ratio_diff line length <= 0.0459\ngini = 0.1127\nsamples = 57744\nvalue = [33517.6055, 2137.8671]\nclass = cloudy", fillcolor="#e58139ef"] ;
4 -> 5 ;
13 [label="abs_diff_ratio <= 0.1943\ngini = 0.4708\nsamples = 4209\nvalue = [2233.0985, 1364.4523]\nclass = cloudy", fillcolor="#e5813963"] ;
5 -> 13 ;
17 [label="abs_diff_ratio gradient min <= 0.0007\ngini = 0.3874\nsamples = 900\nvalue = [355.0656, 996.3204]\nclass = clear", fillcolor="#399de5a4"] ;
13 -> 17 ;
25 [label="gini = 0.167\nsamples = 347\nvalue = [200.1279, 20.2641]\nclass = cloudy", fillcolor="#e58139e5"] ;
17 -> 25 ;
26 [label="gini = 0.2365\nsamples = 553\nvalue = [154.9377, 976.0562]\nclass = clear", fillcolor="#399de5d7"] ;
17 -> 26 ;
18 [label="abs_diff_ratio gradient mean <= 0.0068\ngini = 0.2741\nsamples = 3309\nvalue = [1878.0329, 368.1319]\nclass = cloudy", fillcolor="#e58139cd"] ;
13 -> 18 ;
31 [label="gini = 0.1184\nsamples = 2935\nvalue = [1702.5542, 114.8301]\nclass = cloudy", fillcolor="#e58139ee"] ;
18 -> 31 ;
32 [label="gini = 0.4835\nsamples = 374\nvalue = [175.4787, 253.3018]\nclass = clear", fillcolor="#399de54e"] ;
18 -> 32 ;
14 [label="GHI min <= 0.5\ngini = 0.0471\nsamples = 53535\nvalue = [31284.507, 773.4148]\nclass = cloudy", fillcolor="#e58139f9"] ;
5 -> 14 ;
41 [label="gini = 0.3842\nsamples = 1290\nvalue = [713.6525, 249.9244]\nclass = cloudy", fillcolor="#e58139a6"] ;
14 -> 41 ;
42 [label="abs_diff_ratio <= 0.1743\ngini = 0.0331\nsamples = 52245\nvalue = [30570.8545, 523.4904]\nclass = cloudy", fillcolor="#e58139fb"] ;
14 -> 42 ;
55 [label="Clearsky GHI stat smooth <= 366.9257\ngini = 0.241\nsamples = 3485\nvalue = [1988.9542, 324.2263]\nclass = cloudy", fillcolor="#e58139d5"] ;
42 -> 55 ;
57 [label="gini = 0.5\nsamples = 578\nvalue = [289.3344, 287.0754]\nclass = cloudy", fillcolor="#e5813902"] ;
55 -> 57 ;
58 [label="gini = 0.0419\nsamples = 2907\nvalue = [1699.6198, 37.1509]\nclass = cloudy", fillcolor="#e58139f9"] ;
55 -> 58 ;
56 [label="gini = 0.0138\nsamples = 48760\nvalue = [28581.9002, 199.2641]\nclass = cloudy", fillcolor="#e58139fd"] ;
42 -> 56 ;
6 [label="Clearsky GHI stat smooth min <= 141.4959\ngini = 0.442\nsamples = 13203\nvalue = [5726.2397, 11638.3729]\nclass = clear", fillcolor="#399de582"] ;
4 -> 6 ;
9 [label="abs_diff_ratio <= 0.7858\ngini = 0.3606\nsamples = 9561\nvalue = [3591.1511, 11624.8635]\nclass = clear", fillcolor="#399de5b0"] ;
6 -> 9 ;
29 [label="abs_diff_ratio min <= 0.1727\ngini = 0.3512\nsamples = 9268\nvalue = [3419.1937, 11624.8635]\nclass = clear", fillcolor="#399de5b4"] ;
9 -> 29 ;
33 [label="gini = 0.303\nsamples = 6097\nvalue = [2033.5575, 8889.2042]\nclass = clear", fillcolor="#399de5c5"] ;
29 -> 33 ;
34 [label="abs_diff_ratio gradient mean <= 0.0085\ngini = 0.4463\nsamples = 3171\nvalue = [1385.6362, 2735.6593]\nclass = clear", fillcolor="#399de57e"] ;
29 -> 34 ;
39 [label="gini = 0.4925\nsamples = 1062\nvalue = [548.7377, 428.9244]\nclass = cloudy", fillcolor="#e5813938"] ;
34 -> 39 ;
40 [label="gini = 0.3907\nsamples = 2109\nvalue = [836.8984, 2306.735]\nclass = clear", fillcolor="#399de5a2"] ;
34 -> 40 ;
30 [label="gini = -0.0\nsamples = 293\nvalue = [171.9574, 0.0]\nclass = cloudy", fillcolor="#e58139ff"] ;
9 -> 30 ;
10 [label="gini = 0.0125\nsamples = 3642\nvalue = [2135.0887, 13.5094]\nclass = cloudy", fillcolor="#e58139fd"] ;
6 -> 10 ;
}