digraph Tree {
node [shape=box, style="filled", color="black"] ;
0 [label="Mounting 1-axis tracker <= 0.5\ngini = 0.4944\nsamples = 11046\nvalue = [6110, 4936]\nclass = None", fillcolor="#e5813931"] ;
1 [label="Climate3 Moderate <= 0.5\ngini = 0.456\nsamples = 7785\nvalue = [5047, 2738]\nclass = None", fillcolor="#e5813975"] ;
0 -> 1 [labeldistance=2.5, labelangle=45, headlabel="True"] ;
2 [label="Mounting other <= 0.5\ngini = 0.0997\nsamples = 1692\nvalue = [1603, 89]\nclass = None", fillcolor="#e58139f1"] ;
1 -> 2 ;
3 [label="Mounting rack <= 0.5\ngini = 0.0642\nsamples = 1475\nvalue = [1426, 49]\nclass = None", fillcolor="#e58139f6"] ;
2 -> 3 ;
4 [label="gini = 0.0\nsamples = 456\nvalue = [456, 0]\nclass = None", fillcolor="#e58139ff"] ;
3 -> 4 ;
5 [label="Climate3 Hot & Humid <= 0.5\ngini = 0.0915\nsamples = 1019\nvalue = [970, 49]\nclass = None", fillcolor="#e58139f2"] ;
3 -> 5 ;
6 [label="gini = 0.0\nsamples = 319\nvalue = [319, 0]\nclass = None", fillcolor="#e58139ff"] ;
5 -> 6 ;
7 [label="gini = 0.1302\nsamples = 700\nvalue = [651, 49]\nclass = None", fillcolor="#e58139ec"] ;
5 -> 7 ;
8 [label="gini = 0.3007\nsamples = 217\nvalue = [177, 40]\nclass = None", fillcolor="#e58139c5"] ;
2 -> 8 ;
9 [label="Mounting other <= 0.5\ngini = 0.4915\nsamples = 6093\nvalue = [3444, 2649]\nclass = None", fillcolor="#e581393b"] ;
1 -> 9 ;
10 [label="Mounting roof <= 0.5\ngini = 0.5\nsamples = 5279\nvalue = [2631, 2648]\nclass = Hot spots", fillcolor="#399de502"] ;
9 -> 10 ;
11 [label="Mounting roof rack <= 0.5\ngini = 0.4996\nsamples = 5132\nvalue = [2496, 2636]\nclass = Hot spots", fillcolor="#399de50e"] ;
10 -> 11 ;
12 [label="gini = 0.4998\nsamples = 4540\nvalue = [2224, 2316]\nclass = Hot spots", fillcolor="#399de50a"] ;
11 -> 12 ;
13 [label="gini = 0.4967\nsamples = 592\nvalue = [272, 320]\nclass = Hot spots", fillcolor="#399de526"] ;
11 -> 13 ;
14 [label="gini = 0.1499\nsamples = 147\nvalue = [135, 12]\nclass = None", fillcolor="#e58139e8"] ;
10 -> 14 ;
15 [label="gini = 0.0025\nsamples = 814\nvalue = [813, 1]\nclass = None", fillcolor="#e58139ff"] ;
9 -> 15 ;
16 [label="Climate3 Desert <= 0.5\ngini = 0.4394\nsamples = 3261\nvalue = [1063, 2198]\nclass = Hot spots", fillcolor="#399de584"] ;
0 -> 16 [labeldistance=2.5, labelangle=-45, headlabel="False"] ;
17 [label="gini = 0.0\nsamples = 30\nvalue = [30, 0]\nclass = None", fillcolor="#e58139ff"] ;
16 -> 17 ;
18 [label="gini = 0.435\nsamples = 3231\nvalue = [1033, 2198]\nclass = Hot spots", fillcolor="#399de587"] ;
16 -> 18 ;
}